svm_type c_svc
kernel_type intersection
nr_class 2
total_sv 2038
rho 4.180945
label 1 0
probA -4.947682
probB 0.268768
nr_sv 1018 1020
SV
0.031250 1:0.076557565 2:0.000192119 3:0.000001440 4:0.000058889 5:0.917065563 6:0.237292216 7:0.605812172 8:0.007182773 9:0.107554417 10:0.117496807 11:0.932554904 12:0.304831046 13:0.365381564 14:0.107279693 15:0.384942278 16:0.178684792 17:0.392561983 18:0.257575758 19:0.290870343 20:0.163131031 21:0.863624443 22:1.000000000 
0.031250 1:0.080188943 2:0.000339427 3:0.000000879 4:0.000009927 5:0.917065555 6:0.237293486 7:0.605812172 8:0.007918697 9:0.088348271 10:0.098339719 11:0.941729496 12:0.273198652 13:0.454624782 14:0.088122605 15:0.358624455 16:0.154444405 17:0.409090909 18:0.267676768 19:0.316160983 20:0.147300423 21:0.837398374 22:1.000000000 
0.031250 1:0.074454388 2:0.000240720 3:0.000003233 4:0.000052933 5:0.917065553 6:0.237294095 7:0.605812169 8:0.007211598 9:0.112676056 10:0.132822478 11:0.951509466 12:0.312783671 13:0.452486056 14:0.112388250 15:0.432384138 16:0.176605934 17:0.409090909 18:0.267676768 19:0.313264216 20:0.176320990 21:0.758420441 22:1.000000000 
0.031250 1:0.087355271 2:0.000221152 3:0.000000126 4:0.000108141 5:0.917065557 6:0.237291374 7:0.605812173 8:0.009278850 9:0.088348271 10:0.089399745 11:0.909431027 12:0.273198652 13:0.781849913 14:0.088122605 15:0.324760393 16:0.169157898 17:0.450413223 18:0.257575758 19:0.322693497 20:0.135501679 21:0.977670903 22:1.000000000 
0.031250 1:0.091198167 2:0.000059105 3:0.000005424 4:0.000015099 5:0.917065553 6:0.237293290 7:0.605812172 8:0.009684795 9:0.078104994 10:0.080459770 11:0.878290198 12:0.254930309 13:0.818208261 14:0.077905492 15:0.285764118 16:0.169077416 17:0.400826446 18:0.257575758 19:0.287856151 20:0.127220849 21:0.950457317 22:1.000000000 
0.031250 1:0.087259914 2:0.000067836 3:0.000001514 4:0.000060988 5:0.917065546 6:0.237294201 7:0.605812171 8:0.008902867 9:0.090909091 10:0.106002554 11:0.926284537 12:0.277600074 13:0.350126313 14:0.090676884 15:0.353961907 16:0.169274381 17:0.384297521 18:0.242424242 19:0.267730885 20:0.149462566 21:0.773519164 22:1.000000000 
0.031250 1:0.069033323 2:0.000162767 3:0.000000962 4:0.000026246 5:0.917065553 6:0.237293976 7:0.605812172 8:0.006471539 9:0.075544174 10:0.083014049 11:0.911574778 12:0.250181758 13:0.484372521 14:0.075351213 15:0.303083247 16:0.154724394 17:0.541322314 18:0.343434343 19:0.431304467 20:0.128173432 21:0.855875831 22:1.000000000 
0.031250 1:0.070979625 2:0.001346143 3:0.000012277 4:0.000007828 5:0.917065556 6:0.237293049 7:0.605812172 8:0.006396664 9:0.117797695 10:0.134099617 11:0.949193489 12:0.320559505 13:0.359933260 14:0.117496807 15:0.431687468 16:0.179762773 17:0.462809917 18:0.257575758 19:0.334781955 20:0.175953248 21:0.805568339 22:1.000000000 
0.031250 1:0.076430094 2:0.000651765 3:0.000000733 4:0.000027968 5:0.917065553 6:0.237294516 7:0.605812172 8:0.007388187 9:0.117797695 10:0.123882503 11:0.974220448 12:0.320559505 13:0.705497382 14:0.117496807 15:0.474532519 16:0.154279313 17:0.376033058 18:0.257575758 19:0.292486673 20:0.183135285 21:0.919113987 22:1.000000000 
0.031250 1:0.089199682 2:0.000343537 3:0.000002362 4:0.000006456 5:0.917065555 6:0.237293600 7:0.605812172 8:0.009165479 9:0.067861716 10:0.071519796 11:0.945700710 12:0.235440118 13:0.778493758 14:0.067688378 15:0.317008508 16:0.129616159 17:0.446280992 18:0.282828283 19:0.336256509 20:0.126303710 21:0.916559692 22:1.000000000 
0.031250 1:0.082009801 2:0.002078393 3:0.000003420 4:0.000046507 5:0.917065546 6:0.237295126 7:0.605812172 8:0.008717755 9:0.112676056 10:0.123882503 11:0.963595238 12:0.312783671 13:0.500072717 14:0.112388250 15:0.444351436 16:0.162298922 17:0.376033058 18:0.247474747 19:0.288023500 20:0.173755660 21:0.854405177 22:1.000000000 
0.031250 1:0.082141776 2:0.000614286 3:0.000004529 4:0.000001873 5:0.917065555 6:0.237293536 7:0.605812172 8:0.008080824 9:0.111395647 10:0.128991060 11:0.974746391 12:0.310812558 13:0.255723232 14:0.111111111 15:0.469177779 16:0.151164065 17:0.367768595 18:0.252525253 19:0.292002790 20:0.185518959 21:0.782400765 22:1.000000000 
0.031250 1:0.089521514 2:0.000365201 3:0.000001189 4:0.000097500 5:0.917065547 6:0.237295572 7:0.605812168 8:0.009862353 9:0.103713188 10:0.122605364 11:0.964791960 12:0.298743013 13:0.361910995 14:0.103448276 15:0.433140372 16:0.155536000 17:0.404958678 18:0.247474747 19:0.280938313 20:0.170091537 21:0.754840332 22:1.000000000 
0.031250 1:0.085292432 2:0.000231699 3:0.000001211 4:0.000004318 5:0.917065555 6:0.237293456 7:0.605812172 8:0.008540028 9:0.104993598 10:0.118773946 11:0.972423329 12:0.300784546 13:0.213401128 14:0.104725415 15:0.452493522 16:0.149419420 17:0.363636364 18:0.237373737 19:0.260918489 20:0.177313449 21:0.814478464 22:1.000000000 
0.031250 1:0.089091341 2:0.000156535 3:0.000000607 4:0.000010555 5:0.917065555 6:0.237293594 7:0.605812172 8:0.009452673 9:0.072983355 10:0.081736909 11:0.906542213 12:0.245353382 13:0.457930086 14:0.072796935 15:0.293434315 16:0.153193958 17:0.429752066 18:0.272727273 19:0.326997477 20:0.125754313 21:0.829268293 22:1.000000000 
0.031250 1:0.075692314 2:0.000107098 3:0.000004710 4:0.000029104 5:0.917065560 6:0.237293767 7:0.605812172 8:0.007235714 9:0.078104994 10:0.086845466 11:0.918737927 12:0.254930309 13:0.428843408 14:0.077905492 15:0.320629245 16:0.158406085 17:0.491735537 18:0.323232323 19:0.373926573 20:0.133596512 21:0.839165783 22:1.000000000 
0.031250 1:0.080756601 2:0.000502844 3:0.000006828 4:0.000059586 5:0.917065571 6:0.237291698 7:0.605812170 8:0.008446281 9:0.092189501 10:0.099616858 11:0.910906261 12:0.279777859 13:0.487347295 14:0.091954023 15:0.333437358 16:0.172878080 17:0.438016529 18:0.267676768 19:0.334062626 20:0.140229152 21:0.879592467 22:1.000000000 
0.031250 1:0.069662948 2:0.000411278 3:0.000000636 4:0.000041501 5:0.917065552 6:0.237293730 7:0.605812171 8:0.006779682 9:0.106274008 10:0.118773946 11:0.980395303 12:0.302813818 13:0.454624782 14:0.106002554 15:0.471976481 16:0.140100441 17:0.442148760 18:0.323232323 19:0.375883804 20:0.176613411 21:0.831344058 22:1.000000000 
0.031250 1:0.088455581 2:0.000345746 3:0.000006393 4:0.000016743 5:0.917065552 6:0.237293278 7:0.605812172 8:0.009222765 9:0.108834827 10:0.123882503 11:0.964006841 12:0.306836442 13:0.584476024 14:0.108556833 15:0.449317385 16:0.163668061 17:0.380165289 18:0.232323232 19:0.259508499 20:0.173241708 21:0.805873569 22:1.000000000 
0.031250 1:0.098133141 2:0.000035936 3:0.000007968 4:0.000012142 5:0.917065553 6:0.237293483 7:0.605812172 8:0.010993921 9:0.075544174 10:0.083014049 11:0.922251662 12:0.250181758 13:0.405045217 14:0.075351213 15:0.312156754 16:0.150478980 17:0.347107438 18:0.237373737 19:0.271405865 20:0.133596512 21:0.855875831 22:1.000000000 
0.031250 1:0.082353045 2:0.001388167 3:0.000000596 4:0.000150723 5:0.917065570 6:0.237301821 7:0.605812167 8:0.008723367 9:0.075544174 10:0.083014049 11:0.928151780 12:0.250181758 13:0.405045217 14:0.075351213 15:0.319110541 16:0.148685814 17:0.409090909 18:0.277777778 19:0.322830913 20:0.131948321 21:0.855875831 22:1.000000000 
0.031250 1:0.082863869 2:0.000307546 3:0.000005492 4:0.000002668 5:0.917065555 6:0.237293513 7:0.605812172 8:0.008373855 9:0.085787452 10:0.094508301 11:0.929934785 12:0.268733890 13:0.546919050 14:0.085568327 15:0.340445872 16:0.158231766 17:0.413223140 18:0.272727273 19:0.321411990 20:0.144624328 21:0.852032520 22:1.000000000 
0.031250 1:0.060203156 2:0.000565173 3:0.000001409 4:0.000004912 5:0.917065555 6:0.237293296 7:0.605812172 8:0.005315904 9:0.142125480 10:0.162196679 11:0.972556661 12:0.355396522 13:0.524036173 14:0.141762452 15:0.532089723 16:0.179956545 17:0.458677686 18:0.292929293 19:0.339230905 20:0.210104474 21:0.801829268 22:1.000000000 
0.031250 1:0.038871090 2:0.000974571 3:0.000061951 4:0.000003005 5:0.917065554 6:0.237293321 7:0.605812171 8:0.002368182 9:0.143405890 10:0.164750958 11:0.987392493 12:0.357144783 13:0.302280299 14:0.143039591 15:0.579610010 16:0.158264893 17:0.673553719 18:0.414141414 19:0.525951831 20:0.221867773 21:0.792682927 22:1.000000000 
0.031250 1:0.058372883 2:0.000722498 3:0.000015379 4:0.000029168 5:0.917065546 6:0.237294327 7:0.605812174 8:0.005376951 9:0.080665813 10:0.091954023 11:0.948754794 12:0.259602869 13:0.545891655 14:0.080459770 15:0.355644917 16:0.144501501 17:0.570247934 18:0.363636364 19:0.452003974 20:0.140924759 21:0.804543936 22:1.000000000 
0.031250 1:0.054738528 2:0.000137263 3:0.000000302 4:0.000030094 5:0.917065555 6:0.237293107 7:0.605812172 8:0.004597162 9:0.081946223 10:0.088122605 11:0.931872605 12:0.261911767 13:0.703939167 14:0.081736909 15:0.335053582 16:0.153379492 17:0.640495868 18:0.388888889 19:0.523254843 20:0.135537124 21:0.886759582 22:1.000000000 
0.031250 1:0.079873942 2:0.000165558 3:0.000001497 4:0.000021262 5:0.917065556 6:0.237293879 7:0.605812171 8:0.007633110 9:0.078104994 10:0.089399745 11:0.965228710 12:0.254930309 13:0.463974071 14:0.077905492 15:0.370760793 16:0.128879927 17:0.433884298 18:0.267676768 19:0.331034574 20:0.147996030 21:0.799038131 22:1.000000000 
0.031250 1:0.050491443 2:0.000066244 3:0.000000061 4:0.000021146 5:0.917065555 6:0.237293728 7:0.605812172 8:0.004362895 9:0.075544174 10:0.085568327 11:0.911116194 12:0.250181758 13:0.405045217 14:0.075351213 15:0.301039473 16:0.153925309 17:0.801652893 18:0.479797980 19:0.643738010 20:0.129529202 21:0.813486370 22:1.000000000 
0.031250 1:0.054811851 2:0.000092836 3:0.000000104 4:0.000001068 5:0.917065555 6:0.237293457 7:0.605812172 8:0.004785239 9:0.067861716 10:0.072796935 11:0.909703634 12:0.235440118 13:0.609029714 14:0.067688378 15:0.283850259 16:0.145081168 17:0.739669421 18:0.444444444 19:0.589476569 20:0.119781836 21:0.890664424 22:1.000000000 
0.031250 1:0.070675822 2:0.000048572 3:0.000000028 4:0.000000846 5:0.917065555 6:0.237293470 7:0.605812172 8:0.006653194 9:0.081946223 10:0.089399745 11:0.930297732 12:0.261911767 13:0.509162304 14:0.081736909 15:0.331415314 16:0.153086289 17:0.557851240 18:0.323232323 19:0.399083416 20:0.139312013 21:0.866025421 22:1.000000000 
0.031250 1:0.051393648 2:0.000118119 3:0.000000419 4:0.000030493 5:0.917065553 6:0.237293970 7:0.605812172 8:0.004456024 9:0.071702945 10:0.079182631 11:0.928970570 12:0.242907973 13:0.579281975 14:0.071519796 15:0.306454562 16:0.141161390 17:0.830578512 18:0.484848485 19:0.651682509 20:0.124398543 21:0.849012776 22:1.000000000 
0.031250 1:0.060417771 2:0.000352997 3:0.000022653 4:0.000030681 5:0.917065555 6:0.237292747 7:0.605812174 8:0.004832976 9:0.067861716 10:0.076628352 11:0.950558078 12:0.235440118 13:0.345549738 14:0.067688378 15:0.325597080 16:0.128237262 17:0.636363636 18:0.404040404 19:0.531186626 20:0.131983766 21:0.818072771 22:1.000000000 
0.031250 1:0.048612041 2:0.000392071 3:0.000015243 4:0.000018848 5:0.917065551 6:0.237292907 7:0.605812170 8:0.003779298 9:0.065300896 10:0.065134100 11:0.914918862 12:0.230345720 13:0.825479930 14:0.065134100 15:0.279033273 16:0.138197817 17:0.921487603 18:0.555555556 19:0.720149883 20:0.115568316 21:1.000000000 22:1.000000000 
0.031250 1:0.045331795 2:0.000082605 3:0.000000243 4:0.000024753 5:0.917065556 6:0.237293121 7:0.605812172 8:0.003738525 9:0.080665813 10:0.086845466 11:0.858567487 12:0.259602869 13:0.537257391 14:0.080459770 15:0.280738745 16:0.178363093 17:0.892561983 18:0.454545455 19:0.667878186 20:0.126157500 21:0.885118416 22:1.000000000 
0.031250 1:0.034856739 2:0.000648035 3:0.000000188 4:0.000006733 5:0.917065555 6:0.237293708 7:0.605812172 8:0.002492045 9:0.125480154 10:0.148148148 11:0.969134308 12:0.331916151 13:0.231020942 14:0.125159642 15:0.505411112 16:0.176865083 17:0.809917355 18:0.479797980 19:0.636966541 20:0.198381051 21:0.756097561 22:1.000000000 
0.016641 1:0.053283157 2:0.000132994 3:0.000000349 4:0.000044709 5:0.917065556 6:0.237294245 7:0.605812171 8:0.004514668 9:0.088348271 10:0.095785441 11:0.926041788 12:0.273198652 13:0.454624782 14:0.088122605 15:0.341447724 16:0.162775403 17:0.702479339 18:0.419191919 19:0.548350624 20:0.140632338 21:0.874839538 22:1.000000000 
0.031250 1:0.055242543 2:0.000139051 3:0.000000277 4:0.000014310 5:0.917065555 6:0.237293597 7:0.605812172 8:0.004550894 9:0.101152369 10:0.108556833 11:0.906127919 12:0.294622254 13:0.496576722 14:0.100893997 15:0.345968934 16:0.184596645 17:0.623966942 18:0.313131313 19:0.443846259 20:0.146897236 21:0.889393080 22:1.000000000 
0.031250 1:0.040610275 2:0.000116912 3:0.000001820 4:0.000020750 5:0.917065553 6:0.237293122 7:0.605812172 8:0.003282510 9:0.097311140 10:0.102171137 11:0.887439599 12:0.288343294 13:0.524036173 14:0.097062580 15:0.325683940 16:0.188127018 17:0.805785124 18:0.469696970 19:0.654116232 20:0.141877343 21:0.921710328 22:1.000000000 
0.031250 1:0.023057518 2:0.000233937 3:0.000000003 4:0.000005564 5:0.917065555 6:0.237293580 7:0.605812172 8:0.001685285 9:0.135723431 10:0.144316731 11:0.903279700 12:0.346535726 13:0.720896212 14:0.135376756 15:0.402571548 16:0.221073077 17:0.983471074 18:0.540404040 19:0.781779671 20:0.171190331 21:0.902652974 22:1.000000000 
0.031250 1:0.042111145 2:0.000437859 3:0.000000391 4:0.000001182 5:0.917065555 6:0.237293470 7:0.605812172 8:0.003395272 9:0.119078105 10:0.139208174 11:0.952914829 12:0.322477189 13:0.450584965 14:0.118773946 15:0.442572607 16:0.179131955 17:0.743801653 18:0.414141414 19:0.550459759 20:0.181230118 21:0.769401330 22:1.000000000 
0.031250 1:0.047062844 2:0.000148957 3:0.000003407 4:0.000017168 5:0.917065557 6:0.237293336 7:0.605812172 8:0.003787798 9:0.106274008 10:0.122605364 11:0.945924009 12:0.302813818 13:0.550065445 14:0.106002554 15:0.407951214 16:0.173143702 17:0.681818182 18:0.424242424 19:0.535497005 20:0.162506314 21:0.787528288 22:1.000000000 
0.031250 1:0.050684202 2:0.000422183 3:0.000003099 4:0.000004937 5:0.917065555 6:0.237293557 7:0.605812172 8:0.004201379 9:0.088348271 10:0.102171137 11:0.957408476 12:0.273198652 13:0.563699825 14:0.088122605 15:0.388087191 16:0.147780688 17:0.677685950 18:0.419191919 19:0.529070195 20:0.150853781 21:0.784703403 22:1.000000000 
0.031250 1:0.071427549 2:0.000019525 3:0.000010369 4:0.000026319 5:0.917065553 6:0.237293389 7:0.605812173 8:0.006561418 9:0.064020487 10:0.067688378 11:0.894719411 12:0.227761777 13:0.525523560 14:0.063856960 15:0.266665956 16:0.145730392 17:0.549586777 18:0.348484848 19:0.430551481 20:0.116520899 21:0.911924119 22:1.000000000 
0.031250 1:0.060305406 2:0.000454503 3:0.000000091 4:0.000036528 5:0.917065556 6:0.237293787 7:0.605812172 8:0.005118031 9:0.081946223 10:0.090676884 11:0.946200951 12:0.261911767 13:0.703939167 14:0.081736909 15:0.350010108 16:0.144925729 17:0.652892562 18:0.378787879 19:0.487465059 20:0.139604434 21:0.845867209 22:1.000000000 
0.031250 1:0.055016921 2:0.000652062 3:0.000001582 4:0.000023266 5:0.917065556 6:0.237292557 7:0.605812171 8:0.004780446 9:0.137003841 10:0.160919540 11:0.980043313 12:0.348324183 13:0.397905759 14:0.136653895 15:0.548726630 16:0.168151605 17:0.541322314 18:0.303030303 19:0.402850096 20:0.213108435 21:0.762819282 22:1.000000000 
0.031250 1:0.046526947 2:0.000145728 3:0.000000647 4:0.000021048 5:0.917065555 6:0.237293145 7:0.605812172 8:0.003553086 9:0.111395647 10:0.123882503 11:0.933133360 12:0.310812558 13:0.590968586 14:0.111111111 15:0.404060018 16:0.187934769 17:0.714876033 18:0.404040404 19:0.515696704 20:0.167012255 21:0.838227974 22:1.000000000 
0.031250 1:0.050366790 2:0.000271196 3:0.000000787 4:0.000019203 5:0.917065556 6:0.237293565 7:0.605812172 8:0.004366662 9:0.113956466 10:0.121328225 11:0.930431066 12:0.314743741 13:0.742894540 14:0.113665390 15:0.396458286 16:0.187262157 17:0.636363636 18:0.363636364 19:0.483469444 20:0.162798735 21:0.900914634 22:1.000000000 
0.031250 1:0.048378983 2:0.000123139 3:0.000000453 4:0.000014157 5:0.917065555 6:0.237293658 7:0.605812172 8:0.004323916 9:0.066581306 10:0.067688378 11:0.926403931 12:0.232904935 13:0.847294939 14:0.066411239 15:0.290613580 16:0.135018141 17:0.884297521 18:0.520202020 19:0.697515473 20:0.117216507 21:0.970641373 22:1.000000000 
0.031250 1:0.063369669 2:0.000026630 3:0.000004547 4:0.000035289 5:0.917065551 6:0.237293622 7:0.605812170 8:0.006079830 9:0.067861716 10:0.074074074 11:0.928089530 12:0.235440118 13:0.672774869 14:0.067688378 15:0.298507020 16:0.137741866 17:0.636363636 18:0.393939394 19:0.511126336 20:0.118975463 21:0.865646962 22:1.000000000 
0.031250 1:0.044510255 2:0.000171242 3:0.000000262 4:0.000000657 5:0.917065555 6:0.237293472 7:0.605812172 8:0.003487294 9:0.125480154 10:0.140485313 11:0.919492220 12:0.331916151 13:0.500981675 14:0.125159642 15:0.404218515 16:0.204306592 17:0.661157025 18:0.393939394 19:0.508936446 20:0.176648856 21:0.828609097 22:1.000000000 
0.031250 1:0.041386997 2:0.000032008 3:0.000008239 4:0.000004673 5:0.917065555 6:0.237293484 7:0.605812172 8:0.003218932 9:0.092189501 10:0.093231162 11:0.863150233 12:0.279777859 13:0.559733460 14:0.091954023 15:0.302841643 16:0.190714439 17:0.793388430 18:0.474747475 19:0.636196819 20:0.131106503 21:0.978576137 22:1.000000000 
0.031250 1:0.026232335 2:0.000228136 3:0.000000979 4:0.000014615 5:0.917065554 6:0.237293767 7:0.605812172 8:0.001815399 9:0.104993598 10:0.114942529 11:0.915867142 12:0.300784546 13:0.450810969 14:0.104725415 15:0.368989058 16:0.188442633 17:0.958677686 18:0.601010101 19:0.799711424 20:0.155984440 21:0.860627178 22:1.000000000 
0.031250 1:0.021745731 2:0.000994472 3:0.000000405 4:0.000001532 5:0.917065555 6:0.237293487 7:0.605812172 8:0.001568484 9:0.129321383 10:0.151979566 11:0.972252914 12:0.337465369 13:0.485789080 14:0.128991060 15:0.510057237 16:0.172090877 17:0.987603306 18:0.606060606 19:0.850961585 20:0.198159520 21:0.762195122 22:1.000000000 
0.031250 1:0.053666679 2:0.000158823 3:0.000000345 4:0.000031303 5:0.917065553 6:0.237292861 7:0.605812172 8:0.004799107 9:0.084507042 10:0.094508301 11:0.894993680 12:0.266476884 13:0.604602967 14:0.084291188 15:0.310422625 16:0.172588300 17:0.793388430 18:0.419191919 19:0.569325475 20:0.132276187 21:0.830894309 22:1.000000000 
0.031250 1:0.032286834 2:0.000164318 3:0.000000082 4:0.000008669 5:0.917065555 6:0.237293595 7:0.605812172 8:0.002357961 9:0.088348271 10:0.093231162 11:0.841901224 12:0.273198652 13:0.616584695 14:0.088122605 15:0.287322985 16:0.193033107 17:0.991735537 18:0.590909091 19:0.791512352 20:0.128173432 21:0.914304548 22:1.000000000 
0.031250 1:0.032993890 2:0.000248150 3:0.000000027 4:0.000017836 5:0.917065555 6:0.237293553 7:0.605812172 8:0.002553036 9:0.122919334 10:0.135376756 11:0.902311466 12:0.328169838 13:0.537521815 14:0.122605364 15:0.380973276 16:0.209105440 17:0.851239669 18:0.479797980 19:0.655409051 20:0.164265270 21:0.851834967 22:1.000000000 
0.031250 1:0.070571520 2:0.000003912 3:0.000001260 4:0.000016714 5:0.917065554 6:0.237293494 7:0.605812172 8:0.006405955 9:0.097311140 10:0.106002554 11:0.943018748 12:0.288343294 13:0.395892066 14:0.097062580 15:0.376700945 16:0.161775367 17:0.475206612 18:0.308080808 19:0.372001580 20:0.153529876 21:0.867886179 22:1.000000000 
0.031250 1:0.021304401 2:0.000429365 3:0.000000258 4:0.000000424 5:0.917065555 6:0.237293452 7:0.605812172 8:0.001451374 9:0.129321383 10:0.144316731 11:0.950109570 12:0.337465369 13:0.618237347 14:0.128991060 15:0.453044266 16:0.188386743 17:0.995867769 18:0.621212121 19:0.841211936 20:0.180680721 21:0.833119384 22:1.000000000 
0.031250 1:0.040358007 2:0.000163355 3:0.000001004 4:0.000005410 5:0.917065555 6:0.237293428 7:0.605812172 8:0.003098097 9:0.106274008 10:0.113665390 11:0.900512836 12:0.302813818 13:0.672774869 14:0.106002554 15:0.351379573 16:0.192965062 17:0.760330579 18:0.449494949 19:0.598549505 20:0.150450594 21:0.894308943 22:1.000000000 
0.031250 1:0.033025064 2:0.000100585 3:0.000000022 4:0.000021724 5:0.917065555 6:0.237293341 7:0.605812172 8:0.002524552 9:0.087067862 10:0.093231162 11:0.911864942 12:0.270974359 13:0.559504631 14:0.086845466 15:0.324804957 16:0.167018172 17:0.962809917 18:0.580808081 19:0.795069525 20:0.137260636 21:0.892880686 22:1.000000000 
0.031250 1:0.027707039 2:0.000144650 3:0.000000383 4:0.000017324 5:0.917065556 6:0.237293174 7:0.605812172 8:0.002038880 9:0.093469910 10:0.100893997 11:0.878766566 12:0.281940778 13:0.587938724 14:0.093231162 15:0.316331897 16:0.188758113 17:0.987603306 18:0.595959596 19:0.833799708 20:0.139715200 21:0.881097561 22:1.000000000 
0.031250 1:0.052714415 2:0.000100129 3:0.000000219 4:0.000015728 5:0.917065555 6:0.237293663 7:0.605812172 8:0.004693403 9:0.079385403 10:0.085568327 11:0.883875897 12:0.257275860 13:0.524036173 14:0.079182631 15:0.291953593 16:0.169236163 17:0.785123967 18:0.454545455 19:0.599624163 20:0.126122055 21:0.883428981 22:1.000000000 
0.031250 1:0.067910061 2:0.000523653 3:0.000009937 4:0.000072036 5:0.917065567 6:0.237290943 7:0.605812182 8:0.006547816 9:0.071702945 10:0.081736909 11:0.938006535 12:0.242907973 13:0.647603705 14:0.071519796 15:0.319888590 16:0.139209722 17:0.549586777 18:0.358585859 19:0.471762992 20:0.133999699 21:0.804878049 22:1.000000000 
0.031250 1:0.057345555 2:0.000558987 3:0.000002285 4:0.000038833 5:0.917065551 6:0.237292143 7:0.605812173 8:0.005346127 9:0.110115237 10:0.123882503 11:0.912232953 12:0.308830213 13:0.450261780 14:0.109833972 15:0.375734476 16:0.196036586 17:0.661157025 18:0.313131313 19:0.462429952 20:0.163423452 21:0.822050772 22:1.000000000 
0.031250 1:0.038731757 2:0.000496549 3:0.000000343 4:0.000002690 5:0.917065555 6:0.237293384 7:0.605812172 8:0.003151167 9:0.108834827 10:0.127713921 11:0.948395086 12:0.306836442 13:0.518786572 14:0.108556833 15:0.424765535 16:0.177670424 17:0.805785124 18:0.454545455 19:0.632845571 20:0.172032149 21:0.764549626 22:1.000000000 
0.031250 1:0.034875678 2:0.000018644 3:0.000005221 4:0.000019204 5:0.917065553 6:0.237293347 7:0.605812171 8:0.002577319 9:0.104993598 10:0.109833972 11:0.864844022 12:0.300784546 13:0.735702779 14:0.104725415 15:0.330614374 16:0.208561075 17:0.904958678 18:0.500000000 19:0.690701199 20:0.146237074 21:0.927109616 22:1.000000000 
0.031250 1:0.028037677 2:0.000192123 3:0.000000179 4:0.000007732 5:0.917065555 6:0.237293459 7:0.605812172 8:0.001908041 9:0.092189501 10:0.098339719 11:0.879210707 12:0.279777859 13:0.487347295 14:0.091954023 15:0.311775229 16:0.185450295 17:1.000000000 18:0.606060606 19:0.821685806 20:0.134110464 21:0.898373984 22:1.000000000 
0.031250 1:0.068640363 2:0.000003436 3:0.000001386 4:0.000006618 5:0.917065555 6:0.237293473 7:0.605812172 8:0.005859979 9:0.074263764 10:0.083014049 11:0.921715373 12:0.247777800 13:0.539727288 14:0.074074074 15:0.313784888 16:0.151867685 17:0.504132231 18:0.338383838 19:0.395422939 20:0.130224810 21:0.831855137 22:1.000000000 
0.031250 1:0.021612073 2:0.000359888 3:0.000000010 4:0.000001762 5:0.917065555 6:0.237293478 7:0.605812172 8:0.001468758 9:0.137003841 10:0.149425287 11:0.927158070 12:0.348324183 13:0.563699825 14:0.136653895 15:0.428875600 16:0.208555897 17:0.979338843 18:0.580808081 19:0.799986298 20:0.179178740 21:0.865646962 22:1.000000000 
0.031250 1:0.066467618 2:0.000018363 3:0.000001723 4:0.000007910 5:0.917065554 6:0.237293414 7:0.605812172 8:0.005825519 9:0.060179257 10:0.062579821 11:0.919107772 12:0.219854081 13:0.476439791 14:0.060025543 15:0.272958242 16:0.131443215 17:0.628099174 18:0.388888889 19:0.481138668 20:0.112418144 21:0.936585366 22:1.000000000 
0.031250 1:0.063116271 2:0.003027092 3:0.000114574 4:0.000026701 5:0.917065536 6:0.237292579 7:0.605812174 8:0.005052944 9:0.097311140 10:0.108556833 11:0.931693127 12:0.288343294 13:0.437657553 14:0.097062580 15:0.367530010 16:0.170581415 17:0.553719008 18:0.318181818 19:0.438595168 20:0.163020266 21:0.834089620 22:1.000000000 
0.031250 1:0.059533417 2:0.000903288 3:0.000003059 4:0.000064301 5:0.917065547 6:0.237293108 7:0.605812169 8:0.005213391 9:0.102432778 10:0.121328225 11:0.938697301 12:0.296688993 13:0.397905759 14:0.102171137 15:0.392783256 16:0.175192719 17:0.541322314 18:0.338383838 19:0.420334338 20:0.166719834 21:0.752286585 22:1.000000000 
0.031250 1:0.048338719 2:0.003974307 3:0.000003393 4:0.000018616 5:0.917065556 6:0.237292993 7:0.605812171 8:0.003468431 9:0.188220230 10:0.209450830 11:0.973897069 12:0.414086048 13:0.260856175 14:0.187739464 15:0.613080657 16:0.207796319 17:0.578512397 18:0.292929293 19:0.406520854 20:0.240299156 21:0.836659276 22:1.000000000 
0.031250 1:0.079665348 2:0.000468290 3:0.000002145 4:0.000094910 5:0.917065556 6:0.237292419 7:0.605812166 8:0.008132961 9:0.081946223 10:0.094508301 11:0.898005509 12:0.261911767 13:0.509162304 14:0.081736909 15:0.307355926 16:0.168324777 17:0.462809917 18:0.282828283 19:0.341983684 20:0.136857449 21:0.788617886 22:1.000000000 
0.031250 1:0.054294985 2:0.000084746 3:0.000041076 4:0.000022046 5:0.917065565 6:0.237293333 7:0.605812174 8:0.004069198 9:0.152368758 10:0.171136654 11:0.952591511 12:0.369172011 13:0.272833042 14:0.151979566 15:0.496835756 16:0.204584990 17:0.595041322 18:0.292929293 19:0.408847629 20:0.209262656 21:0.823848238 22:1.000000000 
0.031250 1:0.077151454 2:0.002167192 3:0.000001064 4:0.000048861 5:0.917065559 6:0.237296845 7:0.605812173 8:0.008127728 9:0.125480154 10:0.148148148 11:0.969776168 12:0.331916151 13:0.448883990 14:0.125159642 15:0.488124882 16:0.168650870 17:0.409090909 18:0.257575758 19:0.318034829 20:0.197353147 21:0.756097561 22:1.000000000 
0.031250 1:0.052956773 2:0.000010098 3:0.000002960 4:0.000012100 5:0.917065556 6:0.237293487 7:0.605812172 8:0.004816419 9:0.075544174 10:0.083014049 11:0.884574385 12:0.250181758 13:0.509162304 14:0.075351213 15:0.283532517 16:0.163337920 17:0.789256198 18:0.439393939 19:0.593570841 20:0.123264304 21:0.855875831 22:1.000000000 
0.031250 1:0.040787299 2:0.000225926 3:0.000023320 4:0.000023878 5:0.917065546 6:0.237292919 7:0.605812172 8:0.003670186 9:0.113956466 10:0.123882503 11:0.903239830 12:0.314743741 13:0.532535527 14:0.113665390 15:0.366519495 16:0.199535833 17:0.789256198 18:0.409090909 19:0.569449164 20:0.160565702 21:0.870582379 22:1.000000000 
0.031250 1:0.024017248 2:0.000029226 3:0.000000493 4:0.000000975 5:0.917065555 6:0.237293470 7:0.605812172 8:0.001768035 9:0.111395647 10:0.118773946 11:0.879191298 12:0.310812558 13:0.490983130 14:0.111111111 15:0.343663595 16:0.206302515 17:0.987603306 18:0.590909091 19:0.798971698 20:0.149830307 21:0.898806435 22:1.000000000 
0.031250 1:0.020499530 2:0.002252507 3:0.000019748 4:0.000011774 5:0.917065558 6:0.237294204 7:0.605812171 8:0.001106980 9:0.154929577 10:0.178799489 11:0.966169588 12:0.372543505 13:0.489528796 14:0.154533844 15:0.534391134 16:0.194849955 17:0.991735537 18:0.580808081 19:0.822376218 20:0.211057058 21:0.786369140 22:1.000000000 
0.031250 1:0.039664946 2:0.000235534 3:0.000000769 4:0.000007273 5:0.917065555 6:0.237293386 7:0.605812172 8:0.003203526 9:0.094750320 10:0.107279693 11:0.908563317 12:0.284089132 13:0.530138274 14:0.094508301 15:0.337588285 16:0.177433514 17:0.851239669 18:0.464646465 19:0.652084407 20:0.141070970 21:0.813486370 22:1.000000000 
0.031250 1:0.055594223 2:0.001111455 3:0.000002148 4:0.000008934 5:0.917065554 6:0.237293210 7:0.605812172 8:0.004914460 9:0.128040973 10:0.155810983 11:0.969225748 12:0.335624810 13:0.386883439 14:0.127713921 15:0.498702065 16:0.173991241 17:0.570247934 18:0.328282828 19:0.426990170 20:0.201531223 21:0.716438628 22:1.000000000 
0.031250 1:0.042718359 2:0.000012935 3:0.000002226 4:0.000015460 5:0.917065555 6:0.237293460 7:0.605812172 8:0.003504480 9:0.078104994 10:0.083014049 11:0.882563971 12:0.254930309 13:0.613279391 14:0.077905492 15:0.287393905 16:0.167214328 17:0.942148760 18:0.494949495 19:0.716060078 20:0.121943979 21:0.903917221 22:1.000000000 
0.031250 1:0.020343478 2:0.000965318 3:0.000001496 4:0.000006880 5:0.917065555 6:0.237293251 7:0.605812172 8:0.001501037 9:0.156209987 10:0.180076628 11:0.964669224 12:0.374218889 13:0.605842456 14:0.155810983 15:0.550605251 16:0.204772887 17:1.000000000 18:0.570707071 19:0.781473040 20:0.213511622 21:0.787873583 22:1.000000000 
0.031250 1:0.020806136 2:0.000379575 3:0.000027299 4:0.000041870 5:0.917065577 6:0.237294658 7:0.605812174 8:0.001014713 9:0.131882202 10:0.137931034 11:0.921230329 12:0.341119617 13:0.439042633 14:0.131545338 15:0.413101813 16:0.207216544 17:1.000000000 18:0.631313131 19:0.872973628 20:0.176320990 21:0.927276796 22:1.000000000 
0.031250 1:0.070180737 2:0.000540812 3:0.000005620 4:0.000007357 5:0.917065554 6:0.237293203 7:0.605812172 8:0.006816942 9:0.085787452 10:0.093231162 11:0.918088664 12:0.268733890 13:0.375755135 14:0.085568327 15:0.330189835 16:0.164367190 17:0.541322314 18:0.308080808 19:0.402238325 20:0.144845859 21:0.871456823 22:1.000000000 
0.031250 1:0.043714205 2:0.000541003 3:0.000000503 4:0.000012500 5:0.917065555 6:0.237293822 7:0.605812172 8:0.003390100 9:0.143405890 10:0.154533844 11:0.931478563 12:0.357144783 13:0.664163681 14:0.143039591 15:0.445156900 16:0.211542829 17:0.690082645 18:0.363636364 19:0.484817031 20:0.186506987 21:0.883046781 22:1.000000000 
0.031250 1:0.055681233 2:0.000507777 3:0.000005815 4:0.000004397 5:0.917065555 6:0.237293318 7:0.605812172 8:0.004862168 9:0.129321383 10:0.145593870 11:0.957863212 12:0.337465369 13:0.618237347 14:0.128991060 15:0.468268643 16:0.182547273 17:0.549586777 18:0.323232323 19:0.406003256 20:0.198159520 21:0.820784730 22:1.000000000 
0.031250 1:0.044346938 2:0.000607035 3:0.000000948 4:0.000015001 5:0.917065554 6:0.237294031 7:0.605812172 8:0.003612165 9:0.149807939 10:0.169859515 11:0.931747537 12:0.365772301 13:0.448208603 14:0.149425287 15:0.460502486 16:0.219217236 17:0.661157025 18:0.358585859 19:0.477103548 20:0.192040833 21:0.810702585 22:1.000000000 
0.031250 1:0.032496115 2:0.000243814 3:0.000000004 4:0.000006468 5:0.917065555 6:0.237293424 7:0.605812172 8:0.002435978 9:0.116517286 10:0.130268199 11:0.920670862 12:0.318631482 13:0.631871728 14:0.116219668 15:0.388341767 16:0.194151317 17:0.896694215 18:0.484848485 19:0.664922492 20:0.169466819 21:0.830689084 22:1.000000000 
0.031250 1:0.033323888 2:0.000985015 3:0.000000745 4:0.000017477 5:0.917065555 6:0.237292925 7:0.605812172 8:0.002350886 9:0.157490397 10:0.180076628 11:0.963998837 12:0.375887476 13:0.252703853 14:0.157088123 15:0.537240683 16:0.200596735 17:0.776859504 18:0.429292929 19:0.591071792 20:0.214685736 21:0.799038131 22:1.000000000 
0.031250 1:0.056052375 2:0.001032015 3:0.000000827 4:0.000000545 5:0.917065555 6:0.237293443 7:0.605812172 8:0.004752429 9:0.135723431 10:0.155810983 11:0.971746958 12:0.346535726 13:0.289613818 14:0.135376756 15:0.514543072 16:0.174933110 17:0.524793388 18:0.313131313 19:0.409643917 20:0.204610504 21:0.793773547 22:1.000000000 
0.031250 1:0.059640196 2:0.001100835 3:0.000035405 4:0.000008529 5:0.917065555 6:0.237293045 7:0.605812171 8:0.005062773 9:0.065300896 10:0.071519796 11:0.850897191 12:0.230345720 13:0.575032298 14:0.065134100 15:0.251613693 16:0.162279552 17:0.739669421 18:0.419191919 19:0.559044628 20:0.112856776 21:0.860932820 22:1.000000000 
0.031250 1:0.039929908 2:0.000802386 3:0.000000912 4:0.000008737 5:0.917065555 6:0.237293522 7:0.605812172 8:0.003120894 9:0.139564661 10:0.158365262 11:0.958352376 12:0.351876427 13:0.357669188 14:0.139208174 15:0.487276549 16:0.190065381 17:0.706611570 18:0.414141414 19:0.540901368 20:0.196657540 21:0.809756098 22:1.000000000 
0.031250 1:0.044536359 2:0.001338011 3:0.000002467 4:0.000015276 5:0.917065555 6:0.237292839 7:0.605812171 8:0.003621045 9:0.161331626 10:0.185185185 11:0.973706083 12:0.380853269 13:0.446692051 14:0.160919540 15:0.569894327 16:0.191790491 17:0.710743802 18:0.338383838 19:0.468427333 20:0.224650202 21:0.793685266 22:1.000000000 
0.031250 1:0.034719504 2:0.000333479 3:0.000000278 4:0.000052392 5:0.917065553 6:0.237294682 7:0.605812171 8:0.002833283 9:0.085787452 10:0.091954023 11:0.882323651 12:0.268733890 13:0.750685615 14:0.085568327 15:0.306579568 16:0.179787220 17:0.954545455 18:0.575757576 19:0.766413844 20:0.132971795 21:0.891413298 22:1.000000000 
0.031250 1:0.034888849 2:0.000028970 3:0.000000297 4:0.000008044 5:0.917065555 6:0.237293435 7:0.605812172 8:0.002692246 9:0.092189501 10:0.098339719 11:0.856346838 12:0.279777859 13:0.686409250 14:0.091954023 15:0.301223767 16:0.194064972 17:0.925619835 18:0.525252525 19:0.726265406 20:0.134292120 21:0.898373984 22:1.000000000 
0.031250 1:0.044600879 2:0.000206489 3:0.000002234 4:0.000005471 5:0.917065555 6:0.237293577 7:0.605812172 8:0.003652703 9:0.083226633 10:0.093231162 11:0.916389506 12:0.264202972 13:0.490983130 14:0.083014049 15:0.323394346 16:0.162116250 17:0.814049587 18:0.464646465 19:0.612122873 20:0.135647890 21:0.828609097 22:1.000000000 
0.031250 1:0.025771975 2:0.000033217 3:0.000000088 4:0.000009378 5:0.917065555 6:0.237293410 7:0.605812172 8:0.001752286 9:0.101152369 10:0.106002554 11:0.886791953 12:0.294622254 13:0.759589700 14:0.100893997 15:0.330544730 16:0.191735676 17:1.000000000 18:0.601010101 19:0.834362154 20:0.141766577 21:0.924506388 22:1.000000000 
0.031250 1:0.067583985 2:0.000374089 3:0.000057979 4:0.000016347 5:0.917065553 6:0.237293498 7:0.605812172 8:0.005597509 9:0.104993598 10:0.116219668 11:0.963017198 12:0.300784546 13:0.489913767 14:0.104725415 15:0.430436385 16:0.157406848 17:0.466942149 18:0.308080808 19:0.365756586 20:0.166281203 21:0.844909862 22:1.000000000 
0.031250 1:0.034445477 2:0.000152119 3:0.000000156 4:0.000007657 5:0.917065555 6:0.237293534 7:0.605812172 8:0.002687908 9:0.089628681 10:0.095785441 11:0.878032482 12:0.275407112 13:0.535935269 14:0.089399745 15:0.308196150 16:0.183966023 17:0.979338843 18:0.545454545 19:0.771610204 20:0.136051076 21:0.895699615 22:1.000000000 
0.031250 1:0.056658968 2:0.000165475 3:0.000001296 4:0.000023772 5:0.917065557 6:0.237293004 7:0.605812172 8:0.004807042 9:0.092189501 10:0.100893997 11:0.923291678 12:0.279777859 13:0.449430732 14:0.091954023 15:0.345276455 16:0.167648330 17:0.636363636 18:0.363636364 19:0.483061976 20:0.144004041 21:0.861280488 22:1.000000000 
0.031250 1:0.068170902 2:0.000356291 3:0.000001313 4:0.000000528 5:0.917065555 6:0.237293455 7:0.605812172 8:0.006282899 9:0.122919334 10:0.148148148 11:0.961681387 12:0.328169838 13:0.474823864 14:0.122605364 15:0.467784333 16:0.175625527 17:0.462809917 18:0.232323232 19:0.315346953 20:0.191854747 21:0.728997290 22:1.000000000 
0.031250 1:0.047055854 2:0.000216538 3:0.000000196 4:0.000010288 5:0.917065555 6:0.237293571 7:0.605812172 8:0.003827720 9:0.133162612 10:0.143039591 11:0.927549883 12:0.342933563 13:0.701647675 14:0.132822478 15:0.423334878 16:0.205090910 17:0.657024793 18:0.363636364 19:0.458502134 20:0.175696272 21:0.887761709 22:1.000000000 
0.001013 1:0.034158837 2:0.000365787 3:0.000001218 4:0.000004564 5:0.917065555 6:0.237293343 7:0.605812172 8:0.002675465 9:0.149807939 10:0.159642401 11:0.939298019 12:0.365772301 13:0.656413613 14:0.149425287 15:0.467627242 16:0.211981993 17:0.809917355 18:0.429292929 19:0.572065251 20:0.195226449 21:0.899341851 22:1.000000000 
0.031250 1:0.051994112 2:0.001064143 3:0.000004303 4:0.000012591 5:0.917065556 6:0.237292910 7:0.605812172 8:0.004324700 9:0.149807939 10:0.158365262 11:0.930476073 12:0.365772301 13:0.763670739 14:0.149425287 15:0.455065385 16:0.218117125 17:0.537190083 18:0.328282828 19:0.409757491 20:0.188447599 21:0.911219512 22:1.000000000 
0.031250 1:0.044829339 2:0.000223373 3:0.000001147 4:0.000002613 5:0.917065555 6:0.237293507 7:0.605812172 8:0.003581068 9:0.104993598 10:0.113665390 11:0.886902487 12:0.300784546 13:0.596422339 14:0.104725415 15:0.342428453 16:0.199211323 17:0.706611570 18:0.429292929 19:0.552593052 20:0.151256967 21:0.876693767 22:1.000000000 
0.031250 1:0.025602337 2:0.000242515 3:0.000000163 4:0.000008867 5:0.917065555 6:0.237293332 7:0.605812172 8:0.001891105 9:0.124199744 10:0.131545338 11:0.891618178 12:0.330047773 13:0.693226440 14:0.123882503 15:0.373926768 16:0.214970742 17:0.983471074 18:0.545454545 19:0.744806237 20:0.161296754 21:0.908536585 22:1.000000000 
0.031250 1:0.070939543 2:0.000001327 3:0.000000434 4:0.000043576 5:0.917065556 6:0.237293392 7:0.605812173 8:0.007081480 9:0.069142125 10:0.076628352 11:0.881800733 12:0.237951933 13:0.418266434 14:0.068965517 15:0.271791926 16:0.157634954 17:0.623966942 18:0.348484848 19:0.459051795 20:0.119196994 21:0.844062375 22:1.000000000 
0.031250 1:0.046009152 2:0.000125576 3:0.000001537 4:0.000023733 5:0.917065555 6:0.237293209 7:0.605812173 8:0.003922510 9:0.101152369 10:0.107279693 11:0.890978281 12:0.294622254 13:0.697946033 14:0.100893997 15:0.337605639 16:0.192773025 17:0.760330579 18:0.414141414 19:0.548786654 20:0.147885265 21:0.906743185 22:1.000000000 
0.031250 1:0.046852049 2:0.002283392 3:0.000033180 4:0.000031173 5:0.917065570 6:0.237291304 7:0.605812174 8:0.004176346 9:0.148527529 10:0.162196679 11:0.938928330 12:0.364061642 13:0.464540695 14:0.148148148 15:0.466095711 16:0.211762248 17:0.615702479 18:0.338383838 19:0.448169151 20:0.190831273 21:0.863757622 22:1.000000000 
0.031250 1:0.026619237 2:0.000558806 3:0.000000262 4:0.000003853 5:0.917065555 6:0.237293522 7:0.605812172 8:0.001973752 9:0.142125480 10:0.159642401 11:0.942352578 12:0.355396522 13:0.596018357 14:0.141762452 15:0.458229542 16:0.202751777 17:0.896694215 18:0.500000000 19:0.684724778 20:0.187348805 21:0.823848238 22:1.000000000 
0.031250 1:0.047790291 2:0.000022953 3:0.000000084 4:0.000007755 5:0.917065555 6:0.237293409 7:0.605812172 8:0.003968011 9:0.057618438 10:0.057471264 11:0.879395244 12:0.214444207 13:0.895287958 14:0.057471264 15:0.241966647 16:0.139727858 17:0.929752066 18:0.535353535 19:0.736293445 20:0.102303037 21:1.000000000 22:1.000000000 
0.031250 1:0.021161962 2:0.001649545 3:0.000001288 4:0.000000040 5:0.917065555 6:0.237293464 7:0.605812172 8:0.001141183 9:0.153649168 10:0.177522350 11:0.985247854 12:0.370861241 13:0.181430632 14:0.153256705 15:0.599557893 16:0.171202748 17:0.987603306 18:0.590909091 19:0.807855430 20:0.230476469 21:0.784843206 22:1.000000000 
0.031250 1:0.019442066 2:0.000772489 3:0.000000368 4:0.000001688 5:0.917065555 6:0.237293424 7:0.605812172 8:0.001309343 9:0.144686300 10:0.167305236 11:0.964856856 12:0.358885325 13:0.437172775 14:0.144316731 15:0.517155225 16:0.190431720 17:0.995867769 18:0.601010101 19:0.821554572 20:0.201934409 21:0.783813747 22:1.000000000 
0.031250 1:0.037689618 2:0.000023988 3:0.000000050 4:0.000025239 5:0.917065555 6:0.237293527 7:0.605812172 8:0.002878477 9:0.087067862 10:0.094508301 11:0.833745006 12:0.270974359 13:0.512137078 14:0.086845466 15:0.282997792 16:0.194529433 17:0.946280992 18:0.525252525 19:0.717923910 20:0.131141948 21:0.873170732 22:1.000000000 
0.031250 1:0.044301348 2:0.000038103 3:0.000000401 4:0.000041745 5:0.917065557 6:0.237293452 7:0.605812172 8:0.003558199 9:0.083226633 10:0.085568327 11:0.858059793 12:0.264202972 13:0.590968586 14:0.083014049 15:0.286265508 16:0.182526096 17:0.888429752 18:0.464646465 19:0.650599168 20:0.128173432 21:0.953371593 22:1.000000000 
0.031250 1:0.030999013 2:0.000143393 3:0.000003234 4:0.000028439 5:0.917065559 6:0.237293964 7:0.605812172 8:0.002094334 9:0.104993598 10:0.114942529 11:0.887524361 12:0.300784546 13:0.514120260 14:0.104725415 15:0.341960002 16:0.198397280 17:0.966942149 18:0.550505051 19:0.764355311 20:0.151367733 21:0.860627178 22:1.000000000 
0.031250 1:0.044557472 2:0.000196245 3:0.000002176 4:0.000003789 5:0.917065555 6:0.237293397 7:0.605812172 8:0.003674500 9:0.080665813 10:0.088122605 11:0.898813978 12:0.259602869 13:0.537257391 14:0.080459770 15:0.303805487 16:0.165520383 17:0.880165289 18:0.464646465 19:0.664548506 20:0.133924378 21:0.864111498 22:1.000000000 
0.031250 1:0.068504509 2:0.000011954 3:0.000001327 4:0.000029203 5:0.917065552 6:0.237293593 7:0.605812172 8:0.006540203 9:0.093469910 10:0.106002554 11:0.926395544 12:0.281940778 13:0.555908751 14:0.093231162 15:0.355877837 16:0.170189574 17:0.483471074 18:0.313131313 19:0.381203292 20:0.144735093 21:0.811265970 22:1.000000000 
0.031250 1:0.040538544 2:0.000285234 3:0.000004755 4:0.000041426 5:0.917065556 6:0.237294535 7:0.605812170 8:0.003245798 9:0.081946223 10:0.095785441 11:0.917513366 12:0.261911767 13:0.418266434 14:0.081736909 15:0.326014240 16:0.162558705 17:0.863636364 18:0.515151515 19:0.713951557 20:0.141438711 21:0.770539153 22:1.000000000 
0.031250 1:0.069718223 2:0.000317109 3:0.000002473 4:0.000025144 5:0.917065556 6:0.237293932 7:0.605812173 8:0.006863749 9:0.093469910 10:0.100893997 11:0.870538279 12:0.281940778 13:0.518951090 14:0.093231162 15:0.312273320 16:0.192037798 17:0.537190083 18:0.308080808 19:0.383543066 20:0.146055418 21:0.881097561 22:1.000000000 
0.031250 1:0.051680594 2:0.000143960 3:0.000001657 4:0.000038517 5:0.917065551 6:0.237292822 7:0.605812173 8:0.004596806 9:0.115236876 10:0.128991060 11:0.851322242 12:0.316692952 13:0.454624782 14:0.114942529 15:0.336856010 16:0.222589461 17:0.719008264 18:0.328282828 19:0.494939152 20:0.159759329 21:0.829029173 22:1.000000000 
0.031250 1:0.053541795 2:0.000141953 3:0.000003848 4:0.000007782 5:0.917065555 6:0.237293339 7:0.605812172 8:0.004503196 9:0.071702945 10:0.076628352 11:0.914090135 12:0.242907973 13:0.647603705 14:0.071519796 15:0.296191481 16:0.148659697 17:0.780991736 18:0.429292929 19:0.575586678 20:0.124801730 21:0.896041583 22:1.000000000 
0.031250 1:0.035165475 2:0.002146389 3:0.000000570 4:0.000010630 5:0.917065555 6:0.237294219 7:0.605812172 8:0.002950831 9:0.188220230 10:0.204342273 11:0.964762246 12:0.414086048 13:0.626931735 14:0.187739464 15:0.578832252 16:0.216344460 17:0.702479339 18:0.383838384 19:0.499331916 20:0.234029827 21:0.871989093 22:1.000000000 
0.023724 1:0.032357832 2:0.000217695 3:0.000001031 4:0.000001788 5:0.917065555 6:0.237293493 7:0.605812172 8:0.002347664 9:0.104993598 10:0.113665390 11:0.896052200 12:0.300784546 13:0.514120260 14:0.104725415 15:0.346891032 16:0.194203649 17:0.925619835 18:0.515151515 19:0.703378050 20:0.150964546 21:0.876693767 22:1.000000000 
0.031250 1:0.052812444 2:0.000778337 3:0.000001256 4:0.000020573 5:0.917065554 6:0.237293771 7:0.605812172 8:0.004528005 9:0.119078105 10:0.134099617 11:0.933351349 12:0.322477189 13:0.460078534 14:0.118773946 15:0.410763407 16:0.191143231 17:0.561983471 18:0.338383838 19:0.430732990 20:0.176174779 21:0.820524620 22:1.000000000 
0.031250 1:0.081664351 2:0.000259028 3:0.000011381 4:0.000051909 5:0.917065545 6:0.237293997 7:0.605812177 8:0.008767437 9:0.081946223 10:0.093231162 11:0.921271406 12:0.261911767 13:0.509162304 14:0.081736909 15:0.325977338 16:0.159013582 17:0.487603306 18:0.267676768 19:0.347584375 20:0.138908827 21:0.807185234 22:1.000000000 
0.031250 1:0.058345249 2:0.000413491 3:0.000036084 4:0.000001023 5:0.917065555 6:0.237293497 7:0.605812172 8:0.005204866 9:0.131882202 10:0.136653895 11:0.909747924 12:0.341119617 13:0.754581152 14:0.131545338 15:0.404483241 16:0.215317923 17:0.553719008 18:0.308080808 19:0.416892932 20:0.171885938 21:0.941282746 22:1.000000000 
0.031250 1:0.102407653 2:0.000065151 3:0.000026063 4:0.000048380 5:0.917065529 6:0.237293531 7:0.605812174 8:0.011481942 9:0.058898848 10:0.060025543 11:0.882757398 12:0.217163533 13:0.921465969 14:0.058748404 15:0.247421608 16:0.141269894 17:0.342975207 18:0.252525253 19:0.279126313 20:0.105160787 21:0.966971545 22:1.000000000 
0.031250 1:0.055750956 2:0.002576575 3:0.000000026 4:0.000015432 5:0.917065555 6:0.237292288 7:0.605812172 8:0.004338176 9:0.134443022 10:0.154533844 11:0.991220100 12:0.344738893 13:0.199317262 14:0.134099617 15:0.583971023 16:0.147709400 17:0.586776860 18:0.328282828 19:0.435873876 20:0.221172165 21:0.792083167 22:1.000000000 
0.031250 1:0.084703705 2:0.001798716 3:0.000083295 4:0.000017076 5:0.917065563 6:0.237293682 7:0.605812177 8:0.008498439 9:0.089628681 10:0.099616858 11:0.963221898 12:0.275407112 13:0.465532286 14:0.089399745 15:0.391943937 16:0.140792904 17:0.450413223 18:0.252525253 19:0.342534902 20:0.153822297 21:0.839456622 22:1.000000000 
0.031250 1:0.070323457 2:0.000955265 3:0.000000220 4:0.000009049 5:0.917065555 6:0.237293850 7:0.605812172 8:0.007104925 9:0.102432778 10:0.112388250 11:0.945925047 12:0.296688993 13:0.379547154 14:0.102171137 15:0.392348881 16:0.165632931 17:0.553719008 18:0.308080808 19:0.399835571 20:0.155288832 21:0.857495204 22:1.000000000 
0.031250 1:0.053015236 2:0.000943898 3:0.000003422 4:0.000008853 5:0.917065556 6:0.237293177 7:0.605812172 8:0.005205647 9:0.087067862 10:0.097062580 11:0.905119065 12:0.270974359 13:0.497475692 14:0.086845466 15:0.324190496 16:0.172587022 17:0.780991736 18:0.429292929 19:0.585444493 20:0.140632338 21:0.835286665 22:1.000000000 
0.031250 1:0.032452310 2:0.000137253 3:0.000000620 4:0.000006783 5:0.917065555 6:0.237293351 7:0.605812172 8:0.002541168 9:0.103713188 10:0.109833972 11:0.883616842 12:0.298743013 13:0.585514834 14:0.103448276 15:0.335412197 16:0.197398620 17:0.979338843 18:0.530303030 19:0.763714750 20:0.147189657 21:0.908887020 22:1.000000000 
0.031250 1:0.058962447 2:0.000826072 3:0.000007588 4:0.000018574 5:0.917065552 6:0.237294246 7:0.605812171 8:0.005163640 9:0.110115237 10:0.123882503 11:0.971767231 12:0.308830213 13:0.275070479 14:0.109833972 15:0.459650467 16:0.153477327 17:0.570247934 18:0.348484848 19:0.462480982 20:0.178886319 21:0.822050772 22:1.000000000 
0.031250 1:0.074879588 2:0.000018859 3:0.000005664 4:0.000006379 5:0.917065555 6:0.237293459 7:0.605812172 8:0.007247576 9:0.085787452 10:0.098339719 11:0.945221315 12:0.268733890 13:0.397490235 14:0.085568327 15:0.356772379 16:0.149362920 17:0.491735537 18:0.308080808 19:0.375862041 20:0.144442672 21:0.796747967 22:1.000000000 
0.031250 1:0.047501384 2:0.008679206 3:0.000024311 4:0.000141073 5:0.917065529 6:0.237311266 7:0.605812211 8:0.003176975 9:0.080665813 10:0.080459770 11:0.889177945 12:0.259602869 13:0.854566608 14:0.080459770 15:0.296390241 16:0.168244689 17:0.768595041 18:0.409090909 19:0.584566833 20:0.125094151 21:1.000000000 22:1.000000000 
0.031250 1:0.060135872 2:0.000398388 3:0.000003676 4:0.000113915 5:0.917065585 6:0.237296050 7:0.605812168 8:0.005819687 9:0.072983355 10:0.079182631 11:0.917304510 12:0.245353382 13:0.745491565 14:0.072796935 15:0.302021031 16:0.149239550 17:0.747933884 18:0.388888889 19:0.582502528 20:0.124690964 21:0.874177313 22:1.000000000 
0.031250 1:0.039055752 2:0.000041737 3:0.000003195 4:0.000026318 5:0.917065555 6:0.237293333 7:0.605812171 8:0.003474433 9:0.078104994 10:0.080459770 11:0.869322100 12:0.254930309 13:0.818208261 14:0.077905492 15:0.283579874 16:0.173549071 17:0.995867769 18:0.530303030 19:0.762102741 20:0.126303710 21:0.950457317 22:1.000000000 
0.031250 1:0.083826836 2:0.000082145 3:0.000016851 4:0.000121058 5:0.917065597 6:0.237294001 7:0.605812149 8:0.008865877 9:0.062740077 10:0.066411239 11:0.870845256 12:0.225152374 13:0.600058173 14:0.062579821 15:0.250279866 16:0.150213005 17:0.586776860 18:0.338383838 19:0.450794190 20:0.110291446 21:0.910262310 22:1.000000000 
0.031250 1:0.059394211 2:0.000445628 3:0.000000315 4:0.000058174 5:0.917065555 6:0.237291766 7:0.605812173 8:0.005615164 9:0.115236876 10:0.123882503 11:0.930604173 12:0.316692952 13:0.754581152 14:0.114942529 15:0.396703783 16:0.187183224 17:0.578512397 18:0.333333333 19:0.441615496 20:0.169028188 21:0.886759582 22:1.000000000 
0.031250 1:0.040293805 2:0.001453096 3:0.000000229 4:0.000027456 5:0.917065555 6:0.237291909 7:0.605812172 8:0.003498518 9:0.144686300 10:0.162196679 11:0.948689308 12:0.358885325 13:0.366278932 14:0.144316731 15:0.473911075 16:0.200461939 17:0.719008264 18:0.393939394 19:0.546495796 20:0.194641607 21:0.826600610 22:1.000000000 
0.031250 1:0.046822751 2:0.005399245 3:0.000018472 4:0.000016996 5:0.917065552 6:0.237295346 7:0.605812173 8:0.003268429 9:0.162612036 10:0.206896552 11:0.985848124 12:0.382495473 13:0.155197169 14:0.162196679 15:0.647442424 16:0.185127867 17:0.619834711 18:0.358585859 19:0.482456666 20:0.244477231 21:0.659584019 22:1.000000000 
0.031250 1:0.095097211 2:0.000567809 3:0.000005243 4:0.000132223 5:0.917065550 6:0.237292118 7:0.605812156 8:0.011585442 9:0.099871959 10:0.112388250 11:0.962180707 12:0.292542557 13:0.560033437 14:0.099616858 15:0.413087378 16:0.151403036 17:0.400826446 18:0.237373737 19:0.293573755 20:0.167087576 21:0.821869005 22:1.000000000 
0.031250 1:0.064722572 2:0.000727909 3:0.000012827 4:0.000039094 5:0.917065567 6:0.237294237 7:0.605812175 8:0.006171046 9:0.098591549 10:0.114942529 11:0.991198039 12:0.290449655 13:0.586662993 14:0.098339719 15:0.503106507 16:0.123391016 17:0.557851240 18:0.297979798 19:0.428760250 20:0.180973142 21:0.773519164 22:1.000000000 
0.031250 1:0.075461737 2:0.001147156 3:0.000001044 4:0.000008813 5:0.917065554 6:0.237293921 7:0.605812172 8:0.007285852 9:0.090909091 10:0.099616858 11:0.937718595 12:0.277600074 13:0.405045217 14:0.090676884 15:0.358727430 16:0.159176143 17:0.475206612 18:0.318181818 19:0.375945465 20:0.151403178 21:0.859524545 22:1.000000000 
0.031250 1:0.076197653 2:0.000580527 3:0.000006109 4:0.000066292 5:0.917065548 6:0.237295391 7:0.605812166 8:0.008680229 9:0.083226633 10:0.093231162 11:0.950322782 12:0.264202972 13:0.572603911 14:0.083014049 15:0.360444976 16:0.144790183 17:0.561983471 18:0.328282828 19:0.443889982 20:0.145430701 21:0.828609097 22:1.000000000 
0.031250 1:0.058048478 2:0.001625481 3:0.000021378 4:0.000013957 5:0.917065559 6:0.237292671 7:0.605812172 8:0.005217742 9:0.156209987 10:0.189016603 11:0.978443486 12:0.374218889 13:0.213809750 14:0.155810983 15:0.582926595 16:0.184586327 17:0.578512397 18:0.257575758 19:0.388119699 20:0.227512384 21:0.723358979 22:1.000000000 
0.031250 1:0.073664602 2:0.000146204 3:0.000033472 4:0.000025499 5:0.917065551 6:0.237293679 7:0.605812166 8:0.007168141 9:0.096030730 10:0.109833972 11:0.953881754 12:0.286223210 13:0.337050384 14:0.095785441 15:0.395347119 16:0.156100309 17:0.504132231 18:0.287878788 19:0.349382672 20:0.158952956 21:0.799551444 22:1.000000000 
0.031250 1:0.059886428 2:0.000874835 3:0.000005644 4:0.000064852 5:0.917065557 6:0.237292659 7:0.605812166 8:0.005634324 9:0.103713188 10:0.118773946 11:0.910151610 12:0.298743013 13:0.585514834 14:0.103448276 15:0.360521720 16:0.189315350 17:0.652892562 18:0.343434343 19:0.445798047 20:0.155067301 21:0.797612870 22:1.000000000 
0.031250 1:0.042010130 2:0.001020840 3:0.000001155 4:0.000006967 5:0.917065555 6:0.237293167 7:0.605812172 8:0.003051369 9:0.096030730 10:0.107279693 11:0.927537807 12:0.286223210 13:0.328768962 14:0.095785441 15:0.363794233 16:0.173214122 17:0.735537190 18:0.429292929 19:0.560729688 20:0.155253387 21:0.832137733 22:1.000000000 
0.031250 1:0.063375940 2:0.001189121 3:0.000024876 4:0.000043795 5:0.917065550 6:0.237295640 7:0.605812176 8:0.006217880 9:0.102432778 10:0.116219668 11:0.924410098 12:0.296688993 13:0.432504668 14:0.102171137 15:0.372214152 16:0.181173238 17:0.595041322 18:0.333333333 19:0.449164155 20:0.154336249 21:0.810445387 22:1.000000000 
0.031250 1:0.051971115 2:0.001126683 3:0.000001477 4:0.000007274 5:0.917065555 6:0.237293619 7:0.605812172 8:0.004981600 9:0.131882202 10:0.146871009 11:0.949190977 12:0.341119617 13:0.447353112 14:0.131545338 15:0.454168709 16:0.190352236 17:0.648760331 18:0.343434343 19:0.465685541 20:0.184163189 21:0.835996636 22:1.000000000 
0.031250 1:0.064744032 2:0.000429652 3:0.000000131 4:0.000022152 5:0.917065555 6:0.237293866 7:0.605812172 8:0.005574667 9:0.083226633 10:0.086845466 11:0.933109137 12:0.264202972 13:0.719521316 14:0.083014049 15:0.335848803 16:0.152503339 17:0.574380165 18:0.353535354 19:0.444495379 20:0.137663822 21:0.931071050 22:1.000000000 
0.031250 1:0.085259938 2:0.000963102 3:0.000001672 4:0.000073972 5:0.917065561 6:0.237296962 7:0.605812175 8:0.009027973 9:0.103713188 10:0.116219668 11:0.962226131 12:0.298743013 13:0.480289498 14:0.103448276 15:0.425319070 16:0.156545055 17:0.421487603 18:0.252525253 19:0.315534493 20:0.169577585 21:0.827677625 22:1.000000000 
0.031250 1:0.041486702 2:0.004680287 3:0.000001753 4:0.000017817 5:0.917065555 6:0.237295254 7:0.605812171 8:0.002681709 9:0.160051216 10:0.178799489 11:0.989931161 12:0.379204586 13:0.181937173 14:0.159642401 15:0.637890444 16:0.168443809 17:0.669421488 18:0.398989899 19:0.528520534 20:0.237844592 21:0.831344058 22:1.000000000 
0.031250 1:0.068666303 2:0.001919128 3:0.000033555 4:0.000068971 5:0.917065607 6:0.237291517 7:0.605812187 8:0.006956064 9:0.097311140 10:0.106002554 11:0.943029702 12:0.288343294 13:0.530977312 14:0.097062580 15:0.377406024 16:0.162107387 17:0.533057851 18:0.313131313 19:0.402040765 20:0.155470488 21:0.867886179 22:1.000000000 
0.031250 1:0.073261660 2:0.001762504 3:0.000015050 4:0.000036007 5:0.917065567 6:0.237293862 7:0.605812174 8:0.007789386 9:0.104993598 10:0.118773946 11:0.972333321 12:0.300784546 13:0.361709004 14:0.104725415 15:0.447534421 16:0.147670563 17:0.475206612 18:0.287878788 19:0.359230950 20:0.178447688 21:0.814478464 22:1.000000000 
0.031250 1:0.094053715 2:0.001043495 3:0.000160430 4:0.000049778 5:0.917065582 6:0.237295457 7:0.605812160 8:0.011076024 9:0.062740077 10:0.068965517 11:0.908238022 12:0.225152374 13:0.541034881 14:0.062579821 15:0.271764400 16:0.139137950 17:0.500000000 18:0.292929293 19:0.377896410 20:0.116520899 21:0.855875831 22:1.000000000 
0.031250 1:0.077711669 2:0.000898361 3:0.000015896 4:0.000067774 5:0.917065561 6:0.237294027 7:0.605812162 8:0.008081123 9:0.087067862 10:0.099616858 11:0.882635082 12:0.270974359 13:0.463015170 14:0.086845466 15:0.309192657 16:0.181246552 17:0.483471074 18:0.292929293 19:0.368677541 20:0.143197668 21:0.799320778 22:1.000000000 
0.031250 1:0.058301211 2:0.000118974 3:0.000018035 4:0.000028040 5:0.917065551 6:0.237293193 7:0.605812168 8:0.005264047 9:0.120358515 10:0.139208174 11:0.947464033 12:0.324384700 13:0.325515547 14:0.120051086 15:0.440230502 16:0.186389780 17:0.570247934 18:0.328282828 19:0.414048550 20:0.178483133 21:0.783813747 22:1.000000000 
0.031250 1:0.059996992 2:0.003117046 3:0.000007956 4:0.000022582 5:0.917065550 6:0.237295291 7:0.605812172 8:0.006014665 9:0.111395647 10:0.126436782 11:0.946536299 12:0.310812558 13:0.410994764 14:0.111111111 15:0.411113379 16:0.173814788 17:0.508264463 18:0.303030303 19:0.374185331 20:0.168040159 21:0.809756098 22:1.000000000 
0.031250 1:0.060331328 2:0.002910559 3:0.000070528 4:0.000071666 5:0.917065609 6:0.237292959 7:0.605812155 8:0.005152288 9:0.097311140 10:0.106002554 11:0.930107770 12:0.288343294 13:0.590968586 14:0.097062580 15:0.363543503 16:0.170257226 17:0.574380165 18:0.328282828 19:0.439517676 20:0.147592844 21:0.867886179 22:1.000000000 
0.031250 1:0.076332560 2:0.000419789 3:0.000022789 4:0.000115141 5:0.917065602 6:0.237294643 7:0.605812195 8:0.008280641 9:0.103713188 10:0.112388250 11:0.876161196 12:0.298743013 13:0.649401645 14:0.103448276 15:0.330642444 16:0.200127592 17:0.533057851 18:0.292929293 19:0.383644032 20:0.151881685 21:0.875308304 22:1.000000000 
0.031250 1:0.064374039 2:0.000159971 3:0.000007981 4:0.000025733 5:0.917065549 6:0.237293471 7:0.605812172 8:0.006039427 9:0.096030730 10:0.102171137 11:0.890357118 12:0.286223210 13:0.706165189 14:0.095785441 15:0.326432049 16:0.186265199 17:0.578512397 18:0.333333333 19:0.433091979 20:0.141766577 21:0.902137910 22:1.000000000 
0.031250 1:0.062566251 2:0.000195863 3:0.000010027 4:0.000022909 5:0.917065550 6:0.237292975 7:0.605812172 8:0.005883137 9:0.104993598 10:0.113665390 11:0.887165479 12:0.300784546 13:0.526782118 14:0.104725415 15:0.339534811 16:0.197152879 17:0.586776860 18:0.333333333 19:0.437913011 20:0.146055418 21:0.876693767 22:1.000000000 
0.031250 1:0.065346584 2:0.002123299 3:0.000005210 4:0.000000613 5:0.917065555 6:0.237293422 7:0.605812172 8:0.006336470 9:0.145966709 10:0.169859515 11:0.981097084 12:0.360618250 13:0.288415192 14:0.145593870 15:0.563557457 16:0.170640024 17:0.491735537 18:0.292929293 19:0.361497015 20:0.217432721 21:0.775209319 22:1.000000000 
0.031250 1:0.049168220 2:0.000204488 3:0.000011951 4:0.000022125 5:0.917065550 6:0.237293858 7:0.605812171 8:0.004317994 9:0.112676056 10:0.130268199 11:0.962334476 12:0.312783671 13:0.251157874 14:0.112388250 15:0.443772086 16:0.164226590 17:0.698347107 18:0.388888889 19:0.517185253 20:0.184309399 21:0.784513379 22:1.000000000 
0.031250 1:0.049038318 2:0.001197780 3:0.000030190 4:0.000051447 5:0.917065525 6:0.237295122 7:0.605812178 8:0.003684577 9:0.106274008 10:0.106002554 11:0.929052202 12:0.302813818 13:0.912739965 14:0.106002554 15:0.377554241 16:0.178867529 17:0.619834711 18:0.353535354 19:0.472761618 20:0.151952575 21:1.000000000 22:1.000000000 
0.031250 1:0.059778719 2:0.000003986 3:0.000000152 4:0.000008932 5:0.917065555 6:0.237293473 7:0.605812172 8:0.005225031 9:0.081946223 10:0.088122605 11:0.890435714 12:0.261911767 13:0.541884817 14:0.081736909 15:0.300884838 16:0.170143607 17:0.611570248 18:0.358585859 19:0.450104349 20:0.131434369 21:0.886759582 22:1.000000000 
0.031250 1:0.046506134 2:0.000029199 3:0.000000621 4:0.000019993 5:0.917065554 6:0.237293611 7:0.605812172 8:0.003868484 9:0.078104994 10:0.081736909 11:0.860869512 12:0.254930309 13:0.818208261 14:0.077905492 15:0.276325005 16:0.173895310 17:0.739669421 18:0.459595960 19:0.580223481 20:0.122236400 21:0.926829268 22:1.000000000 
0.031250 1:0.077846320 2:0.000150424 3:0.000000376 4:0.000009012 5:0.917065555 6:0.237293335 7:0.605812172 8:0.007248630 9:0.097311140 10:0.111111111 11:0.950601151 12:0.288343294 13:0.291012216 14:0.097062580 15:0.393181262 16:0.159700773 17:0.367768595 18:0.252525253 19:0.270640951 20:0.163534218 21:0.801829268 22:1.000000000 
0.031250 1:0.057976871 2:0.000235574 3:0.000000076 4:0.000034855 5:0.917065554 6:0.237293291 7:0.605812172 8:0.005183263 9:0.125480154 10:0.131545338 11:0.884660926 12:0.331916151 13:0.703452225 14:0.125159642 15:0.370172686 16:0.218859183 17:0.520661157 18:0.318181818 19:0.371758140 20:0.162067682 21:0.923780488 22:1.000000000 
0.031250 1:0.028434146 2:0.003961568 3:0.000001609 4:0.000007608 5:0.917065555 6:0.237293140 7:0.605812172 8:0.001636082 9:0.195902689 10:0.209450830 11:0.971687093 12:0.423140573 13:0.280487431 14:0.195402299 15:0.612265428 16:0.213212514 17:0.747933884 18:0.414141414 19:0.583284871 20:0.237405960 21:0.894308943 22:1.000000000 
0.031250 1:0.071754935 2:0.000581686 3:0.000010510 4:0.000020146 5:0.917065560 6:0.237293301 7:0.605812172 8:0.007562347 9:0.065300896 10:0.071519796 11:0.865347966 12:0.230345720 13:0.663425580 14:0.065134100 15:0.254653228 16:0.156352495 17:0.619834711 18:0.363636364 19:0.469570167 20:0.113149197 21:0.860932820 22:1.000000000 
0.031250 1:0.039833641 2:0.000531400 3:0.000001317 4:0.000031707 5:0.917065558 6:0.237292362 7:0.605812172 8:0.003426333 9:0.097311140 10:0.104725415 11:0.884471244 12:0.288343294 13:0.530977312 14:0.097062580 15:0.328253100 16:0.192116806 17:0.880165289 18:0.469696970 19:0.652213558 20:0.144735093 21:0.885395239 22:1.000000000 
0.031250 1:0.055434847 2:0.000769966 3:0.000002539 4:0.000013115 5:0.917065554 6:0.237293529 7:0.605812172 8:0.005583201 9:0.108834827 10:0.117496807 11:0.940624286 12:0.306836442 13:0.696148093 14:0.108556833 15:0.398117206 16:0.175402035 17:0.619834711 18:0.373737374 19:0.473124207 20:0.158731425 21:0.880671387 22:1.000000000 
0.031250 1:0.055693344 2:0.000042774 3:0.000088264 4:0.000093633 5:0.917065650 6:0.237294216 7:0.605812200 8:0.004379483 9:0.130601793 10:0.144316731 11:0.938105161 12:0.339296928 13:0.382467445 14:0.130268199 15:0.433259081 16:0.196387948 17:0.628099174 18:0.318181818 19:0.429388554 20:0.185518959 21:0.847026102 22:1.000000000 
0.031250 1:0.057823513 2:0.000376018 3:0.000003737 4:0.000009484 5:0.917065555 6:0.237293278 7:0.605812172 8:0.005058039 9:0.110115237 10:0.118773946 11:0.894085488 12:0.308830213 13:0.504487659 14:0.109833972 15:0.352532067 16:0.199418374 17:0.648760331 18:0.333333333 19:0.460235681 20:0.154774880 21:0.881940841 22:1.000000000 
0.031250 1:0.070805134 2:0.000331568 3:0.000000727 4:0.000019376 5:0.917065555 6:0.237292971 7:0.605812172 8:0.007215559 9:0.093469910 10:0.098339719 11:0.858453882 12:0.281940778 13:0.587938724 14:0.093231162 15:0.303674065 16:0.194402251 17:0.595041322 18:0.308080808 19:0.409580559 20:0.135209258 21:0.918699187 22:1.000000000 
0.031250 1:0.043856683 2:0.000092554 3:0.000002599 4:0.000042047 5:0.917065556 6:0.237292921 7:0.605812173 8:0.003385331 9:0.143405890 10:0.158365262 11:0.946979086 12:0.357144783 13:0.351393044 14:0.143039591 15:0.470781003 16:0.201715704 17:0.644628099 18:0.348484848 19:0.487292191 20:0.196254353 21:0.847804878 22:1.000000000 
0.031250 1:0.025557421 2:0.000922678 3:0.000001300 4:0.000004939 5:0.917065555 6:0.237293627 7:0.605812172 8:0.001973472 9:0.174135723 10:0.183908046 11:0.934264482 12:0.396995829 13:0.687318208 14:0.173690932 15:0.493981776 16:0.232968281 17:0.863636364 18:0.454545455 19:0.612661003 20:0.201859089 21:0.912531539 22:1.000000000 
0.031250 1:0.054805677 2:0.000317323 3:0.000006262 4:0.000019729 5:0.917065554 6:0.237293972 7:0.605812171 8:0.005069590 9:0.107554417 10:0.118773946 11:0.924110701 12:0.304831046 13:0.463714369 14:0.107279693 15:0.378329564 16:0.184833161 17:0.586776860 18:0.358585859 19:0.458320571 20:0.160454936 21:0.848209652 22:1.000000000 
0.031250 1:0.053847555 2:0.000667457 3:0.000007411 4:0.000019246 5:0.917065553 6:0.237293991 7:0.605812173 8:0.004829054 9:0.126760563 10:0.140485313 11:0.950814264 12:0.333775117 13:0.372818499 14:0.126436782 15:0.448075918 16:0.184964725 17:0.561983471 18:0.333333333 19:0.432192381 20:0.183795447 21:0.842891672 22:1.000000000 
0.031250 1:0.066080757 2:0.000176579 3:0.000006135 4:0.000029680 5:0.917065549 6:0.237293732 7:0.605812172 8:0.006147872 9:0.090909091 10:0.103448276 11:0.919332825 12:0.277600074 13:0.532535527 14:0.090676884 15:0.342484541 16:0.170050006 17:0.541322314 18:0.313131313 19:0.404247739 20:0.149644221 21:0.806662701 22:1.000000000 
0.031250 1:0.042872567 2:0.001248639 3:0.000000409 4:0.000011884 5:0.917065554 6:0.237292984 7:0.605812172 8:0.003225918 9:0.122919334 10:0.144316731 11:0.973136201 12:0.328169838 13:0.332328521 14:0.122605364 15:0.493242156 16:0.163702851 17:0.727272727 18:0.419191919 19:0.553390422 20:0.197388592 21:0.763585794 22:1.000000000 
0.031250 1:0.033834235 2:0.000930424 3:0.000001164 4:0.000004576 5:0.917065555 6:0.237293393 7:0.605812172 8:0.002532663 9:0.153649168 10:0.173690932 11:0.951140033 12:0.370861241 13:0.356548902 14:0.153256705 15:0.494987028 16:0.206246340 17:0.780991736 18:0.404040404 19:0.581547305 20:0.205780188 21:0.814847784 22:1.000000000 
0.031250 1:0.069761557 2:0.000425189 3:0.000008040 4:0.000056663 5:0.917065537 6:0.237295024 7:0.605812169 8:0.006905637 9:0.111395647 10:0.114942529 11:0.966112140 12:0.310812558 13:0.757611014 14:0.111111111 15:0.441526271 16:0.156712805 17:0.512396694 18:0.297979798 19:0.365205287 20:0.171482752 21:0.947735192 22:1.000000000 
0.031250 1:0.070341152 2:0.000168857 3:0.000000895 4:0.000048691 5:0.917065560 6:0.237292613 7:0.605812172 8:0.006995639 9:0.083226633 10:0.091954023 11:0.921188133 12:0.264202972 13:0.462415856 14:0.083014049 15:0.327345906 16:0.159849245 17:0.673553719 18:0.328282828 19:0.455997907 20:0.138984147 21:0.847978617 22:1.000000000 
0.031250 1:0.026754369 2:0.000181269 3:0.000002240 4:0.000023445 5:0.917065557 6:0.237292986 7:0.605812172 8:0.001693826 9:0.137003841 10:0.157088123 11:0.965603919 12:0.348324183 13:0.574607330 14:0.136653895 15:0.508292268 16:0.185243194 17:0.938016529 18:0.560606061 19:0.732981639 20:0.198451941 21:0.795436664 22:1.000000000 
0.031250 1:0.035430676 2:0.000279886 3:0.000000200 4:0.000029227 5:0.917065554 6:0.237293888 7:0.605812172 8:0.002930563 9:0.084507042 10:0.084291188 11:0.884664687 12:0.266476884 13:0.815411465 14:0.084291188 15:0.302037667 16:0.175146759 17:0.975206612 18:0.550505051 19:0.781629807 20:0.130481786 21:1.000000000 22:1.000000000 
0.031250 1:0.044574515 2:0.000026754 3:0.000002267 4:0.000052002 5:0.917065561 6:0.237293054 7:0.605812174 8:0.003967227 9:0.079385403 10:0.084291188 11:0.843680219 12:0.257275860 13:0.607329843 14:0.079182631 15:0.272477935 16:0.181228983 17:0.888429752 18:0.454545455 19:0.673335160 20:0.125643548 21:0.905351292 22:1.000000000 
0.031250 1:0.031408301 2:0.000493332 3:0.000000569 4:0.000031803 5:0.917065553 6:0.237293736 7:0.605812172 8:0.002508757 9:0.145966709 10:0.151979566 11:0.900022218 12:0.360618250 13:0.576532184 14:0.145593870 15:0.413181188 16:0.230878221 17:0.834710744 18:0.444444444 19:0.617177785 20:0.175514617 21:0.933943089 22:1.000000000 
0.031250 1:0.055934473 2:0.000069287 3:0.000001401 4:0.000025375 5:0.917065555 6:0.237293661 7:0.605812171 8:0.005018421 9:0.078104994 10:0.079182631 11:0.884818440 12:0.254930309 13:0.818208261 14:0.077905492 15:0.287967240 16:0.166012754 17:0.793388430 18:0.414141414 19:0.548072384 20:0.121833214 21:0.974835463 22:1.000000000 
0.031250 1:0.053098470 2:0.000255495 3:0.000003260 4:0.000028255 5:0.917065555 6:0.237294057 7:0.605812171 8:0.004556080 9:0.097311140 10:0.103448276 11:0.932830572 12:0.288343294 13:0.650959860 14:0.097062580 15:0.364253180 16:0.167585019 17:0.652892562 18:0.378787879 19:0.498846508 20:0.149241035 21:0.903331350 22:1.000000000 
0.031250 1:0.067462146 2:0.001449838 3:0.000048499 4:0.000021863 5:0.917065566 6:0.237292618 7:0.605812174 8:0.005605489 9:0.075544174 10:0.077905492 11:0.888011075 12:0.250181758 13:0.697946033 14:0.075351213 15:0.285257291 16:0.162040293 17:0.648760331 18:0.323232323 19:0.433006303 20:0.125204916 21:0.948859166 22:1.000000000 
0.031250 1:0.036638566 2:0.000850629 3:0.000004197 4:0.000000752 5:0.917065555 6:0.237293482 7:0.605812172 8:0.002904698 9:0.134443022 10:0.153256705 11:0.939381794 12:0.344738893 13:0.654595695 14:0.134099617 15:0.459154103 16:0.207608390 17:0.772727273 18:0.434343434 19:0.573123678 20:0.192661120 21:0.803467043 22:1.000000000 
0.031250 1:0.041233109 2:0.001804815 3:0.000001777 4:0.000000210 5:0.917065555 6:0.237293451 7:0.605812172 8:0.003461798 9:0.161331626 10:0.190293742 11:0.976748339 12:0.380853269 13:0.320759956 14:0.160919540 15:0.575874148 16:0.186422527 17:0.677685950 18:0.373737374 19:0.478145452 20:0.233555751 21:0.756910569 22:1.000000000 
0.031250 1:0.049118051 2:0.000757970 3:0.000008700 4:0.000023058 5:0.917065550 6:0.237294298 7:0.605812172 8:0.004748233 9:0.139564661 10:0.149425287 11:0.940385856 12:0.351876427 13:0.590968586 14:0.139208174 15:0.451946958 16:0.202539222 17:0.619834711 18:0.333333333 19:0.431768604 20:0.193175072 21:0.892517569 22:1.000000000 
0.031250 1:0.045198096 2:0.000316503 3:0.000001009 4:0.000000674 5:0.917065555 6:0.237293456 7:0.605812172 8:0.003728854 9:0.110115237 10:0.117496807 11:0.930098720 12:0.308830213 13:0.775617053 14:0.109833972 15:0.387341424 16:0.182843542 17:0.652892562 18:0.414141414 19:0.539076365 20:0.156569282 21:0.897718332 22:1.000000000 
0.031250 1:0.074814451 2:0.000010067 3:0.000001562 4:0.000037852 5:0.917065559 6:0.237293360 7:0.605812173 8:0.007365886 9:0.069142125 10:0.075351213 11:0.874605820 12:0.237951933 13:0.626028422 14:0.068965517 15:0.265468613 16:0.158086268 17:0.590909091 18:0.343434343 19:0.437661128 20:0.113259962 21:0.867886179 22:1.000000000 
0.031250 1:0.035025056 2:0.000391708 3:0.000000002 4:0.000017135 5:0.917065555 6:0.237293456 7:0.605812172 8:0.002643019 9:0.124199744 10:0.139208174 11:0.925301388 12:0.330047773 13:0.348905893 14:0.123882503 15:0.410592413 16:0.200990553 17:0.797520661 18:0.469696970 19:0.620996527 20:0.174819009 21:0.827050998 22:1.000000000 
0.031250 1:0.043132070 2:0.000194298 3:0.000004873 4:0.000000113 5:0.917065555 6:0.237293467 7:0.605812172 8:0.003751511 9:0.078104994 10:0.088122605 11:0.942400038 12:0.254930309 13:0.657192720 14:0.079182631 15:0.337604333 16:0.143301445 17:0.855371901 18:0.479797980 19:0.667439599 20:0.135940311 21:0.818815331 22:0.962962963 
0.031250 1:0.082466806 2:0.000575556 3:0.000000494 4:0.000027740 5:0.917065553 6:0.237294180 7:0.605812172 8:0.008083377 9:0.102432778 10:0.117496807 11:0.975497083 12:0.296688993 13:0.243291885 14:0.102171137 15:0.455004226 16:0.144298270 17:0.392561983 18:0.262626263 19:0.284023020 20:0.178447688 21:0.795436664 22:1.000000000 
0.031250 1:0.046079271 2:0.002526228 3:0.000068478 4:0.000029302 5:0.917065561 6:0.237295419 7:0.605812168 8:0.003127100 9:0.085787452 10:0.085568327 11:0.879138912 12:0.268733890 13:0.927283304 14:0.085568327 15:0.301415596 16:0.178732200 17:0.855371901 18:0.464646465 19:0.622193026 20:0.129161461 21:1.000000000 22:1.000000000 
0.031250 1:0.048183888 2:0.000508222 3:0.000001769 4:0.000008351 5:0.917065555 6:0.237293384 7:0.605812172 8:0.003678906 9:0.134443022 10:0.146871009 11:0.937556276 12:0.344738893 13:0.654595695 14:0.134099617 15:0.443997359 16:0.202584668 17:0.611570248 18:0.353535354 19:0.452710745 20:0.195191004 21:0.863330530 22:1.000000000 
0.031250 1:0.042166055 2:0.001952644 3:0.000000172 4:0.000021598 5:0.917065554 6:0.237292010 7:0.605812172 8:0.003259574 9:0.148527529 10:0.172413793 11:0.970158475 12:0.364061642 13:0.362772114 14:0.148148148 15:0.533448189 16:0.185844834 17:0.706611570 18:0.378787879 19:0.513472606 20:0.204535184 21:0.778515065 22:1.000000000 
0.031250 1:0.068012019 2:0.000390328 3:0.000009541 4:0.000015929 5:0.917065552 6:0.237293306 7:0.605812171 8:0.006312071 9:0.140845070 10:0.155810983 11:0.953622916 12:0.353640438 13:0.700043630 14:0.140485313 15:0.486010314 16:0.197836338 17:0.396694215 18:0.252525253 19:0.311450009 20:0.195483425 21:0.845330161 22:1.000000000 
0.031250 1:0.055406895 2:0.003876552 3:0.000018205 4:0.000017076 5:0.917065557 6:0.237291919 7:0.605812173 8:0.005599483 9:0.161331626 10:0.191570881 11:1.000000000 12:0.380853269 13:0.570625225 14:0.160919540 15:0.713692879 16:0.149119964 17:0.475206612 18:0.313131313 19:0.397324259 20:0.259789457 21:0.748021321 22:1.000000000 
0.031250 1:0.027196239 2:0.002698211 3:0.000004345 4:0.000006190 5:0.917065554 6:0.237293841 7:0.605812172 8:0.002153403 9:0.179257362 10:0.208173691 11:0.975978951 12:0.403287200 13:0.390171347 14:0.178799489 15:0.621310375 16:0.205324409 17:0.814049587 18:0.459595960 19:0.628687545 20:0.240480811 21:0.777662106 22:1.000000000 
0.031250 1:0.054863679 2:0.000325007 3:0.000000348 4:0.000018079 5:0.917065555 6:0.237292981 7:0.605812172 8:0.004959732 9:0.112676056 10:0.123882503 11:0.931789192 12:0.312783671 13:0.467713787 14:0.112388250 15:0.392826794 16:0.183719814 17:0.657024793 18:0.348484848 19:0.475233787 20:0.162617079 21:0.854405177 22:1.000000000 
0.031250 1:0.024474335 2:0.002407510 3:0.000000093 4:0.000002644 5:0.917065555 6:0.237293356 7:0.605812172 8:0.001245085 9:0.183098592 10:0.219667944 11:0.988667356 12:0.407947365 13:0.189728247 14:0.182630907 15:0.686397543 16:0.187999077 17:0.954545455 18:0.515151515 19:0.703240614 20:0.257702634 21:0.734245030 22:1.000000000 
0.031250 1:0.070243011 2:0.000520989 3:0.000001327 4:0.000021955 5:0.917065554 6:0.237293067 7:0.605812172 8:0.006403997 9:0.115236876 10:0.139208174 11:0.968935114 12:0.316692952 13:0.328051068 14:0.114942529 15:0.474751228 16:0.164976620 17:0.433884298 18:0.262626263 19:0.326869623 20:0.186214566 21:0.726164080 22:1.000000000 
0.031250 1:0.046352019 2:0.000101154 3:0.000000123 4:0.000003714 5:0.917065555 6:0.237293490 7:0.605812172 8:0.003828207 9:0.078104994 10:0.085568327 11:0.903788640 12:0.254930309 13:0.536431065 14:0.077905492 15:0.303871195 16:0.161595475 17:0.847107438 18:0.479797980 19:0.647747947 20:0.129821623 21:0.860114778 22:1.000000000 
0.031250 1:0.058546790 2:0.000046083 3:0.000000003 4:0.000014473 5:0.917065555 6:0.237293504 7:0.605812172 8:0.005278063 9:0.087067862 10:0.095785441 11:0.852663093 12:0.270974359 13:0.594240838 14:0.086845466 15:0.292089145 16:0.189967091 17:0.739669421 18:0.328282828 19:0.506432972 20:0.134730751 21:0.853979461 22:1.000000000 
0.031250 1:0.042929544 2:0.000533342 3:0.000003986 4:0.000004796 5:0.917065555 6:0.237293627 7:0.605812172 8:0.003516585 9:0.088348271 10:0.098339719 11:0.915306125 12:0.273198652 13:0.474202354 14:0.088122605 15:0.333310679 16:0.168740778 17:0.809917355 18:0.469696970 19:0.640376620 20:0.142280529 21:0.837398374 22:1.000000000 
0.031250 1:0.078564065 2:0.000190276 3:0.000000140 4:0.000012292 5:0.917065555 6:0.237293292 7:0.605812172 8:0.007850834 9:0.080665813 10:0.085568327 11:0.946089111 12:0.259602869 13:0.688357018 14:0.080459770 15:0.348394031 16:0.144282489 17:0.471074380 18:0.282828283 19:0.353709064 20:0.137553057 21:0.906743185 22:1.000000000 
0.031250 1:0.069062391 2:0.001065622 3:0.000047615 4:0.000000765 5:0.917065555 6:0.237293427 7:0.605812172 8:0.005861895 9:0.070422535 10:0.077905492 11:0.942202648 12:0.240441016 13:0.630822929 14:0.070242656 15:0.319793284 16:0.134744780 17:0.611570248 18:0.358585859 19:0.453391340 20:0.125204916 21:0.846577498 22:1.000000000 
0.031250 1:0.050383623 2:0.000538785 3:0.000000987 4:0.000020971 5:0.917065555 6:0.237293223 7:0.605812172 8:0.004084409 9:0.113956466 10:0.131545338 11:0.972975822 12:0.314743741 13:0.345549738 14:0.113665390 15:0.483454452 16:0.160272036 17:0.652892562 18:0.378787879 19:0.491411346 20:0.182147256 21:0.786585366 22:1.000000000 
0.031250 1:0.057669984 2:0.000172239 3:0.000000092 4:0.000024223 5:0.917065555 6:0.237293077 7:0.605812172 8:0.005048775 9:0.088348271 10:0.093231162 11:0.906121331 12:0.273198652 13:0.454624782 14:0.088122605 15:0.320752197 16:0.169686504 17:0.698347107 18:0.363636364 19:0.498817680 20:0.133268646 21:0.914304548 22:1.000000000 
0.031250 1:0.071756513 2:0.000207113 3:0.000000027 4:0.000026895 5:0.917065555 6:0.237293773 7:0.605812172 8:0.006549109 9:0.090909091 10:0.099616858 11:0.959535188 12:0.277600074 13:0.364248317 14:0.090676884 15:0.388759871 16:0.144974662 17:0.433884298 18:0.297979798 19:0.348198136 20:0.151881685 21:0.859524545 22:1.000000000 
0.031250 1:0.046033269 2:0.000194589 3:0.000000312 4:0.000006722 5:0.917065555 6:0.237293474 7:0.605812172 8:0.003669018 9:0.103713188 10:0.108556833 11:0.850133626 12:0.298743013 13:0.578122972 14:0.103448276 15:0.315438813 16:0.208163662 17:0.694214876 18:0.404040404 19:0.519538263 20:0.140632338 21:0.926262053 22:1.000000000 
0.031250 1:0.039271040 2:0.000129599 3:0.000000013 4:0.000000050 5:0.917065555 6:0.237293465 7:0.605812172 8:0.002981277 9:0.115236876 10:0.122605364 11:0.869672500 12:0.316692952 13:0.518251891 14:0.114942529 15:0.346106402 16:0.215439780 17:0.772727273 18:0.429292929 19:0.552946314 20:0.157304765 21:0.901936133 22:1.000000000 
0.031250 1:0.041033870 2:0.000325721 3:0.000000059 4:0.000007691 5:0.917065555 6:0.237293362 7:0.605812172 8:0.003219257 9:0.126760563 10:0.145593870 11:0.908991163 12:0.333775117 13:0.418266434 14:0.126436782 15:0.402396079 16:0.214917623 17:0.797520661 18:0.373737374 19:0.566089888 20:0.175514617 21:0.793213150 22:1.000000000 
0.031250 1:0.031165808 2:0.000209266 3:0.000001210 4:0.000013496 5:0.917065556 6:0.237293238 7:0.605812172 8:0.002211277 9:0.131882202 10:0.146871009 11:0.892620045 12:0.341119617 13:0.541884817 14:0.131545338 15:0.390114583 16:0.224141244 17:0.880165289 18:0.464646465 19:0.626278538 20:0.171301096 21:0.835996636 22:1.000000000 
0.031250 1:0.039314066 2:0.000075782 3:0.000000237 4:0.000031347 5:0.917065554 6:0.237293479 7:0.605812172 8:0.003115149 9:0.107554417 10:0.125159642 11:0.866942032 12:0.304831046 13:0.574087925 14:0.107279693 15:0.337231893 16:0.211519219 17:0.805785124 18:0.429292929 19:0.600439121 20:0.159648563 21:0.775806849 22:1.000000000 
0.031250 1:0.055217817 2:0.000096769 3:0.000000850 4:0.000002998 5:0.917065555 6:0.237293422 7:0.605812172 8:0.004797580 9:0.094750320 10:0.100893997 11:0.928892400 12:0.284089132 13:0.328551030 14:0.094508301 15:0.354884376 16:0.166992409 17:0.599173554 18:0.363636364 19:0.458874212 20:0.150747446 21:0.900914634 22:1.000000000 
0.031250 1:0.043373638 2:0.000061322 3:0.000000486 4:0.000031147 5:0.917065555 6:0.237293594 7:0.605812171 8:0.003437859 9:0.076824584 10:0.081736909 11:0.863939737 12:0.252565765 13:0.641610571 14:0.076628352 15:0.276575082 16:0.172185075 17:0.884297521 18:0.500000000 19:0.689589333 20:0.122347166 21:0.902439024 22:1.000000000 
0.031250 1:0.048623540 2:0.000135805 3:0.000000268 4:0.000023133 5:0.917065554 6:0.237293417 7:0.605812172 8:0.004053416 9:0.075544174 10:0.076628352 11:0.901573912 12:0.250181758 13:0.781849913 14:0.075351213 15:0.295994148 16:0.158626649 17:0.826446281 18:0.464646465 19:0.627237599 20:0.124690964 21:0.974010396 22:1.000000000 
0.031250 1:0.057307919 2:0.000177197 3:0.000005326 4:0.000041447 5:0.917065545 6:0.237294240 7:0.605812172 8:0.004752443 9:0.101152369 10:0.108556833 11:0.903448950 12:0.294622254 13:0.484372521 14:0.100893997 15:0.345506325 16:0.186768950 17:0.491735537 18:0.338383838 19:0.388407098 20:0.148913169 21:0.889393080 22:1.000000000 
0.031250 1:0.034771112 2:0.000198048 3:0.000000217 4:0.000018217 5:0.917065555 6:0.237293102 7:0.605812172 8:0.002708083 9:0.137003841 10:0.140485313 11:0.918792447 12:0.348324183 13:0.730520480 14:0.136653895 15:0.419316551 16:0.213550598 17:0.822314050 18:0.439393939 19:0.579035352 20:0.176502645 21:0.957152274 22:1.000000000 
0.031250 1:0.059423746 2:0.000509958 3:0.000010150 4:0.000067802 5:0.917065557 6:0.237291955 7:0.605812163 8:0.005720134 9:0.076824584 10:0.086845466 11:0.936010097 12:0.252565765 13:0.641610571 14:0.076628352 15:0.329541295 16:0.146203360 17:0.652892562 18:0.388888889 19:0.510478056 20:0.135244703 21:0.816189466 22:1.000000000 
0.031250 1:0.084840310 2:0.000397143 3:0.000014875 4:0.000051270 5:0.917065553 6:0.237294231 7:0.605812165 8:0.009829188 9:0.071702945 10:0.077905492 11:0.935838920 12:0.242907973 13:0.647603705 14:0.071519796 15:0.317941334 16:0.140444676 17:0.471074380 18:0.303030303 19:0.384996610 20:0.129710858 21:0.872147915 22:1.000000000 
0.031250 1:0.054649271 2:0.000007015 3:0.000004981 4:0.000023100 5:0.917065551 6:0.237293423 7:0.605812172 8:0.004663703 9:0.113956466 10:0.120051086 11:0.901287875 12:0.314743741 13:0.672774869 14:0.113665390 15:0.363562517 16:0.199609906 17:0.590909091 18:0.343434343 19:0.430342560 20:0.153822297 21:0.916559692 22:1.000000000 
0.031250 1:0.017551200 2:0.000604734 3:0.000000156 4:0.000006929 5:0.917065555 6:0.237293205 7:0.605812172 8:0.001266527 9:0.163892446 10:0.172413793 11:0.929424893 12:0.384131275 13:0.801942684 14:0.163473819 15:0.477005922 16:0.231187679 17:1.000000000 18:0.580808081 19:0.812200858 20:0.200503319 21:0.918400287 22:1.000000000 
0.031250 1:0.030498949 2:0.000170290 3:0.000000083 4:0.000002826 5:0.917065555 6:0.237293413 7:0.605812172 8:0.002252680 9:0.099871959 10:0.104725415 11:0.870588489 12:0.292542557 13:0.474456608 14:0.099616858 15:0.322166584 16:0.198647393 17:0.983471074 18:0.565656566 19:0.782263911 20:0.144039486 21:0.923596826 22:1.000000000 
0.031250 1:0.042873344 2:0.000299571 3:0.000001001 4:0.000036819 5:0.917065558 6:0.237294430 7:0.605812172 8:0.003866612 9:0.084507042 10:0.089399745 11:0.855905818 12:0.266476884 13:0.687648739 14:0.084291188 15:0.288000226 16:0.185076315 17:0.892561983 18:0.479797980 19:0.672429576 20:0.127659480 21:0.910683614 22:1.000000000 
0.031250 1:0.020253256 2:0.000300649 3:0.000000339 4:0.000001351 5:0.917065555 6:0.237293443 7:0.605812172 8:0.001408816 9:0.121638924 10:0.132822478 11:0.906909136 12:0.326282198 13:0.563699825 14:0.121328225 15:0.383390234 16:0.205938867 17:1.000000000 18:0.606060606 19:0.859103522 20:0.165474830 21:0.864111498 22:1.000000000 
0.031250 1:0.029808196 2:0.000552849 3:0.000000587 4:0.000004354 5:0.917065555 6:0.237293314 7:0.605812172 8:0.002356637 9:0.103713188 10:0.117496807 11:0.899912391 12:0.298743013 13:0.441657819 14:0.103448276 15:0.349979780 16:0.192659943 17:0.958677686 18:0.540404040 19:0.761603246 20:0.154774880 21:0.812483609 22:1.000000000 
0.031250 1:0.054505501 2:0.000871230 3:0.000013863 4:0.000002487 5:0.917065555 6:0.237293395 7:0.605812172 8:0.004769651 9:0.083226633 10:0.086845466 11:0.893421606 12:0.264202972 13:0.798630689 14:0.083014049 15:0.304488316 16:0.170132118 17:0.780991736 18:0.393939394 19:0.542233239 20:0.133374981 21:0.931071050 22:1.000000000 
0.031250 1:0.024353661 2:0.001806762 3:0.000001645 4:0.000000411 5:0.917065555 6:0.237293439 7:0.605812172 8:0.001905032 9:0.160051216 10:0.186462324 11:0.975185538 12:0.379204586 13:0.524036173 14:0.159642401 15:0.578252982 16:0.191284111 17:0.921487603 18:0.520202020 19:0.731930470 20:0.225895207 21:0.773519164 22:1.000000000 
0.031250 1:0.079828086 2:0.000012224 3:0.000005284 4:0.000045564 5:0.917065565 6:0.237293229 7:0.605812171 8:0.007926083 9:0.067861716 10:0.068965517 11:0.918697738 12:0.235440118 13:0.869109948 14:0.067688378 15:0.287669760 16:0.140000971 17:0.520661157 18:0.313131313 19:0.399643738 20:0.116410134 21:0.971175166 22:1.000000000 
0.031250 1:0.057141186 2:0.000156195 3:0.000013019 4:0.000023943 5:0.917065549 6:0.237293901 7:0.605812173 8:0.005253005 9:0.071702945 10:0.077905492 11:0.886435985 12:0.242907973 13:0.538910043 14:0.071519796 15:0.277677844 16:0.158314574 17:0.838842975 18:0.429292929 19:0.595447924 20:0.118279856 21:0.872147915 22:1.000000000 
0.031250 1:0.040144626 2:0.000309756 3:0.000013320 4:0.000008827 5:0.917065556 6:0.237293300 7:0.605812172 8:0.003353387 9:0.099871959 10:0.106002554 11:0.851880010 12:0.292542557 13:0.552792321 14:0.099616858 15:0.310714360 16:0.203659393 17:0.842975207 18:0.454545455 19:0.631768024 20:0.138616406 21:0.905632985 22:1.000000000 
0.031250 1:0.017157450 2:0.001408020 3:0.000000376 4:0.000001526 5:0.917065555 6:0.237293417 7:0.605812172 8:0.001312419 9:0.180537772 10:0.201787995 11:0.962812154 12:0.404846048 13:0.588992589 14:0.180076628 15:0.565688507 16:0.215123226 17:0.991735537 18:0.555555556 19:0.786429622 20:0.225895207 21:0.830495475 22:1.000000000 
0.031250 1:0.029210100 2:0.000510772 3:0.000000224 4:0.000001880 5:0.917065555 6:0.237293475 7:0.605812172 8:0.002300052 9:0.108834827 10:0.120051086 11:0.893984385 12:0.306836442 13:0.556987515 14:0.108556833 15:0.354500740 16:0.200728909 17:0.966942149 18:0.535353535 19:0.739859917 20:0.153015924 21:0.849807445 22:1.000000000 
0.031250 1:0.048438609 2:0.000179578 3:0.000003275 4:0.000013926 5:0.917065554 6:0.237293750 7:0.605812172 8:0.004306226 9:0.087067862 10:0.099616858 11:0.958370909 12:0.270974359 13:0.694589878 14:0.086845466 15:0.386449299 16:0.145664741 17:0.747933884 18:0.444444444 19:0.625529329 20:0.149644221 21:0.799320778 22:1.000000000 
0.031250 1:0.047635792 2:0.000712724 3:0.000012408 4:0.000021961 5:0.917065556 6:0.237294347 7:0.605812174 8:0.004221200 9:0.101152369 10:0.111111111 11:0.913676207 12:0.294622254 13:0.626028422 14:0.100893997 15:0.354306177 16:0.182279317 17:0.772727273 18:0.414141414 19:0.569430666 20:0.150450594 21:0.855875831 22:1.000000000 
0.031250 1:0.042977658 2:0.001145852 3:0.000001290 4:0.000044781 5:0.917065550 6:0.237295455 7:0.605812171 8:0.003406262 9:0.072983355 10:0.080459770 11:0.896367426 12:0.245353382 13:0.594864124 14:0.072796935 15:0.286453751 16:0.156764371 17:0.929752066 18:0.520202020 19:0.740490073 20:0.122347166 21:0.851371951 22:1.000000000 
0.031250 1:0.043521588 2:0.000813469 3:0.000001301 4:0.000020986 5:0.917065556 6:0.237293090 7:0.605812172 8:0.003873796 9:0.154929577 10:0.164750958 11:0.940819640 12:0.372543505 13:0.741664370 14:0.154533844 15:0.480479892 16:0.216090681 17:0.739669421 18:0.313131313 19:0.500579993 20:0.192625675 21:0.902439024 22:1.000000000 
0.031250 1:0.056341561 2:0.000238680 3:0.000004424 4:0.000044979 5:0.917065549 6:0.237294526 7:0.605812170 8:0.005387070 9:0.076824584 10:0.079182631 11:0.835229889 12:0.252565765 13:0.689136126 14:0.076628352 15:0.263942929 16:0.179589445 17:0.797520661 18:0.424242424 19:0.595776072 20:0.119781836 21:0.949670925 22:1.000000000 
0.031250 1:0.026486307 2:0.000678282 3:0.000000089 4:0.000000832 5:0.917065555 6:0.237293434 7:0.605812172 8:0.001664241 9:0.158770807 10:0.182630907 11:0.969721851 12:0.377549348 13:0.297071941 14:0.158365262 15:0.550361318 16:0.193539896 17:0.880165289 18:0.494949495 19:0.663875911 20:0.216626348 21:0.790819783 22:1.000000000 
0.031250 1:0.047603798 2:0.000221635 3:0.000000060 4:0.000034210 5:0.917065554 6:0.237293424 7:0.605812172 8:0.004306753 9:0.065300896 10:0.067688378 11:0.914706150 12:0.230345720 13:0.825479930 14:0.065134100 15:0.278866086 16:0.138271126 17:0.938016529 18:0.545454545 19:0.752678289 20:0.114358756 21:0.941282746 22:1.000000000 
0.031250 1:0.047542802 2:0.000365307 3:0.000000586 4:0.000015914 5:0.917065555 6:0.237293410 7:0.605812172 8:0.004203738 9:0.093469910 10:0.102171137 11:0.834774519 12:0.281940778 13:0.700043630 14:0.093231162 15:0.296393797 16:0.203877667 17:0.826446281 18:0.439393939 19:0.601802049 20:0.137991688 21:0.862993074 22:1.000000000 
0.031250 1:0.040810250 2:0.000038987 3:0.000000290 4:0.000009825 5:0.917065555 6:0.237293416 7:0.605812172 8:0.003491016 9:0.074263764 10:0.077905492 11:0.871167183 12:0.247777800 13:0.549156486 14:0.074074074 15:0.274480302 16:0.166251955 17:0.979338843 18:0.545454545 19:0.781590498 20:0.120734420 21:0.923288749 22:1.000000000 
0.031250 1:0.067293774 2:0.000062668 3:0.000001266 4:0.000031127 5:0.917065552 6:0.237293164 7:0.605812172 8:0.006293529 9:0.079385403 10:0.088122605 11:0.930655195 12:0.257275860 13:0.597261377 14:0.079182631 15:0.326497361 16:0.150130819 17:0.599173554 18:0.338383838 19:0.436064675 20:0.135133938 21:0.841463415 22:1.000000000 
0.031250 1:0.024768054 2:0.001523023 3:0.000000408 4:0.000003825 5:0.917065555 6:0.237293252 7:0.605812172 8:0.001542322 9:0.171574904 10:0.199233716 11:0.970685328 12:0.393815699 13:0.292125227 14:0.171136654 15:0.592934119 16:0.208138084 17:0.942148760 18:0.500000000 19:0.669421759 20:0.235168497 21:0.777846823 22:1.000000000 
0.031250 1:0.025970163 2:0.001285717 3:0.000000138 4:0.000009814 5:0.917065555 6:0.237293333 7:0.605812172 8:0.001793365 9:0.175416133 10:0.197956577 11:0.978968379 12:0.398577189 13:0.443717277 14:0.174968072 15:0.620922527 16:0.196870469 17:0.855371901 18:0.489898990 19:0.649400074 20:0.235496362 21:0.817073171 22:1.000000000 
0.031250 1:0.018219126 2:0.000134136 3:0.000000365 4:0.000008932 5:0.917065555 6:0.237293504 7:0.605812172 8:0.001204950 9:0.130601793 10:0.146871009 11:0.894963947 12:0.339296928 13:0.508170712 14:0.130268199 15:0.390760037 16:0.222273661 17:1.000000000 18:0.626262626 19:0.870457926 20:0.173755660 21:0.822329689 22:1.000000000 
0.031250 1:0.019224656 2:0.000258152 3:0.000000001 4:0.000007960 5:0.917065555 6:0.237293282 7:0.605812172 8:0.001296834 9:0.144686300 10:0.154533844 11:0.898885348 12:0.358885325 13:0.623691099 14:0.144316731 15:0.412850791 16:0.231869744 17:1.000000000 18:0.565656566 19:0.812831201 20:0.175368406 21:0.896041583 22:1.000000000 
0.031250 1:0.018528487 2:0.000289655 3:0.000000054 4:0.000008481 5:0.917065555 6:0.237293294 7:0.605812172 8:0.001261879 9:0.145966709 10:0.157088123 11:0.917651189 12:0.360618250 13:0.620257256 14:0.145593870 15:0.432700571 16:0.222419034 17:0.991735537 18:0.595959596 19:0.821205095 20:0.184491055 21:0.884933124 22:1.000000000 
0.031250 1:0.023238996 2:0.000184221 3:0.000000255 4:0.000022113 5:0.917065554 6:0.237293904 7:0.605812172 8:0.001663084 9:0.117797695 10:0.130268199 11:0.869556608 12:0.320559505 13:0.542342474 14:0.117496807 15:0.351018268 16:0.218839459 17:0.995867769 18:0.590909091 19:0.812584977 20:0.161296754 21:0.846080985 22:1.000000000 
0.031250 1:0.027872669 2:0.000003060 3:0.000000651 4:0.000016038 5:0.917065554 6:0.237293494 7:0.605812172 8:0.002156675 9:0.113956466 10:0.122605364 11:0.800747295 12:0.314743741 13:0.509162304 14:0.113665390 15:0.313909825 16:0.236714823 17:1.000000000 18:0.500000000 19:0.729668402 20:0.149865752 21:0.885592155 22:1.000000000 
0.031250 1:0.030238733 2:0.000232929 3:0.000000138 4:0.000003606 5:0.917065555 6:0.237293394 7:0.605812172 8:0.002386649 9:0.112676056 10:0.117496807 11:0.840855523 12:0.312783671 13:0.661867365 14:0.112388250 15:0.325783639 16:0.221718229 17:0.966942149 18:0.515151515 19:0.717564609 20:0.149754987 21:0.931812221 22:1.000000000 
0.031250 1:0.019693680 2:0.001329143 3:0.000000751 4:0.000005512 5:0.917065555 6:0.237293181 7:0.605812172 8:0.001410072 9:0.167733675 10:0.197956577 11:0.955637511 12:0.389001002 13:0.410994764 14:0.167305236 15:0.543207493 16:0.220038712 17:0.975206612 18:0.555555556 19:0.765456289 20:0.225970528 21:0.756097561 22:1.000000000 
0.031250 1:0.022705797 2:0.000311520 3:0.000000394 4:0.000003997 5:0.917065555 6:0.237293518 7:0.605812172 8:0.001551483 9:0.133162612 10:0.151979566 11:0.922814645 12:0.342933563 13:0.471977630 14:0.132822478 15:0.425473734 16:0.212123655 17:1.000000000 18:0.555555556 19:0.789947931 20:0.181194673 21:0.801829268 22:1.000000000 
0.031250 1:0.029692809 2:0.000096834 3:0.000000799 4:0.000009141 5:0.917065555 6:0.237293330 7:0.605812172 8:0.002292713 9:0.115236876 10:0.125159642 11:0.888566937 12:0.316692952 13:0.636416521 14:0.114942529 15:0.359425517 16:0.208581201 17:0.975206612 18:0.505050505 19:0.744482155 20:0.156680047 21:0.871889628 22:1.000000000 
0.031250 1:0.016540502 2:0.000943136 3:0.000000139 4:0.000005586 5:0.917065555 6:0.237293463 7:0.605812172 8:0.001236684 9:0.158770807 10:0.174968072 11:0.953159027 12:0.377549348 13:0.600058173 14:0.158365262 15:0.504215924 16:0.206970283 17:1.000000000 18:0.601010101 19:0.851012771 20:0.204388973 21:0.850653941 22:1.000000000 
0.031250 1:0.040320869 2:0.000565907 3:0.000038811 4:0.000001604 5:0.917065555 6:0.237293506 7:0.605812172 8:0.002854875 9:0.074263764 10:0.076628352 11:0.888639645 12:0.247777800 13:0.610446273 14:0.074074074 15:0.282412275 16:0.159796507 17:0.971074380 18:0.540404040 19:0.760446094 20:0.121102161 21:0.948020792 22:1.000000000 
0.031250 1:0.021100595 2:0.000936920 3:0.000000516 4:0.000000970 5:0.917065555 6:0.237293420 7:0.605812172 8:0.001309662 9:0.180537772 10:0.197956577 11:0.950621076 12:0.404846048 13:0.389835846 14:0.180076628 15:0.535478757 16:0.226015008 17:0.925619835 18:0.510101010 19:0.712895294 20:0.222306404 21:0.857723577 22:1.000000000 
0.031250 1:0.032924610 2:0.000307033 3:0.000000214 4:0.000001542 5:0.917065555 6:0.237293429 7:0.605812172 8:0.002418498 9:0.156209987 10:0.162196679 11:0.928247068 12:0.374218889 13:0.809118674 14:0.155810983 15:0.461694213 16:0.224684403 17:0.685950413 18:0.434343434 19:0.544587558 20:0.191305350 21:0.938071646 22:1.000000000 
0.031250 1:0.045870017 2:0.000070330 3:0.000000180 4:0.000010084 5:0.917065555 6:0.237293339 7:0.605812172 8:0.003718912 9:0.094750320 10:0.099616858 11:0.855214398 12:0.284089132 13:0.502401454 14:0.094508301 15:0.303960257 16:0.196718748 17:0.830578512 18:0.424242424 19:0.578505892 20:0.137371401 21:0.919728311 22:1.000000000 
0.031250 1:0.079871738 2:0.000268992 3:0.000011330 4:0.000021481 5:0.917065550 6:0.237292926 7:0.605812171 8:0.007495484 9:0.085787452 10:0.093231162 11:0.944428378 12:0.268733890 13:0.680046539 14:0.085568327 15:0.358886014 16:0.151345640 17:0.409090909 18:0.267676768 19:0.321542566 20:0.147885265 21:0.871456823 22:1.000000000 
0.031250 1:0.050494892 2:0.000177105 3:0.000000122 4:0.000014196 5:0.917065555 6:0.237293752 7:0.605812172 8:0.004275499 9:0.081946223 10:0.086845466 11:0.904297968 12:0.261911767 13:0.550478608 14:0.081736909 15:0.308465072 16:0.163921655 17:0.723140496 18:0.434343434 19:0.567650568 20:0.131031183 21:0.908094733 22:1.000000000 
0.031250 1:0.035983998 2:0.000202310 3:0.000000019 4:0.000014995 5:0.917065555 6:0.237293453 7:0.605812172 8:0.002575537 9:0.090909091 10:0.103448276 11:0.928333996 12:0.277600074 13:0.496576722 14:0.090676884 15:0.351454205 16:0.165761644 17:0.938016529 18:0.550505051 19:0.744614963 20:0.147592844 21:0.806662701 22:1.000000000 
0.031250 1:0.055644440 2:0.000515871 3:0.000000128 4:0.000000104 5:0.917065555 6:0.237293466 7:0.605812172 8:0.004299939 9:0.099871959 10:0.113665390 11:0.983680174 12:0.292542557 13:0.229657504 14:0.099616858 15:0.469459631 16:0.131766516 17:0.524793388 18:0.348484848 19:0.405125039 20:0.177273573 21:0.806233062 22:1.000000000 
0.031250 1:0.035141306 2:0.000017111 3:0.000014888 4:0.000008649 5:0.917065554 6:0.237293417 7:0.605812172 8:0.002652085 9:0.145966709 10:0.159642401 11:0.946598361 12:0.360618250 13:0.323551410 14:0.145593870 15:0.479401182 16:0.206449650 17:0.661157025 18:0.383838384 19:0.479203594 20:0.200064687 21:0.861595045 22:1.000000000 
0.031250 1:0.032627967 2:0.000331777 3:0.000000469 4:0.000002340 5:0.917065555 6:0.237293446 7:0.605812172 8:0.002277216 9:0.135723431 10:0.144316731 11:0.910072621 12:0.346535726 13:0.524744453 14:0.135376756 15:0.410827339 16:0.218655710 17:0.752066116 18:0.449494949 19:0.586106551 20:0.174965220 21:0.902652974 22:1.000000000 
0.031250 1:0.055217502 2:0.000475226 3:0.000000469 4:0.000000942 5:0.917065555 6:0.237293496 7:0.605812172 8:0.004430813 9:0.120358515 10:0.136653895 11:0.984071720 12:0.324384700 13:0.579281975 14:0.120051086 15:0.523983266 16:0.149228384 17:0.508264463 18:0.338383838 19:0.397785695 20:0.193870679 21:0.809168925 22:1.000000000 
0.031250 1:0.020522511 2:0.000146984 3:0.000000458 4:0.000014359 5:0.917065555 6:0.237293326 7:0.605812172 8:0.001321371 9:0.139564661 10:0.155810983 11:0.911582731 12:0.351876427 13:0.590968586 14:0.139208174 15:0.420620662 16:0.222642951 17:0.995867769 18:0.570707071 19:0.785562171 20:0.177822970 21:0.832441007 22:1.000000000 
0.031250 1:0.036792516 2:0.000888065 3:0.000000162 4:0.000000273 5:0.917065555 6:0.237293453 7:0.605812172 8:0.002564469 9:0.152368758 10:0.177522350 11:0.955012176 12:0.369172011 13:0.362330514 14:0.151979566 15:0.505570865 16:0.204258581 17:0.681818182 18:0.404040404 19:0.531268841 20:0.205341557 21:0.773519164 22:1.000000000 
0.031250 1:0.027909409 2:0.000223258 3:0.000000107 4:0.000009367 5:0.917065555 6:0.237293670 7:0.605812172 8:0.001992912 9:0.115236876 10:0.120051086 11:0.827103378 12:0.316692952 13:0.709133217 14:0.114942529 15:0.325667787 16:0.230414968 17:0.966942149 18:0.540404040 19:0.734919999 20:0.149644221 21:0.933247754 22:1.000000000 
0.031250 1:0.047148753 2:0.000152681 3:0.000001225 4:0.000020147 5:0.917065554 6:0.237293846 7:0.605812172 8:0.003636359 9:0.081946223 10:0.090676884 11:0.948041685 12:0.261911767 13:0.450729245 14:0.081736909 15:0.351386433 16:0.143361182 17:0.719008264 18:0.449494949 19:0.583496427 20:0.140229152 21:0.845867209 22:1.000000000 
0.031250 1:0.040679282 2:0.000064557 3:0.000000292 4:0.000018147 5:0.917065554 6:0.237293403 7:0.605812172 8:0.003243589 9:0.085787452 10:0.093231162 11:0.882937504 12:0.268733890 13:0.618237347 14:0.085568327 15:0.301942895 16:0.176344099 17:0.896694215 18:0.484848485 19:0.674227427 20:0.130627996 21:0.871456823 22:1.000000000 
0.031250 1:0.033502393 2:0.000796174 3:0.000032946 4:0.000000692 5:0.917065555 6:0.237293493 7:0.605812172 8:0.001885402 9:0.090909091 10:0.103448276 11:0.917480143 12:0.277600074 13:0.532535527 14:0.090676884 15:0.340312985 16:0.170635910 17:0.876033058 18:0.494949495 19:0.671608660 20:0.146786471 21:0.806662701 22:1.000000000 
0.031250 1:0.067822468 2:0.000021185 3:0.000006585 4:0.000017756 5:0.917065552 6:0.237293461 7:0.605812171 8:0.006494380 9:0.087067862 10:0.090676884 11:0.877163171 12:0.270974359 13:0.612672294 14:0.086845466 15:0.301999384 16:0.180517180 17:0.504132231 18:0.313131313 19:0.388430422 20:0.133157881 21:0.933943089 22:1.000000000 
0.031250 1:0.048168825 2:0.000107301 3:0.000004154 4:0.000040057 5:0.917065558 6:0.237294059 7:0.605812170 8:0.004079161 9:0.074263764 10:0.077905492 11:0.911294721 12:0.247777800 13:0.763670739 14:0.074074074 15:0.298071203 16:0.152059154 17:0.847107438 18:0.479797980 19:0.665634885 20:0.128062667 21:0.923288749 22:1.000000000 
0.031250 1:0.041485293 2:0.000456556 3:0.000000019 4:0.000004886 5:0.917065555 6:0.237293383 7:0.605812172 8:0.003200679 9:0.154929577 10:0.163473819 11:0.960218512 12:0.372543505 13:0.831712790 14:0.154533844 15:0.516087351 16:0.199163851 17:0.628099174 18:0.373737374 19:0.468047388 20:0.206329585 21:0.913972396 22:1.000000000 
0.031250 1:0.033004340 2:0.000181786 3:0.000000671 4:0.000019090 5:0.917065555 6:0.237293071 7:0.605812172 8:0.002440886 9:0.090909091 10:0.095785441 11:0.880791654 12:0.277600074 13:0.547834365 14:0.090676884 15:0.310625840 16:0.183537468 17:0.950413223 18:0.555555556 19:0.773287202 20:0.134806072 21:0.916559692 22:1.000000000 
0.031250 1:0.041732285 2:0.000708652 3:0.000003378 4:0.000009804 5:0.917065555 6:0.237293148 7:0.605812172 8:0.003324272 9:0.122919334 10:0.134099617 11:0.852707408 12:0.328169838 13:0.698745118 14:0.122605364 15:0.352127004 16:0.232417944 17:0.739669421 18:0.404040404 19:0.524098397 20:0.159134611 21:0.865393465 22:1.000000000 
0.031250 1:0.016913185 2:0.001364711 3:0.000000350 4:0.000001596 5:0.917065555 6:0.237293436 7:0.605812172 8:0.000965699 9:0.167733675 10:0.190293742 11:0.981484165 12:0.389001002 13:0.239591124 14:0.167305236 15:0.613395122 16:0.186994963 17:0.995867769 18:0.611111111 19:0.863126884 20:0.228354202 21:0.809756098 22:1.000000000 
0.031250 1:0.029879582 2:0.000182821 3:0.000001139 4:0.000004659 5:0.917065555 6:0.237293543 7:0.605812172 8:0.002345994 9:0.102432778 10:0.112388250 11:0.891942359 12:0.296688993 13:0.532535527 14:0.102171137 15:0.339481938 16:0.193139672 17:0.983471074 18:0.565656566 19:0.781200329 20:0.150561360 21:0.857495204 22:1.000000000 
0.031250 1:0.057131928 2:0.000109212 3:0.000000814 4:0.000015350 5:0.917065555 6:0.237293708 7:0.605812172 8:0.005136870 9:0.085787452 10:0.093231162 11:0.854705030 12:0.268733890 13:0.618237347 14:0.085568327 15:0.289235267 16:0.186687968 17:0.694214876 18:0.404040404 19:0.526350491 20:0.131434369 21:0.871456823 22:1.000000000 
0.031250 1:0.037867425 2:0.000351826 3:0.000000377 4:0.000028809 5:0.917065554 6:0.237293564 7:0.605812172 8:0.002920992 9:0.128040973 10:0.141762452 11:0.884539758 12:0.335624810 13:0.572425829 14:0.127713921 15:0.375527071 16:0.222402407 17:0.793388430 18:0.429292929 19:0.587298297 20:0.167123021 21:0.844294425 22:1.000000000 
0.031250 1:0.057413017 2:0.000508132 3:0.000016803 4:0.000022146 5:0.917065549 6:0.237294207 7:0.605812171 8:0.005378147 9:0.125480154 10:0.130268199 11:0.911678158 12:0.331916151 13:0.703452225 14:0.125159642 15:0.392590108 16:0.206342270 17:0.533057851 18:0.328282828 19:0.387050001 20:0.168625001 21:0.938432394 22:1.000000000 
0.031250 1:0.069449506 2:0.000049863 3:0.000001285 4:0.000079333 5:0.917065548 6:0.237293445 7:0.605812169 8:0.006884221 9:0.076824584 10:0.081736909 11:0.822789628 12:0.252565765 13:0.728020670 14:0.076628352 15:0.261883055 16:0.184462719 17:0.619834711 18:0.333333333 19:0.452326934 20:0.121026841 21:0.902439024 22:1.000000000 
0.031250 1:0.031561989 2:0.000095207 3:0.000000654 4:0.000010870 5:0.917065554 6:0.237293596 7:0.605812172 8:0.002537674 9:0.088348271 10:0.091954023 11:0.872906630 12:0.273198652 13:0.524036173 14:0.088122605 15:0.302614085 16:0.183909740 17:0.991735537 18:0.606060606 19:0.826521552 20:0.132351508 21:0.934847979 22:1.000000000 
0.031250 1:0.051643030 2:0.000291771 3:0.000000725 4:0.000024451 5:0.917065553 6:0.237293719 7:0.605812172 8:0.004032367 9:0.098591549 10:0.106002554 11:0.917977143 12:0.290449655 13:0.602655198 14:0.098339719 15:0.355634146 16:0.178757434 17:0.611570248 18:0.383838384 19:0.481010604 20:0.150047408 21:0.886759582 22:1.000000000 
0.031250 1:0.016973292 2:0.000287920 3:0.000000018 4:0.000013642 5:0.917065555 6:0.237293252 7:0.605812172 8:0.001184092 9:0.165172855 10:0.174968072 11:0.904224424 12:0.385760749 13:0.636416521 14:0.164750958 15:0.447472238 16:0.246852235 17:1.000000000 18:0.550505051 19:0.805099395 20:0.189072317 21:0.908094733 22:1.000000000 
0.031250 1:0.033550986 2:0.000408335 3:0.000000267 4:0.000019821 5:0.917065554 6:0.237293920 7:0.605812172 8:0.002479409 9:0.126760563 10:0.139208174 11:0.922808943 12:0.333775117 13:0.470206931 14:0.126436782 15:0.408913486 16:0.203046041 17:0.776859504 18:0.454545455 19:0.597344478 20:0.173352474 21:0.855875831 22:1.000000000 
