svm_type c_svc
kernel_type intersection
nr_class 2
total_sv 1654
rho 3.17932
label 1 0
probA -3.17405
probB -0.0287109
nr_sv 826 828
SV
0.03125 1:0.027471048 2:0.064489598 3:0.00022038017 4:0.0010423105 5:0.016010048 6:0.77769994 7:0.00012094529 8:0.0011107427 9:0.078994614 10:0.08 11:0.94411189 12:0.2523295 13:0.48731642 14:0.076655052 15:0.32352085 16:0.12389843 17:0.34920635 18:0.16431925 19:0.23541746 20:0.080581423 21:0.937793 22:1 
0.03125 1:0.0048190255 2:0.0020193264 3:8.6054486e-008 4:8.479044e-006 5:0.016010761 6:0.77699752 7:0.00012084976 8:8.3942027e-005 9:0.13105925 10:0.14086957 11:0.97364738 12:0.33605859 13:0.26794701 14:0.1271777 15:0.49748511 16:0.14883572 17:1 18:0.52112676 19:0.81362032 20:0.11718848 21:0.85737908 22:1 
0.03125 1:0.015786865 2:0.0049463529 3:4.5044727e-007 4:1.6156075e-005 5:0.016010761 6:0.77699822 7:0.00012084976 8:0.00044585983 9:0.18132855 10:0.18956522 11:0.95914193 12:0.40224098 13:0.33572969 14:0.17595819 15:0.53700808 16:0.194371 17:0.42857143 18:0.17370892 19:0.27615805 20:0.1317456 21:0.89368259 22:1 
0.03125 1:0.017523424 2:0.013053036 3:4.7986661e-007 4:0.00039647101 5:0.016010769 6:0.7771145 7:0.00012085049 8:0.00051647143 9:0.19389587 10:0.26956522 11:0.95604873 12:0.41730601 13:0.27187127 14:0.18815331 15:0.66895341 16:0.25635454 17:0.51190476 18:0.15492958 19:0.20906648 20:0.16822715 21:0.55956649 22:1 
0.03125 1:0.024799679 2:0.00048531706 3:2.5373709e-006 4:1.0885805e-005 5:0.016010761 6:0.77699904 7:0.00012084982 8:0.00086084013 9:0.11669659 10:0.12 11:0.93874265 12:0.31491605 13:0.73564753 14:0.11324042 15:0.3914014 16:0.16217645 17:0.24603175 18:0.14553991 19:0.17909017 20:0.097939159 21:0.91646489 22:1 
0.03125 1:0.025265306 2:0.00029065224 3:1.3403661e-007 4:5.0850732e-005 5:0.016010761 6:0.77700077 7:0.00012084988 8:0.0009067905 9:0.086175943 10:0.085217391 11:0.82017501 12:0.26522826 13:0.77383178 14:0.083623693 15:0.26090492 16:0.17592626 17:0.28968254 18:0.16431925 19:0.20987325 20:0.073820135 21:0.97076271 22:1 
0.03125 1:0.0139717 2:0.00084376709 3:4.2897211e-009 4:7.3038903e-006 5:0.016010761 6:0.77699792 7:0.00012084977 8:0.00037836304 9:0.1454219 10:0.14956522 11:0.91303356 12:0.35608597 13:0.66955941 14:0.14111498 15:0.40638271 16:0.20016024 17:0.42063492 18:0.23004695 19:0.3119501 20:0.10896413 21:0.9159848 22:1 
0.03125 1:0.021360733 2:0.00046809827 3:1.0336035e-006 4:0.00012565621 5:0.016010763 6:0.77699125 7:0.00012085056 8:0.00073930437 9:0.12746858 10:0.13217391 11:0.90478028 12:0.33088469 13:0.50654206 14:0.12369338 15:0.37222095 16:0.18964473 17:0.34920635 18:0.15962441 19:0.23477383 20:0.097636149 21:0.90507374 22:1 
0.03125 1:0.016565686 2:0.00097865791 3:1.0015451e-007 4:1.2622484e-005 5:0.016010761 6:0.77699743 7:0.00012084978 8:0.000462354 9:0.16337522 10:0.16869565 11:0.94436078 12:0.37979198 13:0.47570093 14:0.15853659 15:0.47691582 16:0.19441015 17:0.35714286 18:0.19248826 19:0.25044234 20:0.1199891 21:0.9104981 22:1 
0.03125 1:0.01707409 2:0.00010883909 3:9.9930927e-007 4:1.1784565e-005 5:0.016010761 6:0.77699857 7:0.00012084978 8:0.00050412808 9:0.12926391 10:0.1373913 11:0.90426529 12:0.3334805 13:0.68529468 14:0.12543554 15:0.38600704 16:0.19800821 17:0.37301587 18:0.1971831 19:0.26591196 20:0.10220284 21:0.87208686 22:1 
0.03125 1:0.015835718 2:0.0011759226 3:1.1459277e-005 4:1.985421e-005 5:0.016010761 6:0.77699669 7:0.00012085011 8:0.00043661167 9:0.20466786 10:0.22956522 11:0.90159387 12:0.429838 13:0.55451713 14:0.19860627 15:0.49487631 16:0.2634561 17:0.36111111 18:0.18309859 19:0.24328436 20:0.14161051 21:0.80215369 22:1 
0.03125 1:0.022890993 2:0.0003816803 3:2.1209573e-006 4:4.3389665e-005 5:0.016010762 6:0.77699642 7:0.00012084993 8:0.00075146399 9:0.10412926 10:0.10956522 11:0.92793672 12:0.29533811 13:0.56619082 14:0.1010453 15:0.35725724 16:0.15789393 17:0.29761905 18:0.16431925 19:0.19830248 20:0.095138542 21:0.88579184 22:1 
0.03125 1:0.027946994 2:0.00095468333 3:4.9277849e-006 4:3.0539906e-005 5:0.016010761 6:0.77700024 7:0.00012084947 8:0.00098471741 9:0.080789946 10:0.08173913 11:0.91274139 12:0.25560622 13:0.62616822 14:0.078397213 15:0.29794048 16:0.14089884 17:0.21825397 18:0.14553991 19:0.16825814 20:0.078083817 21:0.93908898 22:1 
0.03125 1:0.017554654 2:0.00027386537 3:8.5811274e-007 4:3.2491127e-005 5:0.016010761 6:0.77699704 7:0.00012084991 8:0.0005060687 9:0.11669659 10:0.12173913 11:0.92742107 12:0.31491605 13:0.73564753 14:0.11324042 15:0.38029025 16:0.17021433 17:0.35714286 18:0.20187793 19:0.2623616 20:0.098670691 21:0.8970518 22:1 
0.03125 1:0.017568951 2:0.0010503523 3:1.1238424e-005 4:1.5905413e-006 5:0.016010761 6:0.77699844 7:0.00012084977 8:0.00048215926 9:0.1454219 10:0.14782609 11:0.89074817 12:0.35608597 13:0.79858859 14:0.14111498 15:0.38664977 16:0.21152162 17:0.32936508 18:0.18779343 19:0.23407016 20:0.10396892 21:0.93200631 22:1 
0.03125 1:0.029324932 2:3.5716276e-005 3:5.1131007e-007 4:2.4800523e-005 5:0.016010761 6:0.77699885 7:0.00012084977 8:0.0011074262 9:0.070017953 10:0.067826087 11:0.91389703 12:0.23537043 13:0.4517134 14:0.067944251 15:0.27751841 16:0.12877314 17:0.21825397 18:0.14084507 19:0.16843488 20:0.069253444 21:1 22:1 
0.03125 1:0.026423292 2:6.3203831e-005 3:4.4273381e-008 4:3.1384753e-005 5:0.016010761 6:0.77699823 7:0.00012084975 8:0.00097937856 9:0.062836625 10:0.064347826 11:0.85949988 12:0.22102355 13:0.75327103 14:0.06097561 15:0.23281064 16:0.13629238 17:0.3015873 18:0.17840376 19:0.22331272 20:0.063526698 21:0.92305977 22:1 
0.03125 1:0.019611734 2:0.00013121513 3:5.0039046e-007 4:3.9281581e-005 5:0.016010761 6:0.77699735 7:0.00012084984 8:0.00058316013 9:0.12208259 10:0.12695652 11:0.92684331 12:0.32298719 13:0.63494183 14:0.1184669 15:0.3886101 16:0.17513255 17:0.30952381 18:0.17840376 19:0.2267297 20:0.098670691 21:0.90122538 22:1 
0.03125 1:0.030455195 2:2.0030524e-006 3:1.9281073e-006 4:2.8940722e-005 5:0.016010761 6:0.77699844 7:0.00012084965 8:0.001198111 9:0.11849192 10:0.12173913 11:0.939964 12:0.31762644 13:0.40215672 14:0.11498258 15:0.39684609 16:0.16321633 17:0.18650794 18:0.11737089 19:0.1346709 20:0.10013376 21:0.91764144 22:1 
0.03125 1:0.020269709 2:0.00012783279 3:1.6625375e-006 4:6.1128599e-005 5:0.016010762 6:0.77699751 7:0.00012084999 8:0.00066644896 9:0.12926391 10:0.13043478 11:0.89252661 12:0.3334805 13:0.51682243 14:0.12543554 15:0.36664573 16:0.19788698 17:0.3452381 18:0.16901408 19:0.23762383 20:0.097636149 21:0.94229483 22:1 
0.03125 1:0.02586779 2:0.0011812547 3:1.0029467e-006 4:3.0176421e-006 5:0.016010761 6:0.77699871 7:0.00012084977 8:0.00094581583 9:0.10233393 10:0.10608696 11:0.90707913 12:0.29244833 13:0.61815754 14:0.099303136 15:0.33352346 16:0.16558433 17:0.25793651 18:0.15023474 19:0.18847966 20:0.088377254 21:0.90568617 22:1 
0.03125 1:0.021562244 2:0.00027046608 3:8.2323719e-007 4:1.0309818e-005 5:0.016010761 6:0.77699873 7:0.00012084974 8:0.00071007395 9:0.10233393 10:0.10782609 11:0.93270873 12:0.29244833 13:0.68368081 14:0.099303136 15:0.36209675 16:0.15508047 17:0.28571429 18:0.17840376 19:0.22275202 20:0.091909403 21:0.88397902 22:1 
0.03125 1:0.025740929 2:0.00017544445 3:1.4799433e-006 4:4.9463912e-005 5:0.016010761 6:0.77699866 7:0.00012085002 8:0.00091811862 9:0.089766607 10:0.095652174 11:0.86311724 12:0.27148006 13:0.58344459 14:0.087108014 15:0.28537534 16:0.16908947 17:0.26587302 18:0.15023474 19:0.19047369 20:0.08307903 21:0.86947639 22:1 
0.03125 1:0.023042965 2:0.0018244779 3:1.9024153e-005 4:3.8784339e-005 5:0.01601076 6:0.77699499 7:0.00012085044 8:0.00072238531 9:0.093357271 10:0.095652174 11:0.82631585 12:0.27761044 13:0.57355486 14:0.090592334 15:0.27596175 16:0.18381755 17:0.30555556 18:0.17370892 19:0.22070497 20:0.080581423 21:0.92168584 22:1 
0.03125 1:0.020535348 2:0.0041165572 3:4.831024e-005 4:6.9154793e-006 5:0.016010761 6:0.77699874 7:0.00012085 8:0.00058970263 9:0.093357271 10:0.093913043 11:0.74425744 12:0.27761044 13:0.58364486 14:0.090592334 15:0.25115346 16:0.20083784 17:0.37698413 18:0.18779343 19:0.25974455 20:0.077049274 21:0.94684129 22:1 
0.03125 1:0.027228665 2:0.00099133062 3:1.2475109e-006 4:3.1356842e-005 5:0.016010761 6:0.77699795 7:0.00012084968 8:0.0010432124 9:0.08438061 10:0.08173913 11:0.96422126 12:0.26205451 13:0.82376502 14:0.081881533 15:0.36586693 16:0.11643463 17:0.27380952 18:0.15962441 19:0.20637511 20:0.085879647 21:1 22:1 
0.03125 1:0.023017378 2:0.00022718631 3:6.6909383e-007 4:6.7812502e-006 5:0.016010761 6:0.77699875 7:0.00012084978 8:0.00079845646 9:0.070017953 10:0.067826087 11:0.85530077 12:0.23537043 13:0.64753004 14:0.067944251 15:0.24447822 16:0.14632574 17:0.36507937 18:0.20187793 19:0.25989795 20:0.066024305 21:1 22:1 
0.03125 1:0.018105693 2:7.1338192e-005 3:1.7457803e-006 4:7.2988175e-005 5:0.016010761 6:0.77699954 7:0.00012085037 8:0.00058824653 9:0.098743268 10:0.099130435 11:0.87855747 12:0.28659305 13:0.55140187 14:0.095818815 15:0.30658729 16:0.17236093 17:0.43253968 18:0.22065728 19:0.29336182 20:0.08307903 21:0.94959088 22:1 
0.03125 1:0.019487056 2:0.0007176503 3:3.7579364e-008 4:3.9538016e-005 5:0.016010761 6:0.77700025 7:0.00012084975 8:0.00063257293 9:0.11310592 10:0.12347826 11:0.94407529 12:0.30943297 13:0.47129506 14:0.1097561 15:0.39410825 16:0.15657466 17:0.33730159 18:0.19248826 19:0.25475315 20:0.1011683 21:0.83757062 22:1 
0.03125 1:0.018428362 2:0.00023657934 3:3.1943792e-005 4:2.0793677e-006 5:0.016010761 6:0.77699856 7:0.00012084979 8:0.00048511436 9:0.073608618 10:0.073043478 11:0.8830032 12:0.24227455 13:0.57593458 14:0.071428571 15:0.26611325 16:0.14409279 17:0.47222222 18:0.24413146 19:0.33103589 20:0.070287986 21:0.96600315 22:1 
0.03125 1:0.022180552 2:0.0016945331 3:2.1696954e-006 4:3.5520631e-005 5:0.016010761 6:0.77699879 7:0.00012084997 8:0.00077246193 9:0.14362657 10:0.14086957 11:0.96988838 12:0.35363768 13:0.94194612 14:0.13937282 15:0.49918468 16:0.15750145 17:0.28571429 18:0.15962441 19:0.20795596 20:0.11529689 21:0.98217239 22:1 
0.03125 1:0.023653567 2:0.00057179781 3:2.1819827e-006 4:6.0560032e-005 5:0.01601076 6:0.77700101 7:0.00012085003 8:0.00081823262 9:0.078994614 10:0.085217391 11:0.92384959 12:0.2523295 13:0.46028037 14:0.076655052 15:0.30492395 16:0.13498937 17:0.31746032 18:0.18309859 19:0.23586913 20:0.078815349 21:0.85381356 22:1 
0.03125 1:0.031588764 2:0.0002940305 3:6.4938741e-006 4:6.1394341e-005 5:0.016010761 6:0.77700113 7:0.00012085105 8:0.0013394679 9:0.091561939 10:0.095652174 11:0.94046528 12:0.27455999 13:0.58878505 14:0.088850174 15:0.34555465 16:0.13829031 17:0.21825397 18:0.12676056 19:0.16108656 20:0.088377254 21:0.89558111 22:1 
0.03125 1:0.020286853 2:0.00081107105 3:4.747635e-008 4:6.1277453e-005 5:0.016010761 6:0.77699685 7:0.00012084986 8:0.00069666527 9:0.11669659 10:0.12173913 11:0.93588474 12:0.31491605 13:0.59717719 14:0.11324042 15:0.38781281 16:0.16399292 17:0.35714286 18:0.18779343 19:0.25632565 20:0.098670691 21:0.8970518 22:1 
0.03125 1:0.026261643 2:0.00051726317 3:1.3776136e-006 4:7.0087584e-005 5:0.016010761 6:0.7769973 7:0.00012084932 8:0.00097907904 9:0.082585278 10:0.085217391 11:0.88073294 12:0.25884752 13:0.48217376 14:0.080139373 15:0.28283452 16:0.15597823 17:0.32142857 18:0.16431925 19:0.21483671 20:0.077049274 21:0.91228814 22:1 
0.03125 1:0.029385374 2:4.2278944e-005 3:9.2317405e-006 4:0.00012140014 5:0.016010756 6:0.777 7:0.00012084839 8:0.0012035265 9:0.082585278 10:0.086956522 11:0.92376265 12:0.25884752 13:0.64485981 14:0.080139373 15:0.31113414 16:0.13830253 17:0.25793651 18:0.14553991 19:0.19044656 20:0.079849891 21:0.88534397 22:1 
0.03125 1:0.022125378 2:0.0055001039 3:5.2289922e-005 4:2.9912623e-005 5:0.016010763 6:0.77700423 7:0.00012085064 8:0.00062362264 9:0.07540395 10:0.073043478 11:0.89663304 12:0.24566496 13:0.73084112 14:0.073170732 15:0.27495547 16:0.14020246 17:0.36904762 18:0.20187793 19:0.25403675 20:0.072054061 21:1 22:1 
0.03125 1:0.018114768 2:0.0018613504 3:8.8808835e-006 4:0.00044644429 5:0.016010721 6:0.77704958 7:0.00012084601 8:0.0005804118 9:0.086175943 10:0.092173913 11:0.93186043 12:0.26522826 13:0.605919 14:0.083623693 15:0.32634342 16:0.13820907 17:0.32936508 18:0.19248826 19:0.23650331 20:0.082347498 21:0.86464218 22:1 
0.03125 1:0.014903208 2:0.0029671889 3:5.7643764e-006 4:1.5961994e-005 5:0.016010761 6:0.77699973 7:0.00012084968 8:0.00041856024 9:0.12567325 10:0.1426087 11:0.92041864 12:0.3282708 13:0.60053405 14:0.12195122 15:0.40335646 16:0.19020903 17:0.4484127 18:0.22535211 19:0.30907903 20:0.10896413 21:0.78864611 22:1 
0.03125 1:0.014231692 2:0.0078399306 3:1.3315267e-006 4:0.00012695662 5:0.016010762 6:0.77702682 7:0.00012085103 8:0.00041505102 9:0.19928187 10:0.29043478 11:0.99301604 12:0.42361397 13:0.28971963 14:0.19337979 15:0.8300541 16:0.18778227 17:0.49206349 18:0.1971831 19:0.30860566 20:0.19058009 21:0.51271186 22:1 
0.03125 1:0.025821033 2:0.00045977859 3:5.2490969e-007 4:4.2975281e-005 5:0.016010761 6:0.77700028 7:0.00012084991 8:0.00093725474 9:0.12208259 10:0.12695652 11:0.93852911 12:0.32298719 13:0.52636849 14:0.1184669 15:0.39939523 16:0.1662755 17:0.23412698 18:0.14553991 19:0.17812613 20:0.1011683 21:0.90122538 22:1 
0.03125 1:0.028781439 2:3.9823172e-005 3:1.3519216e-006 4:5.0021624e-005 5:0.016010761 6:0.77699918 7:0.00012085007 8:0.0011253738 9:0.12208259 10:0.12521739 11:0.88129031 12:0.32298719 13:0.54018692 14:0.1184669 15:0.34650548 16:0.19523038 17:0.21031746 18:0.12676056 19:0.15632817 20:0.093372467 21:0.91989784 22:1 
0.03125 1:0.026001823 2:0.00050297545 3:1.4162549e-007 4:4.6513066e-005 5:0.016010761 6:0.77699572 7:0.00012084983 8:0.00096693653 9:0.080789946 10:0.08173913 11:0.82930159 12:0.25560622 13:0.71214953 14:0.078397213 15:0.25376313 16:0.16618474 17:0.27380952 18:0.15962441 19:0.20042486 20:0.072054061 21:0.93908898 22:1 
0.03125 1:0.022298264 2:0.0002974571 3:1.5870202e-006 4:2.517717e-005 5:0.016010761 6:0.77699744 7:0.00012084967 8:0.00078988231 9:0.12208259 10:0.12869565 11:0.8808004 12:0.32298719 13:0.47570093 14:0.1184669 15:0.34698127 16:0.19592488 17:0.3531746 18:0.15962441 19:0.22649404 20:0.095870074 21:0.88305085 22:1 
0.03125 1:0.016444981 2:0.01697513 3:1.7690882e-005 4:0.00022187515 5:0.016010778 6:0.77705368 7:0.00012086034 8:0.00036735006 9:0.31059246 10:0.40173913 11:0.9717115 12:0.53889547 13:0.2135514 14:0.30139373 15:0.84804551 16:0.28113287 17:0.36111111 18:0.14553991 19:0.23821781 20:0.23041629 21:0.6345339 22:1 
0.03125 1:0.021660901 2:0.00018843205 3:9.0558377e-007 4:3.9737159e-005 5:0.016010761 6:0.7769999 7:0.00012084963 8:0.00076062493 9:0.096947935 10:0.099130435 11:0.91702508 12:0.2836262 13:0.53738318 14:0.094076655 15:0.33220627 16:0.15574589 17:0.4047619 18:0.19248826 19:0.2703931 20:0.086611179 21:0.92438632 22:1 
0.03125 1:0.010081317 2:0.00083977482 3:3.8837213e-007 4:1.2308937e-005 5:0.016010761 6:0.77699755 7:0.00012084977 8:0.00024376452 9:0.1561939 10:0.16 11:0.94525875 12:0.37047223 13:0.52024922 14:0.15156794 15:0.46509131 16:0.18756341 17:0.62698413 18:0.28638498 19:0.40272816 20:0.11749149 21:0.92140514 22:1 
0.03125 1:0.025626717 2:0.0001975201 3:1.4142148e-006 4:3.4109714e-006 5:0.016010761 6:0.77699857 7:0.00012084977 8:0.00089681743 9:0.078994614 10:0.085217391 11:0.91652793 12:0.2523295 13:0.38317757 14:0.076655052 15:0.29867104 16:0.13810981 17:0.22222222 18:0.15492958 19:0.18410781 20:0.081312955 21:0.85381356 22:1 
0.03125 1:0.022215882 2:0.00032497415 3:4.9890958e-006 4:2.112388e-005 5:0.016010761 6:0.77699779 7:0.00012084995 8:0.00069136681 9:0.10951526 10:0.11304348 11:0.95562817 12:0.30386353 13:0.35470884 14:0.10627178 15:0.40552516 16:0.14543782 17:0.28571429 18:0.16431925 19:0.19826692 20:0.10013376 21:0.91140216 22:1 
0.03125 1:0.020318359 2:4.7711268e-005 3:4.1798849e-005 4:5.7410182e-005 5:0.01601076 6:0.77699954 7:0.00012085035 8:0.00051160514 9:0.22980251 10:0.31478261 11:0.90098351 12:0.45786429 13:0.28642111 14:0.22299652 15:0.61215765 16:0.33201863 17:0.29365079 18:0.14084507 19:0.18953204 20:0.19880445 21:0.57429223 22:1 
0.03125 1:0.015460795 2:0.0060347759 3:2.7119963e-007 4:6.5435487e-005 5:0.016010761 6:0.77698568 7:0.00012085003 8:0.00041188363 9:0.20287253 10:0.22086957 11:0.97572655 12:0.42777244 13:0.26862483 14:0.19686411 15:0.63293793 16:0.19148541 17:0.40079365 18:0.18779343 19:0.26859853 20:0.15409855 21:0.84010858 22:1 
0.03125 1:0.018737615 2:0.00082832079 3:9.1963484e-008 4:1.7489926e-005 5:0.016010761 6:0.77699782 7:0.00012084978 8:0.00054422486 9:0.15260323 10:0.16 11:0.96964866 12:0.36573291 13:0.33369984 14:0.14808362 15:0.51972504 16:0.16567845 17:0.32539683 18:0.17370892 19:0.22733048 20:0.12675039 21:0.8899672 22:1 
0.03125 1:0.020437599 2:9.0445564e-005 3:2.1741965e-007 4:5.1157167e-005 5:0.016010761 6:0.77699772 7:0.00012084989 8:0.00063876286 9:0.12387792 10:0.12521739 11:0.91355523 12:0.32563843 13:0.48003398 14:0.12020906 15:0.3764237 16:0.18318253 17:0.33730159 18:0.16901408 19:0.23103627 20:0.095870074 21:0.93992338 22:1 
0.03125 1:0.01899735 2:0.0001863721 3:8.8691102e-008 4:9.3092078e-005 5:0.016010761 6:0.77699623 7:0.00012084997 8:0.00060764734 9:0.12028725 10:0.11826087 11:0.90933811 12:0.32031667 13:0.40186916 14:0.11672474 15:0.36639498 16:0.18189567 17:0.3531746 18:0.19248826 19:0.25541446 20:0.094835531 21:0.97881356 22:1 
0.03125 1:0.027671092 2:2.9331814e-005 3:4.1499598e-006 4:2.7872089e-005 5:0.016010761 6:0.77699808 7:0.00012084985 8:0.0010518239 9:0.078994614 10:0.08 11:0.84869086 12:0.2523295 13:0.64753004 14:0.076655052 15:0.25946045 16:0.16009616 17:0.27777778 18:0.14553991 19:0.19296053 20:0.072054061 21:0.937793 22:1 
0.03125 1:0.021479995 2:0.0006296759 3:2.3679611e-008 4:5.087015e-005 5:0.016010761 6:0.77699725 7:0.00012084978 8:0.00073264828 9:0.10412926 10:0.11130435 11:0.92176277 12:0.29533811 13:0.52453271 14:0.1010453 15:0.352953 16:0.16214078 17:0.38492063 18:0.16901408 19:0.25121671 20:0.092640935 21:0.86505867 22:1 
0.03125 1:0.018833227 2:0.00015415771 3:3.3214733e-007 4:0.00011734313 5:0.016010761 6:0.77699843 7:0.00012084903 8:0.00057712811 9:0.1059246 10:0.10608696 11:0.89486839 12:0.2982035 13:0.79439252 14:0.10278746 15:0.3280027 16:0.17287083 17:0.42063492 18:0.20187793 19:0.28889513 20:0.085879647 21:0.95284308 22:1 
0.03125 1:0.020178442 2:0.00040451253 3:1.6406873e-007 4:1.3314417e-005 5:0.016010761 6:0.77699805 7:0.00012084979 8:0.00066924154 9:0.12387792 10:0.12695652 11:0.93774309 12:0.32563843 13:0.53738318 14:0.12020906 15:0.4013821 16:0.16823667 17:0.38095238 18:0.17840376 19:0.24869009 20:0.1011683 21:0.9209803 22:1 
0.03125 1:0.01534102 2:0.00058054167 3:1.5226223e-007 4:7.0820789e-005 5:0.016010761 6:0.77699986 7:0.00012084964 8:0.00046341926 9:0.10412926 10:0.10608696 11:0.90803594 12:0.29533811 13:0.69949676 14:0.1010453 15:0.33579729 16:0.16600394 17:0.52777778 18:0.23943662 19:0.34622806 20:0.088377254 21:0.92926463 22:1 
0.03125 1:0.015684775 2:0.0050923171 3:2.8479453e-005 4:2.7973496e-005 5:0.016010761 6:0.77699847 7:0.00012084892 8:0.00042069611 9:0.1956912 10:0.20869565 11:0.97852777 12:0.4194182 13:0.64753004 14:0.18989547 15:0.62450813 16:0.18059767 17:0.3452381 18:0.19248826 19:0.25320913 20:0.14940635 21:0.86710324 22:1 
0.03125 1:0.021398054 2:0.00044064861 3:1.2644317e-006 4:4.1003557e-005 5:0.016010762 6:0.77699677 7:0.00012084966 8:0.00069354326 9:0.16517056 10:0.17565217 11:0.91938611 12:0.38209008 13:0.56308411 14:0.16027875 15:0.45163039 16:0.21709161 17:0.27777778 18:0.14084507 19:0.19171042 20:0.11925757 21:0.87101196 22:1 
0.03125 1:0.024189926 2:0.00039198347 3:2.9025224e-007 4:1.7899773e-005 5:0.016010761 6:0.77699753 7:0.0001208498 8:0.00086125563 9:0.07540395 10:0.07826087 11:0.87856605 12:0.24566496 13:0.65046729 14:0.073170732 15:0.26605509 16:0.1468922 17:0.3531746 18:0.18309859 19:0.24723019 20:0.072054061 21:0.90466102 22:1 
0.03125 1:0.021796784 2:0.00053366461 3:7.7963607e-006 4:0.00011574544 5:0.016010757 6:0.77700216 7:0.00012084798 8:0.00073703041 9:0.10951526 10:0.11130435 11:0.92917329 12:0.30386353 13:0.67690254 14:0.10627178 15:0.36554195 16:0.16075077 17:0.3452381 18:0.15962441 19:0.23537666 20:0.092640935 21:0.93252934 22:1 
0.03125 1:0.027171875 2:0.00035961676 3:5.1646146e-006 4:0.00011789605 5:0.016010761 6:0.77699348 7:0.00012084673 8:0.0010472995 9:0.12028725 10:0.12521739 11:0.90534886 12:0.32031667 13:0.57296909 14:0.11672474 15:0.36355 16:0.18416723 17:0.22619048 18:0.1314554 19:0.16580457 20:0.096904617 21:0.8998723 22:1 
0.03125 1:0.021552407 2:0.00035409857 3:1.2767978e-006 4:9.3815302e-005 5:0.016010763 6:0.77700081 7:0.00012084946 8:0.00070699536 9:0.12926391 10:0.12695652 11:0.91408984 12:0.3334805 13:0.83845127 14:0.12543554 15:0.38186535 16:0.18560037 17:0.30952381 18:0.16431925 19:0.21869084 20:0.097939159 21:0.98024508 22:1 
0.03125 1:0.020083144 2:0.0041943039 3:2.4438928e-006 4:3.2621712e-005 5:0.016010761 6:0.77699843 7:0.00012084998 8:0.00068018977 9:0.23518851 10:0.26608696 11:0.96278135 12:0.46366874 13:0.47436002 14:0.228223 15:0.65322878 16:0.23339121 17:0.31349206 18:0.12676056 19:0.19325617 20:0.16542653 21:0.79116223 22:1 
0.03125 1:0.022267529 2:0.0040070113 3:7.677472e-007 4:6.3816749e-005 5:0.016010762 6:0.77700116 7:0.00012084957 8:0.00073673242 9:0.13644524 10:0.14434783 11:0.97820303 12:0.34369005 13:0.38720909 14:0.13240418 15:0.51361478 16:0.14402974 17:0.28571429 18:0.16431925 19:0.21090647 20:0.12175517 21:0.87817797 22:1 
0.03125 1:0.025012872 2:6.4431122e-006 3:1.6941934e-005 4:8.1343507e-005 5:0.016010757 6:0.77699835 7:0.00012084984 8:0.00084622439 9:0.089766607 10:0.097391304 11:0.97238099 12:0.27148006 13:0.25032351 14:0.087108014 15:0.39747786 16:0.11530508 17:0.32142857 18:0.17370892 19:0.22761686 20:0.098367681 21:0.84611954 22:1 
0.03125 1:0.015372607 2:0.003736999 3:1.5004005e-005 4:0.00010979574 5:0.016010757 6:0.77701336 7:0.00012084645 8:0.00038756673 9:0.12926391 10:0.13391304 11:0.91875621 12:0.3334805 13:0.48108589 14:0.12543554 15:0.39024011 16:0.18510209 17:0.33730159 18:0.19248826 19:0.23935008 20:0.10189983 21:0.90629074 22:1 
0.03125 1:0.028899836 2:0.00073074911 3:1.2556452e-007 4:7.9259396e-006 5:0.016010761 6:0.77699793 7:0.00012084978 8:0.0011251665 9:0.14362657 10:0.15652174 11:0.94843322 12:0.35363768 13:0.65854473 14:0.13937282 15:0.45797857 16:0.17937773 17:0.1984127 18:0.11737089 19:0.14928911 20:0.11499388 21:0.83935556 22:1 
0.03125 1:0.014362594 2:2.0517702e-005 3:5.1989003e-005 4:5.3066337e-005 5:0.016010757 6:0.77699807 7:0.00012085051 8:0.0003027214 9:0.11490126 10:0.11826087 11:0.91999325 12:0.31218506 13:0.50882658 14:0.11149826 15:0.36579244 16:0.17075676 17:0.55952381 18:0.25352113 19:0.35777125 20:0.095138542 21:0.91525424 22:1 
0.03125 1:0.016490669 2:0.0056332323 3:9.4172613e-007 4:8.2539434e-007 5:0.016010761 6:0.7769986 7:0.00012084977 8:0.00045822995 9:0.24057451 10:0.29913043 11:0.97389236 12:0.46940761 13:0.34462617 14:0.23344948 15:0.72869285 16:0.23073764 17:0.33730159 18:0.18309859 19:0.23382156 20:0.18881402 21:0.67889684 22:1 
0.03125 1:0.019829134 2:0.00079813638 3:2.0388426e-006 4:6.3786453e-005 5:0.016010762 6:0.77699978 7:0.00012084964 8:0.00059768381 9:0.093357271 10:0.090434783 11:0.91973302 12:0.27761044 13:0.85607477 14:0.090592334 15:0.32773049 16:0.1507987 17:0.38888889 18:0.21126761 19:0.27132604 20:0.083382041 21:1 22:1 
0.03125 1:0.024753215 2:0.00073212487 3:1.0717486e-007 4:5.4019282e-005 5:0.016010761 6:0.77700231 7:0.00012084966 8:0.00088432285 9:0.10233393 10:0.10782609 11:0.96608728 12:0.29244833 13:0.56137072 14:0.099303136 15:0.41111895 16:0.13118395 17:0.26190476 18:0.15962441 19:0.20004395 20:0.098670691 21:0.88397902 22:1 
0.03125 1:0.02754627 2:0.0005590276 3:1.6397431e-005 4:2.2966805e-005 5:0.016010761 6:0.77699703 7:0.00012084925 8:0.0010172784 9:0.13285458 10:0.13391304 11:0.81498611 12:0.33861931 13:0.62305296 14:0.12891986 15:0.32821316 16:0.22873404 17:0.21428571 18:0.12206573 19:0.15306908 20:0.095138542 21:0.94377445 22:1 
0.03125 1:0.031199894 2:0.00082583414 3:2.6120746e-007 4:3.6237077e-005 5:0.016010761 6:0.77700001 7:0.00012084971 8:0.0012905501 9:0.093357271 10:0.099130435 11:0.96520218 12:0.27761044 13:0.5447263 14:0.090592334 15:0.38914981 16:0.12407672 17:0.19047619 18:0.1314554 19:0.16164705 20:0.09440701 21:0.87397721 22:1 
0.03125 1:0.026751883 2:0.00034920489 3:1.0080957e-006 4:4.3096294e-005 5:0.016010761 6:0.77700033 7:0.00012084998 8:0.00098260229 9:0.089766607 10:0.086956522 11:0.92107253 12:0.27148006 13:0.46542056 14:0.087108014 15:0.32178678 16:0.1463904 17:0.25396825 18:0.15492958 19:0.19143017 20:0.081312955 21:1 22:1 
0.03125 1:0.022659355 2:0.00044849649 3:1.7908208e-006 4:8.0670357e-005 5:0.016010761 6:0.77699394 7:0.00012085077 8:0.00077833825 9:0.12746858 10:0.1426087 11:0.95699343 12:0.33088469 13:0.40080107 14:0.12369338 15:0.44877968 16:0.16156257 17:0.26587302 18:0.15962441 19:0.20084216 20:0.11322781 21:0.80625893 22:1 
0.03125 1:0.026074348 2:0.0010589915 3:2.3216488e-006 4:2.9039356e-005 5:0.016010761 6:0.77699598 7:0.00012085 8:0.00097524799 9:0.11849192 10:0.12695652 11:0.89464506 12:0.31762644 13:0.56110712 14:0.11498258 15:0.35193639 16:0.18724369 17:0.25396825 18:0.1314554 19:0.1778087 20:0.095138542 21:0.86171553 22:1 
0.03125 1:0.020736547 2:0.0014295493 3:9.5819368e-007 4:1.5090176e-005 5:0.016010761 6:0.77699696 7:0.00012084983 8:0.00067596476 9:0.1508079 10:0.16347826 11:0.95674318 12:0.36334258 13:0.53738318 14:0.14634146 15:0.49277313 16:0.18050133 17:0.33333333 18:0.16431925 19:0.20910904 20:0.12278971 21:0.84611954 22:1 
0.03125 1:0.024980132 2:0.00011854259 3:3.8618785e-007 4:6.8990356e-005 5:0.016010761 6:0.77699756 7:0.00012085008 8:0.00089112218 9:0.089766607 10:0.090434783 11:0.88670433 12:0.27148006 13:0.51535381 14:0.087108014 15:0.29756401 16:0.16088741 17:0.3015873 18:0.15962441 19:0.21247265 20:0.081312955 21:0.94483531 22:1 
0.03125 1:0.024387206 2:0.0028919914 3:4.7134087e-006 4:6.0873934e-005 5:0.016010762 6:0.77699222 7:0.00012084915 8:0.00091930956 9:0.12028725 10:0.13391304 11:0.94663402 12:0.32031667 13:0.56528705 14:0.11672474 15:0.42658963 16:0.16792183 17:0.32539683 18:0.15492958 19:0.19981926 20:0.1082326 21:0.81258149 22:1 
0.03125 1:0.023547913 2:0.00083941633 3:7.6432662e-007 4:7.4521634e-005 5:0.016010761 6:0.77699396 7:0.0001208493 8:0.00079768084 9:0.11849192 10:0.12695652 11:0.96247198 12:0.31762644 13:0.45514019 14:0.11498258 15:0.43721342 16:0.14758761 17:0.26190476 18:0.15962441 19:0.19236999 20:0.10719805 21:0.86171553 22:1 
0.03125 1:0.025399115 2:0.00014441796 3:3.4948238e-005 4:0.00012512226 5:0.016010773 6:0.77700162 7:0.0001208523 8:0.00082369379 9:0.15978456 10:0.17043478 11:0.949023 12:0.37515799 13:0.33282472 14:0.15505226 15:0.48007293 16:0.18831944 17:0.22222222 18:0.1314554 19:0.16477635 20:0.12145216 21:0.86710324 22:1 
0.03125 1:0.031411222 2:0.00012570993 3:2.821465e-006 4:2.7189687e-005 5:0.016010761 6:0.77699767 7:0.00012084962 8:0.0012741712 9:0.095152603 10:0.097391304 11:0.91657297 12:0.28063224 13:0.52336449 14:0.092334495 15:0.33000093 16:0.15498045 17:0.19047619 18:0.11737089 19:0.1406572 20:0.086611179 21:0.92305977 22:1 
0.03125 1:0.02718126 2:0.00015299527 3:1.5792823e-006 4:5.1268645e-005 5:0.016010762 6:0.77699706 7:0.00012084972 8:0.00097751396 9:0.093357271 10:0.097391304 11:0.93257795 12:0.27761044 13:0.60460101 14:0.090592334 15:0.34156517 16:0.14503474 17:0.23015873 18:0.14553991 19:0.17437902 20:0.086611179 21:0.89741302 22:1 
0.03125 1:0.026358689 2:0.0010416348 3:2.8995143e-005 4:8.5573954e-005 5:0.016010765 6:0.7770057 7:0.00012084936 8:0.00089180999 9:0.11310592 10:0.11826087 11:0.92430442 12:0.30943297 13:0.6339735 14:0.1097561 15:0.37578639 16:0.17137855 17:0.24603175 18:0.14553991 19:0.18024886 20:0.096173084 21:0.8940678 22:1 
0.03125 1:0.026513995 2:0.00036983183 3:2.8506143e-006 4:6.6843788e-006 5:0.016010761 6:0.7769982 7:0.00012084979 8:0.0010563569 9:0.073608618 10:0.076521739 11:0.91259926 12:0.24227455 13:0.62990654 14:0.071428571 15:0.28371097 16:0.13319339 17:0.32539683 18:0.18309859 19:0.24499285 20:0.073820135 21:0.90254237 22:1 
0.03125 1:0.02488853 2:7.0598985e-005 3:1.5310385e-006 4:4.0407357e-005 5:0.016010761 6:0.77699937 7:0.00012084966 8:0.000873038 9:0.068222621 10:0.067826087 11:0.84557692 12:0.23185362 13:0.83551402 14:0.066202091 15:0.23643329 16:0.14581891 17:0.37301587 18:0.18779343 19:0.25218482 20:0.065292773 21:0.96345339 22:1 
0.03125 1:0.025241514 2:4.5772669e-005 3:3.9862706e-007 4:3.7879022e-005 5:0.016010761 6:0.77699806 7:0.00012084986 8:0.00090098023 9:0.11849192 10:0.12 11:0.87818226 12:0.31762644 13:0.45514019 14:0.11498258 15:0.34059733 16:0.1940232 17:0.22619048 18:0.14084507 19:0.17720198 20:0.095870074 21:0.93734867 22:1 
0.03125 1:0.016879867 2:0.00037738599 3:9.214361e-008 4:5.4199383e-005 5:0.016010761 6:0.7769981 7:0.00012084988 8:0.00050779715 9:0.13824057 10:0.14434783 11:0.92006087 12:0.34620072 13:0.45367156 14:0.13414634 15:0.40453802 16:0.19124607 17:0.3968254 18:0.1971831 19:0.27105071 20:0.10616351 21:0.89558111 22:1 
0.03125 1:0.018123577 2:9.8636646e-005 3:1.536547e-007 4:5.9485839e-005 5:0.016010761 6:0.77699705 7:0.00012084988 8:0.00054377883 9:0.11310592 10:0.12 11:0.87592862 12:0.30943297 13:0.52552121 14:0.1097561 15:0.33349881 16:0.19129394 17:0.44444444 18:0.18779343 19:0.27838111 20:0.093372467 21:0.87469734 22:1 
0.03125 1:0.034882076 2:0.012068514 3:7.4993007e-005 4:0.00011641428 5:0.016010747 6:0.77703252 7:0.00012085414 8:0.0013757654 9:0.048473968 10:0.050434783 11:0.83734025 12:0.18970463 13:0.62990654 14:0.047038328 15:0.19550052 16:0.12085194 17:0.20634921 18:0.1314554 19:0.16132108 20:0.055730868 21:0.90254237 22:1 
0.03125 1:0.02375054 2:0.00037007893 3:1.7323869e-007 4:6.6334366e-005 5:0.016010761 6:0.7769981 7:0.0001208498 8:0.00083172476 9:0.086175943 10:0.090434783 11:0.85907644 12:0.26522826 13:0.68224299 14:0.083623693 15:0.27674651 16:0.16585154 17:0.32936508 18:0.16901408 19:0.23492708 20:0.078083817 21:0.88967061 22:1 
0.03125 1:0.028792133 2:0.002038446 3:4.6598785e-005 4:6.0024652e-006 5:0.016010761 6:0.776998 7:0.00012084957 8:0.0011120138 9:0.080789946 10:0.08173913 11:0.86481396 12:0.25560622 13:0.6671117 14:0.078397213 15:0.26871196 16:0.15707772 17:0.28968254 18:0.13615023 19:0.19423895 20:0.073820135 21:0.93908898 22:1 
0.03125 1:0.025339832 2:0.0011759584 3:5.2900682e-007 4:9.6152093e-005 5:0.016010761 6:0.77699487 7:0.00012084921 8:0.00096857549 9:0.12567325 10:0.13043478 11:0.94735481 12:0.3282708 13:0.49626168 14:0.12195122 15:0.42184353 16:0.16472874 17:0.28968254 18:0.13615023 19:0.20046842 20:0.10719805 21:0.90382471 22:1 
0.03125 1:0.023648005 2:0.00014997326 3:1.104169e-006 4:8.9187333e-005 5:0.016010761 6:0.77700135 7:0.00012084895 8:0.00081445273 9:0.080789946 10:0.08 11:0.95398709 12:0.25560622 13:0.39688474 14:0.078397213 15:0.33961988 16:0.11950202 17:0.32539683 18:0.20187793 19:0.24770287 20:0.081312955 21:0.9688965 22:1 
0.03125 1:0.023000313 2:0.0015091299 3:1.42197e-006 4:9.429877e-006 5:0.016010761 6:0.77699771 7:0.0001208498 8:0.00077033982 9:0.14362657 10:0.17391304 11:0.97711314 12:0.35363768 13:0.46028037 14:0.13937282 15:0.56104001 16:0.16288254 17:0.24206349 18:0.15962441 19:0.18963825 20:0.13131708 21:0.7105219 22:1 
0.03125 1:0.021193493 2:0.00015654043 3:2.4979132e-006 4:0.00012018144 5:0.016010758 6:0.77700073 7:0.00012084921 8:0.00072617572 9:0.087971275 10:0.090434783 11:0.79294348 12:0.26836979 13:0.62305296 14:0.085365854 15:0.25571941 16:0.18471682 17:0.3968254 18:0.20657277 19:0.28103608 20:0.074551667 21:0.91725296 22:1 
0.03125 1:0.018571523 2:0.0037393837 3:3.4568258e-006 4:8.1012425e-005 5:0.016010761 6:0.77698801 7:0.00012084831 8:0.0005738033 9:0.11849192 10:0.13043478 11:0.95661753 12:0.31762644 13:0.55353805 14:0.11498258 15:0.43780526 16:0.15756013 17:0.38492063 18:0.20657277 19:0.27276041 20:0.10646652 21:0.82688448 22:1 
0.03125 1:0.015988858 2:0.00091336832 3:6.1027917e-006 4:5.1408215e-006 5:0.016010761 6:0.77699888 7:0.0001208497 8:0.00049589837 9:0.25314183 10:0.32695652 11:0.67675642 12:0.48255521 13:0.38101328 14:0.2456446 15:0.49420234 16:0.45065995 17:0.3531746 18:0.15962441 19:0.2226543 20:0.19630684 21:0.63646758 22:1 
0.03125 1:0.021420058 2:0.0050530793 3:1.672768e-005 4:1.6205127e-005 5:0.016010762 6:0.77700151 7:0.00012084965 8:0.0006793237 9:0.13285458 10:0.1373913 11:0.89462371 12:0.33861931 13:0.46728972 14:0.12891986 15:0.37229597 16:0.19933327 17:0.39285714 18:0.15023474 19:0.24401725 20:0.10013376 21:0.90863347 22:1 
0.03125 1:0.028128078 2:0.0002777992 3:2.2366772e-007 4:2.1217674e-005 5:0.016010761 6:0.77699886 7:0.00012084977 8:0.0010990641 9:0.086175943 10:0.090434783 11:0.93728333 12:0.26522826 13:0.55140187 14:0.083623693 15:0.33278199 16:0.13570225 17:0.24206349 18:0.15023474 19:0.18332614 20:0.084113573 21:0.88967061 22:1 
0.03125 1:0.017971423 2:0.0040570658 3:7.3438768e-006 4:5.3176795e-005 5:0.01601076 6:0.77699873 7:0.00012085002 8:0.00051578724 9:0.14183124 10:0.15652174 11:0.97422943 12:0.35117424 13:0.18102568 14:0.13763066 15:0.52508586 16:0.15736113 17:0.43253968 18:0.19248826 19:0.2719914 20:0.13777536 21:0.82329112 22:1 
0.03125 1:0.019378282 2:0.0011826755 3:1.4492643e-006 4:6.5300044e-005 5:0.016010761 6:0.77699386 7:0.00012084916 8:0.00059406672 9:0.16696589 10:0.20695652 11:0.91120831 12:0.38437586 13:0.36103523 14:0.16202091 15:0.49008277 16:0.24848033 17:0.29365079 18:0.16901408 19:0.21327989 20:0.13381468 21:0.68326271 22:1 
0.03125 1:0.013681898 2:0.00084404393 3:2.157877e-007 4:6.3595108e-006 5:0.016010761 6:0.7769988 7:0.00012084977 8:0.00035247343 9:0.13644524 10:0.13913043 11:0.93623374 12:0.34369005 13:0.67102804 14:0.13240418 15:0.42111177 16:0.1797453 17:0.46825397 18:0.24413146 19:0.3246216 20:0.10646652 21:0.92780917 22:1 
0.03125 1:0.024706151 2:0.00086011102 3:3.4671258e-007 4:2.623985e-005 5:0.016010761 6:0.77699995 7:0.00012084972 8:0.0009032547 9:0.078994614 10:0.08 11:0.95219758 12:0.2523295 13:0.38317757 14:0.076655052 15:0.33683816 16:0.12050668 17:0.31349206 18:0.1971831 19:0.2419215 20:0.081312955 21:0.937793 22:1 
0.03125 1:0.022950917 2:0.0062773751 3:7.212045e-005 4:0.00014616706 5:0.016010782 6:0.77702604 7:0.00012085416 8:0.000694574 9:0.089766607 10:0.095652174 11:0.92140828 12:0.27148006 13:0.64018692 14:0.087108014 15:0.32406912 16:0.14727868 17:0.34126984 18:0.1971831 19:0.25120995 20:0.084113573 21:0.86947639 22:1 
0.03125 1:0.021423895 2:0.00085352985 3:7.7619389e-006 4:3.3542637e-005 5:0.01601076 6:0.77700101 7:0.0001208497 8:0.0006975967 9:0.086175943 10:0.092173913 11:0.92696051 12:0.26522826 13:0.55140187 14:0.083623693 15:0.32225111 16:0.14101294 17:0.36111111 18:0.20187793 19:0.26620288 20:0.082347498 21:0.86464218 22:1 
0.03125 1:0.016630973 2:7.2485592e-005 3:8.8330025e-006 4:1.1263591e-006 5:0.016010761 6:0.77699846 7:0.00012084978 8:0.00045859228 9:0.11669659 10:0.12347826 11:0.9283161 12:0.31491605 13:0.39266715 14:0.11324042 15:0.38093225 16:0.16952164 17:0.41269841 18:0.21596244 19:0.2984541 20:0.10013376 21:0.87817797 22:1 
0.03125 1:0.029445494 2:0.0014193665 3:3.9451865e-008 4:3.6948122e-005 5:0.016010761 6:0.77700201 7:0.00012084977 8:0.001096219 9:0.13644524 10:0.15652174 11:0.97726024 12:0.34369005 13:0.25100134 14:0.13240418 15:0.52882891 16:0.15147908 17:0.1984127 18:0.12206573 19:0.14655237 20:0.12498431 21:0.77509778 22:1 
0.03125 1:0.022886264 2:0.00014772602 3:4.3469009e-007 4:1.3305369e-005 5:0.016010761 6:0.7769982 7:0.00012084974 8:0.00077118403 9:0.091561939 10:0.093913043 11:0.9379998 12:0.27455999 13:0.43457944 14:0.088850174 15:0.34350084 16:0.1400833 17:0.3531746 18:0.18309859 19:0.2408236 20:0.087342711 21:0.92026194 22:1 
0.03125 1:0.026636867 2:0.0047240336 3:5.947212e-005 4:6.3011101e-006 5:0.016010761 6:0.77699958 7:0.00012084982 8:0.00092646001 9:0.073608618 10:0.074782609 11:0.90484796 12:0.24227455 13:0.80261682 14:0.071428571 15:0.27867716 16:0.13636247 17:0.32539683 18:0.16901408 19:0.23386243 20:0.073088603 21:0.93355162 22:1 
0.03125 1:0.021797658 2:0.0027220072 3:1.2085212e-005 4:4.481445e-005 5:0.016010763 6:0.77700272 7:0.00012085001 8:0.00069125745 9:0.11669659 10:0.13217391 11:0.96786449 12:0.31491605 13:0.49332443 14:0.11324042 15:0.4524724 16:0.14391567 17:0.33730159 18:0.17840376 19:0.22497568 20:0.1107302 21:0.79116223 22:1 
0.03125 1:0.017128943 2:0.0028706848 3:1.4524179e-007 4:4.1898881e-005 5:0.016010761 6:0.77700277 7:0.0001208497 8:0.00055062284 9:0.15798923 10:0.17043478 11:0.9729012 12:0.37282169 13:0.59187689 14:0.1533101 15:0.53585136 16:0.16429558 17:0.46031746 18:0.17370892 19:0.27898986 20:0.12881947 21:0.85233693 22:1 
0.03125 1:0.028011821 2:0.00065935088 3:2.7876205e-007 4:6.8945815e-005 5:0.016010761 6:0.7770031 7:0.00012084946 8:0.0010606805 9:0.10233393 10:0.10956522 11:0.96094108 12:0.29244833 13:0.40520694 14:0.099303136 15:0.40524724 16:0.13719538 17:0.21428571 18:0.13615023 19:0.1688554 20:0.099402223 21:0.86295021 22:1 
0.03125 1:0.019631723 2:0.013144345 3:1.1640311e-005 4:0.00015966111 5:0.01601076 6:0.77703636 7:0.00012085359 8:0.0004810765 9:0.12208259 10:0.13043478 11:0.96829954 12:0.32298719 13:0.65303738 14:0.1184669 15:0.46263724 16:0.14695261 17:0.27380952 18:0.17840376 19:0.22089727 20:0.1107302 21:0.86535459 22:1 
0.03125 1:0.020483129 2:0.0012819981 3:4.2736081e-007 4:2.2193729e-005 5:0.016010761 6:0.77699663 7:0.00012084974 8:0.00065739015 9:0.12028725 10:0.13217391 11:0.97034938 12:0.32031667 13:0.38774663 14:0.11672474 15:0.4624976 16:0.14292534 17:0.34126984 18:0.18779343 19:0.25248525 20:0.11146174 21:0.82913273 22:1 
0.03125 1:0.013704146 2:0.0047781658 3:2.4152323e-006 4:6.8670413e-005 5:0.016010761 6:0.77701114 7:0.00012085074 8:0.00038041454 9:0.19389587 10:0.23304348 11:0.96847009 12:0.41730601 13:0.34846462 14:0.18815331 15:0.62486815 16:0.2079921 17:0.56349206 18:0.17840376 19:0.31643536 20:0.1576307 21:0.71845574 22:1 
0.03125 1:0.015427204 2:0.0021209781 3:8.2855273e-007 4:3.3322421e-005 5:0.016010761 6:0.77699518 7:0.00012084961 8:0.00042450068 9:0.17414722 10:0.19478261 11:0.97928997 12:0.3933996 13:0.34481062 14:0.16898955 15:0.59107188 16:0.16723355 17:0.39285714 18:0.20187793 19:0.28092823 20:0.14234205 21:0.8059472 22:1 
0.03125 1:0.020930267 2:0.00060092054 3:5.5403086e-007 4:6.1511483e-005 5:0.016010761 6:0.77699905 7:0.00012084941 8:0.00068194958 9:0.093357271 10:0.099130435 11:0.9366129 12:0.27761044 13:0.60460101 14:0.090592334 15:0.34556798 16:0.14261935 17:0.36111111 18:0.19248826 19:0.25491254 20:0.088377254 21:0.87397721 22:1 
0.03125 1:0.012028192 2:0.0045269589 3:1.3615474e-005 4:3.6888084e-005 5:0.016010762 6:0.7770026 7:0.00012085108 8:0.00026407111 9:0.14362657 10:0.15826087 11:0.96365103 12:0.35363768 13:0.60606299 14:0.13937282 15:0.49800507 16:0.1696629 17:0.4484127 18:0.23004695 19:0.31921721 20:0.12029211 21:0.82521186 22:1 
0.03125 1:0.024246042 2:0.00057064746 3:4.4659153e-007 4:6.4542833e-005 5:0.016010761 6:0.77699545 7:0.00012084946 8:0.00085966899 9:0.12926391 10:0.12695652 11:0.91251963 12:0.3334805 13:0.83845127 14:0.12543554 15:0.37976367 16:0.18608712 17:0.25 18:0.14553991 19:0.18828668 20:0.097939159 21:0.98024508 22:1 
0.03125 1:0.018850749 2:0.0084665207 3:6.7781848e-005 4:1.3043991e-005 5:0.016010761 6:0.77699587 7:0.00012084965 8:0.00051987651 9:0.1561939 10:0.16173913 11:0.99222121 12:0.37047223 13:0.75327103 14:0.15156794 15:0.63088922 16:0.13800042 17:0.3531746 18:0.19248826 19:0.25001254 20:0.13838138 21:0.90668951 22:1 
0.03125 1:0.015364939 2:0.00028171534 3:1.997097e-007 4:2.1942475e-005 5:0.016010761 6:0.77699772 7:0.00012084974 8:0.0004348365 9:0.11849192 10:0.12 11:0.9081641 12:0.31762644 13:0.67464311 14:0.11498258 15:0.36077072 16:0.17989401 17:0.48412698 18:0.23474178 19:0.32226878 20:0.09440701 21:0.93734867 22:1 
0.03125 1:0.03032631 2:5.7661966e-005 3:2.0530814e-006 4:3.8098761e-005 5:0.016010761 6:0.77699831 7:0.00012084962 8:0.0012733645 9:0.048473968 10:0.048695652 11:0.82789734 12:0.18970463 13:0.75327103 14:0.047038328 15:0.19121006 16:0.12153093 17:0.33730159 18:0.17840376 19:0.23710477 20:0.053233261 21:0.94959088 22:1 
0.03125 1:0.024677248 2:0.00039393203 3:2.260704e-005 4:8.4009341e-006 5:0.016010761 6:0.77699892 7:0.00012084966 8:0.0008800026 9:0.12567325 10:0.13565217 11:0.97121637 12:0.3282708 13:0.45064252 14:0.12195122 15:0.4730975 16:0.14511056 17:0.26587302 18:0.15023474 19:0.19560184 20:0.11322781 21:0.8519631 22:1 
0.03125 1:0.021045125 2:0.0011514526 3:2.0242392e-005 4:9.4996484e-005 5:0.016010756 6:0.7770045 7:0.00012085138 8:0.00072435412 9:0.098743268 10:0.099130435 11:0.85563979 12:0.28659305 13:0.53395639 14:0.095818815 15:0.29527895 16:0.18040755 17:0.38492063 18:0.18779343 19:0.25822838 20:0.08307903 21:0.94959088 22:1 
0.03125 1:0.01371951 2:0.0070612687 3:2.4238489e-006 4:4.2378301e-005 5:0.016010762 6:0.77700233 7:0.00012084985 8:0.00039008283 9:0.17055655 10:0.18608696 11:0.98106472 12:0.38891123 13:0.57200076 14:0.16550523 15:0.60165551 16:0.16568876 17:0.51984127 18:0.21596244 19:0.33078183 20:0.14337659 21:0.83757062 22:1 
0.03125 1:0.019232765 2:0.00019861555 3:2.9964107e-007 4:4.9263375e-005 5:0.016010761 6:0.77699663 7:0.00012084961 8:0.00058010777 9:0.10951526 10:0.11304348 11:0.93336025 12:0.30386353 13:0.47455867 14:0.10627178 15:0.37137505 16:0.15893191 17:0.37698413 18:0.19248826 19:0.26717565 20:0.093372467 21:0.91140216 22:1 
0.03125 1:0.019778831 2:0.00038708859 3:1.9558437e-007 4:8.2152848e-005 5:0.016010762 6:0.77700081 7:0.00012084997 8:0.00060530223 9:0.073608618 10:0.07826087 11:0.92841314 12:0.24227455 13:0.43925234 14:0.071428571 15:0.29721346 16:0.12687088 17:0.42460317 18:0.23004695 19:0.31003326 20:0.077049274 21:0.87288136 22:1 
0.03125 1:0.018331571 2:0.00012870613 3:2.1063605e-007 4:5.5347967e-005 5:0.016010761 6:0.77699909 7:0.0001208499 8:0.00058305251 9:0.095152603 10:0.093913043 11:0.85887927 12:0.28063224 13:0.77570093 14:0.092334495 15:0.29093302 16:0.1754494 17:0.48015873 18:0.22535211 19:0.31078604 20:0.079849891 21:0.97342065 22:1 
0.03125 1:0.020073601 2:0.00026231923 3:1.5792479e-008 4:5.7474674e-005 5:0.016010761 6:0.77699826 7:0.0001208498 8:0.00063841108 9:0.11490126 10:0.12 11:0.91323213 12:0.31218506 13:0.4517134 14:0.11149826 15:0.36474104 16:0.17711161 17:0.36111111 18:0.17370892 19:0.24720256 20:0.095870074 21:0.89558111 22:1 
0.03125 1:0.027238465 2:0.0019830136 3:8.3697673e-005 4:3.2922125e-005 5:0.016010759 6:0.77699481 7:0.00012085105 8:0.00090084033 9:0.11131059 10:0.11652174 11:0.88308781 12:0.3066593 13:0.69158879 14:0.10801394 15:0.33146662 16:0.18446095 17:0.25793651 18:0.1314554 19:0.17466146 20:0.090143329 21:0.89250997 22:1 
0.03125 1:0.012005146 2:0.0037947603 3:1.3801255e-005 4:5.9993791e-006 5:0.016010761 6:0.77699753 7:0.0001208498 8:0.00031844654 9:0.1454219 10:0.15652174 11:0.97191261 12:0.35608597 13:0.70301142 14:0.14111498 15:0.51977791 16:0.16071695 17:0.56349206 18:0.26760563 19:0.38893772 20:0.12455579 21:0.85542 22:1 
0.03125 1:0.027065207 2:0.0016711335 3:3.2549039e-005 4:7.0747563e-005 5:0.016010763 6:0.77699076 7:0.00012084646 8:0.00098107697 9:0.07540395 10:0.073043478 11:0.86634027 12:0.24566496 13:0.82728972 14:0.073170732 15:0.25877326 16:0.14966303 17:0.3015873 18:0.15492958 19:0.20346027 20:0.069556454 21:1 22:1 
0.03125 1:0.015010358 2:0.0041882334 3:3.4534112e-006 4:1.1086866e-005 5:0.016010761 6:0.77699775 7:0.00012084971 8:0.00046294687 9:0.21005386 10:0.2226087 11:0.96518186 12:0.43598135 13:0.71161549 14:0.20383275 15:0.60670134 16:0.20912621 17:0.39285714 18:0.17370892 19:0.27078395 20:0.14764027 21:0.8753449 22:1 
0.03125 1:0.022273636 2:4.6704693e-005 3:5.6221107e-007 4:0.00011247958 5:0.016010762 6:0.77699686 7:0.00012084948 8:0.00075442265 9:0.12567325 10:0.13217391 11:0.92607125 12:0.3282708 13:0.44011503 14:0.12195122 15:0.39292401 16:0.17824098 17:0.32539683 18:0.15023474 19:0.22119432 20:0.10013376 21:0.88608849 22:1 
0.03125 1:0.020655175 2:0.00015524602 3:3.4293832e-006 4:5.7171398e-005 5:0.016010762 6:0.77699978 7:0.00012084946 8:0.00066478427 9:0.093357271 10:0.092173913 11:0.82648583 12:0.27761044 13:0.58364486 14:0.090592334 15:0.27473158 16:0.18283246 17:0.42063492 18:0.18779343 19:0.27385709 20:0.077049274 21:0.97292844 22:1 
0.03125 1:0.022934586 2:0.0011938802 3:2.191301e-006 4:2.8845388e-005 5:0.016010761 6:0.77699582 7:0.00012084953 8:0.00076568373 9:0.08438061 10:0.085217391 11:0.92377598 12:0.26205451 13:0.49740395 14:0.081881533 15:0.3148617 16:0.14023144 17:0.3531746 18:0.19248826 19:0.25320759 20:0.078815349 21:0.94152542 22:1 
0.03125 1:0.020309626 2:0.0029168229 3:4.5054652e-005 4:6.0905368e-005 5:0.016010766 6:0.77700632 7:0.00012085171 8:0.00057140365 9:0.093357271 10:0.099130435 11:0.90222026 12:0.27761044 13:0.67445483 14:0.090592334 15:0.3256564 16:0.16534064 17:0.41666667 18:0.22065728 19:0.28459489 20:0.085879647 21:0.87397721 22:1 
0.03125 1:0.019128152 2:0.0036238081 3:1.8132027e-006 4:6.6823533e-005 5:0.01601076 6:0.77699051 7:0.00012085027 8:0.00055180451 9:0.2459605 10:0.31652174 11:0.88056641 12:0.47508306 13:0.32636498 14:0.23867596 15:0.58673236 16:0.34570716 17:0.28174603 18:0.15023474 19:0.19382656 20:0.17249083 21:0.64052515 22:1 
0.03125 1:0.030620862 2:0.0068066317 3:4.5237958e-005 4:8.9060811e-005 5:0.016010769 6:0.77701756 7:0.00012085189 8:0.0011690117 9:0.086175943 10:0.090434783 11:0.9406968 12:0.26522826 13:0.37694704 14:0.083623693 15:0.33770599 16:0.13431685 17:0.23412698 18:0.14084507 19:0.17967592 20:0.087342711 21:0.88967061 22:1 
0.03125 1:0.018938898 2:0.00060671384 3:2.6294422e-006 4:1.3017809e-005 5:0.016010761 6:0.77699774 7:0.00012084983 8:0.00058156041 9:0.1508079 10:0.16 11:0.93210654 12:0.36334258 13:0.5430945 14:0.14634146 15:0.44444659 16:0.19674789 17:0.34920635 18:0.16431925 19:0.23794681 20:0.11322781 21:0.87424822 22:1 
0.03125 1:0.022301235 2:0.0002194195 3:6.528557e-007 4:7.3387493e-005 5:0.016010761 6:0.77700131 7:0.00012085018 8:0.00078609415 9:0.071813285 10:0.073043478 11:0.91656366 12:0.23884354 13:0.46884735 14:0.069686411 15:0.28550035 16:0.13097072 17:0.3968254 18:0.21126761 19:0.29311218 20:0.074551667 21:0.93200631 22:1 
0.03125 1:0.025148615 2:0.00056229138 3:6.6650224e-007 4:4.8503136e-005 5:0.016010761 6:0.77699937 7:0.00012084966 8:0.00098924865 9:0.078994614 10:0.08173913 11:0.9005471 12:0.2523295 13:0.77570093 14:0.076655052 15:0.28723334 16:0.1445063 17:0.37301587 18:0.19248826 19:0.26468564 20:0.078083817 21:0.90863347 22:1 
0.03125 1:0.021682721 2:0.00067898324 3:4.56947e-007 4:8.3309471e-005 5:0.016010762 6:0.77699633 7:0.00012084938 8:0.00075402193 9:0.12567325 10:0.13043478 11:0.94210479 12:0.3282708 13:0.73956386 14:0.12195122 15:0.41221884 16:0.16763848 17:0.3452381 18:0.16901408 19:0.23127101 20:0.10220284 21:0.90382471 22:1 
0.03125 1:0.017423 2:0.0029372034 3:3.1437428e-005 4:3.5572633e-005 5:0.016010762 6:0.77699333 7:0.00012084862 8:0.00046666926 9:0.11849192 10:0.11826087 11:0.90717369 12:0.31762644 13:0.82602444 14:0.11498258 15:0.36103599 16:0.18099639 17:0.40873016 18:0.20657277 19:0.28101181 20:0.093675478 21:0.95762712 22:1 
0.03125 1:0.023476001 2:6.010112e-005 3:9.7308077e-007 4:5.7777628e-005 5:0.016010761 6:0.77699841 7:0.0001208502 8:0.00080471801 9:0.080789946 10:0.083478261 11:0.79755623 12:0.25560622 13:0.57703605 14:0.078397213 15:0.2461783 16:0.17526637 17:0.3531746 18:0.17840376 19:0.23966119 20:0.072785593 21:0.9104981 22:1 
0.03125 1:0.021109451 2:0.005616667 3:4.479105e-007 4:5.3799803e-006 5:0.016010761 6:0.77699756 7:0.00012084977 8:0.00066542606 9:0.13824057 10:0.14608696 11:0.98593348 12:0.34620072 13:0.23804288 14:0.13414634 15:0.54828383 16:0.13489713 17:0.3452381 18:0.17840376 19:0.23806146 20:0.12748192 21:0.87961117 22:1 
0.03125 1:0.019475885 2:0.00083498403 3:5.7848692e-007 4:1.4876489e-005 5:0.016010761 6:0.77699813 7:0.00012084974 8:0.00061298279 9:0.12746858 10:0.13391304 11:0.9732205 12:0.33088469 13:0.63716328 14:0.12369338 15:0.47943887 16:0.14328209 17:0.34126984 18:0.18779343 19:0.24431535 20:0.11426235 21:0.88754889 22:1 
0.03125 1:0.028654114 2:8.7049478e-005 3:6.9919132e-007 4:5.380367e-005 5:0.016010762 6:0.77699981 7:0.00012084974 8:0.0011764415 9:0.071813285 10:0.073043478 11:0.86254582 12:0.23884354 13:0.56920338 14:0.069686411 15:0.25171398 16:0.14719945 17:0.34920635 18:0.16431925 19:0.22965812 20:0.068521911 21:0.93200631 22:1 
0.03125 1:0.020069206 2:4.6384179e-005 3:7.2573817e-007 4:3.9882644e-005 5:0.016010761 6:0.77699859 7:0.0001208497 8:0.00061683742 9:0.13464991 10:0.1373913 11:0.90653411 12:0.34116302 13:0.5676971 14:0.13066202 15:0.3849226 16:0.19510089 17:0.28174603 18:0.17370892 19:0.21507569 20:0.1011683 21:0.92690678 22:1 
0.03125 1:0.020713835 2:0.0029647717 3:3.0782611e-007 4:5.1309621e-005 5:0.016010761 6:0.77699428 7:0.00012084958 8:0.00070237417 9:0.18132855 10:0.2173913 11:0.97284519 12:0.40224098 13:0.66515354 14:0.17595819 15:0.607729 16:0.1903634 17:0.28968254 18:0.14553991 19:0.21016117 20:0.14690874 21:0.72154964 22:1 
0.03125 1:0.022682292 2:0.00012182042 3:9.9209151e-007 4:3.9884711e-005 5:0.016010761 6:0.77699869 7:0.00012084953 8:0.00075342928 9:0.078994614 10:0.083478261 11:0.91652564 12:0.2523295 13:0.60747664 14:0.076655052 15:0.29867047 16:0.13811146 17:0.39285714 18:0.19248826 19:0.26558898 20:0.078083817 21:0.88066413 22:1 
0.03125 1:0.024882651 2:0.0053530007 3:3.4216835e-006 4:6.4570844e-005 5:0.016010763 6:0.77698587 7:0.00012085002 8:0.00080583417 9:0.20287253 10:0.22608696 11:0.98557983 12:0.42777244 13:0.22594832 14:0.19686411 15:0.67624819 16:0.17481485 17:0.22619048 18:0.12676056 19:0.1634784 20:0.1601283 21:0.81029241 22:1 
0.03125 1:0.01469822 2:0.00209366 3:4.6310796e-007 4:2.5820576e-005 5:0.016010761 6:0.7769954 7:0.00012084981 8:0.00042049101 9:0.15798923 10:0.16869565 11:0.97077384 12:0.37282169 13:0.63773921 14:0.1533101 15:0.53010052 16:0.16705043 17:0.49206349 18:0.21126761 19:0.32745045 20:0.12455579 21:0.86574715 22:1 
0.03125 1:0.010356142 2:0.0056593976 3:1.2705213e-007 4:2.9166847e-005 5:0.016010761 6:0.77699947 7:0.00012084975 8:0.0003025126 9:0.17773788 10:0.18608696 11:0.98995039 12:0.39784239 13:0.66030069 14:0.17247387 15:0.64896834 16:0.15130279 17:0.67460317 18:0.2629108 19:0.42518188 20:0.14867481 21:0.89171375 22:1 
0.03125 1:0.013950183 2:7.6921009e-005 3:2.7095532e-008 4:1.6474229e-005 5:0.016010761 6:0.77699811 7:0.00012084978 8:0.00037635583 9:0.11310592 10:0.11478261 11:0.83229027 12:0.30943297 13:0.64361371 14:0.1097561 15:0.30586776 16:0.20206576 17:0.48412698 18:0.25352113 19:0.35225024 20:0.086611179 21:0.93454338 22:1 
0.03125 1:0.018344167 2:0.0026668989 3:6.0432323e-007 4:1.3094781e-005 5:0.016010761 6:0.77699676 7:0.00012084977 8:0.00058495562 9:0.13644524 10:0.14782609 11:0.96237365 12:0.34369005 13:0.46481583 14:0.13240418 15:0.47838108 16:0.16426982 17:0.38888889 18:0.20187793 19:0.27642201 20:0.11749149 21:0.84701419 22:1 
0.03125 1:0.017111394 2:0.00017471163 3:2.6457164e-007 4:6.0364897e-005 5:0.016010761 6:0.77699635 7:0.00012084997 8:0.00051775018 9:0.096947935 10:0.099130435 11:0.85176444 12:0.2836262 13:0.61448598 14:0.094076655 15:0.2909268 16:0.1798628 17:0.50793651 18:0.23474178 19:0.33018593 20:0.080581423 21:0.92438632 22:1 
0.03125 1:0.021232778 2:0.00024159583 3:4.3752684e-007 4:4.7450897e-005 5:0.016010761 6:0.7769972 7:0.00012084988 8:0.00075087571 9:0.077199282 10:0.074782609 11:0.9530263 12:0.24901617 13:0.89719626 14:0.074912892 15:0.32969741 16:0.11639473 17:0.4047619 18:0.23474178 19:0.30498277 20:0.077352285 21:1 22:1 
0.03125 1:0.010880623 2:0.00073168602 3:7.2782783e-008 4:7.1029424e-006 5:0.016010761 6:0.77699824 7:0.00012084977 8:0.00027804348 9:0.12746858 10:0.13217391 11:0.91973501 12:0.33088469 13:0.4496046 14:0.12369338 15:0.38764925 16:0.18264345 17:0.71428571 18:0.29107981 19:0.44090449 20:0.10189983 21:0.90507374 22:1 
0.03125 1:0.020702744 2:0.00016909651 3:5.4451252e-007 4:1.1820087e-005 5:0.016010761 6:0.77699869 7:0.00012084975 8:0.00066263578 9:0.080789946 10:0.08173913 11:0.92633766 12:0.25560622 13:0.71214953 14:0.078397213 15:0.30742697 16:0.13400051 17:0.38095238 18:0.20657277 19:0.28084166 20:0.078083817 21:0.93908898 22:1 
0.03125 1:0.020334267 2:0.00028173366 3:2.6479992e-007 4:9.5811657e-005 5:0.016010761 6:0.77699449 7:0.00012084945 8:0.00069588845 9:0.086175943 10:0.086956522 11:0.8886976 12:0.26522826 13:0.52196262 14:0.083623693 15:0.29095145 16:0.15542443 17:0.46825397 18:0.20187793 19:0.31614462 20:0.077049274 21:0.94267198 22:1 
0.03125 1:0.021899009 2:0.003595173 3:7.581234e-005 4:4.1381899e-005 5:0.016010759 6:0.77700507 7:0.0001208543 8:0.00068259419 9:0.14183124 10:0.14782609 11:0.96125937 12:0.35117424 13:0.36448598 14:0.13763066 15:0.47491739 16:0.1649239 17:0.33730159 18:0.15023474 19:0.22468466 20:0.11645695 21:0.89800946 22:1 
0.03125 1:0.019338381 2:0.00025477403 3:1.1130429e-008 4:1.6047623e-005 5:0.016010761 6:0.77699829 7:0.00012084978 8:0.00063561911 9:0.080789946 10:0.08 11:0.90530957 12:0.25560622 13:0.79813084 14:0.078397213 15:0.29352863 16:0.14444824 17:0.48015873 18:0.23943662 19:0.33483581 20:0.07558621 21:0.9688965 22:1 
0.03125 1:0.013890887 2:0.0014726808 3:1.0274833e-006 4:4.1996081e-005 5:0.016010761 6:0.77699699 7:0.00012084953 8:0.00038097235 9:0.13644524 10:0.14956522 11:0.96241491 12:0.34369005 13:0.46481583 14:0.13240418 15:0.4748327 16:0.1627703 17:0.52380952 18:0.24413146 19:0.33950909 20:0.11749149 21:0.83196961 22:1 
0.03125 1:0.020289995 2:0.00011077041 3:2.3956396e-007 4:2.7687736e-005 5:0.016010761 6:0.77699883 7:0.00012084976 8:0.00065550256 9:0.071813285 10:0.074782609 11:0.92343372 12:0.23884354 13:0.48891856 14:0.069686411 15:0.28765723 16:0.12635827 17:0.47222222 18:0.23474178 19:0.32117077 20:0.074551667 21:0.90032743 22:1 
0.03125 1:0.030165162 2:0.0018764911 3:1.3559128e-005 4:8.2269608e-005 5:0.016010764 6:0.77699383 7:0.00012084994 8:0.001133537 9:0.062836625 10:0.069565217 11:0.89530863 12:0.22102355 13:0.50654206 14:0.06097561 15:0.25369245 16:0.12856653 17:0.25793651 18:0.14553991 19:0.19022793 20:0.070287986 21:0.82172385 22:1 
0.03125 1:0.012213282 2:0.0026632397 3:5.2693735e-006 4:0.00011733058 5:0.016010758 6:0.77701382 7:0.00012084828 8:0.00033297006 9:0.071813285 10:0.069565217 11:0.84430874 12:0.23884354 13:0.89034268 14:0.069686411 15:0.2437018 16:0.15150448 17:0.79365079 18:0.30985915 19:0.49100951 20:0.067058847 21:1 22:1 
0.03125 1:0.019290668 2:0.00040203783 3:1.4576829e-007 4:3.8722201e-005 5:0.016010761 6:0.77699907 7:0.00012084985 8:0.00058475338 9:0.071813285 10:0.07826087 11:0.93662417 12:0.23884354 13:0.48891856 14:0.069686411 15:0.30282908 16:0.12188871 17:0.45238095 18:0.23943662 19:0.32811106 20:0.076317742 21:0.84110169 22:1 
0.03125 1:0.011918434 2:0.0018573754 3:1.320022e-007 4:1.267904e-005 5:0.016010761 6:0.77699735 7:0.00012084976 8:0.00033741603 9:0.14721724 10:0.16521739 11:0.95994797 12:0.35851937 13:0.57899421 14:0.14285714 15:0.49349573 16:0.17491467 17:0.55952381 18:0.24882629 19:0.38880333 20:0.12278971 21:0.80203919 22:1 
0.03125 1:0.022922566 2:0.00092690201 3:2.506909e-006 4:0.00011395575 5:0.016010762 6:0.77700043 7:0.00012084851 8:0.00084837858 9:0.098743268 10:0.097391304 11:0.93334594 12:0.28659305 13:0.75327103 14:0.095818815 15:0.34920317 16:0.14799006 17:0.37301587 18:0.18309859 19:0.25815579 20:0.088377254 21:0.97435326 22:1 
0.03125 1:0.012571859 2:0.00028991018 3:5.8493774e-007 4:4.49452e-005 5:0.016010761 6:0.77699716 7:0.00012084967 8:0.00033305766 9:0.1454219 10:0.1426087 11:0.94040754 12:0.35608597 13:0.82009346 14:0.14111498 15:0.43878476 16:0.18250376 17:0.52777778 18:0.24413146 19:0.34848576 20:0.1082326 21:0.98238718 22:1 
0.03125 1:0.023712452 2:0.012290362 3:6.7233731e-005 4:6.1396674e-005 5:0.016010764 6:0.77700869 7:0.00012084503 8:0.00071752691 9:0.11490126 10:0.12521739 11:0.97939317 12:0.31218506 13:0.39281542 14:0.11149826 15:0.47650051 16:0.12880061 17:0.25793651 18:0.15962441 19:0.19854733 20:0.11322781 21:0.83979568 22:1 
0.03125 1:0.018244302 2:0.0069027838 3:5.4857236e-005 4:2.6244794e-005 5:0.016010762 6:0.77699785 7:0.00012084714 8:0.00047478405 9:0.10233393 10:0.10956522 11:0.88977314 12:0.29244833 13:0.41682243 14:0.099303136 15:0.32455719 16:0.17494224 17:0.38888889 18:0.21126761 19:0.27545718 20:0.091606393 21:0.86295021 22:1 
0.03125 1:0.015291182 2:0.00434544 3:1.8161899e-006 4:9.6307766e-006 5:0.016010761 6:0.77699724 7:0.0001208498 8:0.00044966202 9:0.19748654 10:0.23304348 11:0.97356378 12:0.42152081 13:0.41842457 14:0.19163763 15:0.63249441 16:0.19733986 17:0.40079365 18:0.18779343 19:0.27623129 20:0.1554361 21:0.74011299 22:1 
0.03125 1:0.022812891 2:0.00090163478 3:2.237577e-005 4:5.973948e-005 5:0.016010763 6:0.777003 7:0.00012085177 8:0.0007327314 9:0.08438061 10:0.090434783 11:0.93660512 12:0.26205451 13:0.53538051 14:0.081881533 15:0.32929953 16:0.13474073 17:0.35714286 18:0.1971831 19:0.26718112 20:0.082347498 21:0.86208826 22:1 
0.03125 1:0.030752655 2:0.00030299344 3:1.7172998e-006 4:5.9017459e-005 5:0.016010762 6:0.77699779 7:0.00012084934 8:0.0012397559 9:0.089766607 10:0.090434783 11:0.9236597 12:0.27148006 13:0.81495327 14:0.087108014 15:0.32234329 16:0.14423849 17:0.23412698 18:0.1314554 19:0.16536618 20:0.081615966 21:0.94483531 22:1 
0.03125 1:0.025356674 2:0.00099589721 3:3.2315412e-006 4:2.616253e-005 5:0.016010761 6:0.77700064 7:0.00012084961 8:0.00091878591 9:0.13285458 10:0.13217391 11:0.92882396 12:0.33861931 13:0.79439252 14:0.12891986 15:0.41265165 16:0.18502119 17:0.25793651 18:0.14084507 19:0.18081965 20:0.10896413 21:0.9620295 22:1 
0.03125 1:0.01038307 2:0.00018785368 3:1.3237685e-006 4:1.3929343e-005 5:0.016010761 6:0.77699812 7:0.00012084982 8:0.00028462069 9:0.17953321 10:0.19478261 11:0.96962648 12:0.40004713 13:0.65634179 14:0.17421603 15:0.56952162 16:0.1843382 17:0.57539683 18:0.27699531 19:0.38104375 20:0.1366153 21:0.84475776 22:1 
0.03125 1:0.0266946 2:0.0017093797 3:2.0648808e-005 4:6.5949088e-005 5:0.016010764 6:0.77699563 7:0.00012085058 8:0.00098459623 9:0.061041293 10:0.062608696 11:0.90441008 12:0.21731388 13:0.56593977 14:0.059233449 15:0.25120871 16:0.12103492 17:0.31349206 18:0.17840376 19:0.23411407 20:0.066024305 21:0.9209803 22:1 
0.03125 1:0.023473527 2:0.0012499363 3:1.1068912e-006 4:0.00010518119 5:0.016010762 6:0.77699838 7:0.00012084892 8:0.00082992557 9:0.08438061 10:0.088695652 11:0.84975761 12:0.26205451 13:0.6635514 14:0.081881533 15:0.26991764 16:0.16668218 17:0.3015873 18:0.16901408 19:0.21882425 20:0.078083817 21:0.88754889 22:1 
0.03125 1:0.018779238 2:0.0013628848 3:2.7630172e-006 4:2.0246259e-005 5:0.016010761 6:0.7769997 7:0.0001208499 8:0.00054684888 9:0.095152603 10:0.092173913 11:0.91553504 12:0.28063224 13:0.87663551 14:0.092334495 15:0.32599765 16:0.15377431 17:0.42857143 18:0.22065728 19:0.2970854 20:0.081615966 21:1 22:1 
0.0007286574463815467 1:0.018263513 2:0.0005307854 3:6.6020956e-008 4:2.8300269e-005 5:0.016010761 6:0.77699989 7:0.00012084978 8:0.00052957503 9:0.08438061 10:0.086956522 11:0.93397026 12:0.26205451 13:0.42429907 14:0.081881533 15:0.3273134 16:0.13652703 17:0.42063492 18:0.23004695 19:0.3026654 20:0.081312955 21:0.91400798 22:1 
0.03125 1:0.011062296 2:0.0055695972 3:3.2260243e-006 4:0.00010272631 5:0.016010763 6:0.77701889 7:0.00012084867 8:0.00030200192 9:0.21005386 10:0.28173913 11:0.95679471 12:0.43598135 13:0.45954606 14:0.20383275 15:0.64476103 16:0.24437652 17:0.77777778 18:0.22065728 19:0.373822 20:0.16646107 21:0.5964178 22:1 
0.03125 1:0.017794257 2:0.0016789348 3:2.6786328e-008 4:1.4909412e-005 5:0.016010761 6:0.77699839 7:0.00012084976 8:0.0005417009 9:0.15439856 10:0.16 11:0.97926892 12:0.36810938 13:0.66074766 14:0.14982578 15:0.55615328 16:0.15564652 17:0.35714286 18:0.19248826 19:0.24732907 20:0.13235162 21:0.90568617 22:1 
0.03125 1:0.017364437 2:0.0034703171 3:3.7383154e-005 4:4.9128848e-005 5:0.016010764 6:0.77700576 7:0.00012085071 8:0.00041263906 9:0.1059246 10:0.10782609 11:0.9248768 12:0.2982035 13:0.47807333 14:0.10278746 15:0.3569214 16:0.16097895 17:0.39285714 18:0.21596244 19:0.29370541 20:0.093372467 21:0.93038741 22:1 
0.03125 1:0.018730202 2:0.00045908348 3:1.376446e-007 4:4.0700352e-005 5:0.016010761 6:0.77700057 7:0.00012084986 8:0.00056813731 9:0.077199282 10:0.08173913 11:0.93479834 12:0.24901617 13:0.44485981 14:0.074912892 15:0.31063677 16:0.12749572 17:0.44444444 18:0.24882629 19:0.32946531 20:0.078815349 21:0.87817797 22:1 
0.03125 1:0.019529264 2:0.011293828 3:2.4129705e-005 4:0.00022968983 5:0.016010782 6:0.77705242 7:0.00012084655 8:0.00053483217 9:0.096947935 10:0.097391304 11:0.93279577 12:0.2836262 13:0.81020848 14:0.094076655 15:0.34494038 16:0.14647617 17:0.32539683 18:0.18779343 19:0.23949891 20:0.087645722 21:0.94870651 22:1 
0.03125 1:0.020370537 2:0.0041518118 3:2.2117906e-005 4:0.00016582326 5:0.01601075 6:0.77702189 7:0.00012084366 8:0.00067196984 9:0.16517056 10:0.1773913 11:0.96663643 12:0.38209008 13:0.40373832 14:0.16027875 15:0.53385578 16:0.17755221 17:0.30952381 18:0.14553991 19:0.21483299 20:0.13381468 21:0.85807142 22:1 
0.03125 1:0.020229198 2:0.0012390835 3:7.468176e-006 4:1.9365137e-005 5:0.016010761 6:0.77699815 7:0.00012084999 8:0.00067873337 9:0.055655296 10:0.055652174 11:0.85851543 12:0.20585489 13:0.58878505 14:0.054006969 15:0.21682251 16:0.1261071 17:0.48809524 18:0.24882629 19:0.33726046 20:0.059994549 21:0.95570108 22:1 
0.03125 1:0.019944711 2:0.0031264925 3:1.3760216e-005 4:0.0003094193 5:0.01601074 6:0.77704422 7:0.00012086167 8:0.0006237962 9:0.1059246 10:0.12 11:0.97684483 12:0.2982035 13:0.31464174 14:0.10278746 15:0.45867796 16:0.12834563 17:0.32539683 18:0.17840376 19:0.22676799 20:0.10969566 21:0.79116223 22:1 
0.03125 1:0.017462799 2:0.0012740857 3:2.9920807e-006 4:2.6224299e-005 5:0.016010761 6:0.77699598 7:0.0001208497 8:0.00053149975 9:0.11310592 10:0.11652174 11:0.92632692 12:0.30943297 13:0.70627503 14:0.1097561 15:0.37009892 16:0.16621522 17:0.41269841 18:0.20657277 19:0.28155691 20:0.096173084 21:0.91400798 22:1 
0.03125 1:0.02355996 2:0.00035890033 3:7.1593213e-007 4:0.00010847367 5:0.016010761 6:0.77700177 7:0.00012084889 8:0.00082828365 9:0.095152603 10:0.093913043 11:0.92086317 12:0.28063224 13:0.87663551 14:0.092334495 15:0.32992685 16:0.15088858 17:0.32539683 18:0.17840376 19:0.23355056 20:0.083382041 21:0.97342065 22:1 
0.03125 1:0.027924412 2:5.0990138e-005 3:3.6212999e-006 4:6.7028262e-005 5:0.016010761 6:0.77699724 7:0.00012084868 8:0.0010496057 9:0.080789946 10:0.083478261 11:0.88649723 12:0.25560622 13:0.57703605 14:0.078397213 15:0.28210854 16:0.15159298 17:0.23015873 18:0.14553991 19:0.18133691 20:0.076317742 21:0.9104981 22:1 
0.03125 1:0.023854966 2:0.00018170384 3:3.7097271e-007 4:1.3273267e-005 5:0.016010761 6:0.77699803 7:0.00012084976 8:0.00087071274 9:0.07540395 10:0.07826087 11:0.87519546 12:0.24566496 13:0.65046729 14:0.073170732 15:0.26405264 16:0.14773622 17:0.3968254 18:0.19248826 19:0.27596898 20:0.072054061 21:0.90466102 22:1 
0.03125 1:0.018760677 2:8.633992e-005 3:1.7732169e-006 4:3.1950501e-006 5:0.016010761 6:0.77699841 7:0.00012084977 8:0.00056581592 9:0.12387792 10:0.13565217 11:0.93294243 12:0.32563843 13:0.53738318 14:0.12020906 15:0.40090687 16:0.17404411 17:0.30555556 18:0.18309859 19:0.22900375 20:0.10543198 21:0.83345849 22:1 
0.03125 1:0.013375022 2:0.0065901512 3:1.2416879e-005 4:1.3872717e-006 5:0.016010761 6:0.77699875 7:0.00012084978 8:0.00027558875 9:0.14003591 10:0.17217391 11:0.97773454 12:0.34869535 13:0.25856698 14:0.1358885 15:0.55127597 16:0.15796151 17:0.52777778 18:0.27230047 19:0.37016819 20:0.13278014 21:0.69300847 22:1 
0.03125 1:0.022896335 2:0.00028519987 3:4.5354968e-007 4:1.8600118e-005 5:0.016010761 6:0.77699797 7:0.0001208498 8:0.00078910509 9:0.095152603 10:0.097391304 11:0.9054166 12:0.28063224 13:0.52336449 14:0.092334495 15:0.32036975 16:0.15959677 17:0.39285714 18:0.17840376 19:0.2483051 20:0.08307903 21:0.92305977 22:1 
0.03125 1:0.019871361 2:0.00089649449 3:1.8584376e-007 4:5.6965148e-005 5:0.016010761 6:0.77699564 7:0.00012084991 8:0.00064167475 9:0.14362657 10:0.14956522 11:0.90308458 12:0.35363768 13:0.46028037 14:0.13937282 15:0.40992457 16:0.21289913 17:0.38095238 18:0.15023474 19:0.24539434 20:0.11146174 21:0.89918177 22:1 
0.03125 1:0.018541362 2:0.00091349276 3:2.4621373e-007 4:3.1163363e-005 5:0.016010761 6:0.77699649 7:0.00012084977 8:0.00054359921 9:0.13464991 10:0.1426087 11:0.9627158 12:0.34116302 13:0.39140187 14:0.13066202 15:0.46489405 16:0.15823995 17:0.33730159 18:0.1971831 19:0.24572384 20:0.11395934 21:0.87671023 22:1 
0.02160302009401758 1:0.01368356 2:0.0014452007 3:9.5279926e-008 4:1.6591342e-005 5:0.016010761 6:0.77699698 7:0.00012084975 8:0.00039209138 9:0.11490126 10:0.13043478 11:0.97487385 12:0.31218506 13:0.48230975 14:0.11149826 15:0.47023878 16:0.13652986 17:0.55952381 18:0.27230047 19:0.40805249 20:0.1107302 21:0.78841436 22:1 
0.03125 1:0.014251969 2:0.0052311082 3:2.1383789e-005 4:1.5752933e-005 5:0.016010761 6:0.77700037 7:0.00012084948 8:0.0003571592 9:0.095152603 10:0.1026087 11:0.88865951 12:0.28063224 13:0.52336449 14:0.092334495 15:0.30854838 16:0.16612112 17:0.49603175 18:0.25352113 19:0.35181269 20:0.084845105 21:0.85381356 22:1 
0.03125 1:0.016610482 2:0.0025034161 3:8.7521618e-006 4:0.00011048288 5:0.016010759 6:0.77700652 7:0.00012085269 8:0.00050363561 9:0.078994614 10:0.076521739 11:0.94010352 12:0.2523295 13:0.4517134 14:0.076655052 15:0.31932477 16:0.12625668 17:0.4484127 18:0.23943662 19:0.31165927 20:0.077049274 21:1 22:1 
0.03125 1:0.019721431 2:0.00020241454 3:3.819328e-007 4:5.7061806e-005 5:0.016010761 6:0.77699869 7:0.00012084962 8:0.00064542503 9:0.091561939 10:0.099130435 11:0.92923615 12:0.27455999 13:0.43457944 14:0.088850174 15:0.33796376 16:0.14673093 17:0.43650794 18:0.21126761 19:0.30664574 20:0.087342711 21:0.84877265 22:1 
0.03125 1:0.017283865 2:0.0013469902 3:1.8999509e-006 4:4.6359947e-005 5:0.016010761 6:0.77699746 7:0.00012084953 8:0.00047047846 9:0.12746858 10:0.14608696 11:0.97715592 12:0.33088469 13:0.25981308 14:0.12369338 15:0.51768097 16:0.14791107 17:0.47619048 18:0.22065728 19:0.30466968 20:0.12425278 21:0.77642074 22:1 
0.03125 1:0.019608655 2:0.00028753921 3:9.8584044e-008 4:0.00012348496 5:0.016010761 6:0.77699465 7:0.00012084975 8:0.00064315911 9:0.1005386 10:0.097391304 11:0.87692027 12:0.28953353 13:0.54766355 14:0.097560976 15:0.30854759 16:0.1747711 17:0.43650794 18:0.20187793 19:0.2979095 20:0.081312955 21:1 22:1 
0.03125 1:0.019996455 2:0.00047086996 3:2.3360839e-006 4:9.4126107e-005 5:0.01601076 6:0.77700298 7:0.00012084874 8:0.00064274238 9:0.091561939 10:0.10782609 11:0.95134108 12:0.27455999 13:0.36033229 14:0.088850174 15:0.38454997 16:0.14250393 17:0.42063492 18:0.22065728 19:0.29687404 20:0.095138542 21:0.74475383 22:1 
0.03125 1:0.017977482 2:0.0010336568 3:2.1073076e-007 4:2.4845614e-005 5:0.016010761 6:0.77699684 7:0.00012084975 8:0.0004895721 9:0.16157989 10:0.17391304 11:0.97856602 12:0.37748135 13:0.33333333 14:0.15679443 15:0.5637106 16:0.16002182 17:0.27777778 18:0.17840376 19:0.21755021 20:0.13454622 21:0.85526095 22:1 
0.03125 1:0.030441606 2:1.8434943e-005 3:3.5571367e-006 4:0.00012415549 5:0.016010763 6:0.77699887 7:0.00012085196 8:0.0012341551 9:0.0502693 10:0.048695652 11:0.8870292 12:0.19384494 13:0.88434579 14:0.048780488 15:0.21629575 16:0.11108394 17:0.25396825 18:0.15962441 19:0.19597893 20:0.05676541 21:1 22:1 
0.03125 1:0.016589508 2:0.0061369067 3:7.0882319e-007 4:2.0811405e-005 5:0.016010761 6:0.77699415 7:0.00012084979 8:0.00049865446 9:0.28904847 10:0.39652174 11:0.94908945 12:0.5184294 13:0.46028037 14:0.2804878 15:0.76237506 16:0.31426488 17:0.33333333 18:0.16431925 19:0.21729046 20:0.21013243 21:0.57229295 22:1 
0.03125 1:0.021073025 2:0.00038833055 3:9.9920856e-007 4:0.00010174726 5:0.016010762 6:0.77699551 7:0.00012084899 8:0.00073902828 9:0.078994614 10:0.08173913 11:0.90610185 12:0.2523295 13:0.60747664 14:0.076655052 15:0.28983125 16:0.14173073 17:0.45634921 18:0.22065728 19:0.31491129 20:0.076317742 21:0.90863347 22:1 
0.03125 1:0.019189907 2:0.00032919996 3:1.7004252e-006 4:2.1763341e-005 5:0.016010761 6:0.77699903 7:0.00012084978 8:0.00061285661 9:0.071813285 10:0.073043478 11:0.91203237 12:0.23884354 13:0.48891856 14:0.069686411 15:0.28124114 16:0.13228198 17:0.43253968 18:0.23943662 19:0.31383389 20:0.074551667 21:0.93200631 22:1 
0.03125 1:0.013678692 2:0.0021032524 3:4.9596783e-007 4:1.5087234e-005 5:0.016010761 6:0.77699839 7:0.0001208498 8:0.00038581921 9:0.16157989 10:0.18608696 11:0.96529566 12:0.37748135 13:0.46799065 14:0.15679443 15:0.54997134 16:0.1867084 17:0.52380952 18:0.23474178 19:0.324715 20:0.13734683 21:0.76989171 22:1 
0.03125 1:0.021408931 2:0.00041689563 3:4.3810584e-007 4:1.742245e-005 5:0.016010761 6:0.77699864 7:0.00012084973 8:0.00068898362 9:0.10771993 10:0.11652174 11:0.96764704 12:0.30104511 13:0.60249221 14:0.10452962 15:0.42643175 16:0.13438836 17:0.29365079 18:0.18309859 19:0.23270892 20:0.10220284 21:0.84951396 22:1 
0.03125 1:0.021818401 2:0.0012185461 3:1.0896181e-006 4:4.0627284e-005 5:0.016010761 6:0.7769995 7:0.00012084983 8:0.0007264606 9:0.15798923 10:0.16347826 11:0.96287094 12:0.37282169 13:0.78296989 14:0.1533101 15:0.5086708 16:0.17543986 17:0.28968254 18:0.15492958 19:0.19184303 20:0.1270534 21:0.90767172 22:1 
0.03125 1:0.021189564 2:5.2155414e-006 3:1.2046776e-006 4:4.0992371e-005 5:0.016010762 6:0.77699866 7:0.00012084995 8:0.00074563178 9:0.066427289 10:0.066086957 11:0.9006131 12:0.22829142 13:0.6344756 14:0.06445993 15:0.25920869 16:0.12823081 17:0.43650794 18:0.25821596 19:0.33520789 20:0.067790379 21:0.9625163 22:1 
0.03125 1:0.02283933 2:0.00018628403 3:5.9609152e-007 4:0.0001374675 5:0.016010759 6:0.77700101 7:0.00012084976 8:0.00082911722 9:0.070017953 10:0.071304348 11:0.90874326 12:0.23537043 13:0.75327103 14:0.067944251 15:0.27371771 16:0.13063634 17:0.45238095 18:0.22065728 19:0.3164018 20:0.071322529 21:0.93038741 22:1 
0.03125 1:0.01997295 2:0.00024150435 3:1.4908536e-007 4:3.3672988e-005 5:0.016010761 6:0.77699982 7:0.00012084977 8:0.00064545049 9:0.086175943 10:0.092173913 11:0.92631044 12:0.26522826 13:0.45327103 14:0.083623693 15:0.32745574 16:0.14431871 17:0.41269841 18:0.21596244 19:0.29316479 20:0.086611179 21:0.86464218 22:1 
0.03125 1:0.018733223 2:0.0027614085 3:4.1157526e-006 4:0.00034096399 5:0.016010748 6:0.77702833 7:0.00012085789 8:0.0005986517 9:0.089766607 10:0.095652174 11:0.95010685 12:0.27148006 13:0.40186916 14:0.087108014 15:0.35766635 16:0.13226847 17:0.27777778 18:0.18309859 19:0.21845063 20:0.089108786 21:0.86947639 22:1 
0.03125 1:0.019669615 2:0.0034893934 3:4.9450305e-006 4:0.0003991744 5:0.016010739 6:0.77706025 7:0.00012085692 8:0.00066591875 9:0.077199282 10:0.08 11:0.9562295 12:0.24901617 13:0.47129506 14:0.074912892 15:0.33726762 16:0.11567721 17:0.31349206 18:0.20657277 19:0.25805021 20:0.082347498 21:0.90668951 22:1 
0.03125 1:0.017210211 2:0.00019206898 3:1.0718903e-006 4:8.7228832e-005 5:0.016010761 6:0.77699667 7:0.00012084894 8:0.00051910694 9:0.12567325 10:0.12695652 11:0.86047021 12:0.3282708 13:0.67873832 14:0.12195122 15:0.33884511 16:0.20630885 17:0.4484127 18:0.18779343 19:0.28320028 20:0.09440701 21:0.94073523 22:1 
0.03125 1:0.020563914 2:0.00079531261 3:1.6354155e-006 4:7.3982907e-005 5:0.01601076 6:0.77700348 7:0.00012085019 8:0.00067977247 9:0.12567325 10:0.12521739 11:0.8874282 12:0.3282708 13:0.72886926 14:0.12195122 15:0.35535546 16:0.19555839 17:0.3015873 18:0.17370892 19:0.22073629 20:0.09440701 21:0.95994892 22:1 
0.02296530230513185 1:0.016934077 2:0.0010339431 3:8.3762208e-006 4:1.0607204e-005 5:0.016010761 6:0.77699916 7:0.0001208498 8:0.00041652017 9:0.13105925 10:0.1373913 11:0.9561481 12:0.33605859 13:0.71728972 14:0.1271777 15:0.44774193 16:0.1625218 17:0.38492063 18:0.20187793 19:0.26594055 20:0.11249628 21:0.89036017 22:1 
0.03125 1:0.021577329 2:0.0012059349 3:3.6272274e-006 4:1.5335294e-005 5:0.016010761 6:0.77699706 7:0.00012084967 8:0.00070504768 9:0.071813285 10:0.071304348 11:0.95423102 12:0.23884354 13:0.82009346 14:0.069686411 15:0.3190393 16:0.11035538 17:0.33333333 18:0.20657277 19:0.2663425 20:0.077352285 21:0.9651937 22:1 
0.03125 1:0.016040496 2:0.00011579894 3:1.8236747e-007 4:3.3947929e-005 5:0.016010761 6:0.7769991 7:0.00012084976 8:0.00047750215 9:0.061041293 10:0.059130435 11:0.91780378 12:0.21731388 13:0.84579439 14:0.059233449 15:0.25959417 16:0.11605296 17:0.61904762 18:0.31924883 19:0.45641289 20:0.065292773 21:1 22:1 
0.03125 1:0.02592447 2:0.0010909376 3:8.1391885e-007 4:7.4582813e-005 5:0.01601076 6:0.77699523 7:0.0001208498 8:0.00095868843 9:0.11849192 10:0.12521739 11:0.91044627 12:0.31762644 13:0.56110712 14:0.11498258 15:0.36571963 16:0.1804259 17:0.26190476 18:0.14084507 19:0.17744467 20:0.099402223 21:0.87984676 22:1 
0.03125 1:0.022111807 2:0.00020769364 3:5.2687048e-007 4:1.1830824e-005 5:0.016010761 6:0.77699878 7:0.00012084976 8:0.00071398684 9:0.07540395 10:0.07826087 11:0.92066484 12:0.24566496 13:0.52416555 14:0.073170732 15:0.29338819 16:0.13174732 17:0.33333333 18:0.1971831 19:0.25403675 20:0.076317742 21:0.90466102 22:1 
0.03125 1:0.023858123 2:6.7253058e-005 3:5.0836665e-007 4:3.3720056e-005 5:0.016010761 6:0.77699811 7:0.00012084966 8:0.00083539954 9:0.086175943 10:0.088695652 11:0.92546675 12:0.26522826 13:0.605919 14:0.083623693 15:0.32078474 16:0.14170219 17:0.32936508 18:0.16901408 19:0.23741587 20:0.082347498 21:0.91566167 22:1 
0.03125 1:0.013124853 2:0.0088959652 3:1.9524015e-006 4:8.7742431e-006 5:0.016010761 6:0.77699774 7:0.00012084973 8:0.00028077839 9:0.24057451 10:0.32869565 11:0.97772448 12:0.46940761 13:0.1922939 14:0.23344948 15:0.77346379 16:0.23359695 17:0.4484127 18:0.21596244 19:0.31313472 20:0.19850144 21:0.57682872 22:1 
0.03125 1:0.016164255 2:0.00034506801 3:9.644038e-008 4:4.1515838e-005 5:0.016010761 6:0.77699643 7:0.00012084971 8:0.00046556397 9:0.13824057 10:0.1426087 11:0.88572223 12:0.34620072 13:0.62550067 14:0.13414634 15:0.3749323 16:0.2090097 17:0.43253968 18:0.19248826 19:0.28772774 20:0.10293437 21:0.91193588 22:1 
0.03125 1:0.025952719 2:0.00017009213 3:6.8105414e-007 4:3.4209832e-005 5:0.016010761 6:0.7769979 7:0.00012084987 8:0.00099059269 9:0.093357271 10:0.099130435 11:0.89762565 12:0.27761044 13:0.61548732 14:0.090592334 15:0.31410078 16:0.16243384 17:0.33333333 18:0.15023474 19:0.22108846 20:0.084113573 21:0.87397721 22:1 
0.03125 1:0.011118596 2:0.00033007481 3:7.1990231e-008 4:1.1096558e-005 5:0.016010761 6:0.77699899 7:0.00012084978 8:0.00029798674 9:0.082585278 10:0.085217391 11:0.91752114 12:0.25884752 13:0.64485981 14:0.080139373 15:0.30400934 16:0.14012933 17:0.85714286 18:0.38967136 19:0.58337018 20:0.078083817 21:0.91228814 22:1 
0.03125 1:0.016340374 2:0.0027936094 3:3.2854205e-006 4:0.00050199478 5:0.016010753 6:0.77705852 7:0.00012086477 8:0.00047930699 9:0.0502693 10:0.050434783 11:0.89995728 12:0.19384494 13:0.51168224 14:0.048780488 15:0.22313486 16:0.10773914 17:0.4047619 18:0.23474178 19:0.3047534 20:0.058228474 21:0.95127119 22:1 
0.03125 1:0.010718163 2:0.0031707303 3:1.1552182e-006 4:4.2110161e-007 5:0.016010761 6:0.77699847 7:0.00012084977 8:0.00023892669 9:0.15978456 10:0.18956522 11:0.97984322 12:0.37515799 13:0.28037383 14:0.15505226 15:0.58918444 16:0.16506764 17:0.76190476 18:0.27699531 19:0.42051162 20:0.1388099 21:0.73420647 22:1 
0.03125 1:0.014778213 2:0.0020855086 3:1.8943796e-007 4:4.9930443e-005 5:0.016010761 6:0.77699296 7:0.00012084987 8:0.00038991485 9:0.15260323 10:0.17043478 11:0.97262034 12:0.36573291 13:0.32474176 14:0.14808362 15:0.53980798 16:0.16637826 17:0.42857143 18:0.22065728 19:0.30239164 20:0.13454622 21:0.80803801 22:1 
0.03125 1:0.022232594 2:0.00089290068 3:1.0849914e-005 4:9.7994803e-006 5:0.016010761 6:0.77699888 7:0.00012084999 8:0.0007215689 9:0.070017953 10:0.07826087 11:0.90768693 12:0.23537043 13:0.58878505 14:0.067944251 15:0.27844627 16:0.13408758 17:0.33730159 18:0.20187793 19:0.25725568 20:0.073820135 21:0.80932203 22:1 
0.03125 1:0.025354282 2:0.00029898334 3:4.9622901e-007 4:1.7017379e-005 5:0.016010761 6:0.77699926 7:0.0001208498 8:0.0009105046 9:0.057450628 10:0.060869565 11:0.90837275 12:0.20973202 13:0.41255007 14:0.055749129 15:0.24729334 16:0.11610925 17:0.38095238 18:0.20187793 19:0.2708612 20:0.066755837 21:0.87817797 22:1 
0.03125 1:0.015619276 2:0.0032700264 3:2.9600888e-007 4:2.2825767e-005 5:0.016010761 6:0.77699714 7:0.00012084975 8:0.00046783348 9:0.18850987 10:0.21565217 11:0.98092553 12:0.41091064 13:0.57856853 14:0.18292683 15:0.64022262 16:0.17866604 17:0.36111111 18:0.19248826 19:0.26534355 20:0.15689917 21:0.77779661 22:1 
0.03125 1:0.017467445 2:0.0027628944 3:3.9186531e-007 4:5.0346928e-005 5:0.016010761 6:0.7769928 7:0.00012084981 8:0.00049266816 9:0.13824057 10:0.15652174 11:0.97885818 12:0.34620072 13:0.22897196 14:0.13414634 15:0.53738809 16:0.15042652 17:0.43253968 18:0.20657277 19:0.28199501 20:0.12571584 21:0.79116223 22:1 
0.03125 1:0.01733434 2:0.00033174712 3:1.1913531e-006 4:3.0028416e-005 5:0.016010761 6:0.77699919 7:0.00012084968 8:0.00052868698 9:0.11131059 10:0.11304348 11:0.92102888 12:0.3066593 13:0.7627606 14:0.10801394 15:0.35956848 16:0.16638347 17:0.40873016 18:0.22065728 19:0.29906414 20:0.091909403 21:0.93355162 22:1 
0.03125 1:0.028439456 2:0.00028611018 3:4.1476416e-007 4:1.6400462e-005 5:0.016010761 6:0.77699922 7:0.00012084978 8:0.0011813561 9:0.078994614 10:0.085217391 11:0.88736912 12:0.2523295 13:0.60747664 14:0.076655052 15:0.28158767 16:0.15067157 17:0.32142857 18:0.16431925 19:0.21897669 20:0.078083817 21:0.85381356 22:1 
0.03125 1:0.014422724 2:0.0018746377 3:3.8390073e-006 4:7.0716721e-005 5:0.01601076 6:0.77700665 7:0.00012085006 8:0.0003659474 9:0.11849192 10:0.12347826 11:0.9504969 12:0.31762644 13:0.6847352 14:0.11498258 15:0.41947321 16:0.15909004 17:0.34920635 18:0.22065728 19:0.27336714 20:0.10220284 21:0.89848164 22:1 
0.03125 1:0.011557825 2:0.0010948043 3:4.5887658e-006 4:3.701295e-005 5:0.016010761 6:0.77699803 7:0.00012085006 8:0.00029763436 9:0.14183124 10:0.15478261 11:0.97405192 12:0.35117424 13:0.54962172 14:0.13763066 15:0.51283302 16:0.15341126 17:0.56349206 18:0.27699531 19:0.3762593 20:0.12278971 21:0.83757062 22:1 
0.03125 1:0.018665586 2:0.00022105524 3:7.2128268e-007 4:6.8700041e-005 5:0.016010761 6:0.77700081 7:0.00012084955 8:0.00061054294 9:0.080789946 10:0.085217391 11:0.92511161 12:0.25560622 13:0.50333778 14:0.078397213 15:0.3087783 16:0.13583324 17:0.52380952 18:0.23943662 19:0.35065406 20:0.078815349 21:0.88305085 22:1 
0.03125 1:0.013810828 2:0.00063156021 3:9.6041364e-008 4:3.9223106e-005 5:0.016010761 6:0.77699588 7:0.00012084975 8:0.0003503462 9:0.14183124 10:0.14956522 11:0.93823531 12:0.35117424 13:0.35032904 14:0.13763066 15:0.44858592 16:0.19026409 17:0.5 18:0.23004695 19:0.32260096 20:0.11469087 21:0.88237873 22:1 
0.03125 1:0.016554219 2:0.00032600072 3:1.8572499e-007 4:8.1587487e-006 5:0.016010761 6:0.7769987 7:0.00012084976 8:0.00052068972 9:0.096947935 10:0.099130435 11:0.90856798 12:0.2836262 13:0.70872274 14:0.094076655 15:0.32350293 16:0.15864001 17:0.61904762 18:0.22535211 19:0.37889233 20:0.084113573 21:0.92438632 22:1 
0.01170050691444227 1:0.020728003 2:0.00077552206 3:1.7398002e-006 4:1.5243051e-005 5:0.016010761 6:0.77699746 7:0.00012084984 8:0.00066600285 9:0.10233393 10:0.10434783 11:0.95075598 12:0.29244833 13:0.78851802 14:0.099303136 15:0.38579217 16:0.14385066 17:0.33730159 18:0.18779343 19:0.24370793 20:0.09440701 21:0.92810503 22:1 
0.03125 1:0.01988145 2:0.00022283513 3:2.154779e-006 4:8.5495122e-005 5:0.016010762 6:0.77699889 7:0.00012085083 8:0.00062243591 9:0.096947935 10:0.097391304 11:0.85087508 12:0.2836262 13:0.53738318 14:0.094076655 15:0.29156288 16:0.18084102 17:0.4047619 18:0.19248826 19:0.27541895 20:0.08307903 21:0.94870651 22:1 
0.03125 1:0.012081183 2:0.0012746172 3:6.0340994e-007 4:5.8214918e-006 5:0.016010761 6:0.77699878 7:0.00012084976 8:0.00030034315 9:0.13824057 10:0.15478261 11:0.97046188 12:0.34620072 13:0.47388675 14:0.13414634 15:0.49877434 16:0.15614334 17:0.52777778 18:0.27230047 19:0.38539258 20:0.11925757 21:0.80508475 22:1 
0.03125 1:0.018517876 2:0.00012628499 3:8.0024038e-007 4:5.2995321e-005 5:0.016010761 6:0.77699824 7:0.0001208495 8:0.00056465447 9:0.07540395 10:0.076521739 11:0.90194703 12:0.24566496 13:0.52416555 14:0.073170732 15:0.27874155 16:0.13855817 17:0.44444444 18:0.23943662 19:0.32947606 20:0.074551667 21:0.93502825 22:1 
0.03125 1:0.012130906 2:0.00031323539 3:3.9057085e-006 4:4.3724819e-005 5:0.016010762 6:0.77699655 7:0.00012084985 8:0.00032641385 9:0.15439856 10:0.15478261 11:0.94621925 12:0.36810938 13:0.81858164 14:0.14982578 15:0.46384799 16:0.18549901 17:0.57539683 18:0.23004695 19:0.36171048 20:0.11602843 21:0.95127119 22:1 
0.03125 1:0.022559941 2:0.00021962615 3:2.8247949e-006 4:7.4820731e-005 5:0.016010762 6:0.77700144 7:0.00012084918 8:0.00080241868 9:0.073608618 10:0.076521739 11:0.88872554 12:0.24227455 13:0.50654206 14:0.071428571 15:0.26909117 16:0.1421533 17:0.46031746 18:0.20657277 19:0.29977391 20:0.072785593 21:0.90254237 22:1 
0.03125 1:0.012568956 2:5.9815905e-005 3:5.9603422e-007 4:3.518021e-005 5:0.016010761 6:0.7769978 7:0.00012084988 8:0.00034037488 9:0.087971275 10:0.090434783 11:0.90252745 12:0.26836979 13:0.53738318 14:0.085365854 15:0.3063341 16:0.15397931 17:0.71428571 18:0.31924883 19:0.48152313 20:0.080581423 21:0.91725296 22:1 
0.03125 1:0.023452847 2:0.00062480934 3:1.4607557e-005 4:1.328827e-005 5:0.016010761 6:0.77699873 7:0.00012084977 8:0.00077571115 9:0.053859964 10:0.053913043 11:0.85085348 12:0.2019167 13:0.72242991 14:0.052264808 15:0.21076248 16:0.12562279 17:0.45238095 18:0.24413146 19:0.31156311 20:0.057496942 21:0.95431674 22:1 
0.03125 1:0.022324509 2:0.00046433258 3:5.9932646e-007 4:3.8398976e-005 5:0.016010761 6:0.77700026 7:0.00012084966 8:0.00070875747 9:0.096947935 10:0.099130435 11:0.95470197 12:0.2836262 13:0.39460021 14:0.094076655 15:0.37937182 16:0.13562042 17:0.29761905 18:0.17370892 19:0.22168671 20:0.091606393 21:0.92438632 22:1 
0.002744754126672761 1:0.012573245 2:0.0069592535 3:5.0503315e-005 4:3.0803582e-005 5:0.016010761 6:0.77700339 7:0.00012084822 8:0.00028463389 9:0.13824057 10:0.15478261 11:0.97769378 12:0.34620072 13:0.43457944 14:0.13414634 15:0.51993172 16:0.14739452 17:0.61507937 18:0.24882629 19:0.38122332 20:0.12352125 21:0.80508475 22:1 
0.03125 1:0.017782661 2:0.016729155 3:6.352175e-005 4:0.00014435787 5:0.016010753 6:0.77703334 7:0.00012082943 8:0.00046945722 9:0.062836625 10:0.066086957 11:0.87368149 12:0.22102355 13:0.65457944 14:0.06097561 15:0.24013592 16:0.13340072 17:0.52380952 18:0.2629108 19:0.37518658 20:0.066024305 21:0.88754889 22:1 
0.03125 1:0.015034143 2:0.0021798734 3:2.7764644e-006 4:3.7897512e-005 5:0.016010761 6:0.77699687 7:0.00012084946 8:0.00043579623 9:0.14721724 10:0.16 11:0.97985216 12:0.35851937 13:0.53622374 14:0.14285714 15:0.54295694 16:0.14974622 17:0.43650794 18:0.22535211 19:0.30025434 20:0.12881947 21:0.84281028 22:1 
0.03125 1:0.026518513 2:0.0033498244 3:1.3333091e-005 4:2.505448e-005 5:0.016010761 6:0.77699854 7:0.00012084947 8:0.0010181115 9:0.15439856 10:0.17565217 11:0.98265833 12:0.36810938 13:0.70782095 14:0.14982578 15:0.58007587 16:0.15415311 17:0.21031746 18:0.1314554 19:0.15472126 20:0.13838138 21:0.78501994 22:1 
0.03125 1:0.0090097124 2:0.0023457051 3:2.4592871e-007 4:2.0077137e-005 5:0.016010761 6:0.77699779 7:0.00012084982 8:0.0002033016 9:0.1561939 10:0.16695652 11:0.98167557 12:0.37047223 13:0.3377275 14:0.15156794 15:0.56549818 16:0.15224671 17:0.70238095 18:0.32394366 19:0.46860004 20:0.13454622 21:0.8643631 22:1 
0.03125 1:0.015486641 2:0.0033806128 3:2.2642268e-005 4:1.3596746e-005 5:0.016010761 6:0.77699657 7:0.00012085026 8:0.00047993206 9:0.078994614 10:0.083478261 11:0.9442008 12:0.2523295 13:0.38317757 14:0.076655052 15:0.32730732 16:0.12554964 17:0.57142857 18:0.28638498 19:0.41355591 20:0.081312955 21:0.88066413 22:1 
0.03125 1:0.022363799 2:7.9949978e-005 3:4.3807072e-007 4:3.331476e-005 5:0.016010761 6:0.77699794 7:0.00012084974 8:0.00071974679 9:0.098743268 10:0.1026087 11:0.90773643 12:0.28659305 13:0.7258567 14:0.095818815 15:0.33005924 16:0.16305007 17:0.28174603 18:0.17840376 19:0.21685223 20:0.085879647 21:0.90254237 22:1 
0.03125 1:0.01550636 2:0.0038219889 3:1.6066015e-005 4:5.4561825e-005 5:0.01601076 6:0.77700635 7:0.00012085135 8:0.00045008301 9:0.07540395 10:0.07826087 11:0.93788077 12:0.24566496 13:0.73084112 14:0.073170732 15:0.30953827 16:0.12387727 17:0.51587302 18:0.27699531 19:0.38080882 20:0.077352285 21:0.90466102 22:1 
0.03125 1:0.020918147 2:0.0010502332 3:1.169257e-006 4:5.8264601e-005 5:0.01601076 6:0.77699901 7:0.00012084964 8:0.00071692858 9:0.12387792 10:0.12 11:0.96225209 12:0.32563843 13:0.84579439 14:0.12020906 15:0.44276565 16:0.15019267 17:0.33730159 18:0.17840376 19:0.23318492 20:0.10573499 21:1 22:1 
0.03125 1:0.016221399 2:0.00019584037 3:8.9022779e-008 4:1.4198412e-005 5:0.016010761 6:0.77699875 7:0.00012084976 8:0.00046100161 9:0.08438061 10:0.092173913 11:0.90681944 12:0.26205451 13:0.6635514 14:0.081881533 15:0.30310617 16:0.1486571 17:0.46428571 18:0.25821596 19:0.35330884 20:0.081615966 21:0.83757062 22:1 
0.03125 1:0.021754133 2:4.3403144e-006 3:6.2188459e-007 4:3.6358475e-005 5:0.016010761 6:0.77699829 7:0.00012084973 8:0.0007073466 9:0.068222621 10:0.069565217 11:0.83232838 12:0.23185362 13:0.53004005 14:0.066202091 15:0.23433965 16:0.15073785 17:0.38888889 18:0.21126761 19:0.28345425 20:0.066755837 21:0.92868954 22:1 
0.03125 1:0.013334822 2:0.0011946022 3:5.3188125e-007 4:4.6402311e-006 5:0.016010761 6:0.77699836 7:0.00012084976 8:0.00034203669 9:0.12208259 10:0.14608696 11:0.9625123 12:0.32298719 13:0.33383178 14:0.1184669 15:0.47054339 16:0.16087208 17:0.5 18:0.26760563 19:0.36747384 20:0.11395934 21:0.72482552 22:1 
0.03125 1:0.018826637 2:2.2387691e-007 3:3.2202487e-006 4:2.8579154e-005 5:0.016010761 6:0.77699849 7:0.00012084956 8:0.00057216969 9:0.066427289 10:0.067826087 11:0.90971909 12:0.22829142 13:0.51045839 14:0.06445993 15:0.26535087 16:0.12523862 17:0.48015873 18:0.26760563 19:0.35531907 20:0.068521911 21:0.92690678 22:1 
0.03125 1:0.017559148 2:0.00049301027 3:2.6543108e-007 4:2.1251817e-005 5:0.016010761 6:0.77699729 7:0.00012084979 8:0.00056249365 9:0.086175943 10:0.085217391 11:0.89425461 12:0.26522826 13:0.52196262 14:0.083623693 15:0.29571852 16:0.1542086 17:0.58730159 18:0.23943662 19:0.37720296 20:0.078815349 21:0.97076271 22:1 
0.03125 1:0.020280886 2:0.0077974697 3:5.2316135e-005 4:0.00012116125 5:0.016010749 6:0.77702433 7:0.00012084537 8:0.00058730852 9:0.089766607 10:0.092173913 11:0.89566193 12:0.27148006 13:0.71962617 14:0.087108014 15:0.30328978 16:0.15762172 17:0.38492063 18:0.1971831 19:0.26595563 20:0.079849891 21:0.91878531 22:1 
0.03125 1:0.0056450763 2:0.0011727742 3:4.0735017e-007 4:7.4420449e-006 5:0.016010761 6:0.77699903 7:0.00012084976 8:0.0001148584 9:0.14183124 10:0.15478261 11:0.93770266 12:0.35117424 13:0.42429907 14:0.13763066 15:0.44470994 16:0.18915479 17:1 18:0.44131455 19:0.64485585 20:0.11572542 21:0.83757062 22:1 
0.03125 1:0.013256066 2:0.0019081597 3:1.9935681e-006 4:9.3828034e-006 5:0.016010761 6:0.77699951 7:0.00012084975 8:0.00035148679 9:0.14362657 10:0.17391304 11:0.93879426 12:0.35363768 13:0.39088785 14:0.13937282 15:0.48240259 16:0.20564276 17:0.52380952 18:0.25352113 19:0.36920196 20:0.12175517 21:0.7105219 22:1 
0.03125 1:0.027851729 2:0.00056714511 3:2.1632047e-006 4:2.8915766e-005 5:0.016010761 6:0.77699672 7:0.00012084964 8:0.0010386972 9:0.11669659 10:0.12173913 11:0.93926363 12:0.31491605 13:0.38317757 14:0.11324042 15:0.39867575 16:0.16498843 17:0.21825397 18:0.12676056 19:0.15944255 20:0.1036659 21:0.8970518 22:1 
0.03125 1:0.0167784 2:0.0028435718 3:1.944777e-007 4:3.1043691e-005 5:0.016010761 6:0.77699721 7:0.00012084981 8:0.00050467323 9:0.1508079 10:0.16869565 11:0.96298613 12:0.36334258 13:0.4517134 14:0.14634146 15:0.51263767 16:0.17679447 17:0.43650794 18:0.19248826 19:0.29313551 20:0.12352125 21:0.80607921 22:1 
0.03125 1:0.016227927 2:0.00076765851 3:4.244995e-009 4:1.2127984e-005 5:0.016010761 6:0.77699761 7:0.00012084977 8:0.0004689867 9:0.12746858 10:0.13217391 11:0.91513917 12:0.33088469 13:0.55941255 14:0.12369338 15:0.38158195 16:0.18434033 17:0.42460317 18:0.20187793 19:0.29349086 20:0.099402223 21:0.90507374 22:1 
0.03125 1:0.013762354 2:0.0008316369 3:2.6586365e-006 4:2.1752108e-005 5:0.016010761 6:0.77700007 7:0.00012084963 8:0.00038568908 9:0.095152603 10:0.099130435 11:0.82718084 12:0.28063224 13:0.59906542 14:0.092334495 15:0.28082957 16:0.18689304 17:0.54761905 18:0.26760563 19:0.36777168 20:0.082347498 21:0.89918177 22:1 
0.03125 1:0.014671863 2:0.0042516225 3:1.9567775e-007 4:2.7711809e-005 5:0.016010761 6:0.77699374 7:0.00012084982 8:0.00042945809 9:0.2513465 10:0.2973913 11:0.97605605 12:0.48069714 13:0.4911215 14:0.2456446 15:0.72094961 16:0.22113641 17:0.38095238 18:0.17840376 19:0.25609239 20:0.18278426 21:0.73652444 22:0.98648649 
0.03125 1:0.01659501 2:0.0043870621 3:4.9927441e-006 4:1.602579e-005 5:0.016010761 6:0.77699687 7:0.00012084991 8:0.00049175118 9:0.14183124 10:0.1773913 11:0.97688947 12:0.35117424 13:0.28578455 14:0.13763066 15:0.58041774 16:0.1701189 17:0.41666667 18:0.22535211 19:0.30710305 20:0.13527775 21:0.67356426 22:1 
0.01938198073484473 1:0.016746869 2:0.001104357 3:1.3324425e-006 4:9.4122099e-005 5:0.016010762 6:0.77700021 7:0.00012084884 8:0.00052293099 9:0.087971275 10:0.088695652 11:0.92096361 12:0.26836979 13:0.79439252 14:0.085365854 15:0.31847437 16:0.14474253 17:0.52380952 18:0.24882629 19:0.35136102 20:0.081615966 21:0.94377445 22:1 
0.03125 1:0.014491895 2:0.0082014432 3:3.2308555e-008 4:3.4774328e-005 5:0.016010761 6:0.77700648 7:0.0001208498 8:0.00043123728 9:0.2064632 10:0.29913043 11:0.97977611 12:0.43189459 13:0.26323988 14:0.20034843 15:0.77137266 16:0.22560223 17:0.48015873 18:0.1971831 19:0.30937912 20:0.20733181 21:0.51834525 22:1 
0.03125 1:0.022143075 2:0.00017522513 3:1.6692369e-006 4:8.1770257e-005 5:0.016010761 6:0.77699559 7:0.0001208488 8:0.00076796272 9:0.096947935 10:0.097391304 11:0.80859517 12:0.2836262 13:0.64753004 14:0.094076655 15:0.27544695 16:0.19254501 17:0.38492063 18:0.16901408 19:0.24666814 20:0.080581423 21:0.94870651 22:1 
0.03125 1:0.02376375 2:6.0498343e-005 3:4.2889678e-007 4:2.6395728e-005 5:0.016010761 6:0.77699827 7:0.00012084977 8:0.00083706208 9:0.087971275 10:0.093913043 11:0.87691868 12:0.26836979 13:0.52786431 14:0.085365854 15:0.28969117 16:0.16286097 17:0.37301587 18:0.17370892 19:0.2518492 20:0.078815349 21:0.86710324 22:1 
0.03125 1:0.01658129 2:0.00040155997 3:2.5858522e-006 4:3.8602782e-005 5:0.016010761 6:0.77699741 7:0.00012084941 8:0.0004811152 9:0.10951526 10:0.11652174 11:0.91909808 12:0.30386353 13:0.39847069 14:0.10627178 15:0.35777635 16:0.16741654 17:0.48015873 18:0.21596244 19:0.30710469 20:0.094103999 21:0.87101196 22:1 
0.03125 1:0.023044564 2:0.00021879715 3:4.3970436e-006 4:3.8757088e-005 5:0.016010761 6:0.777 7:0.00012085005 8:0.0007825955 9:0.070017953 10:0.069565217 11:0.90253161 12:0.23537043 13:0.75327103 14:0.067944251 15:0.26765763 16:0.13175871 17:0.34920635 18:0.18779343 19:0.25888169 20:0.069556454 21:0.96434477 22:1 
0.03125 1:0.019574113 2:0.00027219913 3:6.653766e-007 4:4.6373156e-005 5:0.016010761 6:0.77699659 7:0.00012084953 8:0.00061778807 9:0.12746858 10:0.13217391 11:0.92242749 12:0.33088469 13:0.4496046 14:0.12369338 15:0.39060922 16:0.18120554 17:0.36111111 18:0.16901408 19:0.24911434 20:0.10189983 21:0.90507374 22:1 
0.03125 1:0.013221263 2:0.0045604874 3:1.03085e-006 4:7.1271236e-005 5:0.016010761 6:0.77701082 7:0.00012084927 8:0.0003177042 9:0.15439856 10:0.17217391 11:0.96978781 12:0.36810938 13:0.39769104 14:0.14982578 15:0.5310114 16:0.16958726 17:0.43650794 18:0.20657277 19:0.29835215 20:0.12778493 21:0.80995763 22:1 
0.03125 1:0.012133677 2:0.0036539253 3:2.7352371e-006 4:1.2578898e-005 5:0.016010761 6:0.77700029 7:0.0001208497 8:0.00034910159 9:0.2567325 10:0.34956522 11:0.92076795 12:0.48625181 13:0.38317757 14:0.24912892 15:0.65584254 16:0.3233176 17:0.45634921 18:0.20657277 19:0.29814871 20:0.20660028 21:0.58025675 22:1 
0.03125 1:0.020323707 2:0.00048414958 3:7.0224918e-007 4:5.8354534e-005 5:0.016010761 6:0.77699772 7:0.00012084938 8:0.00065907157 9:0.12387792 10:0.12695652 11:0.93597007 12:0.32563843 13:0.7258567 14:0.12020906 15:0.39922482 16:0.16944235 17:0.31746032 18:0.17370892 19:0.234056 20:0.10293437 21:0.9209803 22:1 
0.03125 1:0.023472769 2:0.00019688337 3:5.3815171e-008 4:1.6286764e-005 5:0.016010761 6:0.77699895 7:0.00012084977 8:0.00080651645 9:0.071813285 10:0.074782609 11:0.92672617 12:0.23884354 13:0.60934579 14:0.069686411 15:0.29161221 16:0.12553001 17:0.32936508 18:0.1971831 19:0.2515696 20:0.073820135 21:0.90032743 22:1 
0.03125 1:0.020306696 2:0.0011638841 3:2.795266e-006 4:8.4654435e-006 5:0.016010761 6:0.77699773 7:0.00012084975 8:0.0006892852 9:0.064631957 10:0.066086957 11:0.83392659 12:0.22468205 13:0.47955607 14:0.06271777 15:0.22737681 16:0.14501125 17:0.47619048 18:0.23004695 19:0.33812222 20:0.064989762 21:0.92503259 22:1 
0.03125 1:0.018085216 2:2.5289793e-005 3:7.6230873e-006 4:2.060361e-005 5:0.016010761 6:0.77699875 7:0.00012084973 8:0.00051625717 9:0.18491921 10:0.19652174 11:0.95314123 12:0.40659665 13:0.47912773 14:0.17944251 15:0.53167575 16:0.20376401 17:0.31349206 18:0.16431925 19:0.20763892 20:0.1413075 21:0.87176628 22:1 
0.03125 1:0.028742685 2:4.7615641e-006 3:2.6878951e-006 4:3.0637511e-005 5:0.016010761 6:0.77699831 7:0.00012084968 8:0.0011521493 9:0.086175943 10:0.088695652 11:0.88301483 12:0.26522826 13:0.51263413 14:0.083623693 15:0.29285707 16:0.16063127 17:0.25793651 18:0.15023474 19:0.19527234 20:0.078815349 21:0.91566167 22:1 
0.03125 1:0.013622269 2:0.0097877939 3:1.5321586e-007 4:7.2958845e-005 5:0.016010761 6:0.77699764 7:0.00012084992 8:0.00037178409 9:0.21723519 10:0.28695652 11:0.98886978 12:0.44405227 13:0.24874191 14:0.21080139 15:0.78858016 16:0.19530616 17:0.51587302 18:0.22065728 19:0.33846622 20:0.19058009 21:0.61251787 22:1 
0.03125 1:0.022785646 2:0.00034180604 3:6.0657906e-007 4:1.3993828e-005 5:0.016010761 6:0.77699798 7:0.00012084977 8:0.00079934832 9:0.077199282 10:0.08 11:0.87165729 12:0.24901617 13:0.54178905 14:0.074912892 15:0.2666393 16:0.15157145 17:0.3968254 18:0.19248826 19:0.26581071 20:0.074551667 21:0.90668951 22:1 
0.03125 1:0.0093460473 2:0.0015401761 3:4.7487431e-007 4:7.5285154e-006 5:0.016010761 6:0.776998 7:0.00012084976 8:0.00020555864 9:0.12387792 10:0.1373913 11:0.96689252 12:0.32563843 13:0.34205607 14:0.12020906 15:0.46807306 16:0.15171775 17:0.76587302 18:0.35680751 19:0.51071001 20:0.11219327 21:0.81726695 22:1 
0.03125 1:0.022256601 2:0.00029799728 3:4.174778e-007 4:7.8831599e-005 5:0.016010762 6:0.77699543 7:0.00012084977 8:0.00074938223 9:0.11669659 10:0.12695652 11:0.9137093 12:0.31491605 13:0.66108658 14:0.11324042 15:0.36848167 16:0.17867876 17:0.29365079 18:0.16901408 19:0.21906292 20:0.098670691 21:0.8419606 22:1 
0.03125 1:0.02201455 2:0.00051385248 3:8.5339297e-008 4:5.7417215e-005 5:0.016010761 6:0.77699534 7:0.00012084972 8:0.00072086872 9:0.11310592 10:0.12347826 11:0.94760652 12:0.30943297 13:0.37368799 14:0.1097561 15:0.40580584 16:0.15712795 17:0.30952381 18:0.17370892 19:0.22744126 20:0.10189983 21:0.83757062 22:1 
0.03125 1:0.018996915 2:0.00068908882 3:9.2918376e-006 4:6.5436612e-006 5:0.016010761 6:0.77699857 7:0.0001208498 8:0.0005310969 9:0.12746858 10:0.13391304 11:0.91497451 12:0.33088469 13:0.4496046 14:0.12369338 15:0.38313736 16:0.18536005 17:0.31349206 18:0.17840376 19:0.23437862 20:0.10189983 21:0.88754889 22:1 
0.03125 1:0.012245978 2:0.0039564668 3:2.6070196e-006 4:2.3580888e-005 5:0.016010761 6:0.77699751 7:0.0001208498 8:0.00032228345 9:0.17414722 10:0.19652174 11:0.98305981 12:0.3933996 13:0.40602285 14:0.16898955 15:0.61671046 16:0.16458048 17:0.62698413 18:0.24413146 19:0.3610673 20:0.14410812 21:0.79482605 22:1 
0.03125 1:0.018222504 2:0.0002651884 3:1.3296323e-006 4:2.493984e-005 5:0.016010761 6:0.77699816 7:0.00012084965 8:0.00053243602 9:0.14003591 10:0.14608696 11:0.92963615 12:0.34869535 13:0.69452603 14:0.1358885 15:0.41637791 16:0.18589578 17:0.34126984 18:0.18779343 19:0.23561071 20:0.10646652 21:0.89680957 22:1 
0.004021976991724678 1:0.012414437 2:0.00039288157 3:5.6711595e-008 4:3.7117229e-005 5:0.016010761 6:0.7769995 7:0.00012084977 8:0.0003364579 9:0.098743268 10:0.095652174 11:0.92381021 12:0.28659305 13:0.82918763 14:0.095818815 15:0.34039464 16:0.15349398 17:0.67460317 18:0.30985915 19:0.46278627 20:0.085879647 21:1 22:1 
0.03125 1:0.012025544 2:0.0016143673 3:1.092137e-005 4:3.2728232e-005 5:0.016010762 6:0.77700182 7:0.00012084989 8:0.00027359968 9:0.066427289 10:0.064347826 11:0.93978033 12:0.22829142 13:0.8317757 14:0.06445993 15:0.28948731 16:0.11241234 17:0.8531746 18:0.42253521 19:0.61291331 20:0.071322529 21:1 22:1 
0.03125 1:0.014265948 2:0.0024264958 3:2.8704311e-007 4:1.6456789e-005 5:0.016010761 6:0.77700064 7:0.00012084981 8:0.00040226737 9:0.14362657 10:0.16173913 11:0.97573321 12:0.35363768 13:0.51767269 14:0.13937282 15:0.54295096 16:0.16007489 17:0.46825397 18:0.23943662 19:0.32383427 20:0.1270534 21:0.79782726 22:1 
0.03125 1:0.013412602 2:0.002860539 3:3.1549209e-006 4:2.4129692e-005 5:0.016010761 6:0.77699505 7:0.00012084986 8:0.00037163057 9:0.18491921 10:0.21217391 11:0.97925893 12:0.40659665 13:0.4953271 14:0.17944251 15:0.62520076 16:0.1787032 17:0.42857143 18:0.23004695 19:0.3105935 20:0.14764027 21:0.77418355 22:1 
0.03125 1:0.018221413 2:0.0037118216 3:3.178439e-005 4:0.00015168511 5:0.016010746 6:0.77702216 7:0.00012085222 8:0.00048929633 9:0.093357271 10:0.097391304 11:0.90074485 12:0.27761044 13:0.67445483 14:0.090592334 15:0.31290876 16:0.1592149 17:0.29365079 18:0.18779343 19:0.22645736 20:0.084113573 21:0.89741302 22:1 
0.03125 1:0.016908643 2:0.0052695885 3:6.4548403e-006 4:4.0189485e-005 5:0.01601076 6:0.77700595 7:0.00012085034 8:0.00043000408 9:0.11669659 10:0.12869565 11:0.95780865 12:0.31491605 13:0.61448598 14:0.11324042 15:0.4282754 16:0.15164582 17:0.34126984 18:0.1971831 19:0.24332989 20:0.1107302 21:0.82457627 22:1 
0.03125 1:0.014880606 2:0.0011439316 3:4.8546208e-007 4:1.6474371e-005 5:0.016010761 6:0.77699728 7:0.00012084975 8:0.00039892149 9:0.12567325 10:0.1426087 11:0.97350038 12:0.3282708 13:0.31378505 14:0.12195122 15:0.48430979 16:0.14443778 17:0.44444444 18:0.23943662 19:0.34131296 20:0.11645695 21:0.78864611 22:1 
0.03125 1:0.012954949 2:0.0017455445 3:4.1899512e-006 4:6.3624821e-005 5:0.016010762 6:0.7769928 7:0.00012085053 8:0.00030172227 9:0.23159785 10:0.24521739 11:0.97148414 12:0.45980653 13:0.63795205 14:0.22473868 15:0.64977129 16:0.20929597 17:0.42063492 18:0.21126761 19:0.29441939 20:0.15720218 21:0.87646216 22:1 
0.03125 1:0.018334982 2:0.0018624064 3:4.7629716e-005 4:3.1137635e-005 5:0.016010761 6:0.77700104 7:0.00012084842 8:0.00048527708 9:0.12208259 10:0.13391304 11:0.94057483 12:0.32298719 13:0.35747664 14:0.1184669 15:0.41099507 16:0.16912101 17:0.38888889 18:0.1971831 19:0.26732104 20:0.10616351 21:0.83132334 22:1 
0.03125 1:0.013903371 2:0.0032661361 3:1.7684835e-006 4:0.00021682883 5:0.016010761 6:0.77702082 7:0.0001208533 8:0.00040095398 9:0.070017953 10:0.073043478 11:0.90385007 12:0.23537043 13:0.38317757 14:0.067944251 15:0.27159287 16:0.13306157 17:0.46031746 18:0.25821596 19:0.33286515 20:0.073517125 21:0.89800946 22:1 
0.03125 1:0.019419352 2:0.00075531295 3:5.7957333e-007 4:2.2169226e-005 5:0.016010761 6:0.77699964 7:0.00012084974 8:0.00060133004 9:0.11669659 10:0.12521739 11:0.94849149 12:0.31491605 13:0.39266715 14:0.11324042 15:0.40880333 16:0.15723374 17:0.32539683 18:0.19248826 19:0.24714855 20:0.10189983 21:0.85982122 22:1 
0.03125 1:0.013602104 2:0.00068581617 3:4.227093e-007 4:8.1913475e-006 5:0.016010761 6:0.77699794 7:0.00012084978 8:0.00036181732 9:0.14003591 10:0.15652174 11:0.91829765 12:0.34869535 13:0.63651535 14:0.1358885 15:0.43665044 16:0.2104477 17:0.48412698 18:0.23474178 19:0.33255384 20:0.11749149 21:0.80722667 22:1 
