svm_type c_svc
kernel_type intersection
nr_class 2
total_sv 1748
rho 4.267355
label 1 0
probA -6.287467
probB 0.388858
nr_sv 871 877
SV
0.031250 1:0.070884528 2:0.000099567 3:0.000002749 4:0.000069148 5:0.454067327 6:0.212876346 7:0.266402352 8:0.006528708 9:0.108695652 10:0.118622449 11:0.929037299 12:0.329690237 13:0.515151515 14:0.108418367 15:0.399184059 16:0.205131625 17:0.423529412 18:0.268656716 19:0.329564173 20:0.132702122 21:0.913978495 22:1.000000000 
0.031250 1:0.074246815 2:0.000175910 3:0.000001678 4:0.000011656 5:0.454067325 6:0.212877410 7:0.266402352 8:0.007197619 9:0.089514066 10:0.099489796 11:0.938177285 12:0.299189015 13:0.583333333 14:0.089285714 15:0.373783235 16:0.182076598 17:0.439215686 18:0.278606965 19:0.353474823 20:0.119824405 21:0.897435897 22:1.000000000 
0.031250 1:0.068937199 2:0.000124754 3:0.000006171 4:0.000062154 5:0.454067325 6:0.212877919 7:0.266402350 8:0.006554908 9:0.113810742 10:0.133928571 11:0.947920365 12:0.337358477 13:0.581699346 14:0.113520408 15:0.444972890 16:0.203154424 17:0.439215686 18:0.278606965 19:0.350736119 20:0.143431751 21:0.847619048 22:1.000000000 
0.031250 1:0.080882107 2:0.000114613 3:0.000000240 4:0.000126981 5:0.454067326 6:0.212875641 7:0.266402353 8:0.008433916 9:0.089514066 10:0.090561224 11:0.906000646 12:0.299189015 13:0.833333333 14:0.089285714 15:0.341099107 16:0.196070598 17:0.478431373 18:0.268656716 19:0.359650889 20:0.110226486 21:0.985915493 22:1.000000000 
0.031250 1:0.084440238 2:0.000030631 3:0.000010353 4:0.000017729 5:0.454067325 6:0.212877245 7:0.266402352 8:0.008802896 9:0.079283887 10:0.081632653 11:0.874977280 12:0.281573947 13:0.861111111 14:0.079081633 15:0.303461590 16:0.195994052 17:0.431372549 18:0.268656716 19:0.326714451 20:0.103490283 21:0.968750000 22:1.000000000 
0.031250 1:0.080793816 2:0.000035156 3:0.000002889 4:0.000071612 5:0.454067323 6:0.212878008 7:0.266402351 8:0.008092170 9:0.092071611 10:0.107142857 11:0.922790584 12:0.303433042 13:0.503496503 14:0.091836735 15:0.369283145 16:0.196181385 17:0.415686275 18:0.253731343 19:0.307687325 20:0.121583242 21:0.857142857 22:1.000000000 
0.031250 1:0.063917844 2:0.000084355 3:0.000001836 4:0.000030819 5:0.454067325 6:0.212877820 7:0.266402352 8:0.005882240 9:0.076726343 10:0.084183673 11:0.908136311 12:0.276995203 13:0.606060606 14:0.076530612 15:0.320177263 16:0.182342895 17:0.564705882 18:0.353233831 19:0.462335475 20:0.104265181 21:0.909090909 22:1.000000000 
0.031250 1:0.065719922 2:0.000697646 3:0.000023435 4:0.000009192 5:0.454067325 6:0.212877044 7:0.266402352 8:0.005814183 9:0.118925831 10:0.135204082 11:0.945613123 12:0.344856247 13:0.510989011 14:0.118622449 15:0.444300494 16:0.206156892 17:0.490196078 18:0.268656716 19:0.371079737 20:0.143132605 21:0.877358491 22:1.000000000 
0.031250 1:0.070766503 2:0.000337781 3:0.000001400 4:0.000032841 5:0.454067325 6:0.212878272 7:0.266402352 8:0.006715417 9:0.118925831 10:0.125000000 11:0.970545680 12:0.344856247 13:0.775000000 14:0.118622449 15:0.485652685 16:0.181919579 17:0.407843137 18:0.268656716 19:0.331092308 20:0.148974973 21:0.948979592 22:1.000000000 
0.031250 1:0.082589845 2:0.000178040 3:0.000004509 4:0.000007581 5:0.454067325 6:0.212877505 7:0.266402352 8:0.008330869 9:0.069053708 10:0.072704082 11:0.942133519 12:0.262780723 13:0.830769231 14:0.068877551 15:0.333617323 16:0.158462458 17:0.474509804 18:0.293532338 19:0.372473831 20:0.102744219 21:0.947368421 22:1.000000000 
0.031250 1:0.075932744 2:0.001077138 3:0.000006527 4:0.000054610 5:0.454067323 6:0.212878783 7:0.266402352 8:0.007923914 9:0.113810742 10:0.125000000 11:0.959960549 12:0.337358477 13:0.618055556 14:0.113520408 15:0.456523209 16:0.189547027 17:0.407843137 18:0.258706468 19:0.326872669 20:0.141344934 21:0.908163265 22:1.000000000 
0.031250 1:0.076054940 2:0.000318357 3:0.000008646 4:0.000002199 5:0.454067325 6:0.212877451 7:0.266402352 8:0.007344983 9:0.112531969 10:0.130102041 11:0.971069639 12:0.335457850 13:0.431372549 14:0.112244898 15:0.480484521 16:0.178956667 17:0.400000000 18:0.263681592 19:0.330634828 20:0.150914019 21:0.862745098 22:1.000000000 
0.031250 1:0.082887828 2:0.000189268 3:0.000002270 4:0.000114485 5:0.454067323 6:0.212879156 7:0.266402349 8:0.008964286 9:0.104859335 10:0.123724490 11:0.961152757 12:0.323819911 13:0.512500000 14:0.104591837 15:0.445702775 16:0.183114814 17:0.435294118 18:0.258706468 19:0.320174086 20:0.138364281 21:0.845360825 22:1.000000000 
0.031250 1:0.078972128 2:0.000120079 3:0.000002311 4:0.000005071 5:0.454067325 6:0.212877385 7:0.266402352 8:0.007762372 9:0.106138107 10:0.119897959 11:0.968755340 12:0.325788440 13:0.399038462 14:0.105867347 15:0.464381597 16:0.177297336 17:0.396078431 18:0.248756219 19:0.301246649 20:0.144239087 21:0.882978723 22:1.000000000 
0.031250 1:0.082489532 2:0.000081125 3:0.000001159 4:0.000012393 5:0.454067325 6:0.212877500 7:0.266402352 8:0.008591911 9:0.074168798 10:0.082908163 11:0.903122728 12:0.272339490 13:0.585858586 14:0.073979592 15:0.310864531 16:0.180887298 17:0.458823529 18:0.283582090 19:0.363720021 20:0.102297301 21:0.892307692 22:1.000000000 
0.031250 1:0.070083394 2:0.000055504 3:0.000008990 4:0.000034174 5:0.454067326 6:0.212877645 7:0.266402352 8:0.006576829 9:0.079283887 10:0.088010204 11:0.915272440 12:0.281573947 13:0.563636364 14:0.079081633 15:0.337111902 16:0.185844551 17:0.517647059 18:0.333333333 19:0.408088420 20:0.108676691 21:0.898550725 22:1.000000000 
0.031250 1:0.074772409 2:0.000260602 3:0.000013035 4:0.000069967 5:0.454067329 6:0.212875912 7:0.266402351 8:0.007677162 9:0.093350384 10:0.100765306 11:0.907470315 12:0.305532950 13:0.608333333 14:0.093112245 15:0.349473739 16:0.199608862 17:0.466666667 18:0.278606965 19:0.370399658 20:0.114072141 21:0.924050633 22:1.000000000 
0.031250 1:0.064500813 2:0.000213147 3:0.000001214 4:0.000048731 5:0.454067325 6:0.212877614 7:0.266402352 8:0.006162323 9:0.107416880 10:0.119897959 11:0.976697244 12:0.327745145 13:0.583333333 14:0.107142857 15:0.483185707 16:0.168434056 17:0.470588235 18:0.333333333 19:0.409938854 20:0.143669627 21:0.893617021 22:1.000000000 
0.031250 1:0.081900883 2:0.000179185 3:0.000012203 4:0.000019660 5:0.454067325 6:0.212877235 7:0.266402352 8:0.008382938 9:0.109974425 10:0.125000000 11:0.960370600 12:0.331623920 13:0.682539683 14:0.109693878 15:0.461316127 16:0.190849215 17:0.411764706 18:0.243781095 19:0.299913595 20:0.140926850 21:0.877551020 22:1.000000000 
0.031250 1:0.090861319 2:0.000018624 3:0.000015211 4:0.000014257 5:0.454067325 6:0.212877407 7:0.266402352 8:0.009992812 9:0.076726343 10:0.084183673 11:0.918772921 12:0.276995203 13:0.545454545 14:0.076530612 15:0.328934620 16:0.178305083 17:0.380392157 18:0.248756219 19:0.311161778 20:0.108676691 21:0.909090909 22:1.000000000 
0.031250 1:0.076250554 2:0.000719425 3:0.000001138 4:0.000176981 5:0.454067329 6:0.212884390 7:0.266402349 8:0.007929016 9:0.076726343 10:0.084183673 11:0.924650783 12:0.276995203 13:0.545454545 14:0.076530612 15:0.335646115 16:0.176599603 17:0.439215686 18:0.288557214 19:0.359780806 20:0.107335938 21:0.909090909 22:1.000000000 
0.031250 1:0.076723525 2:0.000159388 3:0.000010484 4:0.000003133 5:0.454067325 6:0.212877432 7:0.266402352 8:0.007611331 9:0.086956522 10:0.095663265 11:0.926427063 12:0.294883912 13:0.653846154 14:0.086734694 15:0.356238053 16:0.185678756 17:0.443137255 18:0.283582090 19:0.358439308 20:0.117647483 21:0.906666667 22:1.000000000 
0.031250 1:0.055742007 2:0.000292904 3:0.000002689 4:0.000005767 5:0.454067325 6:0.212877250 7:0.266402352 8:0.004831837 9:0.143222506 10:0.163265306 11:0.968888169 12:0.378447495 13:0.636363636 14:0.142857143 15:0.541204408 16:0.206341189 17:0.486274510 18:0.303482587 19:0.375285929 20:0.170913586 21:0.875000000 22:1.000000000 
0.031250 1:0.035990681 2:0.000505076 3:0.000118257 4:0.000003529 5:0.454067325 6:0.212877272 7:0.266402352 8:0.002152535 9:0.144501279 10:0.165816327 11:0.983668040 12:0.380133238 13:0.466942149 14:0.144132653 15:0.587068933 16:0.185710264 17:0.690196078 18:0.422885572 19:0.551818383 20:0.180482671 21:0.869230769 22:1.000000000 
0.031250 1:0.054047360 2:0.000374438 3:0.000029356 4:0.000034250 5:0.454067323 6:0.212878114 7:0.266402353 8:0.004887325 9:0.081841432 10:0.093112245 11:0.945176083 12:0.286079416 13:0.653061224 14:0.081632653 15:0.370907514 16:0.172619904 17:0.592156863 18:0.373134328 19:0.481905508 20:0.114637997 21:0.876712329 22:1.000000000 
0.031250 1:0.050682316 2:0.000071137 3:0.000000576 4:0.000035337 5:0.454067325 6:0.212877093 7:0.266402352 8:0.004178544 9:0.083120205 10:0.089285714 11:0.928357574 12:0.288305748 13:0.773809524 14:0.082908163 15:0.351033648 16:0.181063759 17:0.658823529 18:0.398009950 19:0.549268557 20:0.110255320 21:0.928571429 22:1.000000000 
0.031250 1:0.073955156 2:0.000085801 3:0.000002858 4:0.000024966 5:0.454067325 6:0.212877739 7:0.266402352 8:0.006938038 9:0.079283887 10:0.090561224 11:0.961587859 12:0.281573947 13:0.590476190 14:0.079081633 15:0.385496703 16:0.157762228 17:0.462745098 18:0.278606965 19:0.367536833 20:0.120390260 21:0.873239437 22:1.000000000 
0.031250 1:0.046749947 2:0.000034331 3:0.000000116 4:0.000024830 5:0.454067325 6:0.212877612 7:0.266402352 8:0.003965609 9:0.076726343 10:0.086734694 11:0.907679457 12:0.276995203 13:0.545454545 14:0.076530612 15:0.318204701 16:0.181582885 17:0.811764706 18:0.487562189 19:0.663177531 20:0.105368058 21:0.882352941 22:1.000000000 
0.031250 1:0.050750206 2:0.000048113 3:0.000000199 4:0.000001254 5:0.454067325 6:0.212877385 7:0.266402352 8:0.004349494 9:0.069053708 10:0.073979592 11:0.906272225 12:0.262780723 13:0.701298701 14:0.068877551 15:0.301614416 16:0.173171225 17:0.752941176 18:0.452736318 19:0.611876878 20:0.097438873 21:0.931034483 22:1.000000000 
0.031250 1:0.065438632 2:0.000025173 3:0.000000054 4:0.000000994 5:0.454067325 6:0.212877396 7:0.266402352 8:0.006047353 9:0.083120205 10:0.090561224 11:0.926788642 12:0.288305748 13:0.625000000 14:0.082908163 15:0.347522150 16:0.180784894 17:0.580392157 18:0.333333333 19:0.431872573 20:0.113326077 21:0.915492958 22:1.000000000 
0.031250 1:0.047585297 2:0.000061216 3:0.000000800 4:0.000035806 5:0.454067325 6:0.212877815 7:0.266402352 8:0.004050257 9:0.072890026 10:0.080357143 11:0.925466485 12:0.269981528 13:0.678571429 14:0.072704082 15:0.323431111 16:0.169443125 17:0.839215686 18:0.492537313 19:0.670688536 20:0.101194424 21:0.904761905 22:1.000000000 
0.031250 1:0.055940718 2:0.000182942 3:0.000043241 4:0.000036026 5:0.454067325 6:0.212876791 7:0.266402353 8:0.004392885 9:0.069053708 10:0.077806122 11:0.946972566 12:0.262780723 13:0.500000000 14:0.068877551 15:0.341906641 16:0.157150989 17:0.654901961 18:0.412935323 19:0.556767541 20:0.107364771 21:0.885245902 22:1.000000000 
0.031250 1:0.045009812 2:0.000203193 3:0.000029097 4:0.000022131 5:0.454067324 6:0.212876925 7:0.266402351 8:0.003435154 9:0.066496164 10:0.066326531 11:0.911467781 12:0.257868501 13:0.866666667 14:0.066326531 15:0.296965269 16:0.166624471 17:0.925490196 18:0.562189055 19:0.735419972 20:0.094011303 21:1.000000000 22:1.000000000 
0.031250 1:0.041972637 2:0.000042810 3:0.000000463 4:0.000029065 5:0.454067325 6:0.212877104 7:0.266402352 8:0.003398094 9:0.081841432 10:0.088010204 11:0.855328964 12:0.286079416 13:0.646464646 14:0.081632653 15:0.298611316 16:0.204825657 17:0.898039216 18:0.462686567 19:0.686000492 20:0.102625281 21:0.927536232 22:1.000000000 
0.031250 1:0.032273799 2:0.000335847 3:0.000000358 4:0.000007907 5:0.454067325 6:0.212877596 7:0.266402352 8:0.002265119 9:0.126598465 10:0.149234694 11:0.965478726 12:0.355806781 13:0.412500000 14:0.126275510 15:0.515455366 16:0.203400900 17:0.819607843 18:0.487562189 19:0.656775549 20:0.161376939 21:0.846153846 22:1.000000000 
0.031250 1:0.051148983 2:0.000072064 3:0.000000528 4:0.000016803 5:0.454067325 6:0.212877503 7:0.266402352 8:0.004136489 9:0.102301790 10:0.109693878 11:0.902709997 12:0.319846511 13:0.615384615 14:0.102040816 15:0.361568673 16:0.210754387 17:0.643137255 18:0.323383085 19:0.474192922 20:0.119496425 21:0.930232558 22:1.000000000 
0.031250 1:0.038990643 2:0.000226923 3:0.000000746 4:0.000001387 5:0.454067325 6:0.212877396 7:0.266402352 8:0.003086098 9:0.120204604 10:0.140306122 11:0.949320427 12:0.346705356 13:0.580246914 14:0.119897959 15:0.454806359 16:0.205556921 17:0.756862745 18:0.422885572 19:0.574989030 20:0.147425177 21:0.854545455 22:1.000000000 
0.031250 1:0.043575412 2:0.000077198 3:0.000006503 4:0.000020159 5:0.454067326 6:0.212877284 7:0.266402352 8:0.003442880 9:0.107416880 10:0.123724490 11:0.942355976 12:0.327745145 13:0.656250000 14:0.107142857 15:0.421391289 16:0.199861496 17:0.698039216 18:0.432835821 19:0.560842722 20:0.132193933 21:0.865979381 22:1.000000000 
0.031250 1:0.046928422 2:0.000218798 3:0.000005916 4:0.000005798 5:0.454067325 6:0.212877469 7:0.266402352 8:0.003818800 9:0.089514066 10:0.103316327 11:0.953797123 12:0.299189015 13:0.666666667 14:0.089285714 15:0.402219393 16:0.175738738 17:0.694117647 18:0.427860697 19:0.554766593 20:0.122714953 21:0.864197531 22:1.000000000 
0.031250 1:0.066134654 2:0.000010119 3:0.000019793 4:0.000030904 5:0.454067325 6:0.212877329 7:0.266402353 8:0.005963934 9:0.065217391 10:0.068877551 11:0.891344522 12:0.255376959 13:0.637500000 14:0.065051020 15:0.285028870 16:0.173788702 17:0.572549020 18:0.358208955 19:0.461623576 20:0.094786200 21:0.944444444 22:1.000000000 
0.031250 1:0.055836680 2:0.000235548 3:0.000000174 4:0.000042892 5:0.454067325 6:0.212877661 7:0.266402352 8:0.004651982 9:0.083120205 10:0.091836735 11:0.942631874 12:0.288305748 13:0.773809524 14:0.082908163 15:0.365469040 16:0.173023387 17:0.670588235 18:0.388059701 19:0.515431651 20:0.113563952 21:0.902777778 22:1.000000000 
0.031250 1:0.050940080 2:0.000337934 3:0.000003019 4:0.000027320 5:0.454067326 6:0.212876632 7:0.266402352 8:0.004345138 9:0.138107417 10:0.161989796 11:0.976346582 12:0.371628063 13:0.540000000 14:0.137755102 15:0.557261631 16:0.195113513 17:0.564705882 18:0.313432836 19:0.435433724 20:0.173357217 21:0.850393701 22:1.000000000 
0.031250 1:0.044794023 2:0.000063817 3:0.000000865 4:0.000016623 5:0.454067325 6:0.212877554 7:0.266402352 8:0.003930180 9:0.067774936 10:0.068877551 11:0.922909528 12:0.260336198 13:0.883333333 14:0.067602041 15:0.308142080 16:0.163600283 17:0.890196078 18:0.527363184 19:0.714020614 20:0.095352056 21:0.981481481 22:1.000000000 
0.031250 1:0.058673876 2:0.000013801 3:0.000008680 4:0.000041437 5:0.454067324 6:0.212877523 7:0.266402351 8:0.005526200 9:0.069053708 10:0.075255102 11:0.924588769 12:0.262780723 13:0.750000000 14:0.068877551 15:0.315760488 16:0.166190817 17:0.654901961 18:0.402985075 19:0.537801845 20:0.096782913 21:0.915254237 22:1.000000000 
0.031250 1:0.028078629 2:0.000227334 3:0.000002939 4:0.000016044 5:0.454067325 6:0.212877410 7:0.266402352 8:0.001975913 9:0.109974425 10:0.122448980 11:0.920077593 12:0.331623920 13:0.558441558 14:0.109693878 15:0.394997238 16:0.212739222 17:0.882352941 18:0.547263682 19:0.739022239 20:0.131300098 21:0.895833333 22:1.000000000 
0.031250 1:0.041211974 2:0.000088747 3:0.000000501 4:0.000000772 5:0.454067325 6:0.212877398 7:0.266402352 8:0.003169741 9:0.126598465 10:0.141581633 11:0.916023888 12:0.355806781 13:0.618750000 14:0.126275510 15:0.417788650 16:0.229500514 17:0.678431373 18:0.402985075 19:0.535731446 20:0.143698460 21:0.891891892 22:1.000000000 
0.031250 1:0.038320155 2:0.000016588 3:0.000015728 4:0.000005487 5:0.454067325 6:0.212877408 7:0.266402352 8:0.002925815 9:0.093350384 10:0.094387755 11:0.859894423 12:0.305532950 13:0.663636364 14:0.093112245 15:0.319944078 16:0.216573020 17:0.803921569 18:0.482587065 19:0.656047827 20:0.106651145 21:0.986486486 22:1.000000000 
0.031250 1:0.024288477 2:0.000118233 3:0.000001870 4:0.000017161 5:0.454067325 6:0.212877645 7:0.266402352 8:0.001650088 9:0.106138107 10:0.116071429 11:0.912412484 12:0.325788440 13:0.580419580 14:0.105867347 15:0.383786701 16:0.214412306 17:0.960784314 18:0.606965174 19:0.810640219 20:0.126888588 21:0.912087912 22:1.000000000 
0.031250 1:0.020134338 2:0.000515390 3:0.000000773 4:0.000001799 5:0.454067325 6:0.212877410 7:0.266402352 8:0.001425658 9:0.130434783 10:0.153061224 11:0.968585568 12:0.361157559 13:0.607142857 14:0.130102041 15:0.519939605 16:0.198860154 17:0.988235294 18:0.611940299 19:0.859093902 20:0.161196730 21:0.850000000 22:1.000000000 
0.031250 1:0.049689893 2:0.000082311 3:0.000000659 4:0.000036756 5:0.454067325 6:0.212876886 7:0.266402352 8:0.004362099 9:0.085677749 10:0.095663265 11:0.891617756 12:0.292707618 13:0.697916667 14:0.085459184 15:0.327260913 16:0.199333253 17:0.803921569 18:0.427860697 19:0.592825333 20:0.107602647 21:0.893333333 22:1.000000000 
0.031250 1:0.029894328 2:0.000085158 3:0.000000156 4:0.000010179 5:0.454067325 6:0.212877501 7:0.266402352 8:0.002143245 9:0.089514066 10:0.094387755 11:0.838725565 12:0.299189015 13:0.707070707 14:0.089285714 15:0.304966141 16:0.218778305 17:0.992156863 18:0.597014925 19:0.802888530 20:0.104265181 21:0.945945946 22:1.000000000 
0.031250 1:0.030548991 2:0.000128605 3:0.000000052 4:0.000020943 5:0.454067325 6:0.212877466 7:0.266402352 8:0.002320556 9:0.124040921 10:0.136479592 11:0.898907940 12:0.352194436 13:0.646666667 14:0.123724490 15:0.395353350 16:0.234064697 17:0.858823529 18:0.487562189 19:0.674211739 20:0.133624791 21:0.906542056 22:1.000000000 
0.031250 1:0.065342059 2:0.000002028 3:0.000002406 4:0.000019626 5:0.454067325 6:0.212877416 7:0.266402352 8:0.005822628 9:0.098465473 10:0.107142857 11:0.939461673 12:0.313792086 13:0.538461538 14:0.098214286 15:0.391229881 16:0.189049075 17:0.501960784 18:0.318407960 19:0.406268465 20:0.124891875 21:0.916666667 22:1.000000000 
0.031250 1:0.019725711 2:0.000222521 3:0.000000493 4:0.000000498 5:0.454067325 6:0.212877381 7:0.266402352 8:0.001319212 9:0.130434783 10:0.145408163 11:0.946525749 12:0.361157559 13:0.708333333 14:0.130102041 15:0.464913152 16:0.214359148 17:0.996078431 18:0.626865672 19:0.849876244 20:0.146978260 21:0.894736842 22:1.000000000 
0.031250 1:0.037367415 2:0.000084660 3:0.000001916 4:0.000006352 5:0.454067325 6:0.212877361 7:0.266402352 8:0.002815984 9:0.107416880 10:0.114795918 11:0.897116094 12:0.327745145 13:0.750000000 14:0.107142857 15:0.366790788 16:0.218713587 17:0.772549020 18:0.457711443 19:0.620454747 20:0.122386973 21:0.933333333 22:1.000000000 
0.031250 1:0.025653904 2:0.000074966 3:0.000000732 4:0.000020342 5:0.454067325 6:0.212877148 7:0.266402352 8:0.001853219 9:0.094629156 10:0.102040816 11:0.875451851 12:0.307618524 13:0.685185185 14:0.094387755 15:0.332964287 16:0.214712358 17:0.988235294 18:0.601990050 19:0.842868467 20:0.113654057 21:0.925000000 22:1.000000000 
0.031250 1:0.048808193 2:0.000051892 3:0.000000418 4:0.000018468 5:0.454067325 6:0.212877558 7:0.266402352 8:0.004266021 9:0.080562660 10:0.086734694 11:0.880541910 12:0.283835621 13:0.636363636 14:0.080357143 15:0.309435403 16:0.196145036 17:0.796078431 18:0.462686567 19:0.621470767 20:0.102596448 21:0.926470588 22:1.000000000 
0.031250 1:0.062877818 2:0.000271386 3:0.000018968 4:0.000084586 5:0.454067328 6:0.212875279 7:0.266402358 8:0.005951571 9:0.072890026 10:0.082908163 11:0.934468367 12:0.269981528 13:0.730769231 14:0.072704082 15:0.336397054 16:0.167586894 17:0.572549020 18:0.368159204 19:0.500586371 20:0.109004671 21:0.876923077 22:1.000000000 
0.031250 1:0.053096158 2:0.000289698 3:0.000004361 4:0.000045599 5:0.454067324 6:0.212876285 7:0.266402353 8:0.004859308 9:0.111253197 10:0.125000000 11:0.908792003 12:0.333546394 13:0.580000000 14:0.110969388 15:0.390297087 16:0.221634912 17:0.678431373 18:0.323383085 19:0.491762591 20:0.132939998 21:0.887755102 22:1.000000000 
0.031250 1:0.032291335 2:0.000009662 3:0.000009967 4:0.000022550 5:0.454067325 6:0.212877293 7:0.266402351 8:0.002342628 9:0.106138107 10:0.110969388 11:0.861581823 12:0.325788440 13:0.798076923 14:0.105867347 15:0.346749117 16:0.233546952 17:0.909803922 18:0.507462687 19:0.707578162 20:0.118959403 21:0.954022989 22:1.000000000 
0.031250 1:0.025960041 2:0.000099569 3:0.000000342 4:0.000009079 5:0.454067325 6:0.212877387 7:0.266402352 8:0.001734295 9:0.093350384 10:0.099489796 11:0.875894317 12:0.305532950 13:0.608333333 14:0.093112245 15:0.328566389 16:0.211566293 17:1.000000000 18:0.611940299 19:0.831415563 20:0.109094775 21:0.935897436 22:1.000000000 
0.031250 1:0.063554003 2:0.000001781 3:0.000002647 4:0.000007771 5:0.454067325 6:0.212877399 7:0.266402352 8:0.005326369 9:0.075447570 10:0.084183673 11:0.918238655 12:0.274677211 13:0.648351648 14:0.075255102 15:0.330506025 16:0.179625880 17:0.529411765 18:0.348258706 19:0.428411832 20:0.105933914 21:0.893939394 22:1.000000000 
0.031250 1:0.061542262 2:0.000009517 3:0.000003288 4:0.000009288 5:0.454067325 6:0.212877349 7:0.266402352 8:0.005295046 9:0.061381074 10:0.063775510 11:0.915640890 12:0.247752042 13:0.600000000 14:0.061224490 15:0.291101912 16:0.160200171 17:0.647058824 18:0.398009950 19:0.509450461 20:0.091448734 21:0.960000000 22:1.000000000 
0.031250 1:0.058439255 2:0.001568807 3:0.000218708 4:0.000031353 5:0.454067321 6:0.212876650 7:0.266402353 8:0.004592822 9:0.098465473 10:0.109693878 11:0.928178773 12:0.313792086 13:0.570370370 14:0.098214286 15:0.382378492 16:0.197424504 17:0.576470588 18:0.328358209 19:0.469228357 20:0.132612018 21:0.895348837 22:1.000000000 
0.031250 1:0.055121896 2:0.000468134 3:0.000005839 4:0.000075504 5:0.454067323 6:0.212877093 7:0.266402350 8:0.004738659 9:0.103580563 10:0.122448980 11:0.935156527 12:0.321839343 13:0.540000000 14:0.103316327 15:0.406751832 16:0.201810315 17:0.564705882 18:0.348258706 19:0.451963934 20:0.135621504 21:0.843750000 22:1.000000000 
0.031250 1:0.044756743 2:0.002059706 3:0.000006477 4:0.000021859 5:0.454067326 6:0.212876997 7:0.266402351 8:0.003152595 9:0.189258312 10:0.210459184 11:0.970223521 12:0.435038288 13:0.435294118 14:0.188775510 15:0.619373354 16:0.232819592 17:0.600000000 18:0.303482587 19:0.438904186 20:0.195476039 21:0.896969697 22:1.000000000 
0.031250 1:0.073762020 2:0.000242694 3:0.000004095 4:0.000111445 5:0.454067325 6:0.212876516 7:0.266402349 8:0.007392372 9:0.083120205 10:0.095663265 11:0.894618225 12:0.288305748 13:0.625000000 14:0.082908163 15:0.324301068 16:0.195278217 17:0.490196078 18:0.293532338 19:0.377888502 20:0.111329364 21:0.866666667 22:1.000000000 
0.031250 1:0.050271641 2:0.000043920 3:0.000078408 4:0.000025887 5:0.454067328 6:0.212877281 7:0.266402353 8:0.003698656 9:0.153452685 10:0.172193878 11:0.948998328 12:0.391730373 13:0.444444444 14:0.153061224 15:0.507178803 16:0.229765298 17:0.615686275 18:0.303482587 19:0.441104000 20:0.170228793 21:0.888888889 22:1.000000000 
0.031250 1:0.071434409 2:0.001123159 3:0.000002031 4:0.000057373 5:0.454067326 6:0.212880223 7:0.266402352 8:0.007387616 9:0.126598465 10:0.149234694 11:0.966118165 12:0.355806781 13:0.578947368 14:0.126275510 15:0.498771445 16:0.195588364 17:0.439215686 18:0.268656716 19:0.355246422 20:0.160540770 21:0.846153846 22:1.000000000 
0.031250 1:0.049032592 2:0.000005233 3:0.000005651 4:0.000014208 5:0.454067325 6:0.212877410 7:0.266402352 8:0.004377835 9:0.076726343 10:0.084183673 11:0.881237763 12:0.276995203 13:0.625000000 14:0.076530612 15:0.301307745 16:0.190535218 17:0.800000000 18:0.447761194 19:0.615747746 20:0.100271755 21:0.909090909 22:1.000000000 
0.031250 1:0.022237532 2:0.000015147 3:0.000000941 4:0.000001144 5:0.454067325 6:0.212877396 7:0.266402352 8:0.001607038 9:0.112531969 10:0.119897959 11:0.875874981 12:0.335457850 13:0.611111111 14:0.112244898 15:0.359343660 16:0.231398836 17:0.988235294 18:0.597014925 19:0.809940856 20:0.121882389 21:0.936170213 22:1.000000000 
0.031250 1:0.018980482 2:0.001167374 3:0.000037697 4:0.000013825 5:0.454067326 6:0.212878011 7:0.266402352 8:0.001006178 9:0.156010230 10:0.179846939 11:0.962525189 12:0.394981304 13:0.610000000 14:0.155612245 15:0.543425630 16:0.220506308 17:0.992156863 18:0.587064677 19:0.832068302 20:0.171688484 21:0.865248227 22:1.000000000 
0.031250 1:0.051474603 2:0.000576018 3:0.000004100 4:0.000010490 5:0.454067325 6:0.212877179 7:0.266402352 8:0.004466949 9:0.129156010 10:0.156887755 11:0.965569821 12:0.359382818 13:0.531578947 14:0.128826531 15:0.508980085 16:0.200667589 17:0.592156863 18:0.338308458 19:0.458256588 20:0.163939508 21:0.821138211 22:1.000000000 
0.031250 1:0.039552861 2:0.000006704 3:0.000004250 4:0.000018153 5:0.454067325 6:0.212877388 7:0.266402352 8:0.003185361 9:0.079283887 10:0.084183673 11:0.879234933 12:0.281573947 13:0.704545455 14:0.079081633 15:0.305034590 16:0.194222069 17:0.945098039 18:0.502487562 19:0.731553328 20:0.099197711 21:0.939393939 22:1.000000000 
0.031250 1:0.018835994 2:0.000500281 3:0.000002856 4:0.000008079 5:0.454067325 6:0.212877213 7:0.266402352 8:0.001364353 9:0.157289003 10:0.181122449 11:0.961030484 12:0.396596776 13:0.698863636 14:0.156887755 15:0.559074795 16:0.229944007 17:1.000000000 18:0.577114428 19:0.793397016 20:0.173685197 21:0.866197183 22:1.000000000 
0.031250 1:0.019264368 2:0.000196717 3:0.000052111 4:0.000049164 5:0.454067331 6:0.212878391 7:0.266402353 8:0.000922313 9:0.132992327 10:0.139030612 11:0.917755441 12:0.364681131 13:0.571428571 14:0.132653061 15:0.426362425 16:0.232268168 17:1.000000000 18:0.636815920 19:0.879904853 20:0.143431751 21:0.954128440 22:1.000000000 
0.031250 1:0.064980233 2:0.000280279 3:0.000010728 4:0.000008639 5:0.454067325 6:0.212877173 7:0.266402352 8:0.006196190 9:0.086956522 10:0.094387755 11:0.914625626 12:0.294883912 13:0.523076923 14:0.086734694 15:0.346339370 16:0.191514157 17:0.564705882 18:0.318407960 19:0.434855334 20:0.117827692 21:0.918918919 22:1.000000000 
0.031250 1:0.040474913 2:0.000280378 3:0.000000961 4:0.000014677 5:0.454067325 6:0.212877691 7:0.266402352 8:0.003081397 9:0.144501279 10:0.155612245 11:0.927965018 12:0.380133238 13:0.743421053 14:0.144132653 15:0.457300608 16:0.236382897 17:0.705882353 18:0.373134328 19:0.512928113 20:0.151717750 21:0.926229508 22:1.000000000 
0.031250 1:0.051555165 2:0.000263158 3:0.000011101 4:0.000005163 5:0.454067325 6:0.212877269 7:0.266402352 8:0.004419418 9:0.130434783 10:0.146683673 11:0.954250145 12:0.361157559 13:0.708333333 14:0.130102041 15:0.479607062 16:0.208805230 17:0.572549020 18:0.333333333 19:0.438414831 20:0.161196730 21:0.886956522 22:1.000000000 
0.031250 1:0.041060760 2:0.000314599 3:0.000001809 4:0.000017615 5:0.454067325 6:0.212877866 7:0.266402352 8:0.003283240 9:0.150895141 10:0.170918367 11:0.928232978 12:0.388452237 13:0.578431373 14:0.150510204 15:0.472111503 16:0.243682024 17:0.678431373 18:0.368159204 19:0.505635519 20:0.156219365 21:0.880597015 22:1.000000000 
0.031250 1:0.030854535 2:0.000510489 3:0.000001422 4:0.000020521 5:0.454067325 6:0.212876940 7:0.266402352 8:0.002136814 9:0.158567775 10:0.181122449 11:0.960362626 12:0.398205694 13:0.429065744 14:0.158163265 15:0.546175892 16:0.225972070 17:0.788235294 18:0.437810945 19:0.613385057 20:0.174640303 21:0.873239437 22:1.000000000 
0.031250 1:0.051898805 2:0.000534847 3:0.000001579 4:0.000000641 5:0.454067325 6:0.212877374 7:0.266402352 8:0.004319672 9:0.136828645 10:0.156887755 11:0.968081521 12:0.369903561 13:0.457264957 14:0.136479592 15:0.524269139 16:0.201563401 17:0.549019608 18:0.323383085 19:0.441856839 20:0.166444409 21:0.869918699 22:1.000000000 
0.031250 1:0.055220763 2:0.000570514 3:0.000067584 4:0.000010015 5:0.454067325 6:0.212877040 7:0.266402351 8:0.004601756 9:0.066496164 10:0.072704082 11:0.847687600 12:0.257868501 13:0.675324675 14:0.066326531 15:0.270501077 16:0.189528605 17:0.752941176 18:0.427860697 19:0.583105463 20:0.091805548 21:0.912280702 22:1.000000000 
0.020316 1:0.036971038 2:0.000415841 3:0.000001740 4:0.000010259 5:0.454067325 6:0.212877440 7:0.266402352 8:0.002836705 9:0.140664962 10:0.159438776 11:0.954737463 12:0.375053278 13:0.509259259 14:0.140306122 15:0.497952671 16:0.215955701 17:0.721568627 18:0.422885572 19:0.565952195 20:0.159974915 21:0.880000000 22:1.000000000 
0.031250 1:0.032146733 2:0.000172827 3:0.000000532 4:0.000061520 5:0.454067325 6:0.212878412 7:0.266402352 8:0.002575283 9:0.086956522 10:0.093112245 11:0.878995519 12:0.294883912 13:0.809523810 14:0.086734694 15:0.323551762 16:0.206180144 17:0.956862745 18:0.582089552 19:0.779159529 20:0.108168502 21:0.931506849 22:1.000000000 
0.031250 1:0.032303530 2:0.000015014 3:0.000000567 4:0.000009445 5:0.454067325 6:0.212877367 7:0.266402352 8:0.002447090 9:0.093350384 10:0.099489796 11:0.853116691 12:0.305532950 13:0.760416667 14:0.093112245 15:0.318382574 16:0.219759711 17:0.929411765 18:0.532338308 19:0.741201800 20:0.109242547 21:0.935897436 22:1.000000000 
0.031250 1:0.041295883 2:0.000107014 3:0.000004265 4:0.000006424 5:0.454067325 6:0.212877486 7:0.266402352 8:0.003320087 9:0.084398977 10:0.094387755 11:0.912932877 12:0.290515020 13:0.611111111 14:0.084183673 15:0.339780658 16:0.189373288 17:0.823529412 18:0.472636816 19:0.633287482 20:0.110345424 21:0.891891892 22:1.000000000 
0.031250 1:0.023862231 2:0.000017215 3:0.000000168 4:0.000011012 5:0.454067325 6:0.212877346 7:0.266402352 8:0.001592722 9:0.102301790 10:0.107142857 11:0.883446966 12:0.319846511 13:0.816326531 14:0.102040816 15:0.346681899 16:0.217544318 17:1.000000000 18:0.606965174 19:0.843400223 20:0.115322790 21:0.952380952 22:1.000000000 
0.031250 1:0.062575904 2:0.000193873 3:0.000110674 4:0.000019194 5:0.454067325 6:0.212877420 7:0.266402352 8:0.005087799 9:0.106138107 10:0.117346939 11:0.959384690 12:0.325788440 13:0.610294118 14:0.105867347 15:0.443093004 16:0.184894177 17:0.494117647 18:0.318407960 19:0.400364230 20:0.135264691 21:0.902173913 22:1.000000000 
0.031250 1:0.031893013 2:0.000078836 3:0.000000298 4:0.000008991 5:0.454067325 6:0.212877450 7:0.266402352 8:0.002443147 9:0.090792839 10:0.096938776 11:0.874720537 12:0.301318501 13:0.645454545 14:0.090561224 15:0.325112016 16:0.210154603 17:0.980392157 18:0.552238806 19:0.784072348 20:0.110673404 21:0.934210526 22:1.000000000 
0.031250 1:0.052460449 2:0.000085758 3:0.000002474 4:0.000027913 5:0.454067326 6:0.212877006 7:0.266402352 8:0.004369312 9:0.093350384 10:0.102040816 11:0.919809014 12:0.305532950 13:0.579365079 14:0.093112245 15:0.360900323 16:0.194634848 17:0.654901961 18:0.373134328 19:0.511268823 20:0.117142898 21:0.912500000 22:1.000000000 
0.031250 1:0.063119330 2:0.000184650 3:0.000002507 4:0.000000620 5:0.454067325 6:0.212877383 7:0.266402352 8:0.005710777 9:0.124040921 10:0.149234694 11:0.958053917 12:0.352194436 13:0.598765432 14:0.123724490 15:0.479139627 16:0.202221958 17:0.490196078 18:0.243781095 19:0.352705211 20:0.156067989 21:0.829059829 22:1.000000000 
0.031250 1:0.043568941 2:0.000112222 3:0.000000374 4:0.000012081 5:0.454067325 6:0.212877481 7:0.266402352 8:0.003479168 9:0.134271100 10:0.144132653 11:0.924051157 12:0.366430211 13:0.772058824 14:0.133928571 15:0.436238936 16:0.230246478 17:0.674509804 18:0.373134328 19:0.488049095 20:0.142923563 21:0.929203540 22:1.000000000 
0.031250 1:0.048141265 2:0.000551498 3:0.000008214 4:0.000014784 5:0.454067325 6:0.212876927 7:0.266402352 8:0.003930892 9:0.150895141 10:0.159438776 11:0.926966310 12:0.388452237 13:0.819444444 14:0.150510204 15:0.466863849 16:0.242635709 17:0.560784314 18:0.338308458 19:0.441964215 20:0.153296379 21:0.944000000 22:1.000000000 
0.031250 1:0.041507414 2:0.000115764 3:0.000002189 4:0.000003068 5:0.454067325 6:0.212877427 7:0.266402352 8:0.003254975 9:0.106138107 10:0.114795918 11:0.883557084 12:0.325788440 13:0.691666667 14:0.105867347 15:0.358151554 16:0.224654405 17:0.721568627 18:0.437810945 19:0.577005920 20:0.123042933 21:0.922222222 22:1.000000000 
0.031250 1:0.023705163 2:0.000125685 3:0.000000311 4:0.000010411 5:0.454067325 6:0.212877280 7:0.266402352 8:0.001718901 9:0.125319693 10:0.132653061 11:0.888254987 12:0.354005216 13:0.765625000 14:0.125000000 15:0.388552365 16:0.239643184 17:0.984313725 18:0.552238806 19:0.758730946 20:0.131209994 21:0.942307692 22:1.000000000 
0.031250 1:0.065682811 2:0.000000688 3:0.000000828 4:0.000051167 5:0.454067325 6:0.212877331 7:0.266402352 8:0.006436639 9:0.070332481 10:0.077806122 11:0.878474574 12:0.265202716 13:0.555555556 14:0.070153061 15:0.289976234 16:0.185111128 17:0.643137255 18:0.358208955 19:0.488568764 20:0.096963122 21:0.901639344 22:1.000000000 
0.031250 1:0.042599801 2:0.000065080 3:0.000002933 4:0.000027867 5:0.454067325 6:0.212877178 7:0.266402352 8:0.003565325 9:0.102301790 10:0.108418367 11:0.887617503 12:0.319846511 13:0.769230769 14:0.102040816 15:0.353496783 16:0.218530940 17:0.772549020 18:0.422885572 19:0.573407218 20:0.120300156 21:0.941176471 22:1.000000000 
0.031250 1:0.043380238 2:0.001183380 3:0.000063337 4:0.000036604 5:0.454067329 6:0.212875582 7:0.266402353 8:0.003796047 9:0.149616368 10:0.163265306 11:0.935386685 12:0.386802751 13:0.590909091 14:0.149234694 15:0.477509842 16:0.236591587 17:0.635294118 18:0.348258706 19:0.478279933 20:0.155235425 21:0.914062500 22:1.000000000 
0.031250 1:0.044248955 2:0.000011896 3:0.000000161 4:0.000009107 5:0.454067325 6:0.212877345 7:0.266402352 8:0.003606683 9:0.058823529 10:0.058673469 11:0.876078158 12:0.242535625 13:0.920000000 14:0.058673469 15:0.261190165 16:0.168079693 17:0.933333333 18:0.542288557 19:0.750682657 20:0.083220403 21:1.000000000 22:1.000000000 
0.031250 1:0.019593827 2:0.000854885 3:0.000002459 4:0.000000047 5:0.454067325 6:0.212877391 7:0.266402352 8:0.001037267 9:0.154731458 10:0.178571429 11:0.981531491 12:0.393359197 13:0.374613003 14:0.154336735 15:0.606321767 16:0.198015454 17:0.988235294 18:0.597014925 19:0.818339844 20:0.187485583 21:0.864285714 22:1.000000000 
0.031250 1:0.018001378 2:0.000400347 3:0.000000703 4:0.000001982 5:0.454067325 6:0.212877358 7:0.266402352 8:0.001190114 9:0.145780051 10:0.168367347 11:0.961217408 12:0.381811539 13:0.570000000 14:0.145408163 15:0.526790277 16:0.216304126 17:0.996078431 18:0.606965174 19:0.831291489 20:0.164267487 21:0.863636364 22:1.000000000 
0.031250 1:0.034896758 2:0.000012432 3:0.000000096 4:0.000029636 5:0.454067325 6:0.212877444 7:0.266402352 8:0.002616362 9:0.088235294 10:0.095663265 11:0.830600113 12:0.297044263 13:0.627272727 14:0.088010204 15:0.300791652 16:0.220201459 17:0.949019608 18:0.532338308 19:0.733315460 20:0.106679978 21:0.920000000 22:1.000000000 
0.031250 1:0.041018547 2:0.000019747 3:0.000000765 4:0.000049018 5:0.454067326 6:0.212877381 7:0.266402352 8:0.003234189 9:0.084398977 10:0.086734694 11:0.854823185 12:0.290515020 13:0.687500000 14:0.084183673 15:0.303945509 16:0.208785088 17:0.894117647 18:0.472636816 19:0.669664308 20:0.104265181 21:0.970588235 22:1.000000000 
0.031250 1:0.028701937 2:0.000074314 3:0.000006173 4:0.000033393 5:0.454067326 6:0.212877810 7:0.266402352 8:0.001903624 9:0.106138107 10:0.116071429 11:0.884176612 12:0.325788440 13:0.628787879 14:0.105867347 15:0.357699426 16:0.223880168 17:0.968627451 18:0.557213930 19:0.777213320 20:0.123133037 21:0.912087912 22:1.000000000 
0.031250 1:0.063428216 2:0.000006195 3:0.000002534 4:0.000034291 5:0.454067325 6:0.212877499 7:0.266402352 8:0.005944651 9:0.094629156 10:0.107142857 11:0.922901172 12:0.307618524 13:0.660714286 14:0.094387755 15:0.371132318 16:0.197051825 17:0.509803922 18:0.323383085 19:0.414968082 20:0.117737587 21:0.880952381 22:1.000000000 
0.031250 1:0.037534574 2:0.000147824 3:0.000009076 4:0.000048644 5:0.454067325 6:0.212878288 7:0.266402351 8:0.002950235 9:0.083120205 10:0.096938776 11:0.914052498 12:0.288305748 13:0.555555556 14:0.082908163 15:0.342309266 16:0.189794107 17:0.870588235 18:0.522388060 19:0.729559859 20:0.115056081 21:0.855263158 22:1.000000000 
0.031250 1:0.064551992 2:0.000164344 3:0.000004721 4:0.000029524 5:0.454067326 6:0.212877783 7:0.266402352 8:0.006238735 9:0.094629156 10:0.102040816 11:0.867254602 12:0.307618524 13:0.632478632 14:0.094387755 15:0.329047125 16:0.217831666 17:0.560784314 18:0.318407960 19:0.417180187 20:0.118811631 21:0.925000000 22:1.000000000 
0.031250 1:0.047850980 2:0.000074608 3:0.000003162 4:0.000045228 5:0.454067324 6:0.212876853 7:0.266402352 8:0.004178220 9:0.116368286 10:0.130102041 11:0.848111048 12:0.341127962 13:0.583333333 14:0.116071429 15:0.352773274 16:0.246889347 17:0.733333333 18:0.338308458 19:0.522497919 20:0.129959345 21:0.892156863 22:1.000000000 
0.031250 1:0.049574263 2:0.000073568 3:0.000007345 4:0.000009137 5:0.454067325 6:0.212877287 7:0.266402352 8:0.004093134 9:0.072890026 10:0.077806122 11:0.910642180 12:0.269981528 13:0.730769231 14:0.072704082 15:0.313525629 16:0.176574763 17:0.792156863 18:0.437810945 19:0.598744893 20:0.101522404 21:0.934426230 22:1.000000000 
0.031250 1:0.032559658 2:0.001112378 3:0.000001087 4:0.000012482 5:0.454067325 6:0.212878023 7:0.266402352 8:0.002682128 9:0.189258312 10:0.205357143 11:0.961123154 12:0.435038288 13:0.714975845 14:0.188775510 15:0.586318275 16:0.240949727 17:0.717647059 18:0.393034826 19:0.526650990 20:0.190376132 21:0.919254658 22:1.000000000 
0.031250 1:0.048898958 2:0.000403377 3:0.000002397 4:0.000024157 5:0.454067325 6:0.212877648 7:0.266402352 8:0.004115684 9:0.120204604 10:0.135204082 11:0.929830740 12:0.346705356 13:0.587500000 14:0.119897959 15:0.424105496 16:0.216980843 17:0.584313725 18:0.348258706 19:0.461795181 20:0.143312814 21:0.886792453 22:1.000000000 
0.031250 1:0.075612893 2:0.000134243 3:0.000021726 4:0.000060952 5:0.454067323 6:0.212877837 7:0.266402355 8:0.007969073 9:0.083120205 10:0.094387755 11:0.917796363 12:0.288305748 13:0.625000000 14:0.082908163 15:0.342273650 16:0.186422341 17:0.513725490 18:0.278606965 19:0.383183590 20:0.112998097 21:0.878378378 22:1.000000000 
0.031250 1:0.054021774 2:0.000214294 3:0.000068880 4:0.000001201 5:0.454067325 6:0.212877419 7:0.266402352 8:0.004730910 9:0.132992327 10:0.137755102 11:0.906316348 12:0.364681131 13:0.812500000 14:0.132653061 15:0.418044152 16:0.239973388 17:0.576470588 18:0.318407960 19:0.448710309 20:0.139823972 21:0.962962963 22:1.000000000 
0.031250 1:0.094819084 2:0.000033765 3:0.000049751 4:0.000056809 5:0.454067319 6:0.212877447 7:0.266402353 8:0.010436395 9:0.060102302 10:0.061224490 11:0.879427630 12:0.245157708 13:0.940000000 14:0.059948980 15:0.266455057 16:0.169546323 17:0.376470588 18:0.263681592 19:0.318460958 20:0.085545095 21:0.979166667 22:1.000000000 
0.031250 1:0.051619722 2:0.001335324 3:0.000000050 4:0.000018121 5:0.454067325 6:0.212876406 7:0.266402352 8:0.003943141 9:0.135549872 10:0.155612245 11:0.987481210 12:0.368170982 13:0.388278388 14:0.135204082 15:0.591277994 16:0.175670936 17:0.607843137 18:0.338308458 19:0.466655553 20:0.179916816 21:0.868852459 22:1.000000000 
0.031250 1:0.078427026 2:0.000932194 3:0.000158999 4:0.000020051 5:0.454067327 6:0.212877574 7:0.266402355 8:0.007724570 9:0.090792839 10:0.100765306 11:0.959588617 12:0.301318501 13:0.591666667 14:0.090561224 15:0.405941757 16:0.169092658 17:0.478431373 18:0.263681592 19:0.378409643 20:0.125129750 21:0.898734177 22:1.000000000 
0.031250 1:0.065112377 2:0.000495071 3:0.000000420 4:0.000010625 5:0.454067325 6:0.212877715 7:0.266402352 8:0.006457950 9:0.103580563 10:0.113520408 11:0.942357010 12:0.321839343 13:0.525974026 14:0.103316327 15:0.406332592 16:0.192718003 17:0.576470588 18:0.318407960 19:0.432583687 20:0.126322732 21:0.910112360 22:1.000000000 
0.031250 1:0.069330892 2:0.000009774 3:0.000010812 4:0.000007490 5:0.454067325 6:0.212877387 7:0.266402352 8:0.006587610 9:0.086956522 10:0.099489796 11:0.941655932 12:0.294883912 13:0.539682540 14:0.086734694 15:0.371995692 16:0.177243599 17:0.517647059 18:0.318407960 19:0.409918279 20:0.117499712 21:0.871794872 22:1.000000000 
0.031250 1:0.043981456 2:0.004498044 3:0.000046407 4:0.000165650 5:0.454067319 6:0.212892300 7:0.266402377 8:0.002887679 9:0.081841432 10:0.081632653 11:0.885823959 12:0.286079416 13:0.888888889 14:0.081632653 15:0.313717464 16:0.195202045 17:0.780392157 18:0.417910448 19:0.607235044 20:0.101760279 21:1.000000000 22:1.000000000 
0.031250 1:0.055679708 2:0.000206467 3:0.000007017 4:0.000133761 5:0.454067333 6:0.212879557 7:0.266402350 8:0.005289745 9:0.074168798 10:0.080357143 11:0.913844430 12:0.272339490 13:0.805555556 14:0.073979592 15:0.319152059 16:0.177126262 17:0.760784314 18:0.398009950 19:0.605283378 20:0.101432299 21:0.920634921 22:1.000000000 
0.031250 1:0.036161659 2:0.000021631 3:0.000006099 4:0.000030903 5:0.454067325 6:0.212877281 7:0.266402351 8:0.003158050 9:0.079283887 10:0.081632653 11:0.866043010 12:0.281573947 13:0.861111111 14:0.079081633 15:0.301353451 16:0.200247042 17:0.996078431 18:0.537313433 19:0.775083662 20:0.102744219 21:0.968750000 22:1.000000000 
0.031250 1:0.077615135 2:0.000042572 3:0.000032166 4:0.000142148 5:0.454067335 6:0.212877841 7:0.266402338 8:0.008058549 9:0.063938619 10:0.067602041 11:0.867560421 12:0.252860869 13:0.694444444 14:0.063775510 15:0.269213725 16:0.178052114 17:0.607843137 18:0.348258706 19:0.480761737 20:0.089718730 21:0.943396226 22:1.000000000 
0.031250 1:0.054993006 2:0.000230949 3:0.000000601 4:0.000068309 5:0.454067325 6:0.212875969 7:0.266402353 8:0.005103846 9:0.116368286 10:0.125000000 11:0.927093926 12:0.341127962 13:0.812500000 14:0.116071429 15:0.410535755 16:0.213214482 17:0.600000000 18:0.343283582 19:0.472083880 20:0.137499279 21:0.928571429 22:1.000000000 
0.031250 1:0.043353111 2:0.002798187 3:0.000035260 4:0.000019957 5:0.454067325 6:0.212878967 7:0.266402352 8:0.002970805 9:0.163682864 10:0.207908163 11:0.982129497 12:0.404577390 13:0.354570637 14:0.163265306 15:0.652537845 16:0.211259632 17:0.639215686 18:0.368159204 19:0.510696542 20:0.198874777 21:0.785276074 22:1.000000000 
0.031250 1:0.088050357 2:0.000294270 3:0.000010008 4:0.000155258 5:0.454067324 6:0.212876264 7:0.266402342 8:0.010530470 9:0.101023018 10:0.113520408 11:0.958551353 12:0.317841183 13:0.663865546 14:0.100765306 15:0.426348492 16:0.179183953 17:0.431372549 18:0.248756219 19:0.332120073 20:0.135920650 21:0.887640449 22:1.000000000 
0.031250 1:0.059926527 2:0.000377243 3:0.000024485 4:0.000045905 5:0.454067328 6:0.212878039 7:0.266402354 8:0.005609109 9:0.099744246 10:0.116071429 11:0.987459232 12:0.315823124 13:0.684210526 14:0.099489796 15:0.513231062 16:0.152541726 17:0.580392157 18:0.308457711 19:0.459930084 20:0.147216135 21:0.857142857 22:1.000000000 
0.031250 1:0.069869903 2:0.000594519 3:0.000001993 4:0.000010349 5:0.454067325 6:0.212877774 7:0.266402352 8:0.006622401 9:0.092071611 10:0.100765306 11:0.934181513 12:0.303433042 13:0.545454545 14:0.091836735 15:0.373882622 16:0.186576953 17:0.501960784 18:0.328358209 19:0.409997150 20:0.123161871 21:0.911392405 22:1.000000000 
0.031250 1:0.070551286 2:0.000300861 3:0.000011661 4:0.000077841 5:0.454067324 6:0.212879005 7:0.266402348 8:0.007889806 9:0.084398977 10:0.094387755 11:0.946738157 12:0.290515020 13:0.673469388 14:0.084183673 15:0.375540323 16:0.172894470 17:0.584313725 18:0.338308458 19:0.474234259 20:0.118303443 21:0.891891892 22:1.000000000 
0.031250 1:0.053746994 2:0.000842414 3:0.000040808 4:0.000016389 5:0.454067326 6:0.212876727 7:0.266402352 8:0.004742613 9:0.157289003 10:0.190051020 11:0.974752790 12:0.396596776 13:0.399350649 14:0.156887755 15:0.590269958 16:0.210744574 17:0.600000000 18:0.268656716 19:0.421507094 20:0.185074390 21:0.825503356 22:1.000000000 
0.031250 1:0.068205938 2:0.000075771 3:0.000063893 4:0.000029942 5:0.454067324 6:0.212877572 7:0.266402348 8:0.006515409 9:0.097186701 10:0.110969388 11:0.950283704 12:0.311747816 13:0.493506494 14:0.096938776 15:0.409226362 16:0.183651527 17:0.529411765 18:0.298507463 19:0.384883762 20:0.129303385 21:0.873563218 22:1.000000000 
0.031250 1:0.055448748 2:0.000453388 3:0.000010774 4:0.000076150 5:0.454067326 6:0.212876717 7:0.266402348 8:0.005121262 9:0.104859335 10:0.119897959 11:0.906718510 12:0.323819911 13:0.683333333 14:0.104591837 15:0.375614393 16:0.215242346 17:0.670588235 18:0.353233831 19:0.476038209 20:0.126142523 21:0.872340426 22:1.000000000 
0.031250 1:0.038897113 2:0.000529056 3:0.000002205 4:0.000008180 5:0.454067325 6:0.212877142 7:0.266402352 8:0.002773511 9:0.097186701 10:0.108418367 11:0.924039127 12:0.311747816 13:0.487179487 14:0.096938776 15:0.378772881 16:0.199928472 17:0.749019608 18:0.437810945 19:0.584698578 20:0.126293899 21:0.894117647 22:1.000000000 
0.031250 1:0.058679683 2:0.000616268 3:0.000047486 4:0.000051424 5:0.454067324 6:0.212879214 7:0.266402355 8:0.005651679 9:0.103580563 10:0.117346939 11:0.920923215 12:0.321839343 13:0.566433566 14:0.103316327 15:0.386899423 16:0.207498386 17:0.615686275 18:0.343283582 19:0.479220645 20:0.125547835 21:0.880434783 22:1.000000000 
0.031250 1:0.059946396 2:0.000222669 3:0.000000250 4:0.000026011 5:0.454067325 6:0.212877728 7:0.266402352 8:0.005067037 9:0.084398977 10:0.088010204 11:0.929589442 12:0.290515020 13:0.785714286 14:0.084183673 15:0.351801160 16:0.180230450 17:0.596078431 18:0.363184080 19:0.474806622 20:0.111985324 21:0.956521739 22:1.000000000 
0.031250 1:0.078942042 2:0.000499133 3:0.000003191 4:0.000086860 5:0.454067327 6:0.212880320 7:0.266402354 8:0.008205884 9:0.104859335 10:0.117346939 11:0.958596606 12:0.323819911 13:0.602941176 14:0.104591837 15:0.438153992 16:0.184074525 17:0.450980392 18:0.263681592 19:0.352882518 20:0.137946197 21:0.891304348 22:1.000000000 
0.031250 1:0.063578021 2:0.000994598 3:0.000064051 4:0.000080987 5:0.454067338 6:0.212875760 7:0.266402362 8:0.006322644 9:0.098465473 10:0.107142857 11:0.939472586 12:0.313792086 13:0.641666667 14:0.098214286 15:0.391910393 16:0.189364858 17:0.556862745 18:0.323383085 19:0.434668555 20:0.126470503 21:0.916666667 22:1.000000000 
0.031250 1:0.067832855 2:0.000913427 3:0.000028728 4:0.000042280 5:0.454067328 6:0.212877724 7:0.266402353 8:0.007080083 9:0.106138107 10:0.119897959 11:0.968665672 12:0.325788440 13:0.512345679 14:0.105867347 15:0.459595288 16:0.175633998 17:0.501960784 18:0.298507463 19:0.394194667 20:0.145161755 21:0.882978723 22:1.000000000 
0.031250 1:0.087084186 2:0.000540797 3:0.000306241 4:0.000058450 5:0.454067332 6:0.212879061 7:0.266402344 8:0.010067439 9:0.063938619 10:0.070153061 11:0.904812141 12:0.252860869 13:0.649350649 14:0.063775510 15:0.289949667 16:0.167518632 17:0.525490196 18:0.303482587 19:0.411841642 20:0.094786200 21:0.909090909 22:1.000000000 
0.031250 1:0.071953111 2:0.000465581 3:0.000030343 4:0.000079581 5:0.454067327 6:0.212877863 7:0.266402345 8:0.007345254 9:0.088235294 10:0.100765306 11:0.879305775 12:0.297044263 13:0.589743590 14:0.088010204 15:0.326073802 16:0.207568114 17:0.509803922 18:0.303482587 19:0.403125803 20:0.116486938 21:0.873417722 22:1.000000000 
0.031250 1:0.053980999 2:0.000061659 3:0.000034426 4:0.000032926 5:0.454067324 6:0.212877164 7:0.266402350 8:0.004784702 9:0.121483376 10:0.140306122 11:0.943890191 12:0.348544654 13:0.484693878 14:0.121173469 15:0.452545861 16:0.212459838 17:0.592156863 18:0.338308458 19:0.446021131 20:0.145190589 21:0.863636364 22:1.000000000 
0.031250 1:0.055551120 2:0.001615426 3:0.000015186 4:0.000026516 5:0.454067324 6:0.212878921 7:0.266402352 8:0.005466969 9:0.112531969 10:0.127551020 11:0.942965956 12:0.335457850 13:0.550000000 14:0.112244898 15:0.424443274 16:0.200499765 17:0.533333333 18:0.313432836 19:0.408333059 20:0.136695548 21:0.880000000 22:1.000000000 
0.031250 1:0.055860681 2:0.001508413 3:0.000134629 4:0.000084152 5:0.454067338 6:0.212876968 7:0.266402341 8:0.004683119 9:0.098465473 10:0.107142857 11:0.926599396 12:0.313792086 13:0.687500000 14:0.098214286 15:0.378530887 16:0.197116169 17:0.596078431 18:0.338308458 19:0.470100529 20:0.120062280 21:0.916666667 22:1.000000000 
0.031250 1:0.070676196 2:0.000217558 3:0.000043501 4:0.000135200 5:0.454067337 6:0.212878379 7:0.266402366 8:0.007526605 9:0.104859335 10:0.113520408 11:0.872856309 12:0.323819911 13:0.732142857 14:0.104591837 15:0.346776208 16:0.225525868 17:0.556862745 18:0.303482587 19:0.417275643 20:0.123551122 21:0.921348315 22:1.000000000 
0.031250 1:0.059603821 2:0.000082906 3:0.000015235 4:0.000030216 5:0.454067324 6:0.212877397 7:0.266402352 8:0.005489476 9:0.097186701 10:0.103316327 11:0.886998684 12:0.311747816 13:0.775510204 14:0.096938776 15:0.342712517 16:0.212341348 17:0.600000000 18:0.343283582 19:0.464025451 20:0.115322790 21:0.938271605 22:1.000000000 
0.031250 1:0.057929993 2:0.000101507 3:0.000019140 4:0.000026901 5:0.454067324 6:0.212876981 7:0.266402352 8:0.005347418 9:0.106138107 10:0.114795918 11:0.883819084 12:0.325788440 13:0.638461538 14:0.105867347 15:0.355358736 16:0.222696619 17:0.607843137 18:0.343283582 19:0.468583423 20:0.118811631 21:0.922222222 22:1.000000000 
0.031250 1:0.060504299 2:0.001100411 3:0.000009945 4:0.000000720 5:0.454067325 6:0.212877356 7:0.266402352 8:0.005759470 9:0.147058824 10:0.170918367 11:0.977396378 12:0.383482494 13:0.456349206 14:0.146683673 15:0.571575704 16:0.197480248 17:0.517647059 18:0.303482587 19:0.396337084 20:0.176874892 21:0.858208955 22:1.000000000 
0.031250 1:0.045524777 2:0.000105977 3:0.000022813 4:0.000025979 5:0.454067324 6:0.212877721 7:0.266402351 8:0.003924797 9:0.113810742 10:0.131377551 11:0.958704543 12:0.337358477 13:0.427884615 14:0.113520408 15:0.455964045 16:0.191380432 17:0.713725490 18:0.398009950 19:0.543530156 20:0.149930079 21:0.864077670 22:1.000000000 
0.031250 1:0.055349021 2:0.000002066 3:0.000000290 4:0.000010488 5:0.454067325 6:0.212877399 7:0.266402352 8:0.004749239 9:0.083120205 10:0.089285714 11:0.887076983 12:0.288305748 13:0.650000000 14:0.082908163 15:0.318055455 16:0.197008106 17:0.631372549 18:0.368159204 19:0.480109537 20:0.106917854 21:0.928571429 22:1.000000000 
0.031250 1:0.043059955 2:0.000015132 3:0.000001185 4:0.000023476 5:0.454067325 6:0.212877514 7:0.266402352 8:0.003516219 9:0.079283887 10:0.082908163 11:0.857622305 12:0.281573947 13:0.861111111 14:0.079081633 15:0.294351366 16:0.200576350 17:0.752941176 18:0.467661692 19:0.603128688 20:0.099435586 21:0.953846154 22:1.000000000 
0.031250 1:0.072077784 2:0.000077958 3:0.000000719 4:0.000010582 5:0.454067325 6:0.212877283 7:0.266402352 8:0.006588569 9:0.098465473 10:0.112244898 11:0.947015475 12:0.313792086 13:0.458333333 14:0.098214286 15:0.407135971 16:0.187075928 17:0.400000000 18:0.263681592 19:0.310438603 20:0.133030102 21:0.875000000 22:1.000000000 
0.031250 1:0.053680693 2:0.000122087 3:0.000000145 4:0.000040927 5:0.454067325 6:0.212877246 7:0.266402352 8:0.004711274 9:0.126598465 10:0.132653061 11:0.881323978 12:0.355806781 13:0.773437500 14:0.126275510 15:0.384929088 16:0.243341480 17:0.545098039 18:0.328358209 19:0.406038308 20:0.131837120 21:0.951923077 22:1.000000000 
0.031250 1:0.026327130 2:0.002053104 3:0.000003072 4:0.000008933 5:0.454067325 6:0.212877120 7:0.266402352 8:0.001487100 9:0.196930946 10:0.210459184 11:0.968021881 12:0.443769024 13:0.450292398 14:0.196428571 15:0.618586530 16:0.237970934 17:0.760784314 18:0.422885572 19:0.606023032 20:0.193122513 21:0.933333333 22:1.000000000 
0.031250 1:0.066437781 2:0.000301462 3:0.000020063 4:0.000023656 5:0.454067326 6:0.212877254 7:0.266402352 8:0.006873718 9:0.066496164 10:0.072704082 11:0.862083866 12:0.257868501 13:0.742857143 14:0.066326531 15:0.273434705 16:0.183891382 17:0.639215686 18:0.373134328 19:0.498513198 20:0.092043423 21:0.912280702 22:1.000000000 
0.031250 1:0.051566379 2:0.000022168 3:0.000168486 4:0.000109945 5:0.454067348 6:0.212878021 7:0.266402370 8:0.003980687 9:0.131713555 10:0.145408163 11:0.934566620 12:0.362923621 13:0.528205128 14:0.131377551 15:0.445817348 16:0.221969093 17:0.647058824 18:0.328358209 19:0.460524105 20:0.150914019 21:0.903508772 22:1.000000000 
0.031250 1:0.053538699 2:0.000194873 3:0.000007133 4:0.000011136 5:0.454067325 6:0.212877236 7:0.266402352 8:0.004597453 9:0.111253197 10:0.119897959 11:0.890712991 12:0.333546394 13:0.621428571 14:0.110969388 15:0.367903125 16:0.224851331 17:0.666666667 18:0.343283582 19:0.489688051 20:0.125904648 21:0.925531915 22:1.000000000 
0.031250 1:0.065558362 2:0.000171837 3:0.000001388 4:0.000022752 5:0.454067325 6:0.212876978 7:0.266402352 8:0.006558509 9:0.094629156 10:0.099489796 11:0.855215787 12:0.307618524 13:0.685185185 14:0.094387755 15:0.320747496 16:0.220080497 17:0.615686275 18:0.318407960 19:0.441796937 20:0.109988611 21:0.948717949 22:1.000000000 
0.031250 1:0.023663576 2:0.000478183 3:0.000002481 4:0.000005800 5:0.454067325 6:0.212877527 7:0.266402352 8:0.001793767 9:0.175191816 10:0.184948980 11:0.930740429 12:0.418559214 13:0.761111111 14:0.174744898 15:0.504424266 16:0.256760640 17:0.870588235 18:0.462686567 19:0.633796248 20:0.164206216 21:0.944827586 22:1.000000000 
0.031250 1:0.050744490 2:0.000164455 3:0.000011953 4:0.000023166 5:0.454067325 6:0.212877816 7:0.266402351 8:0.004607953 9:0.108695652 10:0.119897959 11:0.920624948 12:0.329690237 13:0.590277778 14:0.108418367 15:0.392801753 16:0.210979337 17:0.607843137 18:0.368159204 19:0.487877439 20:0.130525200 21:0.904255319 22:1.000000000 
0.031250 1:0.049857366 2:0.000345913 3:0.000014146 4:0.000022599 5:0.454067325 6:0.212877832 7:0.266402353 8:0.004389320 9:0.127877238 10:0.141581633 11:0.947227784 12:0.357599270 13:0.520833333 14:0.127551020 15:0.460117917 16:0.211104468 17:0.584313725 18:0.343283582 19:0.463174940 20:0.149511995 21:0.900900901 22:1.000000000 
0.031250 1:0.061184069 2:0.000091513 3:0.000011711 4:0.000034851 5:0.454067324 6:0.212877615 7:0.266402352 8:0.005588046 9:0.092071611 10:0.104591837 11:0.915865094 12:0.303433042 13:0.642857143 14:0.091836735 15:0.358205688 16:0.196919082 17:0.564705882 18:0.323383085 19:0.436755104 20:0.121731013 21:0.878048780 22:1.000000000 
0.031250 1:0.039695642 2:0.000647114 3:0.000000782 4:0.000013954 5:0.454067325 6:0.212876989 7:0.266402352 8:0.002932165 9:0.124040921 10:0.145408163 11:0.969465523 12:0.352194436 13:0.489898990 14:0.123724490 15:0.503710416 16:0.190882304 17:0.741176471 18:0.427860697 19:0.577759781 20:0.160569604 21:0.850877193 22:1.000000000 
0.031250 1:0.065128761 2:0.000087511 3:0.000001709 4:0.000057173 5:0.454067326 6:0.212876679 7:0.266402352 8:0.006358615 9:0.084398977 10:0.093112245 11:0.917713403 12:0.290515020 13:0.589285714 14:0.084183673 15:0.343594533 16:0.187217140 17:0.690196078 18:0.338308458 19:0.485681512 20:0.113059368 21:0.904109589 22:1.000000000 
0.024051 1:0.032805207 2:0.000145053 3:0.000000382 4:0.000034319 5:0.454067325 6:0.212877746 7:0.266402352 8:0.002663705 9:0.085677749 10:0.085459184 11:0.881327725 12:0.292707618 13:0.858974359 14:0.085459184 15:0.319168115 16:0.201766603 17:0.976470588 18:0.557213930 19:0.793545229 20:0.106142956 21:1.000000000 22:1.000000000 
0.031250 1:0.041271473 2:0.000013865 3:0.000004328 4:0.000061062 5:0.454067327 6:0.212877048 7:0.266402353 8:0.003605971 9:0.080562660 10:0.085459184 11:0.840497850 12:0.283835621 13:0.700000000 14:0.080357143 15:0.290638341 16:0.207551404 17:0.894117647 18:0.462686567 19:0.691159706 20:0.102207197 21:0.940298507 22:1.000000000 
0.031250 1:0.029080896 2:0.000255672 3:0.000001086 4:0.000037344 5:0.454067325 6:0.212877619 7:0.266402352 8:0.002280309 9:0.147058824 10:0.153061224 11:0.896627326 12:0.383482494 13:0.676470588 14:0.146683673 15:0.426439033 16:0.254772785 17:0.843137255 18:0.452736318 19:0.638066571 20:0.142775791 21:0.958333333 22:1.000000000 
0.031250 1:0.051789640 2:0.000035909 3:0.000002674 4:0.000029796 5:0.454067325 6:0.212877557 7:0.266402351 8:0.004561443 9:0.079283887 10:0.080357143 11:0.881480897 12:0.281573947 13:0.861111111 14:0.079081633 15:0.305587948 16:0.193079252 17:0.803921569 18:0.422885572 19:0.572731923 20:0.099107606 21:0.984126984 22:1.000000000 
0.031250 1:0.062463094 2:0.000751386 3:0.000092578 4:0.000025672 5:0.454067328 6:0.212876683 7:0.266402353 8:0.005095052 9:0.076726343 10:0.079081633 11:0.884661490 12:0.276995203 13:0.769230769 14:0.076530612 15:0.302972422 16:0.189301046 17:0.666666667 18:0.333333333 19:0.463944450 20:0.101850383 21:0.967741935 22:1.000000000 
0.031250 1:0.033923590 2:0.000440843 3:0.000008011 4:0.000000883 5:0.454067325 6:0.212877406 7:0.266402352 8:0.002640196 9:0.135549872 10:0.154336735 11:0.935838438 12:0.368170982 13:0.736111111 14:0.135204082 15:0.470810102 16:0.232640853 17:0.784313725 18:0.442786070 19:0.596416287 20:0.156723949 21:0.876033058 22:1.000000000 
0.031250 1:0.038177670 2:0.000935355 3:0.000003391 4:0.000000246 5:0.454067325 6:0.212877381 7:0.266402352 8:0.003146566 9:0.162404092 10:0.191326531 11:0.973064037 12:0.402993911 13:0.481060606 14:0.161989796 15:0.583463241 16:0.212490983 17:0.694117647 18:0.383084577 19:0.506620571 20:0.189990485 21:0.846666667 22:1.000000000 
0.031250 1:0.045478326 2:0.000392822 3:0.000016607 4:0.000027075 5:0.454067324 6:0.212878089 7:0.266402352 8:0.004315858 9:0.140664962 10:0.150510204 11:0.936838713 12:0.375053278 13:0.687500000 14:0.140306122 15:0.463854078 16:0.227819568 17:0.639215686 18:0.343283582 19:0.462774287 20:0.157142033 21:0.932203390 22:1.000000000 
0.031250 1:0.069270581 2:0.000005217 3:0.000002982 4:0.000044447 5:0.454067326 6:0.212877304 7:0.266402352 8:0.006695147 9:0.070332481 10:0.076530612 11:0.871306799 12:0.265202716 13:0.714285714 14:0.070153061 15:0.283873246 16:0.185540373 17:0.611764706 18:0.353233831 19:0.468345283 20:0.092133527 21:0.916666667 22:1.000000000 
0.031250 1:0.032429644 2:0.000203005 3:0.000000003 4:0.000020121 5:0.454067325 6:0.212877384 7:0.266402352 8:0.002402345 9:0.125319693 10:0.140306122 11:0.921811143 12:0.354005216 13:0.502564103 14:0.125000000 15:0.423940460 16:0.226346629 17:0.807843137 18:0.477611940 19:0.641676942 20:0.142209936 21:0.890909091 22:1.000000000 
0.031250 1:0.039935915 2:0.000100696 3:0.000009302 4:0.000000132 5:0.454067325 6:0.212877394 7:0.266402352 8:0.003409898 9:0.079283887 10:0.089285714 11:0.938845298 12:0.281573947 13:0.738095238 14:0.080357143 15:0.353495523 16:0.171478531 17:0.862745098 18:0.487562189 19:0.685585837 20:0.110583300 21:0.885714286 22:0.962962963 
0.031250 1:0.076355885 2:0.000298285 3:0.000000943 4:0.000032572 5:0.454067325 6:0.212877991 7:0.266402352 8:0.007347303 9:0.103580563 10:0.118622449 11:0.971817500 12:0.321839343 13:0.421875000 14:0.103316327 15:0.466804821 16:0.172426611 17:0.423529412 18:0.273631841 19:0.323090476 20:0.145161755 21:0.870967742 22:1.000000000 
0.031250 1:0.042664724 2:0.001309231 3:0.000130716 4:0.000034406 5:0.454067327 6:0.212879028 7:0.266402349 8:0.002842346 9:0.086956522 10:0.086734694 11:0.875822793 12:0.294883912 13:0.944444444 14:0.086734694 15:0.318567719 16:0.205176715 17:0.862745098 18:0.472636816 19:0.642808154 20:0.105068912 21:1.000000000 22:1.000000000 
0.031250 1:0.044613385 2:0.000263389 3:0.000003377 4:0.000009806 5:0.454067325 6:0.212877324 7:0.266402352 8:0.003343904 9:0.135549872 10:0.147959184 11:0.934019806 12:0.368170982 13:0.736111111 14:0.135204082 15:0.456181469 16:0.227862792 17:0.631372549 18:0.363184080 19:0.482573715 20:0.158781933 21:0.913793103 22:1.000000000 
0.031250 1:0.039041483 2:0.001011968 3:0.000000328 4:0.000025360 5:0.454067325 6:0.212876174 7:0.266402352 8:0.002962757 9:0.149616368 10:0.173469388 11:0.966499030 12:0.386802751 13:0.513157895 14:0.149234694 15:0.542515540 16:0.211941540 17:0.721568627 18:0.388059701 19:0.540020090 20:0.166383138 21:0.860294118 22:1.000000000 
0.031250 1:0.062972220 2:0.000202289 3:0.000018213 4:0.000018704 5:0.454067325 6:0.212877259 7:0.266402352 8:0.005737293 9:0.141943734 10:0.156887755 11:0.950025843 12:0.376754209 13:0.770833333 14:0.141581633 15:0.496730556 16:0.223346656 17:0.427450980 18:0.263681592 19:0.349020904 20:0.159019809 21:0.902439024 22:1.000000000 
0.031250 1:0.051301156 2:0.002009044 3:0.000034751 4:0.000020051 5:0.454067326 6:0.212876097 7:0.266402353 8:0.005089593 9:0.162404092 10:0.192602041 11:0.996227992 12:0.402993911 13:0.671957672 14:0.161989796 15:0.716479918 16:0.177012523 17:0.501960784 18:0.323383085 19:0.430209405 20:0.211330806 21:0.841059603 22:1.000000000 
0.031250 1:0.025180954 2:0.001398362 3:0.000008294 4:0.000007269 5:0.454067325 6:0.212877707 7:0.266402352 8:0.001957314 9:0.180306905 10:0.209183673 11:0.972297551 12:0.424625606 13:0.534090909 14:0.179846939 15:0.627316321 16:0.230468559 17:0.823529412 18:0.467661692 19:0.648948298 20:0.195623811 21:0.859756098 22:1.000000000 
0.031250 1:0.022660748 2:0.001247705 3:0.000000178 4:0.000003105 5:0.454067325 6:0.212877301 7:0.266402352 8:0.001131707 9:0.184143223 10:0.220663265 11:0.984938095 12:0.429119124 13:0.380952381 14:0.183673469 15:0.690135641 16:0.213990440 17:0.956862745 18:0.522388060 19:0.719433361 20:0.209633239 21:0.832369942 22:1.000000000 
0.031250 1:0.065037893 2:0.000270005 3:0.000002534 4:0.000025780 5:0.454067325 6:0.212877059 7:0.266402352 8:0.005820848 9:0.116368286 10:0.140306122 11:0.965280283 12:0.341127962 13:0.486631016 14:0.116071429 15:0.485863773 16:0.192093785 17:0.462745098 18:0.273631841 19:0.363599143 20:0.151479874 21:0.827272727 22:1.000000000 
0.031250 1:0.042917261 2:0.000052424 3:0.000000235 4:0.000004361 5:0.454067325 6:0.212877413 7:0.266402352 8:0.003479609 9:0.079283887 10:0.086734694 11:0.900379542 12:0.281573947 13:0.645833333 14:0.079081633 15:0.320937757 16:0.188877979 17:0.854901961 18:0.487562189 19:0.666968665 20:0.105605934 21:0.911764706 22:1.000000000 
0.031250 1:0.054208380 2:0.000023883 3:0.000000005 4:0.000016994 5:0.454067325 6:0.212877425 7:0.266402352 8:0.004797442 9:0.088235294 10:0.096938776 11:0.849446840 12:0.297044263 13:0.690000000 14:0.088010204 15:0.309566232 16:0.215862217 17:0.752941176 18:0.338308458 19:0.533364575 20:0.109599360 21:0.907894737 22:1.000000000 
0.031250 1:0.072742343 2:0.000098612 3:0.000000268 4:0.000014433 5:0.454067325 6:0.212877247 7:0.266402352 8:0.007135936 9:0.081841432 10:0.086734694 11:0.942520455 12:0.286079416 13:0.761904762 14:0.081632653 15:0.363909273 16:0.172411602 17:0.498039216 18:0.293532338 19:0.388974084 20:0.111895219 21:0.941176471 22:1.000000000 
0.031250 1:0.063944759 2:0.000552264 3:0.000090890 4:0.000000898 5:0.454067325 6:0.212877361 7:0.266402352 8:0.005328109 9:0.071611253 10:0.079081633 11:0.938648652 12:0.267602790 13:0.717948718 14:0.071428571 15:0.336305068 16:0.163340288 17:0.631372549 18:0.368159204 19:0.483217173 20:0.101850383 21:0.903225806 22:1.000000000 
0.031250 1:0.046650117 2:0.000279228 3:0.000001884 4:0.000024624 5:0.454067325 6:0.212877190 7:0.266402352 8:0.003712482 9:0.115089514 10:0.132653061 11:0.969305749 12:0.339248455 13:0.500000000 14:0.114795918 15:0.494263748 16:0.187619257 17:0.670588235 18:0.388059701 19:0.519162608 20:0.148171242 21:0.865384615 22:1.000000000 
0.031250 1:0.066439242 2:0.000107337 3:0.000000052 4:0.000031581 5:0.454067325 6:0.212877650 7:0.266402352 8:0.005952746 9:0.092071611 10:0.100765306 11:0.955915814 12:0.303433042 13:0.514285714 14:0.091836735 15:0.402868634 16:0.173069927 17:0.462745098 18:0.308457711 19:0.383763862 20:0.123551122 21:0.911392405 22:1.000000000 
0.031250 1:0.042622130 2:0.000100847 3:0.000000596 4:0.000007893 5:0.454067325 6:0.212877399 7:0.266402352 8:0.003334916 9:0.104859335 10:0.109693878 11:0.846926915 12:0.323819911 13:0.677685950 14:0.104591837 15:0.332102322 16:0.233168972 17:0.709803922 18:0.412935323 19:0.545754773 20:0.114400121 21:0.953488372 22:1.000000000 
0.031250 1:0.036360993 2:0.000067165 3:0.000000024 4:0.000000059 5:0.454067325 6:0.212877392 7:0.266402352 8:0.002709802 9:0.116368286 10:0.123724490 11:0.866392089 12:0.341127962 13:0.631944444 14:0.116071429 15:0.361701351 16:0.240089286 17:0.784313725 18:0.437810945 19:0.577339905 20:0.127962632 21:0.938144330 22:1.000000000 
0.031250 1:0.037993195 2:0.000168807 3:0.000000113 4:0.000009030 5:0.454067325 6:0.212877306 7:0.266402352 8:0.002926111 9:0.127877238 10:0.146683673 11:0.905562441 12:0.357599270 13:0.555555556 14:0.127551020 15:0.416029713 16:0.239592663 17:0.807843137 18:0.383084577 19:0.589766297 20:0.142775791 21:0.869565217 22:1.000000000 
0.031250 1:0.028856372 2:0.000108453 3:0.000002310 4:0.000015847 5:0.454067325 6:0.212877202 7:0.266402352 8:0.002009917 9:0.132992327 10:0.147959184 11:0.889253075 12:0.364681131 13:0.650000000 14:0.132653061 15:0.404176144 16:0.248365247 17:0.886274510 18:0.472636816 19:0.646670739 20:0.139348221 21:0.896551724 22:1.000000000 
0.031250 1:0.036400831 2:0.000039275 3:0.000000453 4:0.000036808 5:0.454067325 6:0.212877403 7:0.266402352 8:0.002831483 9:0.108695652 10:0.126275510 11:0.863671920 12:0.329690237 13:0.674603175 14:0.108418367 15:0.353136059 16:0.236360442 17:0.815686275 18:0.437810945 19:0.622241256 20:0.129869241 21:0.858585859 22:1.000000000 
0.031250 1:0.051126089 2:0.000050151 3:0.000001623 4:0.000003520 5:0.454067325 6:0.212877356 7:0.266402352 8:0.004360711 9:0.095907928 10:0.102040816 11:0.925388610 12:0.309690052 13:0.487012987 14:0.095663265 15:0.370173472 16:0.194011001 17:0.619607843 18:0.373134328 19:0.488400871 20:0.122628453 21:0.937500000 22:1.000000000 
0.031250 1:0.040159583 2:0.000031780 3:0.000000927 4:0.000036573 5:0.454067325 6:0.212877500 7:0.266402352 8:0.003124807 9:0.078005115 10:0.082908163 11:0.860680949 12:0.279293958 13:0.726190476 14:0.077806122 15:0.294592730 16:0.198949746 17:0.890196078 18:0.507462687 19:0.706526965 20:0.099525691 21:0.938461538 22:1.000000000 
0.031250 1:0.045020459 2:0.000070382 3:0.000000512 4:0.000027163 5:0.454067325 6:0.212877352 7:0.266402352 8:0.003684311 9:0.076726343 10:0.077806122 11:0.898173168 12:0.276995203 13:0.833333333 14:0.076530612 15:0.313335172 16:0.186054329 17:0.835294118 18:0.472636816 19:0.647577469 20:0.101432299 21:0.983606557 22:1.000000000 
0.031250 1:0.053061312 2:0.000091833 3:0.000010166 4:0.000048668 5:0.454067323 6:0.212878041 7:0.266402352 8:0.004319685 9:0.102301790 10:0.109693878 11:0.900041133 12:0.319846511 13:0.606060606 14:0.102040816 15:0.361122184 16:0.212820466 17:0.517647059 18:0.348258706 19:0.421778811 20:0.121136324 21:0.930232558 22:1.000000000 
0.031250 1:0.055020352 2:0.000264288 3:0.000019375 4:0.000079614 5:0.454067326 6:0.212876128 7:0.266402347 8:0.005199257 9:0.078005115 10:0.088010204 11:0.932479459 12:0.279293958 13:0.726190476 14:0.077806122 15:0.345713427 16:0.174238542 17:0.670588235 18:0.398009950 19:0.537188938 20:0.110017444 21:0.884057971 22:1.000000000 
0.031250 1:0.078553508 2:0.000205821 3:0.000028395 4:0.000060202 5:0.454067325 6:0.212878034 7:0.266402348 8:0.008934141 9:0.072890026 10:0.079081633 11:0.932308927 12:0.269981528 13:0.730769231 14:0.072704082 15:0.334517647 16:0.168761458 17:0.498039216 18:0.313432836 19:0.418554418 20:0.105515830 21:0.919354839 22:1.000000000 
0.031250 1:0.050599673 2:0.000003635 3:0.000009507 4:0.000027124 5:0.454067324 6:0.212877357 7:0.266402352 8:0.004239025 9:0.115089514 10:0.121173469 11:0.897888210 12:0.339248455 13:0.750000000 14:0.114795918 15:0.378549239 16:0.225033497 17:0.611764706 18:0.353233831 19:0.461426055 20:0.125129750 21:0.947368421 22:1.000000000 
0.031250 1:0.016250629 2:0.000313407 3:0.000000298 4:0.000008136 5:0.454067325 6:0.212877174 7:0.266402352 8:0.001151197 9:0.164961637 10:0.173469388 11:0.925919094 12:0.406154696 13:0.848684211 14:0.164540816 15:0.488039906 16:0.255067110 17:1.000000000 18:0.587064677 19:0.822448163 20:0.163103339 21:0.948529412 22:1.000000000 
0.031250 1:0.028238928 2:0.000088254 3:0.000000158 4:0.000003318 5:0.454067325 6:0.212877348 7:0.266402352 8:0.002047551 9:0.101023018 10:0.105867347 11:0.867304622 12:0.317841183 13:0.598484848 14:0.100765306 15:0.338595675 16:0.224118050 17:0.984313725 18:0.572139303 19:0.794144733 20:0.117171732 21:0.951807229 22:1.000000000 
0.031250 1:0.039696362 2:0.000155255 3:0.000001911 4:0.000043234 5:0.454067326 6:0.212878200 7:0.266402352 8:0.003514518 9:0.085677749 10:0.090561224 11:0.852677334 12:0.292707618 13:0.761363636 14:0.085459184 15:0.305619784 16:0.211210601 17:0.898039216 18:0.487562189 19:0.690303535 20:0.103847096 21:0.943661972 22:1.000000000 
0.031250 1:0.018752458 2:0.000155813 3:0.000000648 4:0.000001587 5:0.454067325 6:0.212877373 7:0.266402352 8:0.001280529 9:0.122762148 10:0.133928571 11:0.903488267 12:0.350374297 13:0.666666667 14:0.122448980 15:0.397686093 16:0.231052970 17:1.000000000 18:0.611940299 19:0.866791572 20:0.134608731 21:0.914285714 22:1.000000000 
0.031250 1:0.023150194 2:0.000084273 3:0.000005310 4:0.000016447 5:0.454067325 6:0.212877164 7:0.266402352 8:0.001555343 9:0.125319693 10:0.133928571 11:0.908234227 12:0.354005216 13:0.544444444 14:0.125000000 15:0.407032390 16:0.231707642 17:0.952941176 18:0.582089552 19:0.789868253 20:0.135116919 21:0.933333333 22:1.000000000 
0.031250 1:0.027599362 2:0.000286517 3:0.000001121 4:0.000005112 5:0.454067325 6:0.212877265 7:0.266402352 8:0.002142041 9:0.104859335 10:0.118622449 11:0.896517915 12:0.323819911 13:0.573426573 14:0.104591837 15:0.365439768 16:0.218423388 17:0.960784314 18:0.547263682 19:0.774611422 20:0.125904648 21:0.881720430 22:1.000000000 
0.030319 1:0.022549016 2:0.000936364 3:0.000003140 4:0.000000483 5:0.454067325 6:0.212877371 7:0.266402352 8:0.001731559 9:0.161125320 10:0.187500000 11:0.971507130 12:0.401404185 13:0.636363636 14:0.160714286 15:0.585759189 16:0.217114835 17:0.925490196 18:0.527363184 19:0.746557748 20:0.183758866 21:0.857142857 22:1.000000000 
0.031250 1:0.073912698 2:0.000006335 3:0.000010087 4:0.000053502 5:0.454067328 6:0.212877195 7:0.266402351 8:0.007204333 9:0.069053708 10:0.070153061 11:0.915232402 12:0.262780723 13:0.900000000 14:0.068877551 15:0.305300832 16:0.168339451 17:0.545098039 18:0.323383085 19:0.432402321 20:0.094696096 21:0.981818182 22:1.000000000 
0.031250 1:0.052906933 2:0.000080949 3:0.000024851 4:0.000028115 5:0.454067324 6:0.212877757 7:0.266402353 8:0.004774665 9:0.072890026 10:0.079081633 11:0.883092342 12:0.269981528 13:0.647727273 14:0.072704082 15:0.295657068 16:0.185757514 17:0.847058824 18:0.437810945 19:0.617522405 20:0.096217058 21:0.919354839 22:1.000000000 
0.031250 1:0.037169846 2:0.000160533 3:0.000025426 4:0.000010365 5:0.454067326 6:0.212877254 7:0.266402352 8:0.003048027 9:0.101023018 10:0.107142857 11:0.848666712 12:0.317841183 13:0.658333333 14:0.100765306 15:0.327542484 16:0.228884963 17:0.850980392 18:0.462686567 19:0.651860690 20:0.112760221 21:0.940476190 22:1.000000000 
0.031250 1:0.015886056 2:0.000729714 3:0.000000717 4:0.000001792 5:0.454067325 6:0.212877352 7:0.266402352 8:0.001192910 9:0.181585678 10:0.202806122 11:0.959180418 12:0.426128710 13:0.685990338 14:0.181122449 15:0.573632501 16:0.239788212 17:0.992156863 18:0.562189055 19:0.798083141 20:0.183758866 21:0.893081761 22:1.000000000 
0.031250 1:0.039792945 2:0.000593844 3:0.000002462 4:0.000052583 5:0.454067324 6:0.212879059 7:0.266402352 8:0.003096087 9:0.074168798 10:0.081632653 11:0.892986321 12:0.272339490 13:0.690476190 14:0.073979592 15:0.304127193 16:0.184283117 17:0.933333333 18:0.527363184 19:0.754650294 20:0.099525691 21:0.906250000 22:1.000000000 
0.031250 1:0.052166562 2:0.000123697 3:0.000008444 4:0.000052815 5:0.454067324 6:0.212878280 7:0.266402351 8:0.004896523 9:0.078005115 10:0.080357143 11:0.832079395 12:0.279293958 13:0.762500000 14:0.077806122 15:0.282400722 16:0.205992040 17:0.807843137 18:0.432835821 19:0.617832647 20:0.097438873 21:0.968253968 22:1.000000000 
0.031250 1:0.044076281 2:0.000114864 3:0.000000114 4:0.000040169 5:0.454067325 6:0.212877358 7:0.266402352 8:0.003914580 9:0.066496164 10:0.068877551 11:0.911255871 12:0.257868501 13:0.866666667 14:0.066326531 15:0.296803908 16:0.166694196 17:0.941176471 18:0.552238806 19:0.766173458 20:0.093027363 21:0.962962963 22:1.000000000 
0.031250 1:0.044019805 2:0.000189323 3:0.000001118 4:0.000018686 5:0.454067325 6:0.212877346 7:0.266402352 8:0.003820945 9:0.094629156 10:0.103316327 11:0.831625743 12:0.307618524 13:0.770833333 14:0.094387755 15:0.313720895 16:0.229092563 17:0.835294118 18:0.447761194 19:0.623529815 20:0.112252033 21:0.913580247 22:1.000000000 
0.031250 1:0.037786146 2:0.000020205 3:0.000000553 4:0.000011537 5:0.454067325 6:0.212877351 7:0.266402352 8:0.003173124 9:0.075447570 10:0.079081633 11:0.867881133 12:0.274677211 13:0.655555556 14:0.075255102 15:0.292570938 16:0.193306756 17:0.980392157 18:0.552238806 19:0.793508065 20:0.098213771 21:0.951612903 22:1.000000000 
0.031250 1:0.062307198 2:0.000032478 3:0.000002417 4:0.000036550 5:0.454067324 6:0.212877140 7:0.266402352 8:0.005720439 9:0.080562660 10:0.089285714 11:0.927144756 12:0.283835621 13:0.692307692 14:0.080357143 15:0.342775554 16:0.177973947 17:0.619607843 18:0.348258706 19:0.466835942 20:0.109927340 21:0.900000000 22:1.000000000 
0.031250 1:0.022932702 2:0.000789315 3:0.000000778 4:0.000004491 5:0.454067325 6:0.212877214 7:0.266402352 8:0.001401877 9:0.172634271 10:0.200255102 11:0.967023895 12:0.415492805 13:0.459183673 14:0.172193878 15:0.599928787 16:0.233144644 17:0.945098039 18:0.507462687 19:0.687459840 20:0.191302405 21:0.859872611 22:1.000000000 
0.031250 1:0.015642722 2:0.000852645 3:0.000001045 4:0.000000113 5:0.454067325 6:0.212877394 7:0.266402352 8:0.001013922 9:0.175191816 10:0.197704082 11:0.981654615 12:0.418559214 13:0.475694444 14:0.174744898 15:0.637992517 16:0.207987749 17:0.996078431 18:0.611940299 19:0.857204294 20:0.192762096 21:0.883870968 22:1.000000000 
0.031250 1:0.016869060 2:0.000069517 3:0.000000697 4:0.000010488 5:0.454067325 6:0.212877425 7:0.266402352 8:0.001095227 9:0.131713555 10:0.147959184 11:0.891588136 12:0.362923621 13:0.624242424 14:0.131377551 15:0.404799108 16:0.246588989 17:1.000000000 18:0.631840796 19:0.877526420 20:0.141344934 21:0.887931034 22:1.000000000 
0.031250 1:0.017800079 2:0.000133789 3:0.000000002 4:0.000009347 5:0.454067325 6:0.212877239 7:0.266402352 8:0.001178744 9:0.145780051 10:0.155612245 11:0.895494746 12:0.381811539 13:0.712500000 14:0.145408163 15:0.426120149 16:0.255715822 17:1.000000000 18:0.572139303 19:0.823044111 20:0.142656854 21:0.934426230 22:1.000000000 
0.031250 1:0.017155497 2:0.000150115 3:0.000000104 4:0.000009959 5:0.454067325 6:0.212877249 7:0.266402352 8:0.001146972 9:0.147058824 10:0.158163265 11:0.914189801 12:0.383482494 13:0.709876543 14:0.146683673 15:0.445278298 16:0.246727254 17:0.992156863 18:0.601990050 19:0.830961082 20:0.150077850 21:0.927419355 22:1.000000000 
0.031250 1:0.021516950 2:0.000095474 3:0.000000486 4:0.000025965 5:0.454067325 6:0.212877760 7:0.266402352 8:0.001511644 9:0.118925831 10:0.131377551 11:0.866276633 12:0.344856247 13:0.650349650 14:0.118622449 15:0.366442072 16:0.243322721 17:0.996078431 18:0.597014925 19:0.822811323 20:0.131209994 21:0.902912621 22:1.000000000 
0.031250 1:0.025807260 2:0.000001586 3:0.000001242 4:0.000018832 5:0.454067325 6:0.212877416 7:0.266402352 8:0.001960288 9:0.115089514 10:0.123724490 11:0.797726870 12:0.339248455 13:0.625000000 14:0.114795918 15:0.330626608 16:0.260323975 17:1.000000000 18:0.507462687 19:0.744419111 20:0.121911222 21:0.927835052 22:1.000000000 
0.031250 1:0.027997995 2:0.000120717 3:0.000000264 4:0.000004235 5:0.454067325 6:0.212877332 7:0.266402352 8:0.002169320 9:0.113810742 10:0.118622449 11:0.837683809 12:0.337358477 13:0.741666667 14:0.113520408 15:0.342086700 16:0.246060718 17:0.968627451 18:0.522388060 19:0.732975764 20:0.121821118 21:0.956989247 22:1.000000000 
0.031250 1:0.018234347 2:0.000688836 3:0.000001433 4:0.000006472 5:0.454067325 6:0.212877154 7:0.266402352 8:0.001281670 9:0.168797954 10:0.198979592 11:0.952032838 12:0.410850282 13:0.550000000 14:0.168367347 15:0.551934799 16:0.244463329 17:0.976470588 18:0.562189055 19:0.778254223 20:0.183820137 21:0.846153846 22:1.000000000 
0.031250 1:0.021023262 2:0.000161447 3:0.000000753 4:0.000004694 5:0.454067325 6:0.212877436 7:0.266402352 8:0.001410205 9:0.134271100 10:0.153061224 11:0.919333780 12:0.366430211 13:0.596590909 14:0.133928571 15:0.438303267 16:0.236935321 17:1.000000000 18:0.562189055 19:0.801409472 20:0.147396344 21:0.875000000 22:1.000000000 
0.031250 1:0.015314824 2:0.000488785 3:0.000000266 4:0.000006559 5:0.454067325 6:0.212877390 7:0.266402352 8:0.001124072 9:0.159846547 10:0.176020408 11:0.949563703 12:0.399808138 13:0.694444444 14:0.159438776 15:0.514301823 16:0.232033949 17:1.000000000 18:0.606965174 19:0.859142295 20:0.166264200 21:0.905797101 22:1.000000000 
0.031250 1:0.037333028 2:0.000293284 3:0.000074085 4:0.000001884 5:0.454067325 6:0.212877427 7:0.266402352 8:0.002594909 9:0.075447570 10:0.077806122 11:0.885287689 12:0.274677211 13:0.702380952 14:0.075255102 15:0.300226535 16:0.187166981 17:0.972549020 18:0.547263682 19:0.773517410 20:0.098512917 21:0.967213115 22:1.000000000 
0.031250 1:0.019537007 2:0.000485564 3:0.000000985 4:0.000001139 5:0.454067325 6:0.212877354 7:0.266402352 8:0.001190404 9:0.181585678 10:0.198979592 11:0.947035325 12:0.426128710 13:0.533834586 14:0.181122449 15:0.544475357 16:0.250147384 17:0.929411765 18:0.517412935 19:0.728561232 20:0.180839484 21:0.910256410 22:1.000000000 
0.031250 1:0.030484845 2:0.000159122 3:0.000000408 4:0.000001810 5:0.454067325 6:0.212877362 7:0.266402352 8:0.002198269 9:0.157289003 10:0.163265306 11:0.924745713 12:0.396596776 13:0.854166667 14:0.156887755 15:0.473261707 16:0.248881845 17:0.701960784 18:0.442786070 19:0.569437247 20:0.155621071 21:0.960937500 22:1.000000000 
0.031250 1:0.042470976 2:0.000036449 3:0.000000344 4:0.000011840 5:0.454067325 6:0.212877286 7:0.266402352 8:0.003380267 9:0.095907928 10:0.100765306 11:0.851988523 12:0.309690052 13:0.619834711 14:0.095663265 15:0.321023716 16:0.222283717 17:0.839215686 18:0.432835821 19:0.601504819 20:0.111747448 21:0.949367089 22:1.000000000 
0.031250 1:0.073953116 2:0.000139407 3:0.000021628 4:0.000025223 5:0.454067324 6:0.212876941 7:0.266402352 8:0.006812944 9:0.086956522 10:0.094387755 11:0.940865987 12:0.294883912 13:0.755555556 14:0.086734694 15:0.374035681 16:0.179129363 17:0.439215686 18:0.278606965 19:0.358562759 20:0.120300156 21:0.918918919 22:1.000000000 
0.031250 1:0.046753140 2:0.000091786 3:0.000000233 4:0.000016669 5:0.454067325 6:0.212877632 7:0.266402352 8:0.003886172 9:0.083120205 10:0.088010204 11:0.900886949 12:0.288305748 13:0.656565657 14:0.082908163 15:0.325371568 16:0.191090409 17:0.737254902 18:0.442786070 19:0.591241819 20:0.106589874 21:0.942028986 22:1.000000000 
0.031250 1:0.051521099 2:0.000267353 3:0.000000243 4:0.000000122 5:0.454067325 6:0.212877393 7:0.266402352 8:0.003908386 9:0.101023018 10:0.114795918 11:0.979969724 12:0.317841183 13:0.411458333 14:0.100765306 15:0.480756552 16:0.160507662 17:0.549019608 18:0.358208955 19:0.437584534 20:0.144206649 21:0.877777778 22:1.000000000 
0.031250 1:0.032537280 2:0.000008868 3:0.000028420 4:0.000010156 5:0.454067325 6:0.212877351 7:0.266402352 8:0.002410586 9:0.147058824 10:0.160714286 11:0.943027785 12:0.383482494 13:0.483193277 14:0.146683673 15:0.490351707 16:0.231538776 17:0.678431373 18:0.393034826 19:0.507620974 20:0.162746526 21:0.912698413 22:1.000000000 
0.031250 1:0.030210183 2:0.000171945 3:0.000000895 4:0.000002748 5:0.454067325 6:0.212877376 7:0.266402352 8:0.002069852 9:0.136828645 10:0.145408163 11:0.906639819 12:0.369903561 13:0.636904762 14:0.136479592 15:0.424167201 16:0.243147957 17:0.764705882 18:0.457711443 19:0.608690746 20:0.142328874 21:0.938596491 22:1.000000000 
0.031250 1:0.051125798 2:0.000246288 3:0.000000895 4:0.000001106 5:0.454067325 6:0.212877418 7:0.266402352 8:0.004027342 9:0.121483376 10:0.137755102 11:0.980359793 12:0.348544654 13:0.678571429 14:0.121173469 15:0.533380406 16:0.177115641 17:0.533333333 18:0.348258706 19:0.430645663 20:0.157707889 21:0.879629630 22:1.000000000 
0.031250 1:0.019001761 2:0.000076175 3:0.000000874 4:0.000016861 5:0.454067325 6:0.212877275 7:0.266402352 8:0.001201047 9:0.140664962 10:0.156887755 11:0.908144234 12:0.375053278 13:0.687500000 14:0.140306122 15:0.433619292 16:0.246940221 17:0.996078431 18:0.577114428 19:0.797263023 20:0.144653567 21:0.894308943 22:1.000000000 
0.031250 1:0.034066132 2:0.000460244 3:0.000000309 4:0.000000321 5:0.454067325 6:0.212877382 7:0.266402352 8:0.002330948 9:0.153452685 10:0.178571429 11:0.951409862 12:0.391730373 13:0.512820513 14:0.153061224 15:0.515609554 16:0.229454850 17:0.698039216 18:0.412935323 19:0.556845269 20:0.167039098 21:0.857142857 22:1.000000000 
0.031250 1:0.025841278 2:0.000115705 3:0.000000204 4:0.000010999 5:0.454067325 6:0.212877564 7:0.266402352 8:0.001811437 9:0.116368286 10:0.121173469 11:0.823983538 12:0.341127962 13:0.777777778 14:0.116071429 15:0.341974885 16:0.254332184 17:0.968627451 18:0.547263682 19:0.749384153 20:0.121731013 21:0.957894737 22:1.000000000 
0.031250 1:0.043654955 2:0.000079128 3:0.000002339 4:0.000023657 5:0.454067325 6:0.212877711 7:0.266402352 8:0.003305232 9:0.083120205 10:0.091836735 11:0.944465664 12:0.288305748 13:0.580357143 14:0.082908163 15:0.366797410 16:0.171535347 17:0.733333333 18:0.457711443 19:0.606223044 20:0.114072141 21:0.902777778 22:1.000000000 
0.031250 1:0.037664883 2:0.000033457 3:0.000000557 4:0.000021309 5:0.454067325 6:0.212877340 7:0.266402352 8:0.002948227 9:0.086956522 10:0.094387755 11:0.879607057 12:0.294883912 13:0.708333333 14:0.086734694 15:0.319076645 16:0.202905392 17:0.901960784 18:0.492537313 19:0.692003286 20:0.106261894 21:0.918918919 22:1.000000000 
0.031250 1:0.031019813 2:0.000412622 3:0.000062890 4:0.000000812 5:0.454067325 6:0.212877415 7:0.266402352 8:0.001713717 9:0.092071611 10:0.104591837 11:0.914019400 12:0.303433042 13:0.642857143 14:0.091836735 15:0.356109796 16:0.197476334 17:0.882352941 18:0.502487562 19:0.689527412 20:0.119406320 21:0.878048780 22:1.000000000 
0.031250 1:0.062796716 2:0.000010979 3:0.000012569 4:0.000020849 5:0.454067325 6:0.212877389 7:0.266402352 8:0.005903001 9:0.088235294 10:0.091836735 11:0.873854504 12:0.297044263 13:0.704081633 14:0.088010204 15:0.319131165 16:0.206874409 17:0.529411765 18:0.323383085 19:0.421800862 20:0.108319878 21:0.958333333 22:1.000000000 
0.031250 1:0.030558666 2:0.000094212 3:0.000001281 4:0.000022416 5:0.454067325 6:0.212877062 7:0.266402352 8:0.002218618 9:0.092071611 10:0.096938776 11:0.877469300 12:0.303433042 13:0.654545455 14:0.091836735 15:0.327457048 16:0.209747004 17:0.952941176 18:0.562189055 19:0.785657840 20:0.109660631 21:0.947368421 22:1.000000000 
0.031250 1:0.014651086 2:0.000259577 3:0.000000012 4:0.000000684 5:0.454067325 6:0.212877406 7:0.266402352 8:0.001014492 9:0.131713555 10:0.132653061 11:0.956373627 12:0.362923621 13:0.953703704 14:0.131377551 15:0.479561129 16:0.205248184 17:1.000000000 18:0.651741294 19:0.882620262 20:0.146470071 21:0.990384615 22:1.000000000 
0.031250 1:0.038639856 2:0.000367263 3:0.000006449 4:0.000011512 5:0.454067325 6:0.212877127 7:0.266402352 8:0.003021563 9:0.124040921 10:0.135204082 11:0.849490989 12:0.352194436 13:0.769841270 14:0.123724490 15:0.367512176 16:0.256237214 17:0.752941176 18:0.412935323 19:0.550066082 20:0.129451156 21:0.915094340 22:1.000000000 
0.031250 1:0.015659891 2:0.000707268 3:0.000000668 4:0.000001874 5:0.454067325 6:0.212877367 7:0.266402352 8:0.000877762 9:0.168797954 10:0.191326531 11:0.977781998 12:0.410850282 13:0.419047619 14:0.168367347 15:0.619676862 16:0.213035427 17:0.996078431 18:0.616915423 19:0.870595398 20:0.185759183 21:0.880000000 22:1.000000000 
0.031250 1:0.027665457 2:0.000094748 3:0.000002174 4:0.000005471 5:0.454067325 6:0.212877457 7:0.266402352 8:0.002132368 9:0.103580563 10:0.113520408 11:0.888577945 12:0.321839343 13:0.642857143 14:0.103316327 15:0.355307706 16:0.218879658 17:0.984313725 18:0.572139303 19:0.793139185 20:0.122477077 21:0.910112360 22:1.000000000 
0.031250 1:0.052898362 2:0.000056600 3:0.000001553 4:0.000018025 5:0.454067325 6:0.212877595 7:0.266402352 8:0.004669106 9:0.086956522 10:0.094387755 11:0.851481076 12:0.294883912 13:0.708333333 14:0.086734694 15:0.306811792 16:0.212743443 17:0.709803922 18:0.412935323 19:0.552195290 20:0.106917854 21:0.918918919 22:1.000000000 
0.031250 1:0.035061389 2:0.000182336 3:0.000000719 4:0.000033827 5:0.454067325 6:0.212877475 7:0.266402352 8:0.002655006 9:0.129156010 10:0.142857143 11:0.881203266 12:0.359382818 13:0.673333333 14:0.128826531 15:0.390096909 16:0.246711439 17:0.803921569 18:0.437810945 19:0.609817464 20:0.135949484 21:0.901785714 22:1.000000000 
0.031250 1:0.053158622 2:0.000263342 3:0.000032074 4:0.000026004 5:0.454067324 6:0.212878013 7:0.266402352 8:0.004888412 9:0.126598465 10:0.131377551 11:0.908239300 12:0.355806781 13:0.773437500 14:0.126275510 15:0.406565414 16:0.231436647 17:0.556862745 18:0.338308458 19:0.420495765 20:0.137171299 21:0.961165049 22:1.000000000 
0.031250 1:0.064303188 2:0.000025842 3:0.000002452 4:0.000093154 5:0.454067324 6:0.212877376 7:0.266402350 8:0.006257343 9:0.078005115 10:0.082908163 11:0.819686059 12:0.279293958 13:0.792207792 14:0.077806122 15:0.280412621 16:0.210627010 17:0.639215686 18:0.343283582 19:0.482210847 20:0.098451646 21:0.938461538 22:1.000000000 
0.031250 1:0.029223196 2:0.000049341 3:0.000001249 4:0.000012764 5:0.454067325 6:0.212877502 7:0.266402352 8:0.002306593 9:0.089514066 10:0.093112245 11:0.869614019 12:0.299189015 13:0.636363636 14:0.089285714 15:0.319724449 16:0.210101072 17:0.992156863 18:0.611940299 19:0.835987445 20:0.107663918 21:0.958904110 22:1.000000000 
0.031250 1:0.047816200 2:0.000151212 3:0.000001385 4:0.000028710 5:0.454067325 6:0.212877605 7:0.266402352 8:0.003665179 9:0.099744246 10:0.107142857 11:0.914514525 12:0.315823124 13:0.696428571 14:0.099489796 15:0.370897118 16:0.205200715 17:0.631372549 18:0.393034826 19:0.509329384 20:0.122058993 21:0.928571429 22:1.000000000 
0.031250 1:0.015715544 2:0.000149216 3:0.000000034 4:0.000016019 5:0.454067325 6:0.212877213 7:0.266402352 8:0.001076268 9:0.166240409 10:0.176020408 11:0.900813682 12:0.407725900 13:0.722222222 14:0.165816327 15:0.459535271 16:0.269965666 17:1.000000000 18:0.557213930 19:0.815734193 20:0.153804567 21:0.942028986 22:1.000000000 
0.031250 1:0.022961964 2:0.000090544 3:0.000000366 4:0.000000694 5:0.454067325 6:0.212877383 7:0.266402352 8:0.001652472 9:0.103580563 10:0.113520408 11:0.879558572 12:0.321839343 13:0.723214286 14:0.103316327 15:0.349218352 16:0.222109687 17:0.996078431 18:0.616915423 19:0.873199295 20:0.118065567 21:0.910112360 22:1.000000000 
0.031250 1:0.015671611 2:0.000429988 3:0.000000416 4:0.000005302 5:0.454067325 6:0.212877295 7:0.266402352 8:0.000910689 9:0.154731458 10:0.170918367 11:0.950244818 12:0.393359197 13:0.508403361 14:0.154336735 15:0.508923121 16:0.228458936 17:1.000000000 18:0.621890547 19:0.868326183 20:0.165042385 21:0.902985075 22:1.000000000 
0.031250 1:0.021106450 2:0.000134571 3:0.000000136 4:0.000007480 5:0.454067325 6:0.212877333 7:0.266402352 8:0.001440855 9:0.111253197 10:0.132653061 11:0.931630833 12:0.333546394 13:0.604166667 14:0.110969388 15:0.418692732 16:0.212048699 17:0.988235294 18:0.616915423 19:0.860355370 20:0.137946197 21:0.836538462 22:1.000000000 
0.031250 1:0.060182737 2:0.000149529 3:0.000002172 4:0.000021456 5:0.454067325 6:0.212877700 7:0.266402352 8:0.005422662 9:0.090792839 10:0.102040816 11:0.954262268 12:0.301318501 13:0.676190476 14:0.090561224 15:0.399122453 16:0.173748216 17:0.568627451 18:0.348258706 19:0.455912384 20:0.122386973 21:0.887500000 22:1.000000000 
0.031250 1:0.058422083 2:0.000183422 3:0.000000678 4:0.000022335 5:0.454067325 6:0.212877204 7:0.266402352 8:0.005163223 9:0.118925831 10:0.137755102 11:0.964807518 12:0.344856247 13:0.543859649 14:0.118622449 15:0.476612321 16:0.189297337 17:0.525490196 18:0.308457711 19:0.408900805 20:0.154817340 21:0.861111111 22:1.000000000 
0.031250 1:0.071425392 2:0.000273944 3:0.000000713 4:0.000109961 5:0.454067324 6:0.212880001 7:0.266402351 8:0.007651877 9:0.085677749 10:0.091836735 11:0.941135560 12:0.292707618 13:0.797619048 14:0.085459184 15:0.366885573 16:0.175399835 17:0.552941176 18:0.313432836 19:0.426874334 20:0.113891932 21:0.930555556 22:1.000000000 
0.031250 1:0.027941894 2:0.000120473 3:0.000001958 4:0.000020934 5:0.454067325 6:0.212877280 7:0.266402352 8:0.002162463 9:0.113810742 10:0.117346939 11:0.843005678 12:0.337358477 13:0.794642857 14:0.113520408 15:0.344496314 16:0.244409073 17:0.984313725 18:0.527363184 19:0.721185522 20:0.120390260 21:0.967391304 22:1.000000000 
0.031250 1:0.019532697 2:0.000547549 3:0.000002463 4:0.000001956 5:0.454067325 6:0.212877452 7:0.266402352 8:0.001378226 9:0.136828645 10:0.156887755 11:0.961476722 12:0.369903561 13:0.625730994 14:0.136479592 15:0.505973244 16:0.207273794 17:0.984313725 18:0.606965174 19:0.829109210 20:0.155473300 21:0.869918699 22:1.000000000 
0.031250 1:0.023355383 2:0.001368311 3:0.000001078 4:0.000015524 5:0.454067325 6:0.212876541 7:0.266402352 8:0.001403752 9:0.180306905 10:0.207908163 11:0.976505524 12:0.424625606 13:0.414705882 14:0.179846939 15:0.629604483 16:0.220004407 17:0.843137255 18:0.487562189 19:0.682437602 20:0.193151347 21:0.865030675 22:1.000000000 
0.031250 1:0.020824505 2:0.000169662 3:0.000001283 4:0.000000546 5:0.454067325 6:0.212877382 7:0.266402352 8:0.001539208 9:0.127877238 10:0.135204082 11:0.874622081 12:0.357599270 13:0.649350649 14:0.127551020 15:0.384345761 16:0.248524048 17:1.000000000 18:0.592039801 19:0.816295989 20:0.130943285 21:0.943396226 22:1.000000000 
0.031250 1:0.049482903 2:0.001589368 3:0.000098237 4:0.000009758 5:0.454067326 6:0.212876845 7:0.266402352 8:0.004086582 9:0.078005115 10:0.082908163 11:0.889261178 12:0.279293958 13:0.616161616 14:0.077806122 15:0.309323327 16:0.190072731 17:0.811764706 18:0.437810945 19:0.604070922 20:0.102924428 21:0.938461538 22:1.000000000 
0.031250 1:0.018491663 2:0.000771602 3:0.000000411 4:0.000005348 5:0.454067325 6:0.212877177 7:0.266402352 8:0.001316266 9:0.200767263 10:0.227040816 11:0.964939249 12:0.448070601 13:0.654166667 14:0.200255102 15:0.622749533 16:0.247026035 17:0.964705882 18:0.497512438 19:0.736831248 20:0.197292544 21:0.882022472 22:1.000000000 
0.031250 1:0.069330373 2:0.000138246 3:0.000018207 4:0.000043918 5:0.454067323 6:0.212876626 7:0.266402351 8:0.006634948 9:0.078005115 10:0.084183673 11:0.912873813 12:0.279293958 13:0.508333333 14:0.077806122 15:0.335662479 16:0.187129024 17:0.521568627 18:0.318407960 19:0.421452830 20:0.109065942 21:0.924242424 22:1.000000000 
0.031250 1:0.040197887 2:0.000794068 3:0.000003221 4:0.000006605 5:0.454067325 6:0.212877249 7:0.266402352 8:0.002944711 9:0.154731458 10:0.179846939 11:0.969511008 12:0.393359197 13:0.424561404 14:0.154336735 15:0.564454799 16:0.213798422 17:0.635294118 18:0.368159204 19:0.499794009 20:0.176251370 21:0.858156028 22:1.000000000 
0.031250 1:0.014090945 2:0.000396576 3:0.000000213 4:0.000005629 5:0.454067325 6:0.212877373 7:0.266402352 8:0.000885627 9:0.168797954 10:0.190051020 11:0.955527300 12:0.410850282 13:0.550000000 14:0.168367347 15:0.546873749 16:0.235674362 17:1.000000000 18:0.631840796 19:0.876032844 20:0.173775301 21:0.885906040 22:1.000000000 
0.031250 1:0.018962575 2:0.000144203 3:0.000001039 4:0.000005805 5:0.454067325 6:0.212877340 7:0.266402352 8:0.001156057 9:0.134271100 10:0.147959184 11:0.911816888 12:0.366430211 13:0.583333333 14:0.133928571 15:0.424068703 16:0.237563205 17:1.000000000 18:0.592039801 19:0.829591519 20:0.146769217 21:0.905172414 22:1.000000000 
0.031250 1:0.027042053 2:0.000049207 3:0.000000403 4:0.000008437 5:0.454067325 6:0.212877462 7:0.266402352 8:0.001894155 9:0.101023018 10:0.105867347 11:0.849495005 12:0.317841183 13:0.759615385 14:0.100765306 15:0.327941881 16:0.228645454 17:1.000000000 18:0.582089552 19:0.814281273 20:0.111329364 21:0.951807229 22:1.000000000 
0.031250 1:0.013433845 2:0.000344281 3:0.000000101 4:0.000006450 5:0.454067325 6:0.212877456 7:0.266402352 8:0.000928880 9:0.171355499 10:0.179846939 11:0.935727258 12:0.413951083 13:0.837500000 14:0.170918367 15:0.507595278 16:0.250985155 17:1.000000000 18:0.621890547 19:0.870663266 20:0.163193443 21:0.950354610 22:1.000000000 
0.031250 1:0.023921093 2:0.000489296 3:0.000011194 4:0.000147539 5:0.454067323 6:0.212882273 7:0.266402361 8:0.001587721 9:0.078005115 10:0.081632653 11:0.922776444 12:0.279293958 13:0.554545455 14:0.077806122 15:0.331796022 16:0.176279170 17:0.827450980 18:0.507462687 19:0.659943526 20:0.104355285 21:0.953125000 22:1.000000000 
0.031250 1:0.021367816 2:0.000177312 3:0.000000479 4:0.000007820 5:0.454067325 6:0.212877462 7:0.266402352 8:0.001362090 9:0.111253197 10:0.121173469 11:0.921927971 12:0.333546394 13:0.644444444 14:0.110969388 15:0.395242341 16:0.210899207 17:1.000000000 18:0.636815920 19:0.860548351 20:0.130554034 21:0.915789474 22:1.000000000 
0.031250 1:0.016721951 2:0.000358493 3:0.000000337 4:0.000002423 5:0.454067325 6:0.212877366 7:0.266402352 8:0.001185336 9:0.143222506 10:0.159438776 11:0.961421193 12:0.378447495 13:0.761904762 14:0.142857143 15:0.520920890 16:0.213503678 17:0.992156863 18:0.626865672 19:0.868883989 20:0.163968341 21:0.896000000 22:1.000000000 
0.031250 1:0.055235084 2:0.000001649 3:0.000001344 4:0.000053836 5:0.454067325 6:0.212877321 7:0.266402353 8:0.005032363 9:0.058823529 10:0.065051020 11:0.877257571 12:0.242535625 13:0.766666667 14:0.058673469 15:0.262903147 16:0.168517735 17:0.792156863 18:0.447761194 19:0.641278438 20:0.085635200 21:0.901960784 22:1.000000000 
0.031250 1:0.016679447 2:0.000242450 3:0.000000547 4:0.000000248 5:0.454067325 6:0.212877396 7:0.266402352 8:0.001071443 9:0.156010230 10:0.178571429 11:0.950361376 12:0.394981304 13:0.535087719 14:0.155612245 15:0.525917884 16:0.235884238 17:1.000000000 18:0.592039801 19:0.841495084 20:0.170765815 21:0.871428571 22:1.000000000 
0.031250 1:0.016072211 2:0.000157343 3:0.000000573 4:0.000008491 5:0.454067325 6:0.212877268 7:0.266402352 8:0.001054845 9:0.154731458 10:0.174744898 11:0.910509252 12:0.393359197 13:0.581730769 14:0.154336735 15:0.456270214 16:0.257121069 17:1.000000000 18:0.542288557 19:0.823230943 20:0.160003748 21:0.883211679 22:1.000000000 
0.031250 1:0.034828087 2:0.000433867 3:0.000019102 4:0.000035480 5:0.454067327 6:0.212877854 7:0.266402352 8:0.002496861 9:0.056265985 10:0.056122449 11:0.946034776 12:0.237204521 13:1.000000000 14:0.056122449 15:0.304198670 16:0.140738225 17:0.960784314 18:0.597014925 19:0.860833435 20:0.090522461 21:1.000000000 22:1.000000000 
0.031250 1:0.019768924 2:0.000359262 3:0.000000062 4:0.000011955 5:0.454067325 6:0.212877735 7:0.266402352 8:0.001357213 9:0.130434783 10:0.147959184 11:0.918803344 12:0.361157559 13:0.637500000 14:0.130102041 15:0.429628066 16:0.232853051 17:1.000000000 18:0.611940299 19:0.841728494 20:0.144325587 21:0.879310345 22:1.000000000 
0.031250 1:0.037984440 2:0.000459018 3:0.000000227 4:0.000006133 5:0.454067325 6:0.212877545 7:0.266402352 8:0.002753526 9:0.153452685 10:0.169642857 11:0.936873644 12:0.391730373 13:0.542986425 14:0.153061224 15:0.493367307 16:0.242263240 17:0.749019608 18:0.393034826 19:0.529982382 20:0.165993887 21:0.902255639 22:1.000000000 
0.031250 1:0.022504946 2:0.000336975 3:0.000002332 4:0.000003596 5:0.454067325 6:0.212877452 7:0.266402352 8:0.001440570 9:0.129156010 10:0.151785714 11:0.964426392 12:0.359382818 13:0.450892857 14:0.128826531 15:0.499944312 16:0.199289164 17:0.968627451 18:0.577114428 19:0.811122889 20:0.160659708 21:0.848739496 22:1.000000000 
0.004750 1:0.027784670 2:0.002092737 3:0.000069903 4:0.000016783 5:0.454067324 6:0.212878526 7:0.266402352 8:0.001725597 9:0.093350384 10:0.099489796 11:0.915395337 12:0.305532950 13:0.553030303 14:0.093112245 15:0.356155780 16:0.196229046 17:0.976470588 18:0.606965174 19:0.785704956 20:0.116486938 21:0.935897436 22:1.000000000 
0.031250 1:0.036765700 2:0.000080607 3:0.000001651 4:0.000000913 5:0.454067325 6:0.212877394 7:0.266402352 8:0.003149785 9:0.072890026 10:0.073979592 11:0.877345042 12:0.269981528 13:0.791666667 14:0.072704082 15:0.291452641 16:0.186762842 17:0.960784314 18:0.547263682 19:0.780629026 20:0.096782913 21:0.982758621 22:1.000000000 
0.031250 1:0.045150735 2:0.000330664 3:0.000025191 4:0.000008577 5:0.454067325 6:0.212877507 7:0.266402352 8:0.004302065 9:0.074168798 10:0.076530612 11:0.875454154 12:0.272339490 13:0.805555556 14:0.073979592 15:0.292844326 16:0.188839523 17:0.909803922 18:0.487562189 19:0.702256085 20:0.099168877 21:0.966666667 22:1.000000000 
0.031250 1:0.015344036 2:0.000846250 3:0.000000461 4:0.000002874 5:0.454067325 6:0.212877393 7:0.266402352 8:0.000968182 9:0.171355499 10:0.198979592 11:0.967833262 12:0.413951083 13:0.490842491 14:0.170918367 15:0.591885070 16:0.228139293 17:0.992156863 18:0.601990050 19:0.849520018 20:0.184238222 21:0.858974359 22:1.000000000 
0.031250 1:0.045788555 2:0.000034406 3:0.000006414 4:0.000029865 5:0.454067326 6:0.212877494 7:0.266402352 8:0.003875538 9:0.093350384 10:0.102040816 11:0.896661626 12:0.305532950 13:0.579365079 14:0.093112245 15:0.346764253 16:0.207143670 17:0.725490196 18:0.437810945 19:0.584578287 20:0.119795571 21:0.912500000 22:1.000000000 
0.031250 1:0.030279675 2:0.000042174 3:0.000000008 4:0.000022686 5:0.454067325 6:0.212877344 7:0.266402352 8:0.002354439 9:0.095907928 10:0.099489796 11:0.844615429 12:0.309690052 13:0.781250000 14:0.095663265 15:0.320082014 16:0.226124039 17:0.964705882 18:0.572139303 19:0.771972225 20:0.111567239 21:0.961538462 22:1.000000000 
0.031250 1:0.015674452 2:0.000136136 3:0.000001481 4:0.000002683 5:0.454067325 6:0.212877428 7:0.266402352 8:0.001102522 9:0.130434783 10:0.144132653 11:0.918769291 12:0.361157559 13:0.666666667 14:0.130102041 15:0.431353002 16:0.233827023 17:1.000000000 18:0.646766169 19:0.904688386 20:0.143997607 21:0.902654867 22:1.000000000 
0.031250 1:0.018036163 2:0.001728988 3:0.000005118 4:0.000001955 5:0.454067325 6:0.212877374 7:0.266402352 8:0.001016431 9:0.157289003 10:0.183673469 11:0.966823865 12:0.396596776 13:0.452205882 14:0.156887755 15:0.558571597 16:0.217508274 17:0.988235294 18:0.592039801 19:0.812848039 20:0.178186812 21:0.854166667 22:1.000000000 
0.031250 1:0.019914414 2:0.000260681 3:0.000002314 4:0.000015323 5:0.454067325 6:0.212877017 7:0.266402352 8:0.001470226 9:0.122762148 10:0.135204082 11:0.929183526 12:0.350374297 13:0.666666667 14:0.122448980 15:0.429589934 16:0.220578182 17:0.996078431 18:0.616915423 19:0.848909213 20:0.140270890 21:0.905660377 22:1.000000000 
0.031250 1:0.031303478 2:0.000055168 3:0.000001175 4:0.000002688 5:0.454067325 6:0.212877414 7:0.266402352 8:0.002455528 9:0.090792839 10:0.094387755 11:0.847945392 12:0.301318501 13:0.657407407 14:0.090561224 15:0.312156442 16:0.218561867 17:0.976470588 18:0.547263682 19:0.780880015 20:0.105339225 21:0.959459459 22:1.000000000 
0.031250 1:0.017610339 2:0.000379837 3:0.000001093 4:0.000011275 5:0.454067325 6:0.212877713 7:0.266402352 8:0.001154686 9:0.131713555 10:0.144132653 11:0.943945148 12:0.362923621 13:0.536458333 14:0.131377551 15:0.459013131 16:0.215416454 17:1.000000000 18:0.631840796 19:0.876752156 20:0.147843262 21:0.911504425 22:1.000000000 
0.031250 1:0.041928633 2:0.000078340 3:0.000007809 4:0.000030688 5:0.454067326 6:0.212877609 7:0.266402351 8:0.003296729 9:0.098465473 10:0.109693878 11:0.875428772 12:0.313792086 13:0.658119658 14:0.098214286 15:0.340589052 16:0.219645944 17:0.752941176 18:0.412935323 19:0.580157691 20:0.116724814 21:0.895348837 22:1.000000000 
0.031250 1:0.016997978 2:0.000138836 3:0.000000181 4:0.000001448 5:0.454067325 6:0.212877410 7:0.266402352 8:0.001025028 9:0.138107417 10:0.153061224 11:0.919972633 12:0.371628063 13:0.577540107 14:0.137755102 15:0.437925252 16:0.235982770 17:1.000000000 18:0.631840796 19:0.850230594 20:0.149155181 21:0.900000000 22:1.000000000 
0.031250 1:0.050732162 2:0.000055310 3:0.000006455 4:0.000019562 5:0.454067325 6:0.212877296 7:0.266402352 8:0.004420476 9:0.111253197 10:0.113520408 11:0.893345949 12:0.333546394 13:0.887755102 14:0.110969388 15:0.371096258 16:0.224553453 17:0.603921569 18:0.363184080 19:0.486841588 20:0.123280808 21:0.977528090 22:1.000000000 
0.031250 1:0.043124822 2:0.000067263 3:0.000001653 4:0.000045146 5:0.454067325 6:0.212877166 7:0.266402351 8:0.003560303 9:0.093350384 10:0.102040816 11:0.890264940 12:0.305532950 13:0.744897959 14:0.093112245 15:0.337681105 16:0.206726242 17:0.815686275 18:0.447761194 19:0.625976572 20:0.118364714 21:0.912500000 22:1.000000000 
