svm_type c_svc
kernel_type intersection
nr_class 2
total_sv 1825
rho 3.774646
label 1 0
probA -4.641151
probB -0.229169
nr_sv 909 916
SV
0.031250 1:0.024273772 2:0.000525894 3:0.000001851 4:0.000062323 5:0.823445840 6:0.319745814 7:0.648730894 8:0.001498006 9:0.142857143 10:0.146683673 11:0.865516409 12:0.377964473 13:0.875000000 14:0.142857143 15:0.373962645 16:0.241933702 17:0.768627451 18:0.349344978 19:0.546837358 20:0.113590407 21:0.973913043 22:1.000000000 
0.031250 1:0.024754765 2:0.001026279 3:0.000018885 4:0.000023561 5:0.823445840 6:0.319746177 7:0.648730897 8:0.001427180 9:0.135204082 10:0.155612245 11:0.941901588 12:0.367701076 13:0.473214286 14:0.135204082 15:0.446309087 16:0.202601357 17:0.749019608 18:0.371179039 19:0.568328614 20:0.126747336 21:0.868852459 22:1.000000000 
0.031250 1:0.034754156 2:0.000492153 3:0.000099442 4:0.000134831 5:0.823445815 6:0.319747879 7:0.648730919 8:0.002554457 9:0.089285714 10:0.099489796 11:0.880350737 12:0.298807152 13:0.583333333 14:0.089285714 15:0.307135245 16:0.189002239 17:0.721568627 18:0.336244541 19:0.533126054 20:0.090727931 21:0.897435897 22:1.000000000 
0.031250 1:0.025049138 2:0.001052864 3:0.000000278 4:0.000012025 5:0.823445841 6:0.319746314 7:0.648730897 8:0.001621527 9:0.137755102 10:0.160714286 11:0.934812769 12:0.371153744 13:0.666666667 14:0.137755102 15:0.437566312 16:0.208266510 17:0.694117647 18:0.340611354 19:0.536071880 20:0.125435458 21:0.857142857 22:1.000000000 
0.031250 1:0.062765316 2:0.001854444 3:0.000020469 4:0.000173727 5:0.823445819 6:0.319742720 7:0.648730863 8:0.005950210 9:0.170918367 10:0.183673469 11:0.877594997 12:0.413422747 13:0.716577540 14:0.170918367 15:0.421935462 16:0.262190500 17:0.313725490 18:0.144104803 19:0.214326502 20:0.131261134 21:0.930555556 22:1.000000000 
0.031250 1:0.029181962 2:0.000337800 3:0.000005900 4:0.000122921 5:0.823445851 6:0.319744139 7:0.648730901 8:0.002110342 9:0.088010204 10:0.093112245 11:0.901697591 12:0.296665138 13:0.627272727 14:0.088010204 15:0.314678282 16:0.178047240 17:0.839215686 18:0.393013100 19:0.652966676 20:0.089295724 21:0.945205479 22:1.000000000 
0.031250 1:0.055238736 2:0.000099283 3:0.000023379 4:0.000144327 5:0.823445818 6:0.319745735 7:0.648730908 8:0.005079367 9:0.066326531 10:0.070153061 11:0.864594858 12:0.257539377 13:0.742857143 14:0.066326531 15:0.255695940 16:0.165905697 17:0.584313725 18:0.248908297 19:0.424483558 20:0.073591346 21:0.945454545 22:1.000000000 
0.031250 1:0.020589087 2:0.000395297 3:0.000002496 4:0.000004389 5:0.823445841 6:0.319745977 7:0.648730897 8:0.001274609 9:0.098214286 10:0.109693878 11:0.920646638 12:0.313391585 13:0.687500000 14:0.098214286 15:0.359618055 16:0.185820108 17:0.941176471 18:0.467248908 19:0.753067443 20:0.103107125 21:0.895348837 22:1.000000000 
0.031250 1:0.024880197 2:0.006768995 3:0.000059680 4:0.000023615 5:0.823445844 6:0.319744804 7:0.648730896 8:0.001355656 9:0.099489796 10:0.114795918 11:0.946985596 12:0.315420031 13:0.461538462 14:0.099489796 15:0.395482257 16:0.172971103 17:0.780392157 18:0.379912664 19:0.560971754 20:0.109660643 21:0.866666667 22:1.000000000 
0.031250 1:0.012550993 2:0.000417535 3:0.000000083 4:0.000000861 5:0.823445841 6:0.319745995 7:0.648730897 8:0.000543127 9:0.168367347 10:0.183673469 11:0.941733444 12:0.410325903 13:0.660000000 14:0.168367347 15:0.487852053 16:0.221721487 17:0.996078431 18:0.506550218 19:0.764264430 20:0.134319247 21:0.916666667 22:1.000000000 
0.031250 1:0.022015148 2:0.000082130 3:0.000000336 4:0.000004094 5:0.823445841 6:0.319745989 7:0.648730897 8:0.001046957 9:0.086734694 10:0.094387755 11:0.931237779 12:0.294507545 13:0.647619048 14:0.086734694 15:0.338212919 16:0.164584946 17:0.839215686 18:0.471615721 19:0.678346022 20:0.094513886 21:0.918918919 22:1.000000000 
0.031250 1:0.011937496 2:0.000333559 3:0.000000090 4:0.000006977 5:0.823445841 6:0.319745925 7:0.648730897 8:0.000499471 9:0.150510204 10:0.164540816 11:0.945557751 12:0.387956446 13:0.690058480 14:0.150510204 15:0.467343413 16:0.206610753 17:0.984313725 18:0.550218341 19:0.817179417 20:0.129027714 21:0.914728682 22:1.000000000 
0.031250 1:0.021033704 2:0.000285424 3:0.000000510 4:0.000029574 5:0.823445841 6:0.319745873 7:0.648730897 8:0.001223173 9:0.130102041 10:0.135204082 11:0.811942477 12:0.360696605 13:0.662337662 14:0.130102041 15:0.332977365 16:0.248474212 17:0.764705882 18:0.375545852 19:0.593114522 20:0.105824795 21:0.962264151 22:1.000000000 
0.031250 1:0.037875845 2:0.001054046 3:0.000002653 4:0.000003740 5:0.823445841 6:0.319746061 7:0.648730897 8:0.002545226 9:0.085459184 10:0.095663265 11:0.923702491 12:0.292334028 13:0.507575758 14:0.085459184 15:0.330890593 16:0.168176051 17:0.694117647 18:0.331877729 19:0.491168735 20:0.094877808 21:0.893333333 22:1.000000000 
0.031250 1:0.016969644 2:0.001180883 3:0.000000376 4:0.000002323 5:0.823445841 6:0.319745957 7:0.648730897 8:0.000830200 9:0.202806122 10:0.220663265 11:0.891684702 12:0.450340008 13:0.630952381 14:0.202806122 15:0.467076800 16:0.275445838 17:0.772549020 18:0.371179039 19:0.555350950 20:0.148397719 21:0.919075145 22:1.000000000 
0.031250 1:0.017680659 2:0.000382189 3:0.000000612 4:0.000021578 5:0.823445841 6:0.319745895 7:0.648730897 8:0.000968965 9:0.154336735 10:0.172193878 11:0.862562456 12:0.392857143 13:0.576190476 14:0.154336735 15:0.390498948 16:0.254991709 17:0.862745098 18:0.401746725 19:0.624347588 20:0.128373242 21:0.896296296 22:1.000000000 
0.031250 1:0.047130716 2:0.006491857 3:0.000389572 4:0.000001128 5:0.823445841 6:0.319745959 7:0.648730898 8:0.003120254 9:0.094387755 10:0.105867347 11:0.951929313 12:0.307225902 13:0.660714286 14:0.094387755 15:0.384534502 16:0.161707153 17:0.517647059 18:0.266375546 19:0.387882560 20:0.103250933 21:0.891566265 22:1.000000000 
0.031250 1:0.016983008 2:0.001353353 3:0.000001026 4:0.000003680 5:0.823445841 6:0.319746055 7:0.648730897 8:0.000875157 9:0.139030612 10:0.163265306 11:0.953927390 12:0.372868090 13:0.504629630 14:0.139030612 15:0.474729529 16:0.196300811 17:0.949019608 18:0.454148472 19:0.721139788 20:0.132159198 21:0.851562500 22:1.000000000 
0.031250 1:0.064195794 2:0.000137846 3:0.000010432 4:0.000101253 5:0.823445836 6:0.319745738 7:0.648730908 8:0.005497859 9:0.067602041 10:0.071428571 11:0.880013704 12:0.260003925 13:0.688311688 14:0.067602041 15:0.266806481 16:0.164382893 17:0.392156863 18:0.209606987 19:0.291376993 20:0.076649459 21:0.946428571 22:1.000000000 
0.031250 1:0.043807045 2:0.000328763 3:0.000012203 4:0.000087583 5:0.823445837 6:0.319745894 7:0.648730906 8:0.003397325 9:0.099489796 10:0.113520408 11:0.912239157 12:0.315420031 13:0.545454545 14:0.099489796 15:0.346755940 16:0.186962245 17:0.525490196 18:0.266375546 19:0.411098229 20:0.104465960 21:0.876404494 22:1.000000000 
0.031250 1:0.051652219 2:0.000390590 3:0.000001751 4:0.000231958 5:0.823445855 6:0.319749609 7:0.648730903 8:0.004294784 9:0.093112245 10:0.099489796 11:0.932267628 12:0.305142991 13:0.561538462 14:0.093112245 15:0.356281612 16:0.172293163 17:0.486274510 18:0.240174672 19:0.350458546 20:0.098373213 21:0.935897436 22:1.000000000 
0.031250 1:0.028080886 2:0.001529019 3:0.000001425 4:0.000036669 5:0.823445841 6:0.319744823 7:0.648730896 8:0.001941481 9:0.159438776 10:0.170918367 11:0.883018675 12:0.399297853 13:0.771604938 14:0.159438776 15:0.408197562 16:0.248780176 17:0.631372549 18:0.292576419 19:0.450933390 20:0.126333522 21:0.932835821 22:1.000000000 
0.031250 1:0.052666226 2:0.001400357 3:0.000001323 4:0.000072275 5:0.823445843 6:0.319743827 7:0.648730896 8:0.004494904 9:0.079081633 10:0.088010204 11:0.918964412 12:0.281214567 13:0.574074074 14:0.079081633 15:0.313938457 16:0.163657155 17:0.498039216 18:0.248908297 19:0.398183784 20:0.086601533 21:0.898550725 22:1.000000000 
0.031250 1:0.031633688 2:0.000396578 3:0.000001663 4:0.000038975 5:0.823445840 6:0.319745837 7:0.648730897 8:0.002104027 9:0.081632653 10:0.091836735 11:0.932203824 12:0.285714286 13:0.492307692 14:0.081632653 15:0.330953961 16:0.160107674 17:0.772549020 18:0.384279476 19:0.599998024 20:0.094053115 21:0.888888889 22:1.000000000 
0.031250 1:0.029208115 2:0.000137956 3:0.000001556 4:0.000063734 5:0.823445842 6:0.319745571 7:0.648730899 8:0.002001938 9:0.080357143 10:0.082908163 11:0.861328212 12:0.283473355 13:0.715909091 14:0.080357143 15:0.278696836 16:0.182683542 17:0.937254902 18:0.401746725 19:0.688533887 20:0.080218235 21:0.969230769 22:1.000000000 
0.031250 1:0.042874506 2:0.000268959 3:0.000004473 4:0.000060889 5:0.823445843 6:0.319745734 7:0.648730901 8:0.003191542 9:0.104591837 10:0.118622449 11:0.914319045 12:0.323406612 13:0.532467532 14:0.104591837 15:0.365630148 16:0.195146310 17:0.596078431 18:0.270742358 19:0.410594384 20:0.108275395 21:0.881720430 22:1.000000000 
0.031250 1:0.036401268 2:0.000363080 3:0.000006607 4:0.000007003 5:0.823445841 6:0.319746102 7:0.648730897 8:0.002629410 9:0.102040816 10:0.109693878 11:0.908293658 12:0.319438282 13:0.634920635 14:0.102040816 15:0.346344227 16:0.190257545 17:0.588235294 18:0.296943231 19:0.441154616 20:0.098373213 21:0.930232558 22:1.000000000 
0.031250 1:0.031398810 2:0.002245663 3:0.000019080 4:0.000004840 5:0.823445841 6:0.319746179 7:0.648730897 8:0.002019832 9:0.144132653 10:0.167091837 11:0.936810921 12:0.379648065 13:0.511312217 14:0.144132653 15:0.470378927 16:0.221021957 17:0.615686275 18:0.296943231 19:0.459461602 20:0.132426269 21:0.862595420 22:1.000000000 
0.031250 1:0.035513169 2:0.000502630 3:0.000001297 4:0.000007137 5:0.823445841 6:0.319745872 7:0.648730897 8:0.002524722 9:0.076530612 10:0.084183673 11:0.917199237 12:0.276641668 13:0.769230769 14:0.076530612 15:0.307608365 16:0.161822223 17:0.682352941 18:0.353711790 19:0.550732504 20:0.087256004 21:0.909090909 22:1.000000000 
0.031250 1:0.014703012 2:0.000548576 3:0.000000404 4:0.000003333 5:0.823445841 6:0.319745995 7:0.648730897 8:0.000772258 9:0.140306122 10:0.154336735 11:0.909987897 12:0.374574589 13:0.539215686 14:0.140306122 15:0.414673291 16:0.225996317 17:0.964705882 18:0.497816594 19:0.760247394 20:0.120995031 21:0.909090909 22:1.000000000 
0.031250 1:0.017817766 2:0.002808786 3:0.000015320 4:0.000000723 5:0.823445841 6:0.319745996 7:0.648730897 8:0.000954877 9:0.181122449 10:0.219387755 11:0.968500719 12:0.425584832 13:0.436923077 14:0.181122449 15:0.595854263 16:0.213068075 17:0.843137255 18:0.384279476 19:0.612978885 20:0.169854402 21:0.825581395 22:1.000000000 
0.031250 1:0.025312817 2:0.001447207 3:0.000033501 4:0.000071467 5:0.823445847 6:0.319744871 7:0.648730892 8:0.001381644 9:0.173469388 10:0.184948980 11:0.938773007 12:0.416496564 13:0.809523810 14:0.173469388 15:0.488649865 16:0.226643125 17:0.631372549 18:0.318777293 19:0.472067658 20:0.137764760 21:0.937931034 22:1.000000000 
0.031250 1:0.053675175 2:0.000359406 3:0.000016557 4:0.000262047 5:0.823445869 6:0.319748549 7:0.648730834 8:0.004744361 9:0.084183673 10:0.089285714 11:0.937525999 12:0.290144229 13:0.785714286 14:0.084183673 15:0.339926472 16:0.158977019 17:0.486274510 18:0.257641921 19:0.382708301 20:0.092474166 21:0.942857143 22:1.000000000 
0.031250 1:0.032797158 2:0.000065374 3:0.000004103 4:0.000017995 5:0.823445841 6:0.319746013 7:0.648730897 8:0.002296079 9:0.089285714 10:0.096938776 11:0.888274697 12:0.298807152 13:0.769230769 14:0.089285714 15:0.309462455 16:0.184931722 17:0.843137255 18:0.353711790 19:0.573702120 20:0.090047046 21:0.921052632 22:1.000000000 
0.031250 1:0.046779599 2:0.002410366 3:0.000250720 4:0.000094656 5:0.823445880 6:0.319749822 7:0.648730927 8:0.003249422 9:0.114795918 10:0.131377551 11:0.894055635 12:0.338815464 13:0.714285714 14:0.114795918 15:0.360146444 16:0.210387547 17:0.470588235 18:0.222707424 19:0.352814081 20:0.110144894 21:0.873786408 22:1.000000000 
0.031250 1:0.017206268 2:0.001691283 3:0.000001684 4:0.000004842 5:0.823445841 6:0.319745879 7:0.648730897 8:0.000971515 9:0.182397959 10:0.205357143 11:0.919365702 12:0.427080741 13:0.715000000 14:0.182397959 15:0.480773922 16:0.250104967 17:0.890196078 18:0.384279476 19:0.619787674 20:0.139998180 21:0.888198758 22:1.000000000 
0.031250 1:0.054407589 2:0.001275302 3:0.000065157 4:0.000021278 5:0.823445840 6:0.319746588 7:0.648730900 8:0.004617647 9:0.091836735 10:0.100765306 11:0.932213761 12:0.303045763 13:0.600000000 14:0.091836735 15:0.351673521 16:0.170120942 17:0.482352941 18:0.235807860 19:0.357267074 20:0.096747307 21:0.911392405 22:1.000000000 
0.031250 1:0.017940194 2:0.001389335 3:0.000006645 4:0.000023818 5:0.823445841 6:0.319746713 7:0.648730896 8:0.000941178 9:0.141581633 10:0.149234694 11:0.900416451 12:0.376273348 13:0.693750000 14:0.141581633 15:0.399593457 16:0.227344063 17:0.874509804 18:0.423580786 19:0.651895994 20:0.115095984 21:0.948717949 22:1.000000000 
0.031250 1:0.027776456 2:0.001230063 3:0.000003132 4:0.000047517 5:0.823445842 6:0.319744652 7:0.648730894 8:0.001912476 9:0.110969388 10:0.121173469 11:0.875378199 12:0.333120680 13:0.621428571 14:0.110969388 15:0.336524005 16:0.210729010 17:0.745098039 18:0.344978166 19:0.549525353 20:0.100606633 21:0.915789474 22:1.000000000 
0.031250 1:0.028456229 2:0.000300662 3:0.000001919 4:0.000051103 5:0.823445840 6:0.319746046 7:0.648730896 8:0.001958632 9:0.093112245 10:0.093112245 11:0.901786057 12:0.305142991 13:0.869047619 14:0.093112245 15:0.322543379 16:0.182427369 17:0.858823529 18:0.388646288 19:0.629012278 20:0.089756496 21:1.000000000 22:1.000000000 
0.031250 1:0.025001970 2:0.008499469 3:0.000186261 4:0.000032458 5:0.823445838 6:0.319748144 7:0.648730922 8:0.001292614 9:0.110969388 10:0.132653061 11:0.932563205 12:0.333120680 13:0.543750000 14:0.110969388 15:0.388183846 16:0.187379894 17:0.800000000 18:0.401746725 19:0.611323923 20:0.115703498 21:0.836538462 22:1.000000000 
0.031250 1:0.022329632 2:0.006933300 3:0.000160382 4:0.000017411 5:0.823445842 6:0.319746420 7:0.648730891 8:0.001067768 9:0.089285714 10:0.096938776 11:0.850394100 12:0.298807152 13:0.769230769 14:0.089285714 15:0.290724823 16:0.196851697 17:0.850980392 18:0.427947598 19:0.656146109 20:0.088421139 21:0.921052632 22:1.000000000 
0.031250 1:0.031724991 2:0.000457839 3:0.000009501 4:0.000016959 5:0.823445841 6:0.319746117 7:0.648730898 8:0.002075969 9:0.096938776 10:0.100765306 11:0.908228490 12:0.311349925 13:0.575757576 14:0.096938776 15:0.334824942 16:0.183985159 17:0.709803922 18:0.340611354 19:0.524245307 20:0.095388471 21:0.962025316 22:1.000000000 
0.031250 1:0.024717762 2:0.000408609 3:0.000000439 4:0.000035904 5:0.823445841 6:0.319746080 7:0.648730897 8:0.001552931 9:0.119897959 10:0.127551020 11:0.844572199 12:0.346262847 13:0.723076923 14:0.119897959 15:0.333571336 16:0.229573621 17:0.796078431 18:0.366812227 19:0.575070189 20:0.102426240 21:0.940000000 22:1.000000000 
0.031250 1:0.020839026 2:0.001226575 3:0.000004929 4:0.000019794 5:0.823445841 6:0.319746300 7:0.648730898 8:0.001224486 9:0.153061224 10:0.164540816 11:0.892115296 12:0.391230398 13:0.625000000 14:0.153061224 15:0.406717225 16:0.239442450 17:0.823529412 18:0.366812227 19:0.572038364 20:0.121188731 21:0.930232558 22:1.000000000 
0.031250 1:0.022896799 2:0.003073581 3:0.000017620 4:0.000004724 5:0.823445841 6:0.319745818 7:0.648730897 8:0.001320813 9:0.168367347 10:0.200255102 11:0.953159755 12:0.410325903 13:0.440000000 14:0.168367347 15:0.527331338 16:0.219483566 17:0.780392157 18:0.344978166 19:0.533362717 20:0.155121459 21:0.840764331 22:1.000000000 
0.031250 1:0.053577002 2:0.000007336 3:0.000058990 4:0.000078567 5:0.823445850 6:0.319745873 7:0.648730877 8:0.004775888 9:0.066326531 10:0.070153061 11:0.871451456 12:0.257539377 13:0.787878788 14:0.066326531 15:0.259597906 16:0.164732030 17:0.576470588 18:0.283842795 19:0.443375843 20:0.073591346 21:0.945454545 22:1.000000000 
0.031250 1:0.016104954 2:0.000698927 3:0.000003134 4:0.000003066 5:0.823445841 6:0.319745993 7:0.648730897 8:0.000895391 9:0.227040816 10:0.239795918 11:0.855981549 12:0.476488002 13:0.809090909 14:0.227040816 15:0.468518003 16:0.312118933 17:0.749019608 18:0.336244541 19:0.526831053 20:0.150484397 21:0.946808511 22:1.000000000 
0.031250 1:0.050014292 2:0.001044160 3:0.000001192 4:0.000000780 5:0.823445841 6:0.319746006 7:0.648730897 8:0.004491753 9:0.096938776 10:0.102040816 11:0.923777589 12:0.311349925 13:0.527777778 14:0.096938776 15:0.350179816 16:0.177906280 17:0.545098039 18:0.235807860 19:0.404663508 20:0.096797199 21:0.950000000 22:1.000000000 
0.031250 1:0.017049674 2:0.004674907 3:0.000000695 4:0.000015995 5:0.823445841 6:0.319746813 7:0.648730897 8:0.001091529 9:0.193877551 10:0.214285714 11:0.956333411 12:0.440315286 13:0.660869565 14:0.193877551 15:0.554261969 16:0.224396854 17:0.909803922 18:0.375545852 19:0.615270258 20:0.154827974 21:0.904761905 22:1.000000000 
0.031250 1:0.039609196 2:0.000969374 3:0.000003318 4:0.000201960 5:0.823445841 6:0.319751180 7:0.648730873 8:0.003308559 9:0.079081633 10:0.084183673 11:0.905327733 12:0.281214567 13:0.645833333 14:0.079081633 15:0.301918121 16:0.168112425 17:0.701960784 18:0.358078603 19:0.547022045 20:0.084635184 21:0.939393939 22:1.000000000 
0.031250 1:0.030384198 2:0.000248985 3:0.000012121 4:0.000033773 5:0.823445840 6:0.319745625 7:0.648730900 8:0.002137164 9:0.086734694 10:0.090561224 11:0.882750162 12:0.294507545 13:0.747252747 14:0.086734694 15:0.302364176 16:0.184459850 17:0.847058824 18:0.375545852 19:0.603572004 20:0.085703469 21:0.957746479 22:1.000000000 
0.031250 1:0.052501820 2:0.000151002 3:0.000052732 4:0.000036941 5:0.823445837 6:0.319745864 7:0.648730902 8:0.004890503 9:0.108418367 10:0.119897959 11:0.862612325 12:0.329269445 13:0.643939394 14:0.108418367 15:0.326793063 16:0.213359302 17:0.435294118 18:0.213973799 19:0.319648348 20:0.100556741 21:0.904255319 22:1.000000000 
0.031250 1:0.015896853 2:0.001939464 3:0.000005219 4:0.000003974 5:0.823445841 6:0.319745879 7:0.648730897 8:0.000882498 9:0.140306122 10:0.159438776 11:0.953602936 12:0.374574589 13:0.578947368 14:0.140306122 15:0.468069584 16:0.194085261 17:0.949019608 18:0.467248908 19:0.741974552 20:0.127765729 21:0.880000000 22:1.000000000 
0.031250 1:0.020002267 2:0.000326973 3:0.000003689 4:0.000012461 5:0.823445841 6:0.319745815 7:0.648730897 8:0.001210765 9:0.099489796 10:0.107142857 11:0.882397498 12:0.315420031 13:0.650000000 14:0.099489796 15:0.324308717 16:0.198101783 17:0.972549020 18:0.467248908 19:0.762647555 20:0.096673935 21:0.928571429 22:1.000000000 
0.031250 1:0.012145727 2:0.001085231 3:0.000001654 4:0.000011800 5:0.823445841 6:0.319745681 7:0.648730897 8:0.000607030 9:0.173469388 10:0.184948980 11:0.887607897 12:0.416496564 13:0.647619048 14:0.173469388 15:0.429908154 16:0.257563569 17:0.976470588 18:0.462882096 19:0.719057664 20:0.131551684 21:0.937931034 22:1.000000000 
0.031250 1:0.041686271 2:0.001683386 3:0.000004143 4:0.000006534 5:0.823445841 6:0.319746093 7:0.648730897 8:0.003364447 9:0.125000000 10:0.139030612 11:0.949663311 12:0.353553391 13:0.576470588 14:0.125000000 15:0.435993901 16:0.186753256 17:0.556862745 18:0.248908297 19:0.382314287 20:0.122474195 21:0.899082569 22:1.000000000 
0.031250 1:0.014010471 2:0.001643040 3:0.000000986 4:0.000001834 5:0.823445841 6:0.319745941 7:0.648730897 8:0.000795012 9:0.144132653 10:0.153061224 11:0.954515085 12:0.379648065 13:0.807142857 14:0.144132653 15:0.476723185 16:0.196127669 17:0.984313725 18:0.493449782 19:0.791935598 20:0.130920692 21:0.941666667 22:1.000000000 
0.031250 1:0.014343061 2:0.000600116 3:0.000001378 4:0.000005463 5:0.823445841 6:0.319745956 7:0.648730897 8:0.000816635 9:0.141581633 10:0.151785714 11:0.847072298 12:0.376273348 13:0.720779221 14:0.141581633 15:0.363814555 16:0.248661608 17:0.980392157 18:0.445414847 19:0.730587143 20:0.115920677 21:0.932773109 22:1.000000000 
0.031250 1:0.021829010 2:0.000606696 3:0.000000214 4:0.000024630 5:0.823445841 6:0.319745767 7:0.648730897 8:0.001333686 9:0.119897959 10:0.126275510 11:0.858753194 12:0.346262847 13:0.783333333 14:0.119897959 15:0.340231957 16:0.224781397 17:0.823529412 18:0.410480349 19:0.630298967 20:0.102983861 21:0.949494949 22:1.000000000 
0.031250 1:0.014563844 2:0.001144438 3:0.000000196 4:0.000007126 5:0.823445841 6:0.319746146 7:0.648730897 8:0.000821601 9:0.168367347 10:0.183673469 11:0.913208491 12:0.410325903 13:0.694736842 14:0.168367347 15:0.448300759 16:0.240577948 17:0.941176471 18:0.419213974 19:0.674799747 20:0.133518033 21:0.916666667 22:1.000000000 
0.031250 1:0.014575101 2:0.000187153 3:0.000001494 4:0.000012696 5:0.823445841 6:0.319746136 7:0.648730897 8:0.000836658 9:0.127551020 10:0.128826531 11:0.837912749 12:0.357142857 13:0.892857143 14:0.127551020 15:0.340268113 16:0.238407065 17:0.972549020 18:0.480349345 19:0.768120784 20:0.102887011 21:0.990099010 22:1.000000000 
0.031250 1:0.029410300 2:0.000198266 3:0.000024628 4:0.000070164 5:0.823445842 6:0.319745851 7:0.648730887 8:0.002018671 9:0.081632653 10:0.090561224 11:0.925950969 12:0.285714286 13:0.547008547 14:0.081632653 15:0.324582629 16:0.162913458 17:0.843137255 18:0.406113537 19:0.655489171 20:0.090193788 21:0.901408451 22:1.000000000 
0.031250 1:0.038885180 2:0.001156168 3:0.000009119 4:0.000070972 5:0.823445845 6:0.319746731 7:0.648730891 8:0.003112219 9:0.103316327 10:0.110969388 11:0.906722032 12:0.321428571 13:0.675000000 14:0.103316327 15:0.345595919 16:0.191222397 17:0.662745098 18:0.292576419 19:0.460827712 20:0.097839070 21:0.931034483 22:1.000000000 
0.031250 1:0.013878268 2:0.000950260 3:0.000001274 4:0.000016470 5:0.823445841 6:0.319745593 7:0.648730897 8:0.000774868 9:0.149234694 10:0.158163265 11:0.893960880 12:0.386309065 13:0.688235294 14:0.149234694 15:0.402902730 16:0.235454479 17:0.988235294 18:0.489082969 19:0.753232153 20:0.119222382 21:0.943548387 22:1.000000000 
0.031250 1:0.020513201 2:0.002034003 3:0.000003725 4:0.000004094 5:0.823445841 6:0.319745972 7:0.648730897 8:0.001111885 9:0.183673469 10:0.200255102 11:0.912248809 12:0.428571429 13:0.541353383 14:0.183673469 15:0.474825683 16:0.256002357 17:0.768627451 18:0.340611354 19:0.536471508 20:0.141577129 21:0.917197452 22:1.000000000 
0.031250 1:0.013359027 2:0.001867082 3:0.000000793 4:0.000003150 5:0.823445841 6:0.319745992 7:0.648730897 8:0.000632908 9:0.183673469 10:0.198979592 11:0.923659408 12:0.428571429 13:0.571428571 14:0.183673469 15:0.482276731 16:0.245176578 17:0.890196078 18:0.436681223 19:0.680023451 20:0.137717803 21:0.923076923 22:1.000000000 
0.031250 1:0.014328480 2:0.000982192 3:0.000005655 4:0.000024215 5:0.823445841 6:0.319745603 7:0.648730898 8:0.000801129 9:0.173469388 10:0.186224490 11:0.906093688 12:0.416496564 13:0.680000000 14:0.173469388 15:0.449964034 16:0.249682304 17:0.933333333 18:0.427947598 19:0.673328849 20:0.134659690 21:0.931506849 22:1.000000000 
0.031250 1:0.064299026 2:0.003080559 3:0.000062211 4:0.000119605 5:0.823445856 6:0.319751469 7:0.648730853 8:0.006074942 9:0.118622449 10:0.133928571 11:0.954042621 12:0.344416099 13:0.455882353 14:0.118622449 15:0.436598409 16:0.180354867 17:0.356862745 18:0.183406114 19:0.264262498 20:0.124006187 21:0.885714286 22:1.000000000 
0.031250 1:0.014218624 2:0.001520822 3:0.000000164 4:0.000014853 5:0.823445841 6:0.319745559 7:0.648730897 8:0.000807356 9:0.145408163 10:0.165816327 11:0.959559868 12:0.381324223 13:0.678571429 14:0.145408163 15:0.491915177 16:0.193289491 17:0.976470588 18:0.441048035 19:0.790505458 20:0.134780018 21:0.876923077 22:1.000000000 
0.031250 1:0.015122787 2:0.000472766 3:0.000001359 4:0.000021490 5:0.823445841 6:0.319745644 7:0.648730897 8:0.000928762 9:0.135204082 10:0.141581633 11:0.854951280 12:0.367701076 13:0.757142857 14:0.135204082 15:0.359094656 16:0.239952936 17:0.956862745 18:0.454148472 19:0.724487138 20:0.111163286 21:0.954954955 22:1.000000000 
0.031250 1:0.021074733 2:0.002015923 3:0.000000912 4:0.000003635 5:0.823445841 6:0.319746025 7:0.648730897 8:0.001405145 9:0.188775510 10:0.201530612 11:0.877005050 12:0.434483038 13:0.778947368 14:0.188775510 15:0.437814697 16:0.272618463 17:0.721568627 18:0.318777293 19:0.503086402 20:0.138178574 21:0.936708861 22:1.000000000 
0.031250 1:0.015931285 2:0.003018824 3:0.000004525 4:0.000030885 5:0.823445840 6:0.319744834 7:0.648730897 8:0.000960109 9:0.156887755 10:0.178571429 11:0.934473875 12:0.396090590 13:0.683333333 14:0.156887755 15:0.469639214 16:0.224012573 17:0.913725490 18:0.419213974 19:0.680898593 20:0.133711733 21:0.878571429 22:1.000000000 
0.031250 1:0.017610865 2:0.000220749 3:0.000000906 4:0.000012962 5:0.823445841 6:0.319745946 7:0.648730897 8:0.001069450 9:0.105867347 10:0.110969388 11:0.843292336 12:0.325372628 13:0.798076923 14:0.105867347 15:0.314844636 16:0.217444463 17:0.972549020 18:0.484716157 19:0.783215069 20:0.094707586 21:0.954022989 22:1.000000000 
0.031250 1:0.023324315 2:0.001996390 3:0.000006176 4:0.000028276 5:0.823445840 6:0.319747039 7:0.648730898 8:0.001544858 9:0.155612245 10:0.161989796 11:0.916853018 12:0.394477179 13:0.847222222 14:0.155612245 15:0.432794117 16:0.228079785 17:0.682352941 18:0.331877729 19:0.518995522 20:0.124827944 21:0.960629921 22:1.000000000 
0.031250 1:0.040967335 2:0.000267602 3:0.000003747 4:0.000042451 5:0.823445843 6:0.319746558 7:0.648730897 8:0.003143751 9:0.091836735 10:0.105867347 11:0.939769516 12:0.303045763 13:0.553846154 14:0.091836735 15:0.361464736 16:0.166526377 17:0.611764706 18:0.314410480 19:0.479210582 20:0.102182647 21:0.867469880 22:1.000000000 
0.031250 1:0.021349799 2:0.001954881 3:0.000001132 4:0.000020890 5:0.823445841 6:0.319746759 7:0.648730897 8:0.001216496 9:0.165816327 10:0.186224490 11:0.925929473 12:0.407205509 13:0.622009569 14:0.165816327 15:0.466032863 16:0.233938138 17:0.764705882 18:0.362445415 19:0.534991568 20:0.139003266 21:0.890410959 22:1.000000000 
0.031250 1:0.014349712 2:0.002050765 3:0.000002461 4:0.000002968 5:0.823445841 6:0.319745928 7:0.648730897 8:0.000689946 9:0.176020408 10:0.197704082 11:0.950938877 12:0.419547862 13:0.492857143 14:0.176020408 15:0.521114541 16:0.220932552 17:0.960784314 18:0.436681223 19:0.714832007 20:0.149222412 21:0.890322581 22:1.000000000 
0.031250 1:0.035176377 2:0.001074617 3:0.000023658 4:0.000075069 5:0.823445835 6:0.319748021 7:0.648730906 8:0.002459942 9:0.135204082 10:0.146683673 11:0.930818763 12:0.367701076 13:0.540816327 14:0.135204082 15:0.422522667 16:0.206133320 17:0.603921569 18:0.283842795 19:0.435824597 20:0.120387517 21:0.921739130 22:1.000000000 
0.031250 1:0.044788451 2:0.002166314 3:0.000018825 4:0.000149731 5:0.823445863 6:0.319743316 7:0.648730883 8:0.003645293 9:0.114795918 10:0.131377551 11:0.965383524 12:0.338815464 13:0.714285714 14:0.114795918 15:0.458444795 16:0.169775563 17:0.541176471 18:0.248908297 19:0.405656268 20:0.123008338 21:0.873786408 22:1.000000000 
0.031250 1:0.021828144 2:0.005819624 3:0.000014085 4:0.000003504 5:0.823445841 6:0.319746153 7:0.648730897 8:0.001078710 9:0.191326531 10:0.214285714 11:0.967592456 12:0.437408883 13:0.416666667 14:0.191326531 15:0.589224105 16:0.212915229 17:0.733333333 18:0.340611354 19:0.529508853 20:0.161407906 21:0.892857143 22:1.000000000 
0.031250 1:0.053456629 2:0.000686888 3:0.000249401 4:0.000023619 5:0.823445839 6:0.319745696 7:0.648730890 8:0.004868767 9:0.110969388 10:0.118622449 11:0.878823435 12:0.333120680 13:0.608391608 14:0.110969388 15:0.338535324 16:0.209459228 17:0.447058824 18:0.200873362 19:0.307102983 20:0.100897183 21:0.935483871 22:1.000000000 
0.031250 1:0.033929045 2:0.003187594 3:0.000016473 4:0.000043667 5:0.823445844 6:0.319747478 7:0.648730901 8:0.002247549 9:0.154336735 10:0.186224490 11:0.963475282 12:0.392857143 13:0.523809524 14:0.154336735 15:0.527022589 16:0.199161801 17:0.549019608 18:0.262008734 19:0.418315262 20:0.148808598 21:0.828767123 22:1.000000000 
0.031250 1:0.029490360 2:0.001133394 3:0.000006903 4:0.000085229 5:0.823445835 6:0.319747782 7:0.648730900 8:0.002168488 9:0.088010204 10:0.093112245 11:0.900740961 12:0.296665138 13:0.663461538 14:0.088010204 15:0.315334502 16:0.179156455 17:0.827450980 18:0.414847162 19:0.632176113 20:0.091188702 21:0.945205479 22:1.000000000 
0.031250 1:0.026253856 2:0.008615078 3:0.000005392 4:0.000023061 5:0.823445842 6:0.319744543 7:0.648730898 8:0.001996062 9:0.196428571 10:0.224489796 11:0.980920927 12:0.443202630 13:0.740384615 14:0.196428571 15:0.658006008 16:0.198063732 17:0.631372549 18:0.301310044 19:0.493975302 20:0.172812730 21:0.875000000 22:1.000000000 
0.031250 1:0.027792451 2:0.000820594 3:0.000001733 4:0.000051140 5:0.823445842 6:0.319744846 7:0.648730896 8:0.001971331 9:0.096938776 10:0.108418367 11:0.892390314 12:0.311349925 13:0.633333333 14:0.096938776 15:0.332991846 16:0.195825148 17:0.909803922 18:0.414847162 19:0.658700464 20:0.097815592 21:0.894117647 22:1.000000000 
0.031250 1:0.026205429 2:0.000762878 3:0.000008937 4:0.000056486 5:0.823445840 6:0.319746756 7:0.648730892 8:0.001802071 9:0.088010204 10:0.095663265 11:0.878272177 12:0.296665138 13:0.627272727 14:0.088010204 15:0.301948078 16:0.187185280 17:0.937254902 18:0.427947598 19:0.688292763 20:0.087426225 21:0.920000000 22:1.000000000 
0.031250 1:0.019158382 2:0.001105301 3:0.000000058 4:0.000036390 5:0.823445841 6:0.319745004 7:0.648730897 8:0.001196509 9:0.142857143 10:0.154336735 11:0.882823782 12:0.377964473 13:0.777777778 14:0.142857143 15:0.387891949 16:0.236573197 17:0.909803922 18:0.384279476 19:0.616972002 20:0.116721891 21:0.925619835 22:1.000000000 
0.031250 1:0.024016317 2:0.006412002 3:0.000011299 4:0.000049307 5:0.823445842 6:0.319744108 7:0.648730892 8:0.001646509 9:0.179846939 10:0.223214286 11:0.965226268 12:0.424083646 13:0.534090909 14:0.179846939 15:0.595742701 16:0.220996502 17:0.686274510 18:0.331877729 19:0.540277080 20:0.160653650 21:0.805714286 22:1.000000000 
0.031250 1:0.036408866 2:0.000761551 3:0.000008632 4:0.000038705 5:0.823445840 6:0.319746214 7:0.648730900 8:0.002407588 9:0.121173469 10:0.132653061 11:0.890954666 12:0.348099798 13:0.678571429 14:0.121173469 15:0.363401826 16:0.214922544 17:0.592156863 18:0.288209607 19:0.427617156 20:0.109827930 21:0.913461538 22:1.000000000 
0.031250 1:0.030187892 2:0.000320370 3:0.000001606 4:0.000047889 5:0.823445842 6:0.319746528 7:0.648730898 8:0.001932435 9:0.089285714 10:0.095663265 11:0.810529713 12:0.298807152 13:0.795454545 14:0.089285714 15:0.277387792 16:0.207646796 17:0.768627451 18:0.371179039 19:0.591318357 20:0.084561812 21:0.933333333 22:1.000000000 
0.031250 1:0.032921258 2:0.000801011 3:0.000002332 4:0.000008981 5:0.823445841 6:0.319746038 7:0.648730897 8:0.002171582 9:0.127551020 10:0.144132653 11:0.935822342 12:0.357142857 13:0.476190476 14:0.127551020 15:0.422374667 16:0.199742064 17:0.556862745 18:0.301310044 19:0.437434654 20:0.121796245 21:0.884955752 22:1.000000000 
0.031250 1:0.030409760 2:0.000508014 3:0.000007015 4:0.000003749 5:0.823445841 6:0.319746007 7:0.648730897 8:0.001956413 9:0.156887755 10:0.174744898 11:0.863164248 12:0.396090590 13:0.723529412 14:0.156887755 15:0.396875381 16:0.258669299 17:0.576470588 18:0.283842795 19:0.417562107 20:0.134586318 21:0.897810219 22:1.000000000 
0.031250 1:0.050334423 2:0.001673943 3:0.000042490 4:0.000042373 5:0.823445844 6:0.319744570 7:0.648730904 8:0.004085269 9:0.125000000 10:0.147959184 11:0.981440020 12:0.353553391 13:0.666666667 14:0.125000000 15:0.527333256 16:0.157351263 17:0.396078431 18:0.222707424 19:0.318853891 20:0.134706647 21:0.844827586 22:1.000000000 
0.031250 1:0.054285655 2:0.000056726 3:0.000047624 4:0.000054196 5:0.823445849 6:0.319746333 7:0.648730903 8:0.004615887 9:0.065051020 10:0.068877551 11:0.942265855 12:0.255051015 13:0.784615385 14:0.065051020 15:0.305126522 16:0.138156295 17:0.435294118 18:0.244541485 19:0.361558873 20:0.079343650 21:0.944444444 22:1.000000000 
0.031250 1:0.021204728 2:0.000409631 3:0.000000667 4:0.000048764 5:0.823445841 6:0.319745482 7:0.648730898 8:0.001288629 9:0.149234694 10:0.156887755 11:0.877854501 12:0.386309065 13:0.764705882 14:0.149234694 15:0.392644869 16:0.243767745 17:0.803921569 18:0.358078603 19:0.593240585 20:0.119683154 21:0.951219512 22:1.000000000 
0.031250 1:0.022138401 2:0.000652883 3:0.000000367 4:0.000017401 5:0.823445841 6:0.319745637 7:0.648730897 8:0.001260761 9:0.167091837 10:0.179846939 11:0.837127705 12:0.408768684 13:0.682291667 14:0.167091837 15:0.388934129 16:0.273065768 17:0.686274510 18:0.336244541 19:0.500345957 20:0.128349764 21:0.929078014 22:1.000000000 
0.031250 1:0.014179355 2:0.000223561 3:0.000001788 4:0.000012437 5:0.823445841 6:0.319745907 7:0.648730897 8:0.000761316 9:0.123724490 10:0.130102041 11:0.836858457 12:0.351744921 13:0.692857143 14:0.123724490 15:0.333553349 16:0.234348329 17:1.000000000 18:0.502183406 19:0.810013951 20:0.101140776 21:0.950980392 22:1.000000000 
0.031250 1:0.019193852 2:0.000384162 3:0.000000083 4:0.000034958 5:0.823445841 6:0.319745858 7:0.648730897 8:0.001043997 9:0.130102041 10:0.137755102 11:0.898623883 12:0.360696605 13:0.680000000 14:0.130102041 15:0.380545209 16:0.218160277 17:0.905882353 18:0.432314410 19:0.680602743 20:0.108518987 21:0.944444444 22:1.000000000 
0.031250 1:0.030397850 2:0.000536248 3:0.000002868 4:0.000008913 5:0.823445841 6:0.319745906 7:0.648730897 8:0.001852955 9:0.167091837 10:0.186224490 11:0.899257203 12:0.408768684 13:0.550420168 14:0.167091837 15:0.441910706 16:0.252663818 17:0.533333333 18:0.275109170 19:0.401820540 20:0.136843217 21:0.897260274 22:1.000000000 
0.031250 1:0.021526699 2:0.001832951 3:0.000003312 4:0.000020979 5:0.823445841 6:0.319745872 7:0.648730898 8:0.001321631 9:0.187500000 10:0.205357143 11:0.912664247 12:0.433012702 13:0.703349282 14:0.187500000 15:0.471372230 16:0.253629875 17:0.721568627 18:0.323144105 19:0.505082682 20:0.141914637 21:0.913043478 22:1.000000000 
0.031250 1:0.015735132 2:0.000585306 3:0.000003417 4:0.000003971 5:0.823445841 6:0.319745919 7:0.648730897 8:0.000800303 9:0.118622449 10:0.126275510 11:0.928914780 12:0.344416099 13:0.510989011 14:0.118622449 15:0.398935605 16:0.196841466 17:1.000000000 18:0.510917031 19:0.800522222 20:0.115169355 21:0.939393939 22:1.000000000 
0.031250 1:0.019708381 2:0.000630307 3:0.000025089 4:0.000006303 5:0.823445841 6:0.319745915 7:0.648730897 8:0.000976455 9:0.144132653 10:0.179846939 11:0.944769512 12:0.379648065 13:0.495614035 14:0.144132653 15:0.482237866 16:0.214442548 17:0.858823529 18:0.410480349 19:0.658909624 20:0.136552667 21:0.801418440 22:1.000000000 
0.031250 1:0.013496553 2:0.000549586 3:0.000000183 4:0.000004549 5:0.823445841 6:0.319745923 7:0.648730897 8:0.000723202 9:0.136479592 10:0.141581633 11:0.889522596 12:0.369431444 13:0.835937500 14:0.136479592 15:0.382389942 16:0.227417491 17:1.000000000 18:0.506550218 19:0.818979409 20:0.110071522 21:0.963963964 22:1.000000000 
0.031250 1:0.026267305 2:0.000939556 3:0.000005562 4:0.000029302 5:0.823445842 6:0.319745489 7:0.648730897 8:0.001632017 9:0.093112245 10:0.105867347 11:0.915591898 12:0.305142991 13:0.651785714 14:0.093112245 15:0.346259958 16:0.183641490 17:0.909803922 18:0.436681223 19:0.667188836 20:0.096406864 21:0.879518072 22:1.000000000 
0.031250 1:0.024143840 2:0.000559862 3:0.000008065 4:0.000026437 5:0.823445841 6:0.319745721 7:0.648730895 8:0.001546582 9:0.089285714 10:0.094387755 11:0.926376955 12:0.298807152 13:0.714285714 14:0.089285714 15:0.336531818 16:0.168503358 17:0.933333333 18:0.480349345 19:0.737650566 20:0.092013395 21:0.945945946 22:1.000000000 
0.031250 1:0.017490922 2:0.002920237 3:0.000014051 4:0.000010179 5:0.823445841 6:0.319745573 7:0.648730897 8:0.000923561 9:0.168367347 10:0.201530612 11:0.967652246 12:0.410325903 13:0.500000000 14:0.168367347 15:0.575672834 16:0.207876604 17:0.956862745 18:0.414847162 19:0.683736873 20:0.158153158 21:0.835443038 22:1.000000000 
0.031250 1:0.013573548 2:0.001862775 3:0.000009477 4:0.000003260 5:0.823445841 6:0.319745921 7:0.648730897 8:0.000661288 9:0.186224490 10:0.204081633 11:0.918299976 12:0.431537356 13:0.695238095 14:0.186224490 15:0.478258995 16:0.250178293 17:0.956862745 18:0.445414847 19:0.703929549 20:0.142839114 21:0.912500000 22:1.000000000 
0.031250 1:0.024196132 2:0.000245405 3:0.000001440 4:0.000009254 5:0.823445841 6:0.319746053 7:0.648730897 8:0.001642376 9:0.094387755 10:0.094387755 11:0.902019132 12:0.307225902 13:0.880952381 14:0.094387755 15:0.325274524 16:0.183785932 17:0.956862745 18:0.436681223 19:0.719551866 20:0.090023567 21:1.000000000 22:1.000000000 
0.031250 1:0.018344973 2:0.000677783 3:0.000007169 4:0.000008508 5:0.823445841 6:0.319745998 7:0.648730897 8:0.001007802 9:0.158163265 10:0.172193878 11:0.877628643 12:0.397697454 13:0.645833333 14:0.158163265 15:0.403326143 16:0.250597182 17:0.890196078 18:0.388646288 19:0.602181703 20:0.125872751 21:0.918518519 22:1.000000000 
0.031250 1:0.036098657 2:0.000551931 3:0.000008305 4:0.000309953 5:0.823445884 6:0.319749387 7:0.648730880 8:0.002875739 9:0.077806122 10:0.077806122 11:0.852055402 12:0.278937488 13:0.847222222 14:0.077806122 15:0.270428461 16:0.182237626 17:0.831372549 18:0.366812227 19:0.594398792 20:0.078251886 21:1.000000000 22:1.000000000 
0.031250 1:0.050600492 2:0.000002770 3:0.000006612 4:0.000127780 5:0.823445830 6:0.319745859 7:0.648730898 8:0.004265989 9:0.094387755 10:0.107142857 11:0.917453777 12:0.307225902 13:0.513888889 14:0.094387755 15:0.354555962 16:0.186277400 17:0.529411765 18:0.240174672 19:0.357498519 20:0.101407847 21:0.880952381 22:1.000000000 
0.031250 1:0.031907462 2:0.000373650 3:0.000018513 4:0.000073578 5:0.823445849 6:0.319746627 7:0.648730901 8:0.002009232 9:0.089285714 10:0.091836735 11:0.894935302 12:0.298807152 13:0.833333333 14:0.089285714 15:0.313516648 16:0.182496659 17:0.811764706 18:0.362445415 19:0.592962539 20:0.089222353 21:0.972222222 22:1.000000000 
0.031250 1:0.050592996 2:0.000898435 3:0.000033012 4:0.000186426 5:0.823445882 6:0.319741910 7:0.648730891 8:0.003848092 9:0.114795918 10:0.125000000 11:0.876464796 12:0.338815464 13:0.576923077 14:0.114795918 15:0.349167503 16:0.217828000 17:0.517647059 18:0.196506550 19:0.348383924 20:0.111042957 21:0.918367347 22:1.000000000 
0.031250 1:0.020521118 2:0.001994794 3:0.000010278 4:0.000251477 5:0.823445824 6:0.319754105 7:0.648730858 8:0.001110021 9:0.119897959 10:0.132653061 11:0.935297575 12:0.346262847 13:0.789915966 14:0.119897959 15:0.406975538 16:0.193108909 17:0.658823529 18:0.327510917 19:0.500426070 20:0.115022613 21:0.903846154 22:1.000000000 
0.031250 1:0.015340998 2:0.003203092 3:0.000005405 4:0.000003685 5:0.823445841 6:0.319746145 7:0.648730897 8:0.000911161 9:0.181122449 10:0.202806122 11:0.976885615 12:0.425584832 13:0.811428571 14:0.181122449 15:0.610168532 16:0.195599709 17:0.886274510 18:0.449781659 19:0.703032593 20:0.159415143 21:0.893081761 22:1.000000000 
0.031250 1:0.018009163 2:0.000256787 3:0.000004512 4:0.000007326 5:0.823445841 6:0.319745933 7:0.648730897 8:0.001018140 9:0.112244898 10:0.122448980 11:0.872107807 12:0.335029697 13:0.676923077 14:0.112244898 15:0.337898033 16:0.213949221 17:0.968627451 18:0.467248908 19:0.740022085 20:0.101357955 21:0.916666667 22:1.000000000 
0.031250 1:0.023455526 2:0.001102047 3:0.000001225 4:0.000002753 5:0.823445841 6:0.319745990 7:0.648730897 8:0.001419107 9:0.153061224 10:0.170918367 11:0.923294317 12:0.391230398 13:0.606060606 14:0.153061224 15:0.441395408 16:0.224843664 17:0.686274510 18:0.323144105 19:0.511785940 20:0.130459920 21:0.895522388 22:1.000000000 
0.031250 1:0.034675210 2:0.000133794 3:0.000000871 4:0.000005584 5:0.823445841 6:0.319746018 7:0.648730897 8:0.001887450 9:0.068877551 10:0.075255102 11:0.927446672 12:0.262445330 13:0.642857143 14:0.068877551 15:0.299513581 16:0.149052533 17:0.447058824 18:0.292576419 19:0.367048435 20:0.080775857 21:0.915254237 22:1.000000000 
0.031250 1:0.042378062 2:0.002860397 3:0.000017211 4:0.000087714 5:0.823445842 6:0.319746615 7:0.648730881 8:0.003597474 9:0.112244898 10:0.128826531 11:0.970570772 12:0.335029697 13:0.661654135 14:0.112244898 15:0.459505038 16:0.160293558 17:0.556862745 18:0.257641921 19:0.422582832 20:0.120507846 21:0.871287129 22:1.000000000 
0.031250 1:0.024011360 2:0.000292841 3:0.000000779 4:0.000059833 5:0.823445842 6:0.319745512 7:0.648730899 8:0.001685953 9:0.086734694 10:0.093112245 11:0.900064166 12:0.294507545 13:0.629629630 14:0.086734694 15:0.311690301 16:0.177599768 17:0.937254902 18:0.445414847 19:0.724890884 20:0.088761582 21:0.931506849 22:1.000000000 
0.031250 1:0.018896307 2:0.000746165 3:0.000007998 4:0.000023552 5:0.823445842 6:0.319745467 7:0.648730898 8:0.001194563 9:0.117346939 10:0.127551020 11:0.829527902 12:0.342559395 13:0.730158730 14:0.117346939 15:0.324169656 16:0.232051988 17:0.972549020 18:0.427947598 19:0.693326582 20:0.102426240 21:0.920000000 22:1.000000000 
0.031250 1:0.027245873 2:0.000296450 3:0.000000633 4:0.000011573 5:0.823445841 6:0.319746017 7:0.648730897 8:0.001839740 9:0.100765306 10:0.105867347 11:0.860678280 12:0.317435515 13:0.658333333 14:0.100765306 15:0.317038970 16:0.208232618 17:0.823529412 18:0.388646288 19:0.604809273 20:0.092864501 21:0.951807229 22:1.000000000 
0.031250 1:0.026062082 2:0.005367541 3:0.000110656 4:0.000027177 5:0.823445840 6:0.319747553 7:0.648730902 8:0.001408391 9:0.126275510 10:0.137755102 11:0.922113440 12:0.355352656 13:0.687500000 14:0.126275510 15:0.399196333 16:0.204657645 17:0.647058824 18:0.327510917 19:0.495787342 20:0.116721891 21:0.916666667 22:1.000000000 
0.031250 1:0.028471917 2:0.000457819 3:0.000006161 4:0.000025524 5:0.823445841 6:0.319745629 7:0.648730896 8:0.001883935 9:0.126275510 10:0.140306122 11:0.904932278 12:0.355352656 13:0.647058824 14:0.126275510 15:0.381586757 16:0.212850256 17:0.631372549 18:0.327510917 19:0.504423450 20:0.114004220 21:0.900000000 22:1.000000000 
0.031250 1:0.014076024 2:0.000018821 3:0.000001027 4:0.000000488 5:0.823445841 6:0.319745999 7:0.648730897 8:0.000454990 9:0.091836735 10:0.102040816 11:0.949054545 12:0.303045763 13:0.480000000 14:0.091836735 15:0.372311416 16:0.160246779 17:0.686274510 18:0.493449782 19:0.590135786 20:0.103397675 21:0.900000000 22:1.000000000 
0.031250 1:0.035270163 2:0.001633636 3:0.000007685 4:0.000002534 5:0.823445841 6:0.319745963 7:0.648730897 8:0.002470265 9:0.117346939 10:0.128826531 11:0.941729475 12:0.342559395 13:0.471794872 14:0.117346939 15:0.410787381 16:0.186701941 17:0.576470588 18:0.292576419 19:0.457332832 20:0.114150963 21:0.910891089 22:1.000000000 
0.031250 1:0.021661125 2:0.000625304 3:0.000001350 4:0.000000572 5:0.823445841 6:0.319746000 7:0.648730897 8:0.001309550 9:0.139030612 10:0.150510204 11:0.889284088 12:0.372868090 13:0.801470588 14:0.139030612 15:0.392996108 16:0.233940888 17:0.768627451 18:0.371179039 19:0.575991692 20:0.118080726 21:0.923728814 22:1.000000000 
0.031250 1:0.050348009 2:0.001257474 3:0.000006359 4:0.000012011 5:0.823445841 6:0.319745914 7:0.648730896 8:0.004229209 9:0.125000000 10:0.136479592 11:0.926214009 12:0.353553391 13:0.823529412 14:0.125000000 15:0.407345450 16:0.204149026 17:0.411764706 18:0.192139738 19:0.304886731 20:0.113396707 21:0.915887850 22:1.000000000 
0.031250 1:0.057025121 2:0.000132098 3:0.000001531 4:0.000095025 5:0.823445838 6:0.319746783 7:0.648730898 8:0.005225953 9:0.065051020 10:0.068877551 11:0.937746286 12:0.255051015 13:0.850000000 14:0.065051020 15:0.303195124 16:0.141592255 17:0.525490196 18:0.266375546 19:0.407821645 20:0.079270279 21:0.944444444 22:1.000000000 
0.031250 1:0.010560449 2:0.001058057 3:0.000000036 4:0.000002773 5:0.823445841 6:0.319746000 7:0.648730897 8:0.000582453 9:0.170918367 10:0.177295918 11:0.903321467 12:0.413422747 13:0.827160494 14:0.170918367 15:0.440722716 16:0.247601019 17:1.000000000 18:0.489082969 19:0.812857875 20:0.127328436 21:0.964028777 22:1.000000000 
0.031250 1:0.025990226 2:0.001575682 3:0.000010378 4:0.000062049 5:0.823445846 6:0.319746978 7:0.648730898 8:0.001639019 9:0.121173469 10:0.142857143 11:0.930979703 12:0.348099798 13:0.558823529 14:0.121173469 15:0.414522012 16:0.202034094 17:0.737254902 18:0.371179039 19:0.577713677 20:0.119489454 21:0.848214286 22:1.000000000 
0.031250 1:0.016375715 2:0.001642306 3:0.000001699 4:0.000016560 5:0.823445841 6:0.319745457 7:0.648730897 8:0.000909184 9:0.168367347 10:0.193877551 11:0.920625153 12:0.410325903 13:0.564102564 14:0.168367347 15:0.463046796 16:0.239290586 17:0.866666667 18:0.393013100 19:0.638054768 20:0.140411994 21:0.868421053 22:1.000000000 
0.031250 1:0.039753784 2:0.000195382 3:0.000003393 4:0.000017824 5:0.823445841 6:0.319745941 7:0.648730898 8:0.002785379 9:0.100765306 10:0.105867347 11:0.913726646 12:0.317435515 13:0.705357143 14:0.100765306 15:0.345329738 16:0.184849826 17:0.494117647 18:0.283842795 19:0.414635676 20:0.096673935 21:0.951807229 22:1.000000000 
0.031250 1:0.030821110 2:0.003305723 3:0.000007879 4:0.000006615 5:0.823445841 6:0.319746306 7:0.648730897 8:0.002122964 9:0.172193878 10:0.207908163 11:0.970047127 12:0.414962501 13:0.675000000 14:0.172193878 15:0.602847800 16:0.211644198 17:0.549019608 18:0.288209607 19:0.431201986 20:0.160653650 21:0.828220859 22:1.000000000 
0.031250 1:0.064733356 2:0.000745027 3:0.000034680 4:0.000075708 5:0.823445850 6:0.319747676 7:0.648730888 8:0.006164453 9:0.090561224 10:0.102040816 11:0.941306460 12:0.300933920 13:0.591666667 14:0.090561224 15:0.359066203 16:0.163678302 17:0.368627451 18:0.200873362 19:0.280263580 20:0.098373213 21:0.887500000 22:1.000000000 
0.031250 1:0.044671238 2:0.000871852 3:0.000003085 4:0.000082391 5:0.823445844 6:0.319747963 7:0.648730893 8:0.003572642 9:0.102040816 10:0.110969388 11:0.960452226 12:0.319438282 13:0.784313725 14:0.102040816 15:0.411211895 16:0.160192883 17:0.564705882 18:0.275109170 19:0.419883010 20:0.111089915 21:0.919540230 22:1.000000000 
0.031250 1:0.035429524 2:0.000537543 3:0.000001852 4:0.000037608 5:0.823445842 6:0.319745298 7:0.648730896 8:0.002571153 9:0.079081633 10:0.084183673 11:0.866810356 12:0.281214567 13:0.738095238 14:0.079081633 15:0.280320564 16:0.180603404 17:0.698039216 18:0.358078603 19:0.538602241 20:0.083202977 21:0.939393939 22:1.000000000 
0.031250 1:0.077021994 2:0.000192406 3:0.000050128 4:0.000149077 5:0.823445875 6:0.319746516 7:0.648730927 8:0.007337713 9:0.085459184 10:0.095663265 11:0.948939713 12:0.292334028 13:0.744444444 14:0.085459184 15:0.368222468 16:0.158630266 17:0.313725490 18:0.165938865 19:0.232823551 20:0.097765699 21:0.893333333 22:1.000000000 
0.031250 1:0.040829877 2:0.000665287 3:0.000021712 4:0.000003664 5:0.823445841 6:0.319745928 7:0.648730897 8:0.003278357 9:0.098214286 10:0.114795918 11:0.917213311 12:0.313391585 13:0.538461538 14:0.098214286 15:0.358662460 16:0.188666489 17:0.631372549 18:0.292576419 19:0.460958203 20:0.102790161 21:0.855555556 22:1.000000000 
0.031250 1:0.046806338 2:0.000642768 3:0.000004132 4:0.000135484 5:0.823445849 6:0.319744965 7:0.648730905 8:0.003981300 9:0.089285714 10:0.096938776 11:0.930039354 12:0.298807152 13:0.833333333 14:0.089285714 15:0.343700813 16:0.168463443 17:0.564705882 18:0.266375546 19:0.419618767 20:0.096066422 21:0.921052632 22:1.000000000 
0.031250 1:0.047859449 2:0.000437035 3:0.000001095 4:0.000015142 5:0.823445841 6:0.319745740 7:0.648730897 8:0.003829908 9:0.088010204 10:0.094387755 11:0.900555176 12:0.296665138 13:0.638888889 14:0.088010204 15:0.316170193 16:0.179774497 17:0.501960784 18:0.262008734 19:0.388825244 20:0.090945110 21:0.932432432 22:1.000000000 
0.031250 1:0.058356723 2:0.000822630 3:0.000054715 4:0.000079105 5:0.823445828 6:0.319745940 7:0.648730913 8:0.005541224 9:0.088010204 10:0.095663265 11:0.958446293 12:0.296665138 13:0.718750000 14:0.088010204 15:0.380011196 16:0.150899857 17:0.458823529 18:0.222707424 19:0.337593482 20:0.098566913 21:0.920000000 22:1.000000000 
0.031250 1:0.029516879 2:0.001218848 3:0.000015707 4:0.000018628 5:0.823445842 6:0.319745637 7:0.648730897 8:0.002102006 9:0.182397959 10:0.196428571 11:0.853116172 12:0.427080741 13:0.764705882 14:0.182397959 15:0.418385408 16:0.281078101 17:0.592156863 18:0.270742358 19:0.413776253 20:0.133154112 21:0.928571429 22:1.000000000 
0.031250 1:0.047407668 2:0.001224971 3:0.000001242 4:0.000023246 5:0.823445841 6:0.319745343 7:0.648730897 8:0.003492481 9:0.163265306 10:0.190051020 11:0.946290575 12:0.404061018 13:0.507936508 14:0.163265306 15:0.499571395 16:0.219649815 17:0.372549020 18:0.200873362 19:0.280731253 20:0.150581247 21:0.859060403 22:1.000000000 
0.031250 1:0.055198886 2:0.000143185 3:0.000020678 4:0.000123121 5:0.823445857 6:0.319746236 7:0.648730907 8:0.004487930 9:0.110969388 10:0.122448980 11:0.937446019 12:0.333120680 13:0.731092437 14:0.110969388 15:0.393861153 16:0.184298376 17:0.364705882 18:0.196506550 19:0.279463715 20:0.111236657 21:0.906250000 22:1.000000000 
0.031250 1:0.064753503 2:0.000874007 3:0.000010075 4:0.000071003 5:0.823445847 6:0.319744981 7:0.648730899 8:0.005988873 9:0.099489796 10:0.108418367 11:0.927792029 12:0.315420031 13:0.742857143 14:0.099489796 15:0.359971160 16:0.178782186 17:0.372549020 18:0.187772926 19:0.275716695 20:0.099658677 21:0.917647059 22:1.000000000 
0.031250 1:0.059643394 2:0.003752520 3:0.000011665 4:0.000160716 5:0.823445823 6:0.319739390 7:0.648730909 8:0.005364773 9:0.167091837 10:0.198979592 11:0.970635097 12:0.408768684 13:0.415873016 14:0.167091837 15:0.565741488 16:0.197197150 17:0.317647059 18:0.157205240 19:0.236586512 20:0.156189744 21:0.839743590 22:1.000000000 
0.031250 1:0.033310952 2:0.000414094 3:0.000012003 4:0.000111820 5:0.823445851 6:0.319744845 7:0.648730905 8:0.002394297 9:0.140306122 10:0.147959184 11:0.867469608 12:0.374574589 13:0.733333333 14:0.140306122 15:0.372525449 16:0.239499431 17:0.572549020 18:0.270742358 19:0.421321669 20:0.113663778 21:0.948275862 22:1.000000000 
0.031250 1:0.052776919 2:0.001028989 3:0.000002825 4:0.000002436 5:0.823445841 6:0.319746006 7:0.648730897 8:0.004633027 9:0.118622449 10:0.123724490 11:0.830385596 12:0.344416099 13:0.738095238 14:0.118622449 15:0.324824911 16:0.232023397 17:0.458823529 18:0.209606987 19:0.308726133 20:0.100533262 21:0.958762887 22:1.000000000 
0.031250 1:0.055153020 2:0.000156634 3:0.000061254 4:0.000254409 5:0.823445934 6:0.319743459 7:0.648730902 8:0.005300224 9:0.091836735 10:0.103316327 11:0.916937957 12:0.303045763 13:0.615384615 14:0.091836735 15:0.340458343 16:0.179341963 17:0.490196078 18:0.227074236 19:0.358351778 20:0.095872721 21:0.888888889 22:1.000000000 
0.031250 1:0.042405860 2:0.001840706 3:0.000026686 4:0.000150269 5:0.823445830 6:0.319745052 7:0.648730939 8:0.003804678 9:0.125000000 10:0.139030612 11:0.897407657 12:0.353553391 13:0.544444444 14:0.125000000 15:0.378521364 16:0.218107028 17:0.568627451 18:0.244541485 19:0.393513181 20:0.112451685 21:0.899082569 22:1.000000000 
0.031250 1:0.027081517 2:0.000486084 3:0.000000420 4:0.000013156 5:0.823445841 6:0.319746236 7:0.648730897 8:0.001683457 9:0.110969388 10:0.116071429 11:0.896575286 12:0.333120680 13:0.608391608 14:0.110969388 15:0.348875494 16:0.201719349 17:0.749019608 18:0.371179039 19:0.563746584 20:0.101965469 21:0.956043956 22:1.000000000 
0.031250 1:0.029124856 2:0.000094535 3:0.000002930 4:0.000043796 5:0.823445843 6:0.319746194 7:0.648730897 8:0.001959552 9:0.109693878 10:0.113520408 11:0.765835665 12:0.331200661 13:0.796296296 14:0.109693878 15:0.292730874 16:0.239395510 17:0.768627451 18:0.349344978 19:0.537609318 20:0.093615822 21:0.966292135 22:1.000000000 
0.031250 1:0.032475035 2:0.003472867 3:0.000008892 4:0.000010038 5:0.823445841 6:0.319745663 7:0.648730897 8:0.002219599 9:0.146683673 10:0.177295918 11:0.973880910 12:0.382993046 13:0.555555556 14:0.146683673 15:0.555071625 16:0.185582984 17:0.568627451 18:0.292576419 19:0.458762556 20:0.149149040 21:0.827338129 22:1.000000000 
0.031250 1:0.028898201 2:0.000184972 3:0.000005578 4:0.000007101 5:0.823445841 6:0.319745977 7:0.648730897 8:0.001899230 9:0.084183673 10:0.089285714 11:0.929226783 12:0.290144229 13:0.785714286 14:0.084183673 15:0.333981729 16:0.164489907 17:0.819607843 18:0.410480349 19:0.659852637 20:0.090581188 21:0.942857143 22:1.000000000 
0.031250 1:0.035426445 2:0.001492044 3:0.000033764 4:0.000026096 5:0.823445842 6:0.319745282 7:0.648730899 8:0.002237202 9:0.142857143 10:0.154336735 11:0.959716914 12:0.377964473 13:0.761904762 14:0.142857143 15:0.484630274 16:0.190140741 17:0.560784314 18:0.257641921 19:0.418642533 20:0.133080741 21:0.925619835 22:1.000000000 
0.031250 1:0.026401197 2:0.001919097 3:0.000001716 4:0.000035166 5:0.823445840 6:0.319747268 7:0.648730897 8:0.001441202 9:0.150510204 10:0.173469388 11:0.954906977 12:0.387956446 13:0.460937500 14:0.150510204 15:0.490919177 16:0.201279760 17:0.650980392 18:0.340611354 19:0.514399098 20:0.135000132 21:0.867647059 22:1.000000000 
0.031250 1:0.044556235 2:0.004672177 3:0.000048269 4:0.000086488 5:0.823445854 6:0.319743387 7:0.648730900 8:0.003810520 9:0.133928571 10:0.151785714 11:0.980730144 12:0.365962527 13:0.795454545 14:0.133928571 15:0.542168597 16:0.163713865 17:0.431372549 18:0.231441048 19:0.355299928 20:0.143784136 21:0.882352941 22:1.000000000 
0.031250 1:0.039949327 2:0.000266725 3:0.000001967 4:0.000092213 5:0.823445838 6:0.319745047 7:0.648730898 8:0.003034646 9:0.089285714 10:0.096938776 11:0.862123831 12:0.298807152 13:0.729166667 14:0.089285714 15:0.297296473 16:0.194396317 17:0.705882353 18:0.314410480 19:0.496777885 20:0.087886997 21:0.921052632 22:1.000000000 
0.031250 1:0.058131350 2:0.000093979 3:0.000003153 4:0.000069713 5:0.823445838 6:0.319745520 7:0.648730896 8:0.004944125 9:0.084183673 10:0.091836735 11:0.910340967 12:0.290144229 13:0.725274725 14:0.084183673 15:0.316743383 16:0.172337001 17:0.423529412 18:0.209606987 19:0.316255941 20:0.090047046 21:0.916666667 22:1.000000000 
0.031250 1:0.035524220 2:0.004412962 3:0.000003862 4:0.000009222 5:0.823445841 6:0.319746044 7:0.648730897 8:0.002612200 9:0.149234694 10:0.160714286 11:0.982217750 12:0.386309065 13:0.812500000 14:0.149234694 15:0.574993230 16:0.169292903 17:0.525490196 18:0.266375546 19:0.400505902 20:0.149269369 21:0.928571429 22:1.000000000 
0.031250 1:0.017657059 2:0.001943995 3:0.000033031 4:0.000028291 5:0.823445840 6:0.319746178 7:0.648730901 8:0.000898667 9:0.177295918 10:0.182397959 11:0.918433660 12:0.421065219 13:0.868750000 14:0.177295918 15:0.463683694 16:0.242386385 17:0.839215686 18:0.375545852 19:0.604266502 20:0.131745384 21:0.972027972 22:1.000000000 
0.031250 1:0.046035184 2:0.001401556 3:0.000026346 4:0.000028342 5:0.823445843 6:0.319745258 7:0.648730897 8:0.003518882 9:0.104591837 10:0.112244898 11:0.933219834 12:0.323406612 13:0.525641026 14:0.104591837 15:0.380837568 16:0.183088503 17:0.486274510 18:0.248908297 19:0.383325022 20:0.105534245 21:0.931818182 22:1.000000000 
0.031250 1:0.035788500 2:0.002231397 3:0.000006640 4:0.000016986 5:0.823445841 6:0.319746625 7:0.648730897 8:0.002437105 9:0.164540816 10:0.184948980 11:0.942848430 12:0.405636310 13:0.565789474 14:0.164540816 15:0.485569927 16:0.218949985 17:0.521568627 18:0.248908297 19:0.372235186 20:0.138736195 21:0.889655172 22:1.000000000 
0.031250 1:0.019158042 2:0.002133614 3:0.000010544 4:0.000020937 5:0.823445842 6:0.319745858 7:0.648730897 8:0.001155651 9:0.190051020 10:0.209183673 11:0.930390643 12:0.435948415 13:0.752525253 14:0.190051020 15:0.508194314 16:0.248567249 17:0.788235294 18:0.366812227 19:0.577118961 20:0.147449763 21:0.908536585 22:1.000000000 
0.031250 1:0.045936149 2:0.001603987 3:0.000019976 4:0.000078938 5:0.823445840 6:0.319746688 7:0.648730911 8:0.003540192 9:0.126275510 10:0.144132653 11:0.952142877 12:0.355352656 13:0.611111111 14:0.126275510 15:0.446989310 16:0.187638198 17:0.427450980 18:0.235807860 19:0.351298610 20:0.121382431 21:0.876106195 22:1.000000000 
0.031250 1:0.038686881 2:0.007857353 3:0.000411680 4:0.000083650 5:0.823445885 6:0.319742550 7:0.648730879 8:0.002379605 9:0.105867347 10:0.118622449 11:0.902927379 12:0.325372628 13:0.741071429 14:0.105867347 15:0.355493864 16:0.200065159 17:0.674509804 18:0.305676856 19:0.475673774 20:0.104853360 21:0.892473118 22:1.000000000 
0.031250 1:0.070571929 2:0.000256706 3:0.000020567 4:0.000234504 5:0.823445804 6:0.319743052 7:0.648730951 8:0.007222014 9:0.071428571 10:0.072704082 11:0.973285116 12:0.267261242 13:0.875000000 14:0.071428571 15:0.370526774 16:0.124867532 17:0.376470588 18:0.196506550 19:0.302191866 20:0.093542451 21:0.982456140 22:1.000000000 
0.031250 1:0.022880858 2:0.001189642 3:0.000005858 4:0.000018309 5:0.823445841 6:0.319745635 7:0.648730896 8:0.001508956 9:0.161989796 10:0.192602041 11:0.932489006 12:0.402479560 13:0.604761905 14:0.161989796 15:0.469244332 16:0.226612024 17:0.729411765 18:0.358078603 19:0.553972859 20:0.145289714 21:0.841059603 22:1.000000000 
0.031250 1:0.057893015 2:0.001263416 3:0.000020012 4:0.000141660 5:0.823445819 6:0.319750097 7:0.648730907 8:0.005256602 9:0.098214286 10:0.107142857 11:0.974830687 12:0.313391585 13:0.712962963 14:0.098214286 15:0.442774132 16:0.146139111 17:0.454901961 18:0.218340611 19:0.327074801 20:0.111430357 21:0.916666667 22:1.000000000 
0.031250 1:0.053666200 2:0.000336687 3:0.000012616 4:0.000169056 5:0.823445819 6:0.319745338 7:0.648730906 8:0.004671892 9:0.091836735 10:0.099489796 11:0.913576695 12:0.303045763 13:0.553846154 14:0.091836735 15:0.334412504 16:0.179137669 17:0.517647059 18:0.235807860 19:0.368685006 20:0.095946093 21:0.923076923 22:1.000000000 
0.031250 1:0.056146505 2:0.000693416 3:0.000006567 4:0.000124738 5:0.823445849 6:0.319748378 7:0.648730908 8:0.004876456 9:0.095663265 10:0.098214286 11:0.928611029 12:0.309294787 13:0.781250000 14:0.095663265 15:0.350957620 16:0.173476866 17:0.474509804 18:0.240174672 19:0.347525295 20:0.097475149 21:0.974025974 22:1.000000000 
0.031250 1:0.037045197 2:0.000277116 3:0.000001861 4:0.000020418 5:0.823445841 6:0.319746277 7:0.648730896 8:0.002868280 9:0.065051020 10:0.071428571 11:0.855580682 12:0.255051015 13:0.728571429 14:0.065051020 15:0.251215103 16:0.167554310 17:0.847058824 18:0.401746725 19:0.633896687 20:0.073057203 21:0.910714286 22:1.000000000 
0.031250 1:0.039744763 2:0.001097735 3:0.000021716 4:0.000162434 5:0.823445815 6:0.319744562 7:0.648730888 8:0.003060909 9:0.075255102 10:0.081632653 11:0.877782984 12:0.274326634 13:0.670454545 14:0.075255102 15:0.278765726 16:0.173110944 17:0.803921569 18:0.379912664 19:0.592532584 20:0.079951164 21:0.921875000 22:1.000000000 
0.031250 1:0.024986101 2:0.001168075 3:0.000002531 4:0.000047768 5:0.823445842 6:0.319745206 7:0.648730898 8:0.001746287 9:0.130102041 10:0.147959184 11:0.918755843 12:0.360696605 13:0.708333333 14:0.130102041 15:0.414223984 16:0.216170559 17:0.737254902 18:0.349344978 19:0.552815941 20:0.123081709 21:0.879310345 22:1.000000000 
0.031250 1:0.064626892 2:0.000656169 3:0.000016161 4:0.000087035 5:0.823445843 6:0.319747502 7:0.648730882 8:0.005930389 9:0.107142857 10:0.130102041 11:0.957321797 12:0.327326835 13:0.477272727 14:0.107142857 15:0.432066238 16:0.173364854 17:0.388235294 18:0.183406114 19:0.261258582 20:0.116528191 21:0.823529412 22:1.000000000 
0.031250 1:0.042559163 2:0.001420464 3:0.000010001 4:0.000043118 5:0.823445844 6:0.319745457 7:0.648730896 8:0.003263510 9:0.127551020 10:0.150510204 11:0.952157567 12:0.357142857 13:0.617283951 14:0.127551020 15:0.448398220 16:0.188206641 17:0.521568627 18:0.248908297 19:0.384039840 20:0.123372259 21:0.847457627 22:1.000000000 
0.031250 1:0.044201105 2:0.000789644 3:0.000003590 4:0.000076132 5:0.823445843 6:0.319747250 7:0.648730892 8:0.003505411 9:0.123724490 10:0.135204082 11:0.940513083 12:0.351744921 13:0.505208333 14:0.123724490 15:0.417269607 16:0.191258721 17:0.486274510 18:0.244541485 19:0.371127501 20:0.116601562 21:0.915094340 22:1.000000000 
0.031250 1:0.034303249 2:0.000132997 3:0.000003658 4:0.000022694 5:0.823445841 6:0.319745787 7:0.648730897 8:0.002691929 9:0.082908163 10:0.082908163 11:0.866592552 12:0.287937777 13:0.902777778 14:0.082908163 15:0.286801647 16:0.184908279 17:0.874509804 18:0.388646288 19:0.623334739 20:0.082037842 21:1.000000000 22:1.000000000 
0.031250 1:0.059078860 2:0.000631658 3:0.000000914 4:0.000190978 5:0.823445843 6:0.319746299 7:0.648730886 8:0.005274102 9:0.125000000 10:0.139030612 11:0.912694912 12:0.353553391 13:0.538461538 14:0.125000000 15:0.395933768 16:0.213007226 17:0.372549020 18:0.183406114 19:0.276113544 20:0.114611734 21:0.899082569 22:1.000000000 
0.031250 1:0.025819356 2:0.013462222 3:0.000042119 4:0.000028318 5:0.823445839 6:0.319748701 7:0.648730895 8:0.001220937 9:0.160714286 10:0.195153061 11:0.944368289 12:0.400891863 13:0.437500000 14:0.160714286 15:0.510458222 16:0.227660166 17:0.705882353 18:0.327510917 19:0.508489420 20:0.147863576 21:0.823529412 22:1.000000000 
0.031250 1:0.021480379 2:0.000225369 3:0.000001368 4:0.000020915 5:0.823445841 6:0.319746066 7:0.648730897 8:0.001368630 9:0.116071429 10:0.122448980 11:0.863122193 12:0.340692572 13:0.700000000 14:0.116071429 15:0.335904993 16:0.218959751 17:0.945098039 18:0.414847162 19:0.692634305 20:0.098373213 21:0.947916667 22:1.000000000 
0.031250 1:0.021344795 2:0.004217789 3:0.000008472 4:0.000027683 5:0.823445840 6:0.319744852 7:0.648730898 8:0.001051854 9:0.158163265 10:0.186224490 11:0.964049206 12:0.397697454 13:0.442857143 14:0.158163265 15:0.535181196 16:0.201035793 17:0.772549020 18:0.362445415 19:0.603341912 20:0.149245890 21:0.849315068 22:1.000000000 
0.031250 1:0.036560693 2:0.004267808 3:0.000087644 4:0.000052214 5:0.823445841 6:0.319743186 7:0.648730906 8:0.002294455 9:0.131377551 10:0.145408163 11:0.916634572 12:0.362460413 13:0.525510204 14:0.131377551 15:0.407012582 16:0.214730972 17:0.600000000 18:0.270742358 19:0.403263601 20:0.122330388 21:0.903508772 22:1.000000000 
0.031250 1:0.024186701 2:0.000673413 3:0.000007039 4:0.000045199 5:0.823445840 6:0.319745785 7:0.648730899 8:0.001566183 9:0.128826531 10:0.149234694 11:0.919044629 12:0.358924129 13:0.660130719 14:0.128826531 15:0.413247194 16:0.215337174 17:0.803921569 18:0.371179039 19:0.580266058 20:0.120240775 21:0.863247863 22:1.000000000 
0.031250 1:0.050700631 2:0.000528875 3:0.000035903 4:0.000026399 5:0.823445844 6:0.319745499 7:0.648730900 8:0.004054201 9:0.081632653 10:0.089285714 11:0.922560450 12:0.285714286 13:0.761904762 14:0.081632653 15:0.327361862 16:0.167424321 17:0.517647059 18:0.270742358 19:0.415926697 20:0.093906372 21:0.914285714 22:1.000000000 
0.031250 1:0.045738859 2:0.001036109 3:0.000026060 4:0.000211648 5:0.823445879 6:0.319741465 7:0.648730876 8:0.003651245 9:0.147959184 10:0.158163265 11:0.896549229 12:0.384654629 13:0.758169935 14:0.147959184 15:0.405962809 16:0.234752401 17:0.450980392 18:0.213973799 19:0.316398754 20:0.124100102 21:0.935483871 22:1.000000000 
0.031250 1:0.047857646 2:0.001302103 3:0.000010637 4:0.000092185 5:0.823445839 6:0.319744826 7:0.648730910 8:0.004246011 9:0.090561224 10:0.098214286 11:0.898944668 12:0.300933920 13:0.537878788 14:0.090561224 15:0.319472336 16:0.182900776 17:0.537254902 18:0.257641921 19:0.385167031 20:0.094854329 21:0.922077922 22:1.000000000 
0.031250 1:0.030192942 2:0.000303639 3:0.000009317 4:0.000060029 5:0.823445837 6:0.319746789 7:0.648730898 8:0.002089971 9:0.091836735 10:0.096938776 11:0.876187732 12:0.303045763 13:0.791208791 14:0.091836735 15:0.307072538 16:0.191750909 17:0.780392157 18:0.375545852 19:0.588137648 20:0.088955282 21:0.947368421 22:1.000000000 
0.031250 1:0.042484175 2:0.000516200 3:0.000004113 4:0.000036322 5:0.823445840 6:0.319745954 7:0.648730896 8:0.003194967 9:0.104591837 10:0.113520408 11:0.912056687 12:0.323406612 13:0.650793651 14:0.104591837 15:0.352654747 16:0.190310198 17:0.552941176 18:0.270742358 19:0.413451651 20:0.101357955 21:0.921348315 22:1.000000000 
0.031250 1:0.022584755 2:0.008436645 3:0.000007120 4:0.000078872 5:0.823445839 6:0.319751768 7:0.648730889 8:0.001233790 9:0.139030612 10:0.161989796 11:0.970211457 12:0.372868090 13:0.478070175 14:0.139030612 15:0.515122164 16:0.180485659 17:0.784313725 18:0.384279476 19:0.608460518 20:0.136843217 21:0.858267717 22:1.000000000 
0.031250 1:0.022889572 2:0.002016939 3:0.000014042 4:0.000017265 5:0.823445841 6:0.319746440 7:0.648730898 8:0.001246812 9:0.094387755 10:0.103316327 11:0.904352485 12:0.307225902 13:0.560606061 14:0.094387755 15:0.328869574 16:0.183919742 17:0.972549020 18:0.471615721 19:0.744270145 20:0.095411950 21:0.913580247 22:1.000000000 
0.031250 1:0.018551485 2:0.000599585 3:0.000097534 4:0.000026308 5:0.823445842 6:0.319745576 7:0.648730899 8:0.000942078 9:0.116071429 10:0.125000000 11:0.888853560 12:0.340692572 13:0.650000000 14:0.116071429 15:0.354609809 16:0.211441093 17:0.933333333 18:0.445414847 19:0.685452301 20:0.104125518 21:0.928571429 22:1.000000000 
0.031250 1:0.036410716 2:0.001211748 3:0.000011225 4:0.000100086 5:0.823445839 6:0.319746076 7:0.648730912 8:0.002896989 9:0.095663265 10:0.102040816 11:0.889789980 12:0.309294787 13:0.721153846 14:0.095663265 15:0.320752330 16:0.190562416 17:0.682352941 18:0.314410480 19:0.501859191 20:0.093639301 21:0.937500000 22:1.000000000 
0.031250 1:0.016968068 2:0.003754648 3:0.000000511 4:0.000018628 5:0.823445841 6:0.319746040 7:0.648730897 8:0.001074425 9:0.191326531 10:0.198979592 11:0.948573726 12:0.437408883 13:0.815217391 14:0.191326531 15:0.530126439 16:0.229035151 17:0.843137255 18:0.384279476 19:0.612622260 20:0.145750485 21:0.961538462 22:1.000000000 
0.031250 1:0.022471036 2:0.001254565 3:0.000006082 4:0.000104828 5:0.823445848 6:0.319747371 7:0.648730905 8:0.001530139 9:0.096938776 10:0.098214286 11:0.896736334 12:0.311349925 13:0.904761905 14:0.096938776 15:0.328694048 16:0.189924086 17:0.968627451 18:0.432314410 19:0.733391764 20:0.094634215 21:0.987012987 22:1.000000000 
0.031250 1:0.043241779 2:0.001385145 3:0.000011512 4:0.000107188 5:0.823445848 6:0.319749178 7:0.648730909 8:0.003396988 9:0.122448980 10:0.139030612 11:0.945323762 12:0.349927106 13:0.564705882 14:0.122448980 15:0.424035695 16:0.187790838 17:0.509803922 18:0.244541485 19:0.368570826 20:0.120848289 21:0.880733945 22:1.000000000 
0.031250 1:0.057068832 2:0.000789980 3:0.000041197 4:0.000004109 5:0.823445841 6:0.319746093 7:0.648730897 8:0.005519079 9:0.090561224 10:0.095663265 11:0.864845653 12:0.300933920 13:0.739583333 14:0.090561224 15:0.302032635 16:0.195815367 17:0.537254902 18:0.231441048 19:0.375382989 20:0.088130589 21:0.946666667 22:1.000000000 
0.031250 1:0.050647141 2:0.001177090 3:0.000013441 4:0.000005077 5:0.823445841 6:0.319745958 7:0.648730897 8:0.004070531 9:0.118622449 10:0.127551020 11:0.825857919 12:0.344416099 13:0.715384615 14:0.118622449 15:0.324124436 16:0.234126763 17:0.400000000 18:0.205240175 19:0.295775989 20:0.101625026 21:0.930000000 22:1.000000000 
0.031250 1:0.046674226 2:0.000361705 3:0.000000638 4:0.000075032 5:0.823445840 6:0.319746292 7:0.648730895 8:0.003824030 9:0.095663265 10:0.105867347 11:0.887667318 12:0.309294787 13:0.669642857 14:0.095663265 15:0.324849392 16:0.194577480 17:0.580392157 18:0.266375546 19:0.420198145 20:0.095048029 21:0.903614458 22:1.000000000 
0.031250 1:0.015330939 2:0.001784191 3:0.000002896 4:0.000016246 5:0.823445841 6:0.319745633 7:0.648730897 8:0.000844563 9:0.177295918 10:0.192602041 11:0.913685872 12:0.421065219 13:0.665071770 14:0.177295918 15:0.459129636 16:0.245814377 17:0.905882353 18:0.406113537 19:0.639338445 20:0.135678082 21:0.920529801 22:1.000000000 
0.031250 1:0.019226971 2:0.005278519 3:0.000004490 4:0.000001512 5:0.823445841 6:0.319746079 7:0.648730897 8:0.001057131 9:0.177295918 10:0.204081633 11:0.967267355 12:0.421065219 13:0.486013986 14:0.177295918 15:0.563716575 16:0.204451823 17:0.792156863 18:0.384279476 19:0.607962955 20:0.152814667 21:0.868750000 22:1.000000000 
0.031250 1:0.038801891 2:0.000481682 3:0.000022012 4:0.000085663 5:0.823445852 6:0.319744603 7:0.648730899 8:0.002842328 9:0.123724490 10:0.130102041 11:0.853688088 12:0.351744921 13:0.718518519 14:0.123724490 15:0.342975588 16:0.230032774 17:0.560784314 18:0.257641921 19:0.402866996 20:0.107694294 21:0.950980392 22:1.000000000 
0.031250 1:0.052804013 2:0.000784163 3:0.000038072 4:0.000165880 5:0.823445854 6:0.319749692 7:0.648730941 8:0.004245459 9:0.075255102 10:0.080357143 11:0.891973870 12:0.274326634 13:0.670454545 14:0.075255102 15:0.286572357 16:0.168805279 17:0.564705882 18:0.292576419 19:0.435150913 20:0.080218235 21:0.936507937 22:1.000000000 
0.031250 1:0.039129645 2:0.000293633 3:0.000012292 4:0.000124088 5:0.823445834 6:0.319745742 7:0.648730913 8:0.003141524 9:0.075255102 10:0.076530612 11:0.858233229 12:0.274326634 13:0.893939394 14:0.075255102 15:0.268937500 16:0.177958640 17:0.800000000 18:0.353711790 19:0.576021094 20:0.077644373 21:0.983333333 22:1.000000000 
0.031250 1:0.031106488 2:0.000944885 3:0.000003356 4:0.000070044 5:0.823445843 6:0.319745741 7:0.648730894 8:0.002253413 9:0.110969388 10:0.116071429 11:0.885162714 12:0.333120680 13:0.776785714 14:0.110969388 15:0.341867924 16:0.206712087 17:0.717647059 18:0.331877729 19:0.521555358 20:0.103227454 21:0.956043956 22:1.000000000 
0.031250 1:0.039995349 2:0.001886770 3:0.000029806 4:0.000066079 5:0.823445840 6:0.319745074 7:0.648730910 8:0.003475544 9:0.108418367 10:0.118622449 11:0.905234504 12:0.329269445 13:0.708333333 14:0.108418367 15:0.362720773 16:0.202052824 17:0.560784314 18:0.279475983 19:0.438029461 20:0.104659660 21:0.913978495 22:1.000000000 
0.031250 1:0.018378029 2:0.002092971 3:0.000003029 4:0.000001476 5:0.823445841 6:0.319745970 7:0.648730897 8:0.001202658 9:0.177295918 10:0.190051020 11:0.874491911 12:0.421065219 13:0.731578947 14:0.177295918 15:0.423321033 16:0.265886243 17:0.800000000 18:0.349344978 19:0.549115429 20:0.128834014 21:0.932885906 22:1.000000000 
0.031250 1:0.025149557 2:0.000368159 3:0.000002316 4:0.000031888 5:0.823445840 6:0.319746478 7:0.648730897 8:0.001693681 9:0.088010204 10:0.093112245 11:0.868295572 12:0.296665138 13:0.758241758 14:0.088010204 15:0.297128256 16:0.190515466 17:0.952941176 18:0.445414847 19:0.714444791 20:0.087062304 21:0.945205479 22:1.000000000 
0.031250 1:0.012435467 2:0.001072892 3:0.000001518 4:0.000007310 5:0.823445841 6:0.319745884 7:0.648730897 8:0.000598542 9:0.142857143 10:0.155612245 11:0.905726444 12:0.377964473 13:0.622222222 14:0.142857143 15:0.405031050 16:0.225122676 17:0.996078431 18:0.515283843 19:0.817723704 20:0.120047075 21:0.918032787 22:1.000000000 
0.031250 1:0.039932691 2:0.000796240 3:0.000001152 4:0.000017831 5:0.823445841 6:0.319746179 7:0.648730897 8:0.003058659 9:0.086734694 10:0.093112245 11:0.906563972 12:0.294507545 13:0.653846154 14:0.086734694 15:0.318154323 16:0.176165396 17:0.725490196 18:0.327510917 19:0.529342017 20:0.090654559 21:0.931506849 22:1.000000000 
0.031250 1:0.024243085 2:0.000185925 3:0.000012483 4:0.000013761 5:0.823445841 6:0.319746148 7:0.648730896 8:0.001446458 9:0.108418367 10:0.112244898 11:0.811080501 12:0.329269445 13:0.817307692 14:0.108418367 15:0.302497191 16:0.226165280 17:0.898039216 18:0.401746725 19:0.632623252 20:0.092280466 21:0.965909091 22:1.000000000 
0.031250 1:0.018414278 2:0.001438073 3:0.000000778 4:0.000032118 5:0.823445841 6:0.319746065 7:0.648730898 8:0.000974983 9:0.164540816 10:0.187500000 11:0.922258878 12:0.405636310 13:0.551282051 14:0.164540816 15:0.466934580 16:0.239197227 17:0.921568627 18:0.393013100 19:0.618416408 20:0.135484382 21:0.877551020 22:1.000000000 
0.031250 1:0.029579336 2:0.000374511 3:0.000007726 4:0.000039474 5:0.823445841 6:0.319746527 7:0.648730900 8:0.001845049 9:0.080357143 10:0.086734694 11:0.942589964 12:0.283473355 13:0.750000000 14:0.080357143 15:0.340276197 16:0.153717815 17:0.737254902 18:0.393013100 19:0.610369991 20:0.090848259 21:0.926470588 22:1.000000000 
0.031250 1:0.019362450 2:0.000232254 3:0.000000023 4:0.000004644 5:0.823445841 6:0.319746023 7:0.648730897 8:0.000869609 9:0.170918367 10:0.181122449 11:0.904821757 12:0.413422747 13:0.744444444 14:0.170918367 15:0.445334683 16:0.248531889 17:0.682352941 18:0.384279476 19:0.516291592 20:0.136963546 21:0.943661972 22:1.000000000 
0.031250 1:0.021086364 2:0.000491852 3:0.000005550 4:0.000039647 5:0.823445840 6:0.319746264 7:0.648730895 8:0.001395069 9:0.158163265 10:0.164540816 11:0.805527308 12:0.397697454 13:0.775000000 14:0.158163265 15:0.364800690 16:0.276097122 17:0.796078431 18:0.344978166 19:0.545894984 20:0.119756525 21:0.961240310 22:1.000000000 
0.031250 1:0.038634885 2:0.000174074 3:0.000005521 4:0.000002613 5:0.823445841 6:0.319745981 7:0.648730897 8:0.002744712 9:0.118622449 10:0.128826531 11:0.806530092 12:0.344416099 13:0.738095238 14:0.118622449 15:0.317383745 16:0.239687702 17:0.549019608 18:0.248908297 19:0.386913181 20:0.102449719 21:0.920792079 22:1.000000000 
0.031250 1:0.017267083 2:0.000240028 3:0.000000268 4:0.000008328 5:0.823445841 6:0.319746091 7:0.648730897 8:0.000849891 9:0.118622449 10:0.126275510 11:0.931210132 12:0.344416099 13:0.830357143 14:0.118622449 15:0.399389454 16:0.194387870 17:0.952941176 18:0.502183406 19:0.738114018 20:0.111624058 21:0.939393939 22:1.000000000 
0.031250 1:0.021839921 2:0.000011904 3:0.000003518 4:0.000002203 5:0.823445841 6:0.319745991 7:0.648730897 8:0.000922381 9:0.080357143 10:0.085459184 11:0.931936872 12:0.283473355 13:0.525000000 14:0.080357143 15:0.326634917 16:0.158276553 17:0.635294118 18:0.388646288 19:0.514002650 20:0.091262073 21:0.940298507 22:1.000000000 
0.031250 1:0.025000908 2:0.000049068 3:0.000000167 4:0.000008905 5:0.823445841 6:0.319746036 7:0.648730897 8:0.001183482 9:0.102040816 10:0.119897959 11:0.942985530 12:0.319438282 13:0.533333333 14:0.102040816 15:0.387602566 16:0.174604091 17:0.619607843 18:0.375545852 19:0.502605923 20:0.108275395 21:0.851063830 22:1.000000000 
0.031250 1:0.019666290 2:0.000099935 3:0.000000609 4:0.000002963 5:0.823445841 6:0.319746017 7:0.648730897 8:0.000892952 9:0.095663265 10:0.112244898 11:0.966520808 12:0.309294787 13:0.630252101 14:0.095663265 15:0.424721011 16:0.155335589 17:0.800000000 18:0.462882096 19:0.657234401 20:0.110629144 21:0.852272727 22:1.000000000 
0.031250 1:0.033694364 2:0.000086879 3:0.000000269 4:0.000000547 5:0.823445841 6:0.319745995 7:0.648730897 8:0.001801964 9:0.075255102 10:0.080357143 11:0.938203011 12:0.274326634 13:0.546296296 14:0.075255102 15:0.323483162 16:0.150609407 17:0.462745098 18:0.301310044 19:0.388194186 20:0.086043911 21:0.936507937 22:1.000000000 
0.031250 1:0.018017881 2:0.000049906 3:0.000000076 4:0.000001079 5:0.823445841 6:0.319745993 7:0.648730897 8:0.000721047 9:0.127551020 10:0.136479592 11:0.947258785 12:0.357142857 13:0.793650794 14:0.127551020 15:0.434625974 16:0.189695180 17:0.639215686 18:0.423580786 19:0.546361720 20:0.118250947 21:0.934579439 22:1.000000000 
0.031250 1:0.022020271 2:0.000253096 3:0.000001638 4:0.000010187 5:0.823445841 6:0.319746130 7:0.648730897 8:0.001021363 9:0.110969388 10:0.128826531 11:0.961949829 12:0.333120680 13:0.494318182 14:0.110969388 15:0.435806732 16:0.167277441 17:0.756862745 18:0.427947598 19:0.609953771 20:0.117329405 21:0.861386139 22:1.000000000 
0.031250 1:0.029186085 2:0.000016871 3:0.000000587 4:0.000002649 5:0.823445841 6:0.319746006 7:0.648730897 8:0.001518073 9:0.068877551 10:0.071428571 11:0.898313830 12:0.262445330 13:0.600000000 14:0.068877551 15:0.279320815 16:0.160338752 17:0.745098039 18:0.393013100 19:0.552095044 20:0.077256972 21:0.964285714 22:1.000000000 
0.031250 1:0.039062763 2:0.000019822 3:0.000000799 4:0.000007482 5:0.823445841 6:0.319745995 7:0.648730897 8:0.002361980 9:0.072704082 10:0.079081633 11:0.915530643 12:0.269636944 13:0.570000000 14:0.072704082 15:0.300437663 16:0.159388187 17:0.509803922 18:0.288209607 19:0.384075175 20:0.083543420 21:0.919354839 22:1.000000000 
0.031250 1:0.030282773 2:0.000005205 3:0.000002970 4:0.000007879 5:0.823445841 6:0.319746009 7:0.648730897 8:0.001621871 9:0.070153061 10:0.073979592 11:0.941793686 12:0.264864232 13:0.500000000 14:0.070153061 15:0.315770856 16:0.143452471 17:0.666666667 18:0.379912664 19:0.526437222 20:0.083883862 21:0.948275862 22:1.000000000 
0.031250 1:0.029368512 2:0.000153913 3:0.000001815 4:0.000015465 5:0.823445841 6:0.319745913 7:0.648730897 8:0.001563805 9:0.095663265 10:0.108418367 11:0.947891243 12:0.309294787 13:0.781250000 14:0.095663265 15:0.389755959 16:0.169285761 17:0.603921569 18:0.327510917 19:0.487719224 20:0.105945124 21:0.882352941 22:1.000000000 
0.031250 1:0.023384335 2:0.000597027 3:0.000003877 4:0.000019753 5:0.823445841 6:0.319746296 7:0.648730897 8:0.001149523 9:0.100765306 10:0.104591837 11:0.937965584 12:0.317435515 13:0.822916667 14:0.100765306 15:0.372889310 16:0.173886552 17:0.631372549 18:0.388646288 19:0.530040611 20:0.100994033 21:0.963414634 22:1.000000000 
0.031250 1:0.032392779 2:0.000062874 3:0.000000731 4:0.000000923 5:0.823445841 6:0.319745995 7:0.648730897 8:0.001746135 9:0.084183673 10:0.091836735 11:0.953253643 12:0.290144229 13:0.733333333 14:0.084183673 15:0.361881948 16:0.150501139 17:0.552941176 18:0.344978166 19:0.435895102 20:0.096066422 21:0.916666667 22:1.000000000 
0.031250 1:0.021114151 2:0.000281356 3:0.000005662 4:0.000024001 5:0.823445841 6:0.319745999 7:0.648730898 8:0.001006666 9:0.102040816 10:0.112244898 11:0.942804321 12:0.319438282 13:0.473372781 14:0.102040816 15:0.388780876 16:0.175361678 17:0.709803922 18:0.419213974 19:0.577107926 20:0.109149980 21:0.909090909 22:1.000000000 
0.031250 1:0.021500835 2:0.000150370 3:0.000000524 4:0.000004320 5:0.823445841 6:0.319746040 7:0.648730897 8:0.000938014 9:0.131377551 10:0.149234694 11:0.959114575 12:0.362460413 13:0.466063348 14:0.131377551 15:0.464912232 16:0.183455365 17:0.600000000 18:0.384279476 19:0.506463965 20:0.129197935 21:0.880341880 22:1.000000000 
0.031250 1:0.055784358 2:0.002613131 3:0.000022820 4:0.000027309 5:0.823445842 6:0.319745389 7:0.648730900 8:0.004634894 9:0.165816327 10:0.207908163 11:0.943070867 12:0.407205509 13:0.464285714 14:0.165816327 15:0.504860993 16:0.227286880 17:0.305882353 18:0.170305677 19:0.223387437 20:0.174611793 21:0.797546012 22:1.000000000 
0.031250 1:0.024901379 2:0.001535605 3:0.000004827 4:0.000036873 5:0.823445842 6:0.319746657 7:0.648730896 8:0.001479589 9:0.144132653 10:0.177295918 11:0.944997395 12:0.379648065 13:0.448412698 14:0.144132653 15:0.479713655 16:0.212962296 17:0.737254902 18:0.327510917 19:0.546508678 20:0.137767695 21:0.812949640 22:1.000000000 
0.020354 1:0.035684034 2:0.000703524 3:0.000004794 4:0.000044415 5:0.823445839 6:0.319746754 7:0.648730896 8:0.002535482 9:0.102040816 10:0.113520408 11:0.940870453 12:0.319438282 13:0.666666667 14:0.102040816 15:0.382733414 16:0.174996255 17:0.643137255 18:0.318777293 19:0.497930280 20:0.102693311 21:0.898876404 22:1.000000000 
0.031250 1:0.027415526 2:0.000042005 3:0.000001432 4:0.000040231 5:0.823445842 6:0.319745948 7:0.648730897 8:0.001932399 9:0.086734694 10:0.095663265 11:0.902735627 12:0.294507545 13:0.653846154 14:0.086734694 15:0.316305505 16:0.178160378 17:0.905882353 18:0.414847162 19:0.678890053 20:0.088494510 21:0.906666667 22:1.000000000 
0.031250 1:0.035963751 2:0.001359608 3:0.000003544 4:0.000139078 5:0.823445849 6:0.319749607 7:0.648730892 8:0.002856404 9:0.127551020 10:0.144132653 11:0.928038939 12:0.357142857 13:0.520833333 14:0.127551020 15:0.406217064 16:0.201461941 17:0.615686275 18:0.283842795 19:0.449642707 20:0.116868633 21:0.884955752 22:1.000000000 
0.031250 1:0.023795967 2:0.001516845 3:0.000003190 4:0.000033800 5:0.823445840 6:0.319745813 7:0.648730898 8:0.001497013 9:0.174744898 10:0.184948980 11:0.922098575 12:0.418024997 13:0.761111111 14:0.174744898 15:0.465999690 16:0.238925174 17:0.658823529 18:0.323144105 19:0.492894598 20:0.136455817 21:0.944827586 22:1.000000000 
0.031250 1:0.023940356 2:0.001177110 3:0.000021036 4:0.000025918 5:0.823445842 6:0.319745906 7:0.648730895 8:0.001348373 9:0.170918367 10:0.188775510 11:0.897900137 12:0.413422747 13:0.620370370 14:0.170918367 15:0.436765834 16:0.251151728 17:0.647058824 18:0.327510917 19:0.481230022 20:0.134392618 21:0.905405405 22:1.000000000 
0.031250 1:0.020998773 2:0.000641465 3:0.000001539 4:0.000012697 5:0.823445841 6:0.319746260 7:0.648730897 8:0.001109134 9:0.160714286 10:0.172193878 11:0.887090692 12:0.400891863 13:0.646153846 14:0.160714286 15:0.413193192 16:0.248036055 17:0.729411765 18:0.362445415 19:0.543689272 20:0.129949256 21:0.933333333 22:1.000000000 
0.031250 1:0.024177170 2:0.000618593 3:0.000001441 4:0.000005226 5:0.823445841 6:0.319746096 7:0.648730897 8:0.001479012 9:0.139030612 10:0.141581633 11:0.861100802 12:0.372868090 13:0.851562500 14:0.139030612 15:0.365948033 16:0.240044212 17:0.737254902 18:0.344978166 19:0.533604979 20:0.109270308 21:0.981981982 22:1.000000000 
0.031250 1:0.024138086 2:0.000362232 3:0.000000180 4:0.000001378 5:0.823445841 6:0.319745976 7:0.648730897 8:0.001436349 9:0.085459184 10:0.090561224 11:0.901496577 12:0.292334028 13:0.736263736 14:0.085459184 15:0.310524584 16:0.175850053 17:0.866666667 18:0.467248908 19:0.706936964 20:0.087062304 21:0.943661972 22:1.000000000 
0.031250 1:0.044695618 2:0.000611785 3:0.000004919 4:0.000055874 5:0.823445840 6:0.319747087 7:0.648730894 8:0.003449099 9:0.104591837 10:0.114795918 11:0.877635922 12:0.323406612 13:0.732142857 14:0.104591837 15:0.331365467 16:0.205880870 17:0.474509804 18:0.253275109 19:0.378262144 20:0.100266191 21:0.911111111 22:1.000000000 
0.031250 1:0.034385497 2:0.002499883 3:0.000001506 4:0.000009823 5:0.823445841 6:0.319745619 7:0.648730897 8:0.002406413 9:0.136479592 10:0.154336735 11:0.953264976 12:0.369431444 13:0.563157895 14:0.136479592 15:0.461780186 16:0.192028819 17:0.623529412 18:0.279475983 19:0.442315724 20:0.126480265 21:0.884297521 22:1.000000000 
0.031250 1:0.043062836 2:0.000065925 3:0.000002869 4:0.000011802 5:0.823445841 6:0.319746075 7:0.648730897 8:0.003265733 9:0.059948980 10:0.063775510 11:0.846620804 12:0.244844807 13:0.671428571 14:0.059948980 15:0.236984556 16:0.162179164 17:0.729411765 18:0.344978166 19:0.550013903 20:0.069538319 21:0.940000000 22:1.000000000 
0.031250 1:0.040280442 2:0.001171461 3:0.000004638 4:0.000077396 5:0.823445845 6:0.319744245 7:0.648730896 8:0.003143050 9:0.114795918 10:0.116071429 11:0.937395483 12:0.338815464 13:0.882352941 14:0.114795918 15:0.394507004 16:0.184662044 17:0.592156863 18:0.275109170 19:0.416526138 20:0.106479267 21:0.989010989 22:1.000000000 
0.031250 1:0.035389026 2:0.000245587 3:0.000003699 4:0.000020754 5:0.823445841 6:0.319746143 7:0.648730896 8:0.002389594 9:0.096938776 10:0.104591837 11:0.920065502 12:0.311349925 13:0.723809524 14:0.096938776 15:0.346269723 16:0.179473578 17:0.654901961 18:0.323144105 19:0.491902514 20:0.096941007 21:0.926829268 22:1.000000000 
0.031250 1:0.046836223 2:0.000728832 3:0.000012081 4:0.000083648 5:0.823445846 6:0.319747222 7:0.648730888 8:0.003891474 9:0.093112245 10:0.103316327 11:0.927624153 12:0.305142991 13:0.608333333 14:0.093112245 15:0.347957878 16:0.172983542 17:0.576470588 18:0.262008734 19:0.418534443 20:0.097281449 21:0.901234568 22:1.000000000 
0.031250 1:0.044733092 2:0.001865716 3:0.000000819 4:0.000075429 5:0.823445842 6:0.319747551 7:0.648730895 8:0.003632248 9:0.121173469 10:0.128826531 11:0.949202939 12:0.348099798 13:0.753968254 14:0.121173469 15:0.427939041 16:0.183973860 17:0.517647059 18:0.222707424 19:0.373532218 20:0.114464992 21:0.940594059 22:1.000000000 
0.031250 1:0.023996935 2:0.003038445 3:0.000002100 4:0.000020998 5:0.823445841 6:0.319745044 7:0.648730897 8:0.001375698 9:0.209183673 10:0.235969388 11:0.936904553 12:0.457366017 13:0.520634921 14:0.209183673 15:0.536342025 16:0.251862600 17:0.666666667 18:0.301310044 19:0.448816605 20:0.158590451 21:0.886486486 22:1.000000000 
0.031250 1:0.039296887 2:0.000146193 3:0.000009143 4:0.000083942 5:0.823445847 6:0.319745967 7:0.648730892 8:0.002866353 9:0.118622449 10:0.130102041 11:0.894460361 12:0.344416099 13:0.688888889 14:0.118622449 15:0.367367551 16:0.214255352 17:0.521568627 18:0.266375546 19:0.408482021 20:0.113663778 21:0.911764706 22:1.000000000 
0.031250 1:0.027222924 2:0.000435228 3:0.000000473 4:0.000031043 5:0.823445841 6:0.319746505 7:0.648730897 8:0.001785430 9:0.110969388 10:0.117346939 11:0.852263431 12:0.333120680 13:0.776785714 14:0.110969388 15:0.324120543 16:0.218288646 17:0.792156863 18:0.375545852 19:0.579857679 20:0.098032771 21:0.945652174 22:1.000000000 
0.031250 1:0.031978386 2:0.003493628 3:0.000012214 4:0.000050683 5:0.823445837 6:0.319747715 7:0.648730899 8:0.002237024 9:0.128826531 10:0.144132653 11:0.884022579 12:0.358924129 13:0.554945055 14:0.128826531 15:0.370803840 16:0.225158162 17:0.596078431 18:0.275109170 19:0.411452507 20:0.117402776 21:0.893805310 22:1.000000000 
0.031250 1:0.029452880 2:0.000273044 3:0.000002315 4:0.000033250 5:0.823445840 6:0.319746442 7:0.648730898 8:0.002038125 9:0.107142857 10:0.112244898 11:0.871432638 12:0.327326835 13:0.750000000 14:0.107142857 15:0.327257636 16:0.207679616 17:0.843137255 18:0.371179039 19:0.587941912 20:0.097548520 21:0.954545455 22:1.000000000 
0.031250 1:0.026420929 2:0.000515386 3:0.000000238 4:0.000016401 5:0.823445841 6:0.319745712 7:0.648730897 8:0.001616296 9:0.118622449 10:0.126275510 11:0.906264245 12:0.344416099 13:0.688888889 14:0.118622449 15:0.371539473 16:0.206005670 17:0.721568627 18:0.349344978 19:0.529718354 20:0.106018495 21:0.939393939 22:1.000000000 
0.031250 1:0.029314131 2:0.000377294 3:0.000002467 4:0.000025228 5:0.823445841 6:0.319745703 7:0.648730897 8:0.001949667 9:0.086734694 10:0.093112245 11:0.866570392 12:0.294507545 13:0.618181818 14:0.086734694 15:0.294704465 16:0.190016934 17:0.839215686 18:0.397379913 19:0.633191462 20:0.088227439 21:0.931506849 22:1.000000000 
0.031250 1:0.018058967 2:0.001838390 3:0.000000926 4:0.000000722 5:0.823445841 6:0.319746017 7:0.648730897 8:0.000998534 9:0.140306122 10:0.163265306 11:0.951284456 12:0.374574589 13:0.611111111 14:0.140306122 15:0.477078189 16:0.201692817 17:0.890196078 18:0.441048035 19:0.697544266 20:0.131067434 21:0.859375000 22:1.000000000 
0.031250 1:0.022428347 2:0.001490977 3:0.000002459 4:0.000029518 5:0.823445840 6:0.319746452 7:0.648730897 8:0.001375818 9:0.173469388 10:0.187500000 11:0.925945737 12:0.416496564 13:0.755555556 14:0.173469388 15:0.471505136 16:0.236663328 17:0.670588235 18:0.327510917 19:0.508245710 20:0.136138854 21:0.925170068 22:1.000000000 
0.031250 1:0.023808091 2:0.000677787 3:0.000000642 4:0.000025549 5:0.823445841 6:0.319745477 7:0.648730897 8:0.001429499 9:0.122448980 10:0.133928571 11:0.893164995 12:0.349927106 13:0.750000000 14:0.122448980 15:0.366012050 16:0.214580122 17:0.792156863 18:0.366812227 19:0.564245626 20:0.110144894 21:0.914285714 22:1.000000000 
0.031250 1:0.044877096 2:0.001148522 3:0.000007497 4:0.000011153 5:0.823445841 6:0.319746253 7:0.648730896 8:0.003239139 9:0.125000000 10:0.146683673 11:0.951073330 12:0.353553391 13:0.466666667 14:0.125000000 15:0.441308238 16:0.186892800 17:0.431372549 18:0.235807860 19:0.343684396 20:0.128907385 21:0.852173913 22:1.000000000 
0.031250 1:0.051149538 2:0.000199690 3:0.000002842 4:0.000067309 5:0.823445841 6:0.319745458 7:0.648730894 8:0.004202602 9:0.110969388 10:0.127551020 11:0.936528882 12:0.333120680 13:0.604166667 14:0.110969388 15:0.394188434 16:0.185562273 17:0.376470588 18:0.213973799 19:0.301291650 20:0.110702515 21:0.870000000 22:1.000000000 
0.031250 1:0.024518778 2:0.000516427 3:0.000007032 4:0.000011797 5:0.823445841 6:0.319746137 7:0.648730897 8:0.001462845 9:0.093112245 10:0.103316327 11:0.909202827 12:0.305142991 13:0.651785714 14:0.093112245 15:0.334350781 16:0.182893635 17:0.925490196 18:0.441048035 19:0.689824494 20:0.095872721 21:0.901234568 22:1.000000000 
0.031250 1:0.038471513 2:0.000276024 3:0.000004006 4:0.000040747 5:0.823445840 6:0.319745698 7:0.648730897 8:0.002475996 9:0.151785714 10:0.177295918 11:0.937528986 12:0.389596861 13:0.550925926 14:0.151785714 15:0.475011479 16:0.222149279 17:0.498039216 18:0.231441048 19:0.349008743 20:0.134028697 21:0.856115108 22:1.000000000 
0.031250 1:0.052790774 2:0.000104939 3:0.000009154 4:0.000052852 5:0.823445838 6:0.319746411 7:0.648730896 8:0.004351974 9:0.104591837 10:0.113520408 11:0.874653816 12:0.323406612 13:0.621212121 14:0.104591837 15:0.327529930 16:0.205606569 17:0.415686275 18:0.213973799 19:0.310339376 20:0.100266191 21:0.921348315 22:1.000000000 
0.031250 1:0.043750299 2:0.000875452 3:0.000029670 4:0.000030602 5:0.823445839 6:0.319746541 7:0.648730897 8:0.003534472 9:0.103316327 10:0.114795918 11:0.910064918 12:0.321428571 13:0.723214286 14:0.103316327 15:0.352119692 16:0.191834995 17:0.509803922 18:0.262008734 19:0.389630566 20:0.101017512 21:0.900000000 22:1.000000000 
0.031250 1:0.024521445 2:0.001473874 3:0.000004397 4:0.000009139 5:0.823445841 6:0.319745954 7:0.648730897 8:0.001498014 9:0.184948980 10:0.198979592 11:0.878384900 12:0.430056949 13:0.763157895 14:0.184948980 15:0.435980419 16:0.270168151 17:0.643137255 18:0.305676856 19:0.456685759 20:0.132910519 21:0.929487179 22:1.000000000 
0.031250 1:0.042531374 2:0.001035378 3:0.000006149 4:0.000005393 5:0.823445841 6:0.319746018 7:0.648730897 8:0.003325731 9:0.118622449 10:0.121173469 11:0.942655890 12:0.344416099 13:0.911764706 14:0.118622449 15:0.408385006 16:0.184399099 17:0.552941176 18:0.270742358 19:0.398979356 20:0.109998151 21:0.978947368 22:1.000000000 
0.031250 1:0.034188586 2:0.000253308 3:0.000008180 4:0.000028907 5:0.823445841 6:0.319746209 7:0.648730899 8:0.002304983 9:0.096938776 10:0.099489796 11:0.902799564 12:0.311349925 13:0.844444444 14:0.096938776 15:0.331907086 16:0.186895682 17:0.698039216 18:0.323144105 19:0.487521634 20:0.095775871 21:0.974358974 22:1.000000000 
0.031250 1:0.047294677 2:0.001380936 3:0.000016325 4:0.000090713 5:0.823445840 6:0.319746503 7:0.648730881 8:0.003944563 9:0.089285714 10:0.096938776 11:0.912073344 12:0.298807152 13:0.625000000 14:0.089285714 15:0.328655230 16:0.177344614 17:0.603921569 18:0.266375546 19:0.419207721 20:0.092086766 21:0.921052632 22:1.000000000 
0.031250 1:0.043659495 2:0.000370509 3:0.000033709 4:0.000002441 5:0.823445841 6:0.319746011 7:0.648730897 8:0.003456301 9:0.075255102 10:0.077806122 11:0.888058192 12:0.274326634 13:0.655555556 14:0.075255102 15:0.283733159 16:0.169696597 17:0.639215686 18:0.318777293 19:0.492766956 20:0.079951164 21:0.967213115 22:1.000000000 
0.031250 1:0.036779133 2:0.000007281 3:0.000011892 4:0.000023827 5:0.823445840 6:0.319745993 7:0.648730898 8:0.002664212 9:0.105867347 10:0.112244898 11:0.858584334 12:0.325372628 13:0.741071429 14:0.105867347 15:0.322817463 16:0.213385150 17:0.619607843 18:0.283842795 19:0.443087273 20:0.099441498 21:0.943181818 22:1.000000000 
0.031250 1:0.028407249 2:0.002418700 3:0.000002308 4:0.000034912 5:0.823445842 6:0.319744604 7:0.648730896 8:0.001719026 9:0.202806122 10:0.229591837 11:0.933524074 12:0.450340008 13:0.567857143 14:0.204081633 15:0.524897850 16:0.251868201 17:0.564705882 18:0.266375546 19:0.392613112 20:0.156867694 21:0.883333333 22:0.976744186 
0.031250 1:0.043043064 2:0.000318891 3:0.000002302 4:0.000103046 5:0.823445845 6:0.319744917 7:0.648730893 8:0.003352225 9:0.116071429 10:0.126275510 11:0.878428758 12:0.340692572 13:0.674074074 14:0.116071429 15:0.347713995 16:0.215437982 17:0.482352941 18:0.244541485 19:0.362397615 20:0.105995017 21:0.919191919 22:1.000000000 
0.031250 1:0.030696345 2:0.000092881 3:0.000003640 4:0.000004232 5:0.823445841 6:0.319746008 7:0.648730897 8:0.001964760 9:0.112244898 10:0.125000000 11:0.885240020 12:0.335029697 13:0.628571429 14:0.112244898 15:0.348347876 16:0.210569541 17:0.721568627 18:0.323144105 19:0.504698519 20:0.104416068 21:0.897959184 22:1.000000000 
0.031250 1:0.031895448 2:0.000123839 3:0.000021259 4:0.000040398 5:0.823445845 6:0.319746035 7:0.648730898 8:0.002177283 9:0.109693878 10:0.112244898 11:0.833375828 12:0.331200661 13:0.826923077 14:0.109693878 15:0.313560480 16:0.222290343 17:0.713725490 18:0.327510917 19:0.502288080 20:0.094440515 21:0.977272727 22:1.000000000 
0.031250 1:0.033340652 2:0.000090408 3:0.000003073 4:0.000051956 5:0.823445839 6:0.319746400 7:0.648730898 8:0.002386047 9:0.082908163 10:0.093112245 11:0.921526825 12:0.287937777 13:0.663265306 14:0.082908163 15:0.323009312 16:0.166122028 17:0.780392157 18:0.371179039 19:0.589502530 20:0.089853346 21:0.890410959 22:1.000000000 
0.031250 1:0.021430882 2:0.001449928 3:0.000015927 4:0.000016990 5:0.823445840 6:0.319746304 7:0.648730897 8:0.001380363 9:0.190051020 10:0.209183673 11:0.901090048 12:0.435948415 13:0.620833333 14:0.190051020 15:0.467677356 16:0.265310929 17:0.666666667 18:0.310043668 19:0.490854573 20:0.142912486 21:0.908536585 22:1.000000000 
0.031250 1:0.014720949 2:0.001712093 3:0.000005035 4:0.000007913 5:0.823445841 6:0.319745763 7:0.648730897 8:0.000763096 9:0.206632653 10:0.227040816 11:0.904284025 12:0.454568645 13:0.623076923 14:0.206632653 15:0.492423626 16:0.275470943 17:0.858823529 18:0.393013100 19:0.613092171 20:0.146721920 21:0.910112360 22:1.000000000 
0.031250 1:0.015723294 2:0.001097906 3:0.000002781 4:0.000021424 5:0.823445841 6:0.319745529 7:0.648730896 8:0.000773521 9:0.179846939 10:0.196428571 11:0.927528389 12:0.424083646 13:0.559523810 14:0.179846939 15:0.482227240 16:0.239866689 17:0.882352941 18:0.410480349 19:0.635021617 20:0.142862593 21:0.915584416 22:1.000000000 
0.031250 1:0.020707584 2:0.000074204 3:0.000013339 4:0.000038433 5:0.823445843 6:0.319746160 7:0.648730895 8:0.001206396 9:0.093112245 10:0.096938776 11:0.856241398 12:0.305142991 13:0.869047619 14:0.093112245 15:0.300423145 16:0.199982473 17:0.980392157 18:0.489082969 19:0.781042817 20:0.090240746 21:0.960526316 22:1.000000000 
0.031250 1:0.017912348 2:0.000537836 3:0.000000274 4:0.000046485 5:0.823445841 6:0.319745112 7:0.648730896 8:0.001003630 9:0.114795918 10:0.119897959 11:0.891443764 12:0.338815464 13:0.625000000 14:0.114795918 15:0.353423637 16:0.208620005 17:0.941176471 18:0.480349345 19:0.744951518 20:0.102232540 21:0.957446809 22:1.000000000 
0.031250 1:0.057318048 2:0.002307684 3:0.000018399 4:0.000040491 5:0.823445844 6:0.319744410 7:0.648730894 8:0.004965368 9:0.131377551 10:0.150510204 11:0.968250161 12:0.362460413 13:0.378676471 14:0.131377551 15:0.487461869 16:0.174816957 17:0.384313725 18:0.183406114 19:0.275001433 20:0.138882938 21:0.872881356 22:1.000000000 
0.031250 1:0.043233064 2:0.000793210 3:0.000098519 4:0.000044799 5:0.823445842 6:0.319745101 7:0.648730902 8:0.003299545 9:0.095663265 10:0.107142857 11:0.887084076 12:0.309294787 13:0.568181818 14:0.095663265 15:0.323724634 16:0.194333778 17:0.541176471 18:0.275109170 19:0.409346543 20:0.096770785 21:0.892857143 22:1.000000000 
0.031250 1:0.040649232 2:0.000179500 3:0.000009882 4:0.000019517 5:0.823445840 6:0.319745804 7:0.648730896 8:0.003249146 9:0.076530612 10:0.079081633 11:0.867266829 12:0.276641668 13:0.666666667 14:0.076530612 15:0.275238733 16:0.177068910 17:0.749019608 18:0.331877729 19:0.535181282 20:0.079684093 21:0.967741935 22:1.000000000 
0.031250 1:0.034686869 2:0.000548339 3:0.000001433 4:0.000017417 5:0.823445841 6:0.319746323 7:0.648730897 8:0.002175981 9:0.088010204 10:0.095663265 11:0.942825885 12:0.296665138 13:0.530769231 14:0.088010204 15:0.355817087 16:0.160468502 17:0.654901961 18:0.358078603 19:0.514640919 20:0.097839070 21:0.920000000 22:1.000000000 
0.031250 1:0.025656911 2:0.000127256 3:0.000002445 4:0.000021000 5:0.823445841 6:0.319745812 7:0.648730897 8:0.001522362 9:0.121173469 10:0.130102041 11:0.893019429 12:0.348099798 13:0.608974359 14:0.121173469 15:0.365611651 16:0.214470116 17:0.725490196 18:0.336244541 19:0.552704802 20:0.107160152 21:0.931372549 22:1.000000000 
0.031250 1:0.045398394 2:0.000747648 3:0.000017446 4:0.000049878 5:0.823445845 6:0.319746677 7:0.648730896 8:0.003482489 9:0.091836735 10:0.105867347 11:0.928187191 12:0.303045763 13:0.734693878 14:0.091836735 15:0.353698271 16:0.175264345 17:0.498039216 18:0.257641921 19:0.378333158 20:0.099391606 21:0.867469880 22:1.000000000 
0.031250 1:0.020035213 2:0.002306506 3:0.000042890 4:0.000006089 5:0.823445841 6:0.319746131 7:0.648730898 8:0.000900742 9:0.243622449 10:0.323979592 11:0.902778198 12:0.493581249 13:0.454761905 14:0.243622449 15:0.618134527 16:0.348101905 17:0.756862745 18:0.318777293 19:0.511870050 20:0.210217384 21:0.751968504 22:1.000000000 
0.031250 1:0.038135099 2:0.000671537 3:0.000010222 4:0.000006038 5:0.823445841 6:0.319746049 7:0.648730897 8:0.002579062 9:0.113520408 10:0.126275510 11:0.932414618 12:0.336927898 13:0.695312500 14:0.113520408 15:0.392784992 16:0.189774340 17:0.568627451 18:0.279475983 19:0.409151951 20:0.110629144 21:0.898989899 22:1.000000000 
0.031250 1:0.032081314 2:0.001725786 3:0.000008722 4:0.000012385 5:0.823445841 6:0.319746205 7:0.648730897 8:0.001924644 9:0.145408163 10:0.176020408 11:0.969563251 12:0.381324223 13:0.428571429 14:0.145408163 15:0.518881888 16:0.183230218 17:0.619607843 18:0.305676856 19:0.452871217 20:0.144294800 21:0.826086957 22:1.000000000 
0.031250 1:0.035058792 2:0.000032524 3:0.000007335 4:0.000024394 5:0.823445840 6:0.319746040 7:0.648730897 8:0.002367328 9:0.072704082 10:0.077806122 11:0.882767148 12:0.269636944 13:0.575757576 14:0.072704082 15:0.276259704 16:0.168524144 17:0.847058824 18:0.379912664 19:0.594429529 20:0.080024535 21:0.934426230 22:1.000000000 
0.031250 1:0.042673145 2:0.000045731 3:0.000018969 4:0.000048018 5:0.823445843 6:0.319745820 7:0.648730892 8:0.003176884 9:0.063775510 10:0.068877551 11:0.823919694 12:0.252538136 13:0.714285714 14:0.063775510 15:0.239567558 16:0.173862421 17:0.674509804 18:0.323144105 19:0.499995784 20:0.071164225 21:0.925925926 22:1.000000000 
0.031250 1:0.013105282 2:0.000179856 3:0.000020217 4:0.000006680 5:0.823445841 6:0.319745926 7:0.648730897 8:0.000555647 9:0.178571429 10:0.195153061 11:0.949946722 12:0.422577127 13:0.500000000 14:0.178571429 15:0.524169014 16:0.224014586 17:0.980392157 18:0.467248908 19:0.711138129 20:0.147596505 21:0.915032680 22:1.000000000 
0.031250 1:0.021068364 2:0.001383850 3:0.000000142 4:0.000006774 5:0.823445841 6:0.319746180 7:0.648730897 8:0.001191369 9:0.108418367 10:0.127551020 11:0.946071916 12:0.329269445 13:0.590277778 14:0.108418367 15:0.414902703 16:0.182723190 17:0.870588235 18:0.449781659 19:0.710383395 20:0.112304943 21:0.850000000 22:1.000000000 
0.031250 1:0.040440281 2:0.001058899 3:0.000012694 4:0.000000611 5:0.823445841 6:0.319745981 7:0.648730897 8:0.002776973 9:0.122448980 10:0.154336735 11:0.937693877 12:0.349927106 13:0.461538462 14:0.122448980 15:0.437222670 16:0.204253974 17:0.482352941 18:0.257641921 19:0.368142654 20:0.129781970 21:0.793388430 22:1.000000000 
0.031250 1:0.037296368 2:0.000793097 3:0.000003181 4:0.000038206 5:0.823445841 6:0.319746885 7:0.648730899 8:0.002595923 9:0.096938776 10:0.110969388 11:0.951319225 12:0.311349925 13:0.678571429 14:0.096938776 15:0.394967073 16:0.166931401 17:0.611764706 18:0.305676856 19:0.462858902 20:0.105410982 21:0.873563218 22:1.000000000 
0.031250 1:0.036791356 2:0.000284706 3:0.000010003 4:0.000042700 5:0.823445839 6:0.319746261 7:0.648730898 8:0.002756413 9:0.070153061 10:0.076530612 11:0.894472197 12:0.264864232 13:0.714285714 14:0.070153061 15:0.279758553 16:0.163152396 17:0.752941176 18:0.379912664 19:0.593848689 20:0.079343650 21:0.916666667 22:1.000000000 
0.031250 1:0.020289969 2:0.001435681 3:0.000002048 4:0.000009245 5:0.823445841 6:0.319745831 7:0.648730897 8:0.001156619 9:0.174744898 10:0.182397959 11:0.929561423 12:0.418024997 13:0.778409091 14:0.174744898 15:0.479204797 16:0.235547799 17:0.768627451 18:0.366812227 19:0.552751228 20:0.141139837 21:0.958041958 22:1.000000000 
0.031250 1:0.033515984 2:0.002525071 3:0.000007001 4:0.000009571 5:0.823445841 6:0.319745853 7:0.648730897 8:0.002143597 9:0.146683673 10:0.169642857 11:0.968918016 12:0.382993046 13:0.497835498 14:0.146683673 15:0.528765106 16:0.188155875 17:0.521568627 18:0.283842795 19:0.414727069 20:0.142595522 21:0.864661654 22:1.000000000 
0.031250 1:0.046413343 2:0.000543731 3:0.000005956 4:0.000030549 5:0.823445842 6:0.319745554 7:0.648730896 8:0.003536674 9:0.104591837 10:0.117346939 11:0.929620275 12:0.323406612 13:0.525641026 14:0.104591837 15:0.373555472 16:0.183553049 17:0.454901961 18:0.240174672 19:0.360065860 20:0.104465960 21:0.891304348 22:1.000000000 
